{"layer_sizes":[405,20,2],"weights":[{"v":1,"dim":[20,405],"data":[0.0015584082459210173,0.2985321019455248,-0.0744549757852654,-0.05814574231642031,-1.5087803412447751,0.3616176989940673,1.0419308349548404,0.5192467145893797,1.410539817043215,-0.39107068675064577,1.0463544349713472,-0.629611624979644,-1.3557027357751124,-1.1264095453776408,0.4448672469430334,-2.2489747759070657,-0.11183465111688039,0.6596774480817919,2.2229289470580142,0.16283684847514804,1.0646406505047703,-1.020517030176185,0.4992863212663348,0.9215743321440838,0.5939338873912957,-1.1872692685518238,-0.8339427899160561,-0.1634543840824086,-1.6255534218483594,-1.6963723833781954,0.7822322846596844,0.20810219213153133,-0.939251950468535,0.2722987987308284,0.2882763411159561,-0.39645665004489916,0.5908108647199748,-1.5590465242450653,0.060304834592005856,-0.6418286536787366,-1.7322891695277665,-0.5336892405040685,-0.8659896000114788,0.6736454211505227,0.4145630912718793,-1.32564769351808,0.022795793533912097,-1.175099635732742,-1.3246226887018127,0.17607651824116094,0.01893922099715134,0.259578998843914,0.3323278393068072,-0.5748479910364124,0.5573901729326128,-0.3637418853462971,-0.06536107652353114,-0.12454215439585307,-0.5810635881720362,-0.7108673966477403,-1.4867641966523282,-0.2530913497784159,1.1305581646198193,0.021299115262974913,0.3422472796310856,0.7522271274050049,-0.030798885607971723,0.4913957120643499,1.5832267869747876,0.9375094590426853,0.5476416136435632,-0.33327995961893886,-0.015313269797426834,0.31578383905547036,-0.5163792732074908,1.4572141349877759,0.07644741336386113,-0.011063092284134692,1.137223893726612,-0.25507069531377446,0.2419328206373494,2.2633258925152884,0.9907525231600497,-0.2118378096554495,1.2312218499627139,0.5645994142875892,-1.5128366691326165,0.8980757042268441,-0.5539223721254325,-0.6792314164395618,2.275847982442476,-0.9566761095751743,-0.8956325910128431,-0.06406706455983047,0.029760742786764757,0.6667996562937364,0.5507503596542059,-0.8213009446186753,-0.2971708556633053,1.0701177731672602,-0.007999650247480354,1.0550587913266836,0.6088383307520625,-0.21229413342783962,1.401893613200237,-0.8297469969633501,0.5154375806210951,-1.099644724394728,-1.5050420442709347,-0.39055091695858946,-1.3917787840599016,-0.6851606269794268,0.4850096406786327,0.07525270161311857,-0.1940148911594142,0.9919583050237758,-0.2613624907483413,0.991385562241676,2.1872876833200428,-0.6353971267914027,0.2523616183075702,0.10329785997395464,-2.6835183787276202,0.5940609354395626,-0.020832101145200253,0.7674714876481031,-0.2247276611391161,0.5206257571458373,-0.47423877852193996,1.8681295973888599,1.6608325203814842,-2.3414622351447996,-0.4256343956568309,1.0603781069918856,-0.08065711177557461,-1.1715728577984994,1.1220943982105864,0.4371106848964713,2.3329229388894306,-0.6161528590971843,-0.7443044222083519,2.930082185633761,-0.4733123673080806,1.650831879042452,-0.5929166780713663,-1.8206004639677114,0.2421504026598644,0.8854213952510114,-1.0220428414218459,-0.5040318064698479,2.3165165207284586,-0.5219535561008496,0.07443849058609818,0.906016610971035,0.8850410438578923,-0.38005935646430256,0.41023399957828793,0.5217512157345833,2.389432492494835,-0.4135733587428369,0.19333539486066056,-1.0072213284021343,-2.355952276317039,0.4102347669234157,2.3817553316260187,0.947911630992707,1.1188891854334357,-1.245539260661112,-0.5349264951450768,0.7763434986194779,-1.4322718222879565,-0.5553405626762815,-1.0502234083806432,-1.7516908404012246,-1.3087724993798275,-0.09591876052980362,0.7825510355784278,-0.30757605115356,0.39576221529549876,0.5726631817320876,-0.7594085981032092,-1.9844719049837731,0.25029229467303665,0.02640326486304056,0.6508547553060009,0.39862981494598637,0.2856723598763728,1.498309320051651,0.942551479217153,-1.2594467843787727,-0.39574140485227927,-1.3936727248323342,0.8314836026602859,0.3101246258234951,1.2446591912473228,1.5307437733388967,-1.048279396669911,0.6253498548597459,0.4798276583186914,-2.16243809067192,0.3634768865231202,0.2448645177376309,-0.9744592678208346,-1.0702455464864866,-1.2740491760660038,2.27575090852434,-1.3469966874373809,0.2687167531330068,0.0046155685799302145,0.35288652749192445,-0.8779257152597387,0.6335623192960081,0.6136390957024455,-0.689636119976339,0.7018875154169409,1.3813747344347624,-0.12409511402902404,-0.24362280977300163,1.9214083857071895,-0.06517763294782952,1.8047388364824093,0.0018086857601327156,0.9323852690565702,-0.4296078428422492,1.154600654113082,0.9216664365879654,-1.3157895227808092,1.9154756409579947,-0.40613647645181433,-0.5063926387167369,-1.2973136073017615,-0.5070542468530633,1.5874605318067867,-0.10955925502464177,-0.23680033840109552,-0.4483934965551508,1.288640764618109,-0.15614191882343195,0.4183612160159896,-1.035239939260708,-0.12741782960820622,-0.237542498488236,-1.2985322001479782,-0.39833306860633405,1.0861123410714746,0.44948822455521,-0.8853852007845081,1.0847350719010957,0.5798543493377019,2.093426053602429,-2.1427294109455506,-2.0997003697304235,-1.259412783665757,1.6681075984613483,0.025795678006155218,-1.5328145814027208,-0.6074084847616774,0.5001375427339708,3.286524040634247,0.8450498245356123,0.08822893326910425,1.3722488171951925,-1.4813673986530422,-0.02503210307907201,-0.45543108097911794,0.1560015753632516,-0.35014810005493874,-0.01827749985475585,0.14984914874599986,-1.1604356431046416,-1.4231977396224762,1.0288517249270033,-0.572425098584199,-0.8735349877474647,0.4499709171392947,0.01728391245206877,-0.14375866955336625,0.30359287277154506,0.42015691371671937,-0.7624941617278543,0.49546833499631393,0.5719780430782111,-1.1814727752919574,0.746676152919209,-1.381278448913167,2.0674150187343505,-1.1573238356482927,-0.7499355596926229,-1.2931993962641217,2.417984569900852,0.6797061300576767,0.494981318073191,1.0055389322171215,0.4270333845529202,-0.3292573253599735,-1.6684861609665798,0.20890998872925998,-0.7863021368319089,0.9396751815364832,0.5350791254871334,0.8329610274243326,-2.4904852406440035,-1.1989123666598418,0.6028319185423289,-1.0574062937178261,1.2838482556785789,0.8288726908087213,0.5361046803919404,0.3719548909899305,-0.3672703417414895,-1.3042893892759146,1.3525164658081896,1.0401788075596086,0.8249729306953397,-0.9629751817196078,-1.5042610850503932,-0.12623879749388187,-0.01983314732832129,0.2932477374264899,-0.24111687907242899,0.5076371959955969,0.05338616793553727,1.3281983199926237,0.8339543094768834,-0.9600737857708683,1.197692661769395,0.28747938786909927,-0.8340442112058891,-0.02983135095674317,-0.039274738232728194,-0.740426872730348,1.1639826621903295,-0.5808985814552333,-0.2149953099918868,0.5668319584048511,-0.3947893094428347,0.8680581208792512,1.1634007583798036,-0.6735808346815163,-1.0771039318308928,0.4111212964216611,-0.47856388185127774,-0.1603442612146274,-2.2119445328105387,1.2627137951923908,-0.8421804900469462,-0.7507674861353402,0.7249678164012535,-1.3074177401836695,0.6087256292251296,-0.4622371980841262,-0.6425002625168746,-0.11459126237946195,-0.980889700191511,-0.1332681890702669,0.4701782465852646,-1.0877523077908935,0.8366382349382948,0.8847964068147895,-0.39358121386187433,-0.008768635404729393,0.27208664277959593,-0.25574271931513715,-0.1399602322330332,-0.6396724755191797,-1.255659185674076,0.585426866944416,1.6741015899387317,-0.19475718828841462,-0.47168449382728367,-1.015729615814225,-0.8426152267359011,0.9626606112761359,-0.3131006478787862,1.548505993593199,-0.030314495228135015,1.1604851424277505,0.6417107512756545,-1.0131643355508886,-0.8224729162402907,-0.2856567185277588,-1.0026712283732184,-0.18204078204121563,-1.390211594855817,-0.6457155302829686,0.2168063131994718,0.15112093850858366,-0.9413529957951458,1.7391173632492987,-0.5816358630986787,-0.5604993306601452,-0.3825491973056855,-0.8217347577095312,0.2886518121207759,0.9875287689466397,0.29390477227864154,0.40730695277539486,-0.9439919735755968,-0.5517752419280516,1.2930312246202096,-0.6413337844927754,-0.19341356839498328,0.7392024041818555,0.9954336606050963,1.83956201563941,0.09524484522184681,-0.9603860027657224,0.6263279792783718,-0.4046171178286274,1.005244774078512,1.136605329987839,-0.031069603547984076,-0.3830485682553804,-0.7062171804308434,1.7153337900897891,0.6350667456901432,0.7768238378149327,-0.06104009798618951,1.8470762879248934,0.9009697340313172,0.9771347088955573,0.4745688108077724,0.9570486680366469,0.2601887334686029,-0.09586206900622084,0.6116909394915738,1.8112849921810021,1.0654630853660638,-1.2672497496149795,-0.29733148340798343,-1.042579396481878,-0.310758100000826,-0.015332250289075484,-0.568855587395694,1.0250768997964603,0.7442295055051978,-1.2955194018129463,1.6579905712389833,0.7579317416473381,-0.027196652982749668,-0.41269214661756537,-1.2439713060394688,-0.21937208652302562,-0.6365352967808569,-0.5330900907396415,-0.10928819415386903,1.1960824767188463,0.3009555372403185,-1.8940561807182983,-1.4171258729350413,-0.29676640719351294,-1.382135011117579,-0.17798287703343005,0.7053487008662922,1.3867259902121274,-0.5104894853426111,1.131142795406063,1.0130845161957296,-0.3771758942740986,0.8261573514250105,0.6065798399414263,0.03493559224949135,0.25615058170984617,0.4020350311201529,-0.5509808889042294,-0.12131988837390342,0.2532109453853304,0.17180975566791895,1.5507276083446937,0.2917830441274297,0.7012410806292869,1.4871362150918295,-0.559834723537433,-0.5716578037585838,-0.4723535466941061,-1.3394522217074993,0.16874497673534813,0.568248980095299,-1.5663775105401698,0.07717592336556268,-1.0354043929991463,-1.0354865750580244,0.24053341951971505,-0.17795286503678315,0.24679335926012408,-0.49165152558146297,0.46914239602990654,-2.249515430267193,-0.931847267000499,-1.5937390776034388,-2.3399157252415885,-0.5139428651256773,-0.12452084655491982,1.872317669011472,-0.9276158358490769,0.0957636682779766,0.3932912795093131,0.3825263557503318,1.3810063695081722,-0.6769803123988691,0.04884976084738106,-0.7871970152446297,0.39446432892028316,0.6923077262898555,0.6967134028775732,0.37492200443373896,-1.4415709547337388,-0.7306475189645891,1.0934874813634188,-0.08396813649149246,-0.6541624362464489,0.326806857597733,1.5861018199536103,-0.18361147348784088,-1.536269503337712,-0.802395110506246,0.00020632118653137496,-0.24529175141222953,-0.9757262710659959,1.3857363481065206,-0.6935163453651803,1.1493505944742215,-1.4444773420419301,0.1850482836753211,-0.4715188444968841,-0.5819525181836829,-0.12945544117639704,-0.5832115732835311,-0.7303838640619164,-0.9362069525219511,-0.30382397431754116,1.299031789740878,1.3709832016751657,-1.3802348285475043,1.8940285239405608,-0.5312099392986769,1.1351186432372282,0.7576823581708458,1.2164082408185917,-0.34421082285865634,-1.2380053519869048,-0.16140829284080987,0.32019749005359915,-1.364499995768341,1.8574942054364842,-0.580974918601758,1.4881861126893705,0.9149177413416263,-0.3362251715485655,-1.0883908682117551,1.5132081934348416,-0.8377624142007921,-1.1841551662310477,-0.07317136654679508,-1.212601530834933,-0.12428682784594652,-0.7251199152119909,-1.2022722520626303,0.7026101189459868,-0.3857836597829065,-0.7536705037188923,0.7166922482052785,0.9005993823527806,-2.4530527527619013,-1.2396022178901391,-0.8428723261711689,-0.1105496609721024,-0.9101573195518063,1.0890401736713973,0.19672906579510827,0.2012302098402947,0.4303213308242991,-0.5344022209516299,0.044754310534109394,1.1549791771721316,-0.9409115644279477,-0.3659493640289683,-0.3583085225979833,0.8690981513318754,-1.1548257915620428,1.4307360700667282,-0.8602939175738156,-1.7441621656648743,1.1240068549052986,-0.030932304878293078,-1.2828267457528524,0.10620606178614911,0.0773333062219712,0.19719507766735828,-0.08137196626814922,0.6521055037732936,2.1401079943709402,-0.3240010692494069,-1.6572753656256463,0.6750621452037352,-2.023546341937541,0.10599133995509862,-0.8257132646391453,0.5938845429291337,1.625015781370002,0.17262638261523283,0.35689785332643326,-1.0229162891371282,0.5391244168549473,-1.2426926363753878,0.2835452040582704,-0.8735670004325754,1.2267406691745686,0.22408540860824777,1.9487977842563953,0.49389292041473354,1.0415617447790988,0.03137218710211501,0.30676976353090996,-0.7912883443557048,-0.6145100140379834,-1.217557585435938,0.9062102948203502,0.14789529462743994,0.724795896666622,-0.5287569732051638,0.10629330786016707,0.5750286648756723,-0.06507766057260406,1.3597933650520437,-0.84716685875683,-0.1342510310959603,-1.246987500310032,0.0037243644359963904,0.005570618499996979,-0.8039364994163408,0.1405132507853439,1.3874416115145305,-0.7622482861150963,1.31172171433586,-0.36882977682710466,-0.4231949657992908,-0.5022165728133808,0.8387696968418851,-1.1944153600756477,-1.0025376049062602,-2.230188176739903,-1.114033302246096,0.2798250629020558,-0.21360168835247517,1.3644215560271609,-0.22057650440870494,1.781666721467708,0.10483347066280378,0.16650091214690746,-0.33853109198495873,1.361994209443755,1.762777703305969,1.6350448861548708,-0.07206304929113769,0.36151591396314775,-0.4946900489315062,1.4683866257812017,-0.07866640300467737,1.555085055741247,0.388519318789784,-1.1002854801948765,-1.188449702166842,1.647795461689608,-1.3138981782187658,-0.16271713171713745,0.05406685639398333,1.079480952540591,0.051277308484782645,-0.132637059023449,0.26167329006850704,0.4614613947011432,1.1905307017817677,0.9447710669652338,-0.9803131634090643,-0.9968391823998864,1.1399834133994269,0.8380465729964258,1.0093725236933677,-0.579665874695888,-0.3132446535623635,0.7231496780324621,1.1313794336920013,0.8194025360131336,-0.30584024432904744,-0.1750326015339251,-0.39552746248338544,-1.2826113467128892,-0.4071163388846466,-0.8490784045320616,-0.7738685912953499,1.0855981447542624,1.2238415045882882,1.1764780933943955,0.9462695101230439,-0.263635240113938,1.0065540275794538,-0.6676106194202974,-1.8973533793432387,0.12696285485657396,1.1181797812371963,0.5006475964917996,-1.716659929271661,1.318990504809412,0.40570199727326217,-0.037273299975729944,0.8227125371324452,-0.1915682638326829,0.7270225407899603,-0.7847622039174182,0.11727843734019358,-1.7255035229016422,0.21706334430396845,1.5508930501039464,0.6383833001432911,1.6967060451953306,-0.9585183077068452,0.8754543143106173,-0.11309624920703465,-0.015973433869907464,0.30243062936101106,-0.38212476812755286,0.8319368837166903,-0.616647682486232,-0.2902811526711459,-0.6970536138952614,0.8162353642154471,-0.673914699914329,-0.8905027074027113,1.3191507109473293,-0.7161557810943099,0.05973565535620337,-2.132839817527054,0.7745557192392789,0.8262565703126533,-0.9594969271603643,-0.46685592966030914,-0.20978205705449182,-0.13073714365713404,0.8266722674111195,1.8163953396416537,0.09613377951890283,0.6462185444837879,-2.0126424136187215,0.30693934730636413,1.0912182887673298,0.6826679013748148,0.5043760835975006,-0.43494475146636924,-0.5699910284063481,-0.8986084467075682,0.3834482399236314,0.8032629626625135,0.4082655966148437,0.8792032575321134,-0.10310777030602299,-0.7251153085428412,-1.8083423525063873,-0.29375872172337597,-2.088352994481153,-2.5132664087920182,-0.2926074350384403,-1.7764399920302845,-0.5606799497686641,0.009779840416544155,-0.651336488552221,1.795704903717622,-1.9194423964512204,1.1869514081130035,-0.2969855289866136,-0.974761697495583,-0.5080518716876032,-0.43335818056464565,-2.7936448535828604,-0.47103892762872973,-0.6727145606597478,-0.6832334849883344,-1.6384162230644743,-0.4021444032395169,1.0711817872931892,0.37887075034961765,2.9638335767689306,0.1552914826763027,-1.4447904542795151,-0.22067291991664126,0.12519131402054384,1.284934204107966,1.691978563255929,0.860335790302087,-0.4134071751183576,0.2096019537945175,0.2162638114268245,1.0816756824386868,0.5499789324462834,0.500567934544158,0.42656357351011354,-0.7465813184831082,-1.7515678835340929,1.6619373292326063,0.8852803107821466,-0.9584042721654337,-1.2513714998289054,1.2505079852619283,1.3789997984599096,-0.5510173694810624,-0.5090720600365624,-1.087964309568963,-0.5792616123347194,0.3953160677285081,0.06935108271080122,2.016456103466729,0.18591704345928386,-1.6981112394487892,0.16855258334841114,-1.1038887381283824,-0.7945059196217806,-0.6479559825707489,-1.47764678301286,0.5724366943511975,-0.31259485839307516,-0.21099528801486778,-0.5009847219733289,-0.1641845745864513,-1.441711046186958,0.5807864862237078,-0.0760092730828801,-0.8833571073189763,-0.8493931975582159,-1.3968813493426417,-0.8328018818905166,-0.28909181303933384,0.728243104081561,1.987043234918169,-0.2184714045079891,0.47289881401676276,-0.8295647919414258,-1.5131176194495832,0.19299016617348536,-1.280412765152121,0.2714111176743039,-0.9649691378737718,0.5558099846768633,-0.15530283606574932,-0.6902463646220561,-0.7033940217751518,2.1008504636015517,1.900659474557745,0.019911960162060302,-0.8324391496999147,-0.0821846771020849,-0.5005082679681252,1.3911882854416822,0.04149252486308287,-0.6406092761625153,0.5488950362592441,-0.43242867948775965,1.3685129052665979,0.29161514224644686,0.5382778280120553,-0.7211733312239706,0.25476198518949367,-0.1168423759466453,0.29004402024874754,-1.2842236181503857,-1.753944103369946,-0.6824662000648322,1.116653171131545,0.040113393000464154,-2.5013284357931385,-1.733081320490789,-0.34300398923176745,0.5397684523928784,0.6073441795085346,1.1658748355532589,0.2721498728971064,-2.0673182792255673,-0.7128531592059294,-0.5823670737978394,-0.025721389881665575,0.20518436939125595,0.11069179954170459,-1.0691416440459858,0.8633743066128954,0.3154069618134611,0.38349682168803834,0.24416445370667542,0.6898616386274876,0.5715851873999139,-0.07572093478427327,0.23916174967671192,0.5871277994733232,-0.10988409485551341,1.5328560527043682,2.3105459263961117,-0.4586288658231826,-0.8937270303689587,0.00817997936844378,-0.2617064225874747,-0.5352752161914264,0.23455931163523616,-0.498274976624216,0.45767643387792395,-0.6836767469984798,-0.9642046828763208,-0.7965760492809407,0.4288856653243174,0.45844979853284584,-0.2943947669368753,-0.09945185550486034,-1.1984019817726517,2.3627585377321987,-1.4567138280541305,-0.46288942377701014,1.3642015155248186,0.8563509872574269,-0.5128487618434886,1.0890327833439581,0.1994341459454116,-1.0192523486784377,-0.9054571716448424,-0.01475108499829672,1.8721329432800093,1.0870159495485787,0.5027264672667233,0.7034013159331658,-0.5480029081770417,2.790224000961069,-1.0387651438849492,1.2588221487043825,2.1992264882793475,2.162261215527221,-1.0749861728802879,1.5161632459585181,0.4042550511429756,1.284353295926935,0.4446537349582866,-0.189515085445188,-0.18792920839495078,-0.5473433608260965,-0.6693512741372963,-1.9114892934147998,0.9803560113497513,0.5618864549243635,0.27277252752657216,0.5274123900485959,-0.41094540590516165,0.20925194316411816,0.17042661746440524,0.27021521479895627,1.047971687288929,-1.1661277807407757,0.09170438339261384,1.2684745593421412,-0.6866420523622315,1.0571787528813243,-0.15923965265715231,1.025684358616848,0.3984748432288683,1.2769179819109744,-1.3037730349848873,1.2942378973004944,0.6113876533759933,0.25669042859261854,-0.24837646143644074,0.05195820063172706,-1.2469581047273692,-0.44641076125375695,1.2503689108497984,1.2934174399566751,-0.7031457430232544,1.2560334973622282,0.8139390948306794,0.3789064174088429,-0.3822658666834918,-0.6238067299441924,0.027526602924891803,0.09805328228064593,0.017896264696937073,0.8359082801947817,-1.910972021809343,0.7018341740334,-0.19361145451179113,0.664793821062592,-1.0381299154983117,0.9815232203121312,-0.7791011060565771,-0.35800091893975844,1.3634638164721833,-0.2897223311649772,-1.3050632081982518,1.4397272375088712,-1.0760457386461266,0.3522205624242794,-0.8058128576493908,0.17741660643183008,0.048377972307540644,-1.070109427270705,-0.24398812106906143,-1.2027673387993814,-0.3567352531200061,0.8861800263811218,-0.3043477046406911,-0.1406539914441536,-1.3279101623889613,0.12175834558871099,-0.7337360148103653,0.7015422646000159,-0.48428535982110316,-0.29383206068831347,1.7902325759334423,-0.22034603135296835,-1.021881066776064,0.7330576977034163,-0.2142458778614082,0.4206201763876985,0.544664013970529,-0.8788171362342997,-1.5796440790603754,0.008319567736333702,-0.24076364517763074,0.40132532805825777,-0.8188998831463152,0.716665380895062,0.05957928582629099,-0.4043472822379144,-0.15008888682409247,-0.2125196791116945,-0.344100055910998,-1.539070851627614,-1.8448038147290478,-0.2539958262225029,0.028044124356307727,1.330969949764878,-1.5794767600220583,-0.5170437699713345,-0.05091767888515596,-0.42730504364550576,0.9227967950659006,-0.06169936236004447,0.7737798657142785,-0.3403515408811007,0.646150862712898,1.067197616199759,1.8782851879171287,-0.35124674119726257,0.5515868258713676,-0.4819508999789845,0.7793045926576755,-1.8198823475384793,-0.1798255961496043,1.1862619404119685,0.3043758184364508,0.29675559868466655,0.02347362162099467,0.6899179904590192,1.074510214613832,-0.09356246025958817,-0.3997623606914721,1.1719941988738056,-0.7205576650642088,2.3090914014830615,-0.3048548770483584,1.750094232076946,0.9178565605098605,-0.8729307917226323,-0.7481021302899881,0.29246943958096866,-0.8329338971536489,-1.421085698378519,-2.0046058167843457,0.6945573042497181,-0.9620446863210851,1.6328400719403966,-3.14123700037779,0.31147207415817774,1.0298889087294674,-1.421869913574686,0.22178930176721193,-0.2779282398030144,-0.017257296583072353,0.07513912152411094,-0.9248260008979646,0.647617079360044,0.37863318396222717,1.208567098552377,-0.061173923607346456,-0.3823141143496997,1.16555621470649,0.6610460639997379,1.2177889602451453,0.7065930603719401,0.11902517516694322,-0.6201576887420449,0.3580804454110597,-1.4804201331018356,0.4706628839548185,1.2394392134591623,-0.2259506208830902,-0.2416749732756773,0.45330244459880914,-0.7178443064522319,-0.5416081361917691,0.6722921436206447,0.4377271729703803,0.37273455520993887,-1.6627012656903946,-1.2377958356430685,-1.6456167081715571,0.5749507201410035,-0.43645764407038357,0.05574125300820627,-0.45707376259536625,-1.730569196282635,-3.602559954979357,0.8473439088289052,0.2534784278885369,1.3133104626989598,1.7961221041914786,-0.040052432539910275,0.3673743451625809,-1.1599931350727215,0.5452970412248754,0.21551107505293926,-0.6617663968323809,-0.7975510356718514,1.4938930070497156,-1.5343476146912576,2.7115361275230607,0.42260805009047653,0.9903407824685446,0.6116612513320709,0.853947235765972,0.7908779728193407,-0.19837919165697054,1.5605607206098404,-0.04721451018518415,0.7630620210324276,0.09560089409015377,-0.942229471942561,0.155641667034745,-1.534290349894233,0.5666181263022898,1.193193817248217,1.1054973905346672,-0.30339346479675006,0.22859191762629136,-0.803576981415421,1.588240715005783,1.0537731390926317,-0.9950731360407914,0.2694203258051253,2.5364324084629675,0.08930813768759266,-0.9320552461204584,-0.14837713371107145,2.067437751058419,-1.5477926684774324,-0.1991468592617053,-0.14286170789957348,0.5166416197837919,-1.6034908887211996,1.5635248841567309,0.5965926543841872,-0.68251711135478,-0.37776542709024646,-0.38249402442717656,-1.162451176189179,-0.8709590112317016,0.6860300790524693,0.39792174880884007,1.282289838114389,0.36879196195210756,1.2606794824890106,0.9632211631115829,0.3591795541706286,0.6656509326068448,-1.2663394298314152,-1.605357935529689,0.3336532328837677,-2.0456718732030255,-1.121443954599612,-1.3583025499386885,0.0700550568857594,-1.237563407944555,-0.37980678970431697,-2.01163074719408,-0.022652055203011737,1.1136386076055917,1.146214371198529,0.7626321219984222,0.5100524689505,-1.0374705479804682,-1.2701060085571367,0.1149211037648988,-1.444973235638133,1.2986791723700277,-0.09400986658611883,-1.9033482276523266,-0.39123833387564017,-0.45392143136669716,-0.8916444794341043,0.672328512224647,0.9651673182431878,-0.5095965643055833,0.18060171181489607,1.9392233393115446,-0.7800872791332768,-1.5018597917487608,1.347960504156815,0.35417746386102084,0.8309698590068249,0.6350864867699515,0.8103220894378009,-0.4243356016213504,0.0026068306459852714,0.08780740137119777,0.22930272708882163,1.6786176246104778,-0.3585480160964676,-0.11666555768392392,-0.6239383088841418,-1.0347701528198112,-0.6804088758265094,2.6485807135191224,-0.1404815425029552,-0.5430895174335902,-0.7390130451376186,-0.05368102107759566,0.055044771653364855,-0.4723944006388097,0.13214493184291512,0.7363725054122032,0.35818949981089315,-0.42494212070223697,-0.3868917577441127,0.7957154435968983,0.08971024631758678,-0.542065496385458,-0.48682388450319397,0.9557373390752433,1.1777068744099237,-0.35750088402781494,-0.5483690362426414,-1.5157188299397575,-0.2883809181461268,0.2404882905233165,-1.42095274659871,1.8386385930640687,-2.142119339375742,-0.2681034685902188,-0.8685240539569501,-0.06611119075246645,-1.959307081604922,2.2766339791464825,-0.5862636488596893,0.12170678089104076,0.7542512780330983,-0.3088774564404948,0.3246280678314843,0.43402397412251453,0.5748675440347489,1.2971940300206657,0.04748459608711121,-0.3990343095697782,0.3927105293283183,-0.4109366487583836,-1.3103084518468335,-2.0624310260630248,-0.24753265228879065,-0.032498136441922176,0.4244472958191892,0.1014317228221321,-0.31018145056197244,-1.0833226990938203,0.16602178786676222,-0.12089594077878085,-0.08609903631584083,-2.2210505443671775,-0.32305060491680354,-0.005496087929815289,-1.6515513443003484,-0.34841632943172457,0.5699960303754138,-0.839045919263731,0.3029771968195425,0.21726495187194422,-0.406730654371645,-0.9855238714632388,-0.5175328859451587,-1.1620115111007074,-0.5432940896577065,-0.8560126769760965,-0.749863996229127,-0.4169787525078052,-1.150922214617514,-0.14510440767656566,0.7062405600092208,-0.9541686271090347,-0.34453204001363397,-0.3016005003293471,1.0339222435041626,1.099838382493518,0.22433312611220801,-1.9400992390889575,0.6388965247522608,-1.0202451098480594,0.38276609907003617,-0.7316588301603639,-1.4454726457493325,-0.9163382140722184,0.14275436095296778,-1.4003534946473184,0.3692025212209246,-1.7624503403445284,-1.1507107092545874,-0.4944192556842285,0.9031751162465592,0.7345269316544348,-0.7039939377776794,0.0002093079548777895,0.8440875151390873,-0.11781948871591716,0.12660965161448387,0.5556153404513497,-1.4481136855331365,-0.5415512193310268,1.226575774781772,1.686149469390152,0.07229455413570164,-1.082574855846042,0.26542639139280966,-1.9090609386332889,0.9031198903206042,-1.172964140912318,0.00733184619416348,-0.306072980278991,-1.1800956161854872,-1.4907823972920051,-0.18159861076821543,0.729371737606087,-1.8915749637116697,-0.13740869020225013,-0.8741283179669537,-0.26510340298909985,-0.3638170373561846,0.966603817472875,0.7132011770932802,-0.850348649723217,-0.352620841292642,1.557684013249261,-0.7246162178382272,-0.291104220534587,-0.8727743277201379,-1.0332868885225928,0.6413326050682928,-0.7029264411502432,-0.9649179619593419,-1.2104709387287957,0.29978538012981093,1.1939176836230785,0.010897341940152811,1.4840258397988055,0.22683325217091746,-0.19569860801673988,0.5419936896410845,0.998454490414774,1.618518491656471,1.9641224757948883,-0.2883079772829936,-0.9871441599361022,-0.25991062571460255,1.3905863063436164,0.20204552611795074,-2.874596909381909,1.7701241596608,0.8873332001864428,1.2296554528150936,-0.13218207823272674,0.7903871593186487,0.89371114036259,-0.46647087367582435,-0.13413384135713877,0.9011751976720386,-0.9412593236234967,0.4315982598227306,-0.2056277541282265,0.4488595252707009,-1.6294623818882952,-0.6403498238555136,-0.10802924707684367,-0.47495664226475015,-0.6648758294739399,-1.3359895558280448,-0.1475015385980769,-0.6209638258633895,-0.3315239671627554,-0.09835735680960833,0.4375307266884874,2.1491433730546765,-0.8271139314697603,2.0247694682133295,0.7205899273366159,-0.09650858506964,-0.31659921573624455,0.2519289130508716,2.5305688173051113,-1.0921151879796462,0.7027480199734429,-0.9831134118324535,-0.1488352250074039,0.6310272261591192,1.1625888440128158,-2.2071113715279376,0.5310206337993509,1.050083983628312,-1.705302440431089,0.6261262012237699,-0.9947142875064783,-0.29982964619900376,-0.5430322046935601,-0.32948268599070474,-0.32199875871465056,0.7581398747044442,0.7355957123325767,0.08550305738998422,1.2470967464896217,0.21925754730014618,-1.746877958200977,-0.8137774034913754,0.45216841271178704,-0.6655026420203476,2.266373863246814,-0.6975575945562984,-0.5286760702048569,-0.3170311579446044,-0.5672995052991938,1.1422799767418037,0.7506022998881992,1.719703873414228,1.8062151078169588,-0.8076920877435277,1.399214628537895,-0.7836888767640936,-1.6002106452199794,-0.8556028313523799,-0.3331982243353941,-0.2624728951838184,-1.2514483609133078,0.213283201621643,-0.7076772953624303,0.7137553504293551,-0.5124995705572146,1.1467430854711722,0.3829040598855829,-0.22951298232770143,1.454872174841543,-0.8991605524866344,-0.8275259919853427,1.292109453400534,0.7854618334124976,1.5800869410183318,-0.1650630803848194,1.2288079692356775,-0.06339525847448566,0.5693343139709215,-0.5390035980948162,0.8760528542240195,0.61493614772305,1.3418273695836547,-0.3057970829771709,1.9130834933220633,0.05695948029138978,-0.7420067918306885,0.48530007655570506,0.08038098701734642,0.10993878324833355,-0.6392401703097266,0.7434371411440889,-0.1308356324796425,1.527622478381608,-0.6970103448417023,-0.6619334545258792,0.07992017099478492,1.0184473180053784,0.3967613496913995,-0.871861357031981,-0.3413581666081866,-0.9350603102025145,0.5376805244972167,0.7098455046832055,-2.1283844842088953,-1.4492956202745269,-0.8852904974617508,-0.007839406029316966,-0.02399419092620522,1.446204588041302,-0.8702254746375157,0.09346456146905589,0.6780768518011513,1.1771154354902238,3.0784375827642108,-2.2343205919075535,0.5684939979658532,0.06514851492586908,-0.4844781401768931,-1.4330170658962351,-1.1064212159217537,0.41272074304985956,-1.3667883572843054,-0.9359716069841124,0.23802361281444637,1.2379433129016855,-1.4701886692789554,2.1964306826464144,0.7935472137102831,-1.082494554544779,0.9114902061028319,0.2596161608995107,-0.34151153731172307,0.4052354927972444,1.1868846857919897,0.8566648343827326,-1.282102325790755,1.4626277058355834,0.5615127072630564,1.1544105343035844,-1.0709077854211286,-0.5399734882578962,0.18792698226598192,-0.6246270934883378,0.5708329987465977,1.7901556860411,-0.029308813175949255,-0.805600014107591,-0.19293829158723957,0.3141247038274919,0.14851783690655007,0.09432938823409118,-0.7569231153614576,0.5307659974406703,-0.9473772789628911,-1.1087868340609726,-0.16647415366415022,0.3470040904512264,-0.24030230206747105,0.4681367580173822,-1.196796644803526,-0.4571943074220958,-1.581720234197199,-0.9975920740858428,0.7923478559836291,0.9760908405156814,-0.3251183407028925,0.10485969370327348,-0.7071443514694974,-1.0297923904954671,-1.6976323968516878,-0.12405922292803952,0.8959529155319954,1.1464807994009292,-0.03328113996266656,0.754553140101481,0.6137544854818412,-0.5314770033023466,1.1077616469730707,-1.1997048802597268,-1.1669742382497779,1.3940715418448637,0.5299976622543131,-0.12186401057543088,-0.3726486335702414,-1.1547872979280616,0.43267772542575644,-1.1509442894576944,0.9294727731001454,-0.16568469202811606,-0.7690738927849994,0.71105493882474,0.1456350477445114,0.3209972464205547,-0.6298779244030202,-0.9331407756533053,-1.2503005373637426,-0.9476209942046107,0.9973803700944461,-0.3030999828395701,0.4959700514450909,0.22320703885073817,1.648270405932844,-0.13318440248902175,0.4320641069217563,0.8814395371907424,-1.393823613812233,-1.5744879938645162,0.24265051624820977,0.4099342283993924,0.7750935987904413,-0.3893159117782771,0.8001939474146325,-0.8051267248745827,-0.7470145671524715,0.919488495959545,-1.071823788922915,1.0383958158606068,1.726130475912885,0.024478236789281075,-0.5166555792056223,-0.25376733113447963,0.20539416289906234,0.9584568871508219,0.3490011509826656,-0.43155389249159554,0.19804175064280238,2.6924967737319108,-0.13710245512643712,0.08429044894106413,0.20160505313589167,-1.4470922686846865,0.3808277907261427,0.6340313171077446,2.1747519152969224,0.34447550338096483,-0.29401078648502,1.0095182290113132,-1.076843145113221,-0.889197542670778,-0.27159741134541854,-0.5032089111557909,0.7211233115735595,-1.6446278554588019,-1.140009478814452,0.20451679712084725,0.23886676015808253,-0.5727154590375475,-1.5347099880701778,-0.03766700883807609,-1.5766271156793732,-1.033881641206678,-1.496363876619804,-0.0799966695290354,-0.7014514626346486,-0.3714298780775906,0.11278188614724252,-0.3525293307189387,-1.2931168758616707,0.9494243920868592,1.9891695261712994,-0.2865797120294581,1.4805626356863755,1.2820982618623948,0.16898227083723824,-1.3945067587627265,0.6039900231267155,1.0432480402853246,-1.64429400183981,1.1058932445555774,0.5513090726981072,1.2125435701704068,0.23541418776920559,0.08370906108392408,-0.3453380416382811,-0.21521796295730847,-0.1336535577881912,-0.4253809532677148,-0.1895884326067863,0.567355492162263,-0.9080654398801112,2.0362186272227727,-0.8519469212677853,0.19002392209186245,0.6208243795092804,-0.8974419080531947,0.15617639985201098,-0.9482395654814691,-0.5705526440172345,0.9851071070290737,0.18347805690535846,-0.9497371092458584,-0.3164940562667499,0.39135833682559285,-0.51504854941252,0.05357253068768813,0.4760698267350428,0.9571110625780168,0.6267653230862076,-0.21910710160545774,-0.08487408597783838,-1.27868461291334,0.10450531096103269,0.34198173858498987,1.9254121179454848,-0.830587567064284,2.4670828666661233,0.30571215596811474,-0.2073809923069599,-0.03529100690039841,-0.5603092455594425,1.6240954015242142,-1.0572715344033305,3.0699677938643255,-0.10778093084682952,0.9654078054872036,-0.015630560803684104,-0.509351020302637,-1.3026950134961965,1.9693460008227042,0.021810631777486027,0.30574533240887786,-1.0496728667725272,-0.7245720784740307,-2.2492593086871056,-1.6123168632617726,-0.5588153740120366,-0.39701723496602526,2.255968742529061,0.4522319170605313,-0.5777484365284891,0.9054426329330418,0.32160475424277485,1.58619313230137,1.050974087311939,-1.159137950576531,2.264087388083238,-0.27834155259930576,0.18093976935692474,0.13565438937932367,1.857750379120986,1.4023086602783505,1.5553749321357178,-0.6503739186758218,-0.29821614495214793,1.0638391304274335,-1.7953653636382196,-1.1202485292407487,-0.28910755600317145,-0.3067231740766991,1.0390456101377668,0.30220966239706926,0.6599492834749714,-0.3382474798640229,-0.6821471155181537,1.9808894223122029,0.2676772578140948,-0.052281857414065006,-0.23145584658531904,0.2172614212927089,-1.107770784128288,-1.3997093371951665,0.8386060037603885,1.4500669962969397,1.1886347084074675,-0.4237138425392215,1.1770122933044536,0.4483180860168282,2.842177686713422,0.39857617867462947,-0.5080343636105784,-0.0032388593153548206,0.006031420882031946,0.91717715764774,1.0306303161803374,-0.7409060354131539,-1.3202945290342858,0.3761873871575817,-0.7758335386022938,-1.3364878644803113,1.1080013522790502,0.05922390325874238,0.3161316959229446,1.6385824310062154,-1.5522172114089325,0.6925148097961975,0.14116621384605255,0.3046830009785332,-0.4999908526673997,-1.6089957944242124,1.0878668236960993,-0.06284007289094135,-0.04597702619508621,-1.371986418299036,-0.048175096336363014,-0.5448624966391137,-0.7215350513906099,-0.3903249152814268,1.992911260941076,-0.05342212655394058,0.5431811110405093,-0.6481383253675101,0.2842498571181686,-0.16733710715054242,-2.199634020134671,-2.524005896253836,0.7028812869428823,1.2790531289362688,-0.47065263084853365,0.22191680811461129,-0.05624542672537523,0.3933696227697192,-0.6463276771284957,-1.9636091319736173,-1.8669394509162374,-1.8178660916127718,-0.3589859787776614,-0.3556298843809606,-0.10038780649360557,1.1444023172352813,1.4137590142443752,-0.5709958708842474,0.29768149589254034,1.0656230931134087,2.030075632819356,-0.37189808494494847,1.1919257568032777,-1.3251178433550233,0.13701857759993594,1.6241847903399294,-0.22458599108170363,-0.6321624298044597,0.5887674758604291,-0.9208782058966486,-0.0824888502464108,-0.9408853848456492,0.5028794092647847,-0.23251497382253114,0.8853418168267385,-0.9336093672414209,1.4241816338646573,-1.130188286078734,0.48201617825590853,1.2419349567484144,0.0327731265936077,-0.4355292579556156,1.4785657530392196,0.6764253538236386,0.25035561302594,-0.22092003732778107,-0.24436530327884906,-1.6907215801032398,0.7873234270951031,0.0312350055306514,-0.30369842415397325,0.6523013261838884,1.3378852425839198,-1.1633030446361996,-0.22710934186927753,-0.31852086013971753,-0.34197169421932705,-0.20960724543224277,-1.1236226120796213,0.7664277437275513,0.44037782172964096,0.7433124377971566,-0.5666953927169657,1.1399122111095528,-0.8534901488318316,-0.0966533962013935,1.0987543517852363,1.6196521208819805,0.11922651647938254,0.00043198016439859055,1.2005620703083975,0.2634667790024748,-0.27741486613516136,-0.16388106729435195,-1.0171694722847828,1.214562097509771,-0.13578605134353958,-1.6788093935173023,-1.028895458693461,1.0459349158916047,-0.3989479486991865,-1.101204671933069,-1.059583658022852,-1.058945230039852,0.05481708102183478,0.07017240585986981,-1.2576775372108093,0.7464315816055147,-0.019014587379300712,0.7047222964252551,-0.7029784784995131,-1.6783755464911219,1.6654180740752835,1.4554774376366126,0.38828320784350484,-0.49949808160463244,-0.046449566521312304,-1.485268689622746,-0.39304312290870946,-0.049730132305140715,0.7554837168368469,-0.7658049538998875,0.0695874767352535,-0.33768075466313097,-1.6436538064703718,0.013771760594749178,0.0823934454161011,-1.1267381639004668,0.2255436942935156,-2.177287126666022,-0.5864623196082217,-0.8641873524080818,2.4400600867413336,-0.5371355928058426,-1.646354833038027,0.08370348734613017,0.09917274434214958,0.9148253062373874,-0.10631813193098752,-1.13747582963723,0.3312168435990155,0.13402318311751388,1.0240296684781172,-1.029122465842475,0.729139735821402,1.099379630514907,2.642868197461944,0.15516133426250261,0.17568107199440516,-0.5594806121813116,0.7715102739850332,-0.5145343660645693,-1.3172717206627265,0.09157106841999878,-0.35731480440531177,-0.708197259097245,-1.6549733734213705,-0.5149270475846646,-0.4715031326407661,0.15651285470631934,-0.8055839909023556,0.4590136236286218,-1.4326217065042732,-1.7016633317857717,0.8335764360439389,0.42551734046671924,1.014956099667061,0.7379485147465573,1.5427029119615072,-0.9901604935983825,-0.2733733135467496,-0.8487768257181525,0.2881398228122763,-0.866546683335694,0.9484709114728509,-0.5586577713529695,1.822348681419188,0.5344593329996901,0.5190682486546759,0.9299731586526422,0.5604607445032834,1.6066713907829986,-0.5562416802950059,0.4873910960118342,-0.21814663193874598,0.6767338791166533,-1.166601720049192,0.6745906942199467,0.24132014138788255,-0.20857630688004,0.1594394323349507,-0.7677699758577248,0.18682236107661077,0.6332872649173477,0.6030920076599013,1.1286282682555548,1.0300235865875051,0.12333041273469106,-0.1592374481684485,-0.02854903947012009,-0.7813288984947647,-0.3993561756435392,-1.475589773039377,0.27361985137779166,-1.0507560065176902,-0.35483036822292524,2.1369712994782546,-0.7334126559186191,-1.953559465274129,0.21518254657917205,-0.5848307409082738,0.07201555624028896,-0.5580500802716647,-0.019420430766175334,-1.0046604778264272,1.4360448633763994,0.1151735268458033,-1.2531759365053183,0.3314323071085345,-0.16117098951922948,-2.1988217800527172,0.48606171157642375,2.4235606320818768,0.3268462275278549,-1.0410985960088488,0.9566991082612301,1.208011923770251,-1.2728609012672936,-1.3077292311625635,-0.3476785888554625,-0.20988034933638042,-0.7361394197014789,-0.18814414872580393,-0.052949728592685985,-0.39931953882400284,0.8146789606008871,0.01055091413933039,-0.6400040223829006,1.5149674602812937,0.3233837240503236,0.4446375892214082,0.6024496286817912,-1.5390209845250677,-0.3939696656256177,0.5764550799763681,-0.06649552959847034,-0.09576036592047905,-0.1413167731392021,-0.5758370875196605,-0.6977728191442533,-0.6575256941903125,-0.08549513674268572,-1.3347430185084759,0.7359502902719273,-1.8756861282416901,-0.19190028314639793,-0.49968195267951215,-0.9929290429172188,-0.4523842282619214,-1.079639592753557,1.8004528268782076,-1.1078428022596043,-1.2273276539809437,-0.6673277416307506,-1.7029724898240322,1.178202123042331,-0.2676321011208287,-0.42055719875154457,-0.3029121115235097,1.1414748240067232,1.4195934053021584,-3.0118055320826427,-0.07174300365664109,0.11723537742280286,0.2995379397360833,-0.011089765721191615,-0.2454551891169445,-0.13962894956702107,-1.9235734992162292,0.92134636210953,0.45401065447039785,0.44743676133129556,-0.2788621036102042,-1.8479339794281928,0.5621762475818954,0.5938215620466255,-1.0816162715301527,-1.0505715379062555,1.074674696287073,0.1327639868632843,-0.5950940259825821,1.7565283259599305,-1.5429159742269718,1.6476727084893266,0.25507401540797825,0.47870252308930195,0.7384706838384444,0.3532046495783257,-0.5886088705557189,0.09372379208010544,-1.9154048565284658,0.6321531003335338,-0.6854262239422957,0.640734660860538,-0.8663420440157853,-0.37457525466307995,-1.0362926989733934,0.1336321764241847,0.13076760880402344,0.7194364361515904,0.5911204891107431,-0.46100661328550074,-0.8736636807807394,-0.4671823501681253,0.6898083228418582,2.30643451420046,0.3794817761420361,0.14229810317553923,-0.28574459052322465,0.08309989300621634,-1.8334919291438336,0.6161717991424275,2.099444502756919,-0.9493598724106779,0.525176806540609,-0.4883131926867422,-1.583231916553328,0.15105251585688279,0.4609461288911925,-1.1071480362244641,-0.3447755171525839,-0.2050216333384267,-0.03848494656849616,0.800590096072933,-0.9645567021292207,-0.47871166811380195,-0.5377986970590978,0.16845140067712003,0.570469883235261,-1.7472532343654334,0.19817892358176403,2.363366602700121,1.0738126066428237,0.7510628309653667,0.07769633934344669,-1.005881210545106,1.1126787312328408,0.7122097433064367,-1.274068245421906,-0.09140738137940228,-1.0289735576440093,-1.5433562438232118,-1.280643572041516,-0.2762299259106597,0.8084162444248542,0.7204372021188934,0.20417298318660485,-1.332000403878739,-1.4133337599094729,0.8462395574038768,-0.18530947031071845,1.9137838179897988,1.1743697559615944,0.49017501195028157,-0.4985764464491084,0.7251269066833056,-1.5438440270574207,-0.1458849394653974,0.06129642064002636,-1.8082115375942978,-0.7968240581157566,1.4091870318338595,-0.8372859644661462,1.7235029237096657,-0.25189657682842864,1.1192115528303925,0.9781348554672836,1.7991155926478346,0.8445675135455475,1.3779051379688654,0.052045206389721335,-0.5383567756850544,2.33528921307715,3.53843043292661,0.7298626762972521,-0.27203117651922776,1.0366646415598122,1.1128571670932637,0.17225576524302383,0.5409098906103836,0.6503587403915213,1.0903490631721862,-0.07556316588430578,0.4522018578794987,1.1980451007221908,1.018427839219729,0.9054684072283512,-0.6922977371350719,-1.4971749068791278,-0.02403104914472704,-0.6124124729241599,-0.9188653410016864,-0.6049248545580859,-0.6457950433331177,-0.8364546094374428,0.574346800537834,0.23651800074962648,1.1546171256169373,-2.071151174664381,0.27901415307402405,0.201982434267048,1.188746639340523,1.2821168525502533,0.9141335899053469,1.3081849561137409,0.19866641745005303,-0.03150826672699293,-0.6642635696533109,-1.8994547510785857,0.7313330960139165,-1.3926867227159043,0.8872792423812106,0.7431136951939392,1.1069255844059813,-1.9335053254146979,0.37277011483274103,0.47129215883927095,-0.3472608492721567,-0.9637897227173914,-0.2845053027284478,-0.6415259328058104,1.2315140145471397,1.8144388072609836,1.4124809854749174,-1.1073747782043524,-1.0225296820771181,-1.2409565709463628,0.39461538192815915,-0.5454502535031535,0.3144038313997633,1.1758429025861432,1.9855651229935793,-0.08710993422257436,1.6221320886809993,0.34664841072587577,2.3041531433717495,1.6237336686941368,1.0298118474470603,0.7565659134712481,-1.1995401652154845,-0.26169436227920184,-0.13483402187360066,2.2830533915775164,0.34140657843205996,1.6451359577798388,-0.15281772118616394,0.40509355353352083,-0.07142158878843492,-0.7465935062485646,1.0810006076160599,0.16246754829076832,-1.3580200704532883,0.6685535115302994,0.3176715971829045,-0.030855410237010234,-1.0126502834225823,0.528589325912771,1.5239383518948737,0.8643130036755712,-0.0625563325352113,0.09413259402585736,0.38241706006890447,-1.5940716098733363,0.024259060096368912,-0.7668779439362889,0.45016586682326853,0.30074376295007804,-0.30388269150071096,-0.5233054151531255,0.8550379595989337,0.7375378266047773,-0.24331240077474534,0.4179200828240863,1.2702983801214731,1.3289474229562084,-0.6505662847574603,-0.052591716023874274,0.35165574856215565,1.3627971483142969,0.768315594994829,2.164521406467731,0.5761921692804253,-0.5142525123738191,-0.6092067645931695,-0.5687038350858864,0.792037462706449,-0.7213865345741886,0.6505601871309651,0.039701568545986554,0.1199101883505171,-0.08901263563631874,-0.3491120108114103,-0.6867212163528792,0.30830149674238116,0.11767164936868242,1.2906526810607402,0.9114234278674388,0.3358997695013164,-1.388301856729648,1.0214283688343895,-2.1722294094980654,-0.13962540799000894,-1.4328482741435442,0.21544059042597993,-0.3863475772320601,-1.1627983534867419,-0.024666477001890764,0.5876489129485606,0.1092265224949686,-1.3358265674307042,-0.014216904157299204,0.2685836158764916,0.44939152559490764,1.0720579423892935,0.4796749706976404,0.7654677495341564,1.3994814028754399,-0.6522741828948894,2.0840211367312484,1.3776765213496003,-0.895752041714154,0.30061045919179,0.9199442515617374,-1.5339442195599529,-0.5274138986219631,0.5598509226183471,-0.24582112544603507,-0.85090328583178,-1.97020271906597,0.2174470037544565,-0.5541816364255101,-1.202635711355234,0.47031724966103405,0.8678349405028749,0.5495367394048466,0.6707553430564859,0.19231064879117737,-0.44174938777811795,0.9787842811071831,0.35350140609853925,0.3592571378906468,1.4718098467828895,1.6170600560697237,-1.60813154684686,-0.9272575609449089,-1.8832543281319538,-0.4778493307902543,-0.778192023774974,0.42549905507843955,-0.4200660667956181,-1.122276746542796,0.268730140318697,-0.03141187405300307,0.3120760068239981,-1.2383975862855188,1.4986734560580022,0.6779580453935565,2.373250977626179,-0.5152818270512354,0.6692723236144105,1.2776835782754805,-0.22662973348762805,-1.8143977773557036,0.25696884375339835,2.0211058850166213,-0.7898588705250954,0.5441106309952991,0.14081288945093645,0.18814351773267524,0.10445329333204771,0.3882897632188272,-1.0383215877570022,0.021450597499053682,1.996157381652622,-1.5333328676472757,1.1938843530723005,0.5826557987937785,1.1791113507717936,0.19335409960418518,-0.2589801245262378,-0.3909199037528374,-1.705743681011213,-0.8441457735839278,-0.05075310279051677,-0.3483256353990115,0.8900221784613941,-0.26778000661045787,-0.40567389129726644,0.9400386063160646,0.41775058968917395,-0.28189240373287316,-0.6844473269144932,-2.006747302014044,2.1110047860758163,-0.3400757264074329,-0.309505128449915,0.06386494816507368,0.44692500747745034,-1.0133828590407385,1.3611224146895469,0.5571538022235495,-0.021661495541470177,-0.8849392836945622,-0.10586723960425877,1.1867020360491671,0.08887988969107449,-0.6769981849710036,-0.6402383521022116,-1.0934112873108552,-1.4838559399460294,-0.6749214271749202,1.3420676824631288,1.299973563017575,0.5416701449435776,-1.564828054419847,-0.333238432576053,0.7703012035502076,0.9437249053351175,0.6288552929437926,0.9692167332896143,-0.19887289799638508,0.30709498679304903,0.5863290544258372,-0.0031407162548070054,-0.7463275516225026,-0.7000456649162865,0.21589804393650042,0.2424564260904734,-0.8388304321215553,-0.17360797700839906,-0.6516759367960112,-0.2879464431475745,-0.6170157513287653,1.4547467630881428,-1.5323717829614385,-0.24930866325230747,-0.9863411861952128,-0.7929050342633899,0.54850013790676,0.4942999371365619,-0.5614017289937935,-0.15915849089865833,-0.3942085289146746,1.0549910096106552,0.48620152357205165,0.9685422186763296,-0.5204026253843694,1.3659130630227456,0.046413554110294346,-0.8069285116989735,-1.4309862948818781,0.012084864397710823,-0.0650234386314008,0.2834482267367529,0.521439171567882,-2.5267382267493517,-1.5718391261278242,2.1845924837130815,-1.4860352060862176,-0.0035346528199716692,1.128983346351933,0.5408839268434372,0.05344556328109963,2.235751515416376,1.506962754763648,-0.20975302358209377,0.07245162020455614,-0.16202926618880226,-0.8081761080783808,0.14577809885167553,0.36278767086540403,-0.10516907450670407,-0.02180194617288962,-0.9225653900314648,1.0155578526879412,-1.094187265382789,1.7134770971459017,0.10972971770548551,2.700042813492754,0.32691083467712473,0.3232126604458125,-0.4072372939340611,-0.02276673074466596,-0.08307482765574425,0.2785982740657522,0.9084742780958828,1.5627119162021772,0.1647788232257989,0.8111897436129799,0.6425427595357153,-0.055774590590037476,-1.8314546742919238,-1.1638582066262935,1.2606724651964343,0.13019557474655544,-1.376153911156273,0.31453159203682735,-1.3431708885924647,-0.20878485415667292,0.1771445614639682,-1.9611024318242867,-1.2383029300959676,0.5165870677667135,1.513193964839482,-1.6817363002909111,-1.434218799712452,-0.4426352751848301,0.043662843906717444,1.8059254549889545,-0.7952719685130083,-0.011235648824051809,0.746552109686582,-0.6383771053709152,0.47940808181667177,1.4302252787807663,0.8185811481295722,-0.29274183763905987,-1.0872890639338,-0.9709979224073578,-1.4516713458678843,1.3739496867584922,0.6846372505210037,-0.318685063475939,-0.10422960339845262,-1.5846577537047124,0.5779590810376051,-1.1728132207922979,0.24374692063807935,-1.439359600314074,0.4514322408179144,-1.4784078029032368,0.5580121815838143,-0.4587044832004934,-0.7129327138869042,-0.5851468954725301,1.6131437079904738,-2.2696389678845086,-0.3431458020358898,2.012142025096561,0.0030844585529599096,-0.8693721031936519,-0.2527891708930277,0.8646540767718565,0.018869074187445576,-0.592251936829097,-0.9210740633630127,-0.09152367050358037,0.47263712822106224,-0.4711976543527415,-0.04505496175294882,-0.8476492470809844,0.25584164055420683,1.2252673492130373,-1.9221188028304301,0.5734751940689262,0.8044863005859256,1.0091936509463266,-0.5939355329168283,-0.5732120533192422,-1.199686109008543,0.4751013631212558,0.38064310732071666,-1.5988380146209396,-0.6379798062518217,-0.8259889168636163,-0.2125874603929034,0.6841780379730455,-1.2436403278042558,-2.5442689854613283,0.09001653509972694,-0.6446056781915088,-0.9063950600971877,-1.5390948523499066,0.8303790852415229,-1.007538793052579,0.07594080026616655,0.8669130072128752,-0.010127547828877391,-0.389863641269633,0.3727279386377821,-1.2669138989748745,0.9102818848984656,0.3335564777147973,1.6492105079625907,0.41798875644051675,-0.07231425160499369,-1.1383660284255939,-0.16134810232533583,0.1693522563711457,1.2205776203369374,-1.5617738670682684,-1.8134250611484146,1.4369590915307193,0.29239591473992516,0.30648859887024044,-0.36148129576763544,0.6352392202429379,0.5833505979541199,1.0065237750634382,0.6498409948772708,-0.15528190642039166,1.2405788193436431,0.08772179141780717,1.4309869125457688,0.46972882723020426,0.24151014145691097,1.2128738414364955,-0.7875073204118808,-0.10789923579238973,0.09730299463938773,-0.513659123148914,0.4228934856953414,-0.8067934941446226,-1.5813716211212134,1.5606356500658682,0.8749539808085308,-1.154887900808046,0.3662280194460385,0.23990325725109607,1.4215971977068578,0.29488585077569196,1.8313996521665934,2.306438009300753,0.6072727599407466,-1.0037241798551884,0.3569370611014406,-1.5811865598578878,0.2816314972616547,0.8244508079713951,-0.5875892649092052,0.26973199241846446,1.822096425728854,-0.7887517996640613,2.142696815879759,-0.9321983010406727,1.0318323095202055,-0.7969362338506347,0.21745897204117792,1.558055546876112,-0.14305834189033687,-0.911983683871361,0.7950999553025304,-0.15294581550942896,-0.7182594064496001,-0.8756014138377028,0.8144658471619494,0.7474539068288393,1.7596651260442253,0.8918048690916341,1.8517068115395419,0.8609857838627579,-1.6216104417066555,-1.2627948600892975,0.343245525690914,1.1104719412299182,0.7077074456002386,-0.09985963157208916,1.8601427064236018,0.0039601711633773535,-0.8082542126985859,-0.6429186106442312,-0.3941879471822845,0.38660876242846315,0.07100184901063894,1.8437254023692768,-1.3343062158731922,0.5785222729218523,0.22885942868122996,-1.2810007695565915,-0.27370822809683515,-0.19986935282114723,0.8379919408308585,0.7331835801782739,-2.734006774205424,-0.6842732929711306,-0.588653226000986,-0.8487312877234013,-0.03309288178060243,1.1810880328516553,-0.20033662990252216,0.7206578206923974,1.102091304818235,-0.8687177677377869,-0.4664718872236878,-0.07325995164644793,-0.33357932676619695,-2.263509583948868,0.2017101611310274,-0.6047989212649177,1.2927707511810205,-0.316789472704342,-0.5332174927453703,-0.1903495808551604,-0.6202362980630786,0.24369765158606424,-1.0338691921851149,0.1894086550453171,-1.3897400273669922,0.7829652818291886,-0.7442294149881541,0.26491786104706766,-0.4067387198205875,-0.8213153972837983,1.0443476025715974,-0.7959049718203924,0.8461759177606201,0.4344581176750603,-1.1128855072010173,-1.0005493363900435,1.2728675747382754,0.10880395422365162,0.5330467408515834,-1.2055459419341785,-0.27940238157945874,-0.48736244212369695,0.9964937531929401,-0.16693612932725527,0.13249952374310664,1.970025078785794,1.027984112047728,-0.881340379412979,-0.4871486259358199,0.005730082441745036,0.7465201237873877,-2.3311184805970333,-1.0467658957869206,1.940986855912131,-1.404949535372443,-0.6013815187293091,-0.8146367675469581,0.297561939367205,2.536311628210337,0.8219874507893721,1.7608924835937403,0.9248965871859466,0.35889120913969647,0.1826710101551381,-2.287893723986331,0.7859818353423402,0.6090671862048251,0.25538270533674434,0.6479394140538449,1.1737802195487579,-1.6994317107805363,-0.24679643210583715,-0.5655376873655464,0.7802115815498575,-1.0281230699601847,0.2716138073919242,0.31814243595318975,-1.0545466977702407,0.7203234401745828,-0.20238468507742127,1.7951945257612842,0.5959864696976125,1.3656487183440549,0.06584514023201857,0.36492190400159397,1.5956302849299047,1.5014413592087774,1.2255566962980706,0.0072681803145652505,1.2288652165180751,1.979727590351247,0.563856834037446,-0.28990414166118067,1.2710902976091205,0.23530302415058252,-1.2586037382746407,-2.6849293644032426,0.15143913816276638,1.4999214078126324,1.7116929878163498,-1.2251193908914868,0.6014372619135168,-0.5587176885263533,0.36661633127135673,0.43905685996630384,-0.4358981487428732,1.0527707078052708,1.4943729837156159,1.304950212833628,0.4394320920844621,-0.2256125143199522,0.4159665938148359,-1.261449077876758,0.18304709467786154,0.7840192223754286,0.4398796036523338,0.3425810689937161,0.9331720721560948,0.5385513204862745,-0.6999231490548372,-0.473988373414124,-0.05376944588553524,1.0698818383156226,1.2092025751758153,0.43006944654986823,-0.259686489237633,-0.8807752084948627,-0.32783724464727626,1.070230187494891,0.9649962113749843,-0.720449019045771,-0.21985875838582006,0.3317797527625235,0.26655371171096764,-0.7600517462610121,0.3963939601951129,-0.8477418728176631,0.7679753047143356,-0.890075544640911,1.0953612920222886,-0.14884612739333342,-1.663438648070483,-1.2189461310569616,0.6085768674902473,-0.5387639031328577,0.9180866268215911,0.7561754577464606,1.9763565724569667,-0.2625660506698199,-1.3954658753164395,-0.5592965008871823,2.1909994167231046,0.4084263675004271,-0.10919511901258157,1.35330198781394,-1.805948084858314,0.28429962209241055,-0.11776144462873148,-1.0775679084591816,1.1444350207520781,-0.06260602511777219,-0.06695807270500288,-0.3739196574614357,-0.37782052824209855,-0.3160726153050982,2.1171602375768592,-0.40616395198386007,-0.937916254611219,-0.8916058127256992,-0.2961853992500475,-0.8795218403066447,-0.282319185787642,1.7119946611534314,-0.3323346338698398,0.5116636666655875,-0.10569049826801999,-0.324213061730806,1.6950643435390864,-1.6695527746508065,1.0390025414003428,1.082666787866502,3.104992248443147,-0.012545130787826032,-0.9661172967623116,-0.6995195750338917,-0.6200942519591807,0.9653110306383971,0.06829909569406718,-0.7442048716720907,0.9378684603055214,0.3096010511595277,0.1193857847483682,-1.5424165131653036,0.8312032459085104,0.49265431488014877,-0.5049125499166783,0.3793700937755345,0.22523275227937814,-0.23140365535980867,-0.21271352108646985,0.4840924670422615,-1.671204584440719,-0.6967987959637741,1.8092730696432033,-0.06509337932477373,-0.653202411616559,-0.2896963772063109,-0.25259190187270236,1.981734705226124,0.20084151036528453,-0.5363501702058864,0.8658559181588665,1.6431191897538249,-0.15972938590827157,-1.2893131891712866,1.3149401440492796,-1.1510640070913765,0.9575256951904674,1.1111610006613366,-1.5420348734763805,0.9633130641455303,-1.5598143785979384,0.4794544652244108,0.9024710106529089,-0.15186060724044115,-0.2317046188061259,1.419772554291957,-0.013271517030564377,-0.12011095827170623,0.6807783406938331,-1.5347011330773206,-0.8662647238889559,0.3168104642146435,0.04350457121175725,1.0792213112214255,-0.2361071735148768,-0.9068928096744269,-0.7657499646709642,-2.2235472237732967,1.1012332523367365,-0.8828822337090361,-0.3408749828282794,-0.09468379412734727,-0.36210312451625737,0.01015656415081263,-1.0249994248702265,-0.41027249254386305,-0.08817072758466823,-0.21763044478773616,0.5929717925416045,1.1990632936826953,-0.1597738251233496,0.07485600908276968,-1.5774754223033214,-1.3467672755608442,0.9720910887685593,1.3440732615820585,0.05324303916164208,2.231460028613008,-0.3210068068117226,2.282821482466004,-2.0036263305673825,0.36514711816968753,-0.1856042182167863,0.41526555913487995,-0.2561524190714024,-0.8382044612959579,0.9459412572453347,0.09298314985158146,0.6262250914480365,-0.9854250370105487,-2.3528485578244793,1.2260835395489886,-0.7837375005501732,-0.8566842746667698,-1.562190316289541,1.213450627503919,1.190666913501418,1.5654576776723323,0.9110584886733493,0.5651706529170556,-0.5235965117050779,0.5674103899411527,1.3945299099606607,0.15952467999258113,-0.4295815798172881,0.8801143308955044,0.551601083640213,1.0829126249629422,-0.790762693556055,-1.0131404337539738,-1.0620644707153077,0.7426075689119045,0.875996147693654,-1.0815578865238475,1.808910476474961,1.8787700439864945,-0.35286284161244225,-0.8946248396116394,1.6449081498034341,-1.1381344430851028,0.43861382594986853,-0.2597215774216522,-0.3396422378154568,0.7489255288612532,0.1925415290184839,0.13871411641488987,1.6575769768997979,0.30678945219858783,1.8070397742454951,0.03121530537428573,1.0834235277702435,-0.5267215559624163,-0.20139025893917176,1.2279711922422099,-0.5584035589487123,0.6229305712613162,1.0338063809474023,0.39533442423949344,1.457257900283477,-0.18730944828259208,1.0985638827227693,-0.2807464273702625,0.4172288648783124,0.6089232007363498,-1.0722310165724653,0.44963365871957717,1.1440502950118858,0.847781297431762,-1.2078125638502177,0.7441127843497967,2.2793258360686663,1.1194974548203964,-1.005102553366871,-0.13703337151222303,-0.08276615121464162,1.9896175945890826,-0.22506922239212443,-2.2747138706392738,1.4828991628475405,1.389004882738096,-0.1113582460387478,0.009813494060166137,-0.5869199524078262,0.6984865958732355,-0.2597741439689831,1.3057927788424708,-0.8074093085072106,-1.6663499604890275,0.04869315208272209,0.01337426471964331,0.16193612521618161,0.47633644019454435,-0.3056041567162335,0.6642313312130151,0.740453185111589,1.299944438070946,-1.056696469833403,0.1268309584273232,0.3349710736817646,0.20473410429418556,0.8613570397815175,0.9239556952741432,-1.5313614536205846,0.10336927533374868,-0.6338906727383153,2.5430932169416303,1.0508941229583784,0.6041080118864373,-0.04910049261466631,0.28088315979516937,-0.581187894921807,0.4245906720705295,1.795193034371365,0.26548733502174665,-1.6367716715711549,1.0908996900866075,-1.470696153989897,0.6195652481687604,-0.36819125224624133,0.21829467833814015,1.155568877667765,1.5645983850209284,-0.42348853573680756,0.7547297984545451,-1.637194704250454,-0.25550502243067674,0.5574540296505449,-1.2524088081691185,0.05757695612028386,-0.14909160047144146,-0.6804511439410049,0.8806833548502063,0.6661519632465127,-1.5800696448204896,0.1548853458774185,-1.5032981125938742,-1.5632653916724635,1.2549121006170105,0.9521163163023132,-0.5901915193524383,-0.1390318085069327,0.9039761525267105,-2.1699527787056594,0.46701558507717106,-0.41349731799380235,0.1146221069396685,-0.25673454093357573,0.6969619074297643,-0.38665005058589946,-0.604430808686167,0.8826079494891773,1.7769645981559719,-0.23801411320826144,0.12686164230499108,0.49235593710223335,0.8213570145785309,-2.2999156345766187,-0.23685695795520068,0.49044535774658715,0.5942603808638004,-0.8934241989788166,1.714343625647551,0.16091288778892518,0.49612187016567433,1.144818052091267,-0.1635085296226835,0.8543555590511406,0.7308939935277134,0.23053792490770653,-0.8368315052949475,0.3780137942018835,-0.937183140011616,-0.26557999989168984,-0.6104348985803748,1.4049381734045467,0.4723589219192724,-0.839711885835867,-0.0004909280194088647,-0.870430661756366,-0.29082241226937877,-1.370266279614071,0.8322557185295693,-0.02380293494688169,0.052033946374597136,0.29390001420273965,-0.3950143259600756,2.076867110418031,-1.2839426374874385,-0.6087657311007107,-0.3471680736908397,0.3811491416369858,-0.011648721915635988,-0.5151506166043304,-1.5827170765743765,1.8313106665932493,0.19310665075074435,-2.701577090736068,-0.3216483720135828,1.1557850786173398,-1.240537368651163,-0.4640891672183337,0.14195782080134087,-2.463807063999774,-0.1223922068027024,1.8082183180521634,0.37173705269489105,-0.5806759487883323,0.13393390327183083,-1.7828232688777446,1.1455328687926691,-0.7625773396932223,-1.69154875757103,1.0984397874261176,0.25130288148846996,1.07775623811143,-1.363379264866399,0.6246079912488123,-1.8999616788469242,-0.2846217983020706,-0.19153163852698069,1.06356888996566,2.615972064875745,0.3752658741360713,-0.23643306436804415,0.11794750190320255,0.11019365164118743,-1.1037777144128087,1.5726126634206439,1.7278975311608606,-1.0199826359401942,-1.2931125836509405,0.15547716843828843,-0.9253888856139763,0.1720365256031967,-0.1781754651106018,-0.42520943917273063,-0.39662760144172327,-0.037564833172838354,-2.22021885190769,0.6284493203002348,1.1753001872387339,0.6385372658877343,1.2567985243112432,0.5750566388931896,-0.07761246651653458,1.2653774721571862,-1.4565206961886012,-0.1954396562489355,0.4483546410856648,-0.60489348537111,-0.19858195893495714,0.9499265002409977,1.1241350578971643,-0.039621317212132065,-0.5723482454221362,0.010484828247380128,0.33895257856552574,-0.6144013163812834,0.9141406615861312,0.7889344591661612,0.3517355239345514,0.7512306979345613,0.4266511064335543,-0.06640861286093279,0.5309741638233855,-0.5878715979928844,-0.24717839146851625,0.815850097535892,0.09678546538999071,1.0741901232453748,-0.9208725047807218,-1.5567651829382374,0.0070815886912904595,1.25048619440991,-0.14063002588196968,0.7154683328862435,-0.4388855799851922,-0.8059182747210039,1.1161531496428252,0.8952671244557735,-1.0106893275561328,-0.4961177516814277,1.303720472033811,-2.7722614005697435,-2.203570755481836,-0.12802120764093228,-0.36562509137651367,-0.5006276777971626,0.3296505975753535,2.1905880442566534,0.4391588105385349,-2.2238549418883737,-0.8900483685723918,-1.1527308714196423,-0.9380113498063645,0.3245825248881411,-0.904111439258587,0.599355171285866,1.5655304161772716,-0.7153757297432015,2.3045264236220455,0.72283847026626,0.6448787158358581,1.4180371610401952,0.0006145066065105159,-0.10709116563058693,-0.5562243471981029,-1.8908303398630961,1.0149664017336675,-0.4061389123586826,1.2680479462564307,1.8095428776075817,0.6345553803244927,1.02947647351492,0.6014528168488864,-0.012785215355537359,-0.02471693920872068,0.5835525012787823,0.49108337251930834,0.41674487854374426,-1.135695725323778,0.3758712161517257,-0.80268081368224,0.17067421256617882,0.08434493432122127,1.1655554733365414,0.0729686989653375,-0.6700077028370064,-0.3107002672069249,1.1420586162607782,0.5627780168201364,0.7753809609946823,-0.7211673178629082,-1.6560367565670127,-0.269518453442317,2.1624143275098775,-0.09184452290016874,-1.5494404922433134,0.15595053364220313,1.1617534253002553,-2.0373519498599677,-0.8853290128767787,-1.600149595311676,-0.9828017227602873,-0.6383476795674491,-0.2641448977808325,-2.7065779423272507,0.6333974726571969,0.13292825496293934,0.14679357605011853,0.5465158281883806,-0.04130721164505991,-0.7146960019117559,-0.2520025552945098,-0.6792673370746372,0.211200657636658,0.7007260992992842,0.876437771181917,-0.25259874381786873,0.26196336730931946,0.5524275283991732,-0.22356529418318782,-0.31496974876171635,0.14083255792699234,0.37239276495740403,-0.34795544047703936,0.42190102087134407,-0.36926938883823657,0.8683068839168167,0.9943921107066017,-0.5104522145266015,-0.793805337997243,-0.5842262890766967,-0.07014731882955301,0.15124150904782113,0.3363340387430559,-0.23657237416567084,-1.484806845307439,2.3273473225534596,0.6691432892910418,0.01545060523185009,-0.9242459301317729,-0.48378426809496955,-0.10531415306612282,0.4406752510428973,-1.2071918177862107,-0.040840787802740336,0.04633009788667503,-1.3113215959926696,0.5305109898300864,-0.1857619321991008,0.15142240292890094,-0.14026544631393884,-0.19711865997352818,-0.019937989208260964,-0.3137827526300008,0.6502810874381684,-2.1787619066386217,0.8608954393195326,-0.031719494335575506,-0.763874027378645,-1.5412713457444607,1.3874576215964611,0.8294553000998329,-0.15270714071596303,0.6305771235305546,-0.056703302696759834,0.4403624495158148,0.7594606524170346,0.8473228597049505,-0.4271543315946681,0.6697294823786472,1.8701728114288214,2.2218639839840426,0.009142071980039686,-0.5326684720164121,0.4341359819597012,0.25812574740065686,0.6021962645040492,0.2943266068082816,0.519207165689715,-1.8285401438050997,-1.742391465905921,0.07639497743105461,1.6092867964988475,-1.3837472813860483,-0.26155185251290003,-0.7757749833815171,-0.027767071772300613,-0.570513817673328,0.4760273510272011,0.7862475815658783,-0.13442719094228078,-2.2576456363154818,0.6696345774991589,-1.6588808628100602,0.6186530972035482,-0.6391482493113898,0.9669041521158027,1.0303651906222657,0.17522804564397668,-0.5132639109626577,0.49345710290287065,0.7324940044717534,0.7919466383088868,-0.6697522547127996,-0.6137611189580893,2.0621001281541007,-0.4171621751338585,0.7574822259815294,-0.5658933640628446,0.9322674164424817,-0.6302274750810588,2.49474609276176,-0.7294411527765575,1.5619686302035978,2.537770420298125,0.6219948949452284,1.7373701036816396,0.15515643262348286,0.6766337293445981,-0.8187611824854163,-1.5218354213965346,1.4581797555303124,-1.1860707624930646,-1.767843398240765,-1.0040089674167398,-1.7833528750076015,-0.38604394595162195,0.3335884671066968,-0.5097838408160181,1.064215296887082,-0.9808522406712171,-0.22948242184666257,0.7516067972098237,0.023923661359683643,0.3282046503076053,-1.5785131832809673,-0.6547644756606197,0.4748337646156017,-0.26911593460319205,-0.12863689979495727,1.0167797753138446,1.0596137681470443,-0.0363502210846996,-0.0032804671179200175,3.407049510044096,0.26658076982212336,1.904184555657185,-0.884474831428945,0.8395191994721611,-0.45141795042251315,0.005442204838829699,-1.6367043334405504,-1.095076503791411,0.5249604904774118,-0.47211865790641006,1.7342467067489125,-0.871436283766229,1.5074985757355368,-1.0711347401246165,-0.13867424117431473,-1.0431140776457024,-0.1351226071626315,1.2875419314882404,-0.7323735604496696,-0.1780832298015812,-0.4744100377015851,-0.28788720866677153,-0.8788126644360964,0.7889217093839359,-0.32778636003913614,-1.3897089185365807,1.3987396761816135,-0.5843846279661913,0.008814798055194657,-0.15825370712906386,-0.628718429476704,0.9750999567461734,1.2759996947444994,-1.0643514347570615,-0.6567473793443898,-0.2843510680956165,0.8964062370379718,-0.38970661931187695,0.6430288549009946,0.6650363621589279,-1.5422567876511595,1.4659835997621649,1.1121036223496807,0.7745441582322343,0.5026389262389744,-1.212002611680159,0.6475922874951573,0.6529388970690572,-1.7577362879526919,-0.13133316257724392,0.744521875138796,1.192543355195092,-0.4899584623987715,-1.853315412835321,-0.56209375726435,-1.3009042692878698,1.8366424524144256,-1.0310880688672215,0.6611513338320033,0.6790541901150162,-1.5025665894905489,-0.5796193358969167,0.15238511785537956,-0.7132695467465482,-1.3664665469036386,0.9212650720468464,-0.0005107215818439668,0.6187209135521852,0.08194002107818361,0.4651907795709335,0.4867217288245746,2.189538992567546,-0.053222028738912026,-0.8230942547939953,1.5317254826016362,-1.1702613864899276,0.26260064378584363,-0.4580648835668793,2.169106228112496,-0.30109906928383773,-0.9501450372378636,-1.0757071323170506,1.6201823772626096,-0.45039710173187747,-0.150533826042344,0.6186755239208717,-1.231479661603589,-0.3851748629730217,-1.7682632067882191,-0.7451842250713911,0.42745631881720086,-0.05491034622371862,-0.7657906329096189,-1.2188660300199465,0.37911222513287857,0.2988649247804397,-0.22516789143230484,-0.08402462568692298,0.4761325656960996,0.6879648370900022,1.0319454499238725,0.14906098153547934,-0.6343003651256828,-1.293187125356933,1.8091329331522115,1.333994367890608,-0.43498864347167887,-0.10997154313969626,-0.8721187092890039,0.21704143170283072,0.6827089032269364,-0.600665717901091,0.8273135811528404,-0.32726464932257626,0.013158366708795886,0.939746707977238,0.3669838448407865,1.6303831447044304,0.14416480047946198,-0.23310129194966162,-1.1107130827107545,-1.030083533964878,-1.4837256091758846,1.8823658393839038,1.7365769613671602,-1.2783538874351719,-1.8467006916559945,-1.8383990632113008,0.5498263233838608,-0.8733537152874371,1.8583544261321243,1.3996619918419668,0.677234588395953,-0.3983167142211947,-2.085310244308489,-0.3892726816835022,-0.6439974722068977,-0.9484741110664272,-1.8462406106537688,-0.6166694215072249,1.0196947217749324,0.7519287225968635,1.0017343436412536,-2.1427128787428567,-0.9347027632603986,0.6029904812319166,-0.6319191124842328,-0.69979157960511,1.5795687061471433,0.8112137062675883,-0.4176419799218822,0.43376409056394366,0.06323662140648459,-1.5211979936698028,-0.7001691123949207,-0.0896925288211043,-0.5424110144549943,-0.003222344079774614,0.9360018910600102,0.3851034784957937,-1.7281963490200445,-0.2903710517425431,0.5323539091969264,-0.3146527936490447,-1.1064961095642438,0.7922610593867377,0.510385933839815,-0.224716013715533,-0.9817911135129532,-1.176086373503768,1.5346978389290127,0.7995268529125725,-1.2291398751765117,1.154421105883611,1.2697847880615365,1.4039993445301844,-1.2640783681877419,0.6989897434307117,0.31847613662224805,-0.17223313811468843,-0.29832321018835445,0.6674880936155788,-1.5166345492918416,-1.5745056523832972,0.5209905236693773,-0.2873975810533366,-0.3129180329000454,0.17083834849223622,0.6647177478181435,-0.31978739545551793,-1.0502878448195154,1.1494619063932747,-1.5206947064398295,-0.09644596572223509,-0.2344598186450315,-0.26013715733741194,-0.117716214452404,-1.0525528901899759,0.6382211644377774,1.1283051444596368,-0.0025769776711440664,-0.46971010230924093,0.12187519199397273,0.5897039794414372,1.1048163113017608,0.20107471930375345,0.6977386228036032,-1.5651669425970227,1.0328248756367506,0.23290761480340658,-1.8904203026573738,-1.7348173490571934,-0.8054942694551575,-0.7463316915940312,0.6649277542379881,2.138746936614633,0.382854506769934,-1.067655167652571,0.9035768344904639,1.026151683060151,-0.8215268331025397,-0.3170980280736264,0.5482136390052528,1.4135550581804681,1.4915568717337997,-0.08440005165560324,0.7344467886388085,0.2205866573520028,-2.0256950940542424,1.5217525668001095,-0.20629199132644058,0.5601273227719283,-1.098090047161254,-0.22033363292483044,1.058535801617768,-0.17673224358326797,-1.278459895118905,-0.2508731715193941,-1.4794766173195961,2.1359943246984767,1.0631982359108372,-1.017461587889522,-0.3938455881244753,-0.2561492358301395,0.03076697895785069,1.2125710403217287,1.5528239298815085,-0.6685576883407521,-0.360622659648249,-0.08654641540588111,1.4060732083058698,0.1130383161026843,1.442020999403514,0.08976318141121784,0.35703904979246753,-0.22249410625912247,-1.846472683494142,-1.1091802741362105,-0.6512404095538299,1.0096594954782663,-0.28340752849555,-1.7736504265258557,0.8813405283852662,-0.09222755109354817,1.7267799498221312,-1.4439063326844463,-0.17712878314075542,-1.7036400891792098,-0.13121783847224205,0.2551532932990754,-2.0086344432012107,-0.3652981642419499,-0.7074873714972041,0.10670792095233082,0.0323006695188645,1.6126427504669674,-0.904195690330493,0.36960363240628435,1.2375028576379976,-0.6933282811169243,-0.15822642981362947,1.1633763762291132,0.21872478148096092,-0.3995904728662333,-2.067286844749796,0.971812485722532,-2.1659757581403456,0.8174181546270121,-0.30043714218279394,-0.3108692716184268,-0.5025755949580186,0.7335634381590781,-0.4116123303880727,0.3856443789387737,0.7079481203219798,0.4355936794446277,0.20041828649139995,-0.11104190496632212,-0.24504440403232008,-0.12856733657819,1.6213078427388596,0.2233956508246694,-1.2409828962103833,-0.7046509278853473,0.05828707221861232,0.6269704443357845,-2.09425316870457,-0.3388233595138383,-0.6627720620377902,0.6161225560891207,0.40972960992729013,0.8140332201861236,0.2704350297304797,-1.9230173242948243,-0.7710445223755763,0.6686417056072739,-0.6441050633227169,0.4172323639071814,0.7910628947079453,0.767003402490896,1.195206274675362,0.5195854409308867,0.2607569753998904,1.1310335675431857,0.22896632313037235,-1.3565808176436713,1.0878282676350866,-1.302090177062113,-1.313379551314122,-0.08373516442742024,-0.7612541493093136,-1.5734768420341085,-0.4583246889470699,-0.9180182326323383,0.6497761417219722,0.17302600518720024,-0.8239424440788456,-0.8899678235816305,0.7878770786784098,-0.01960867972558078,-0.5052538929464973,0.7576066983148991,0.5820788732449144,-0.0885400666510787,0.5714623003140816,0.25818115293101607,-0.1646389835497999,-0.21820665962121358,1.8877291666889022,1.03605179837563,1.7640807779501582,-0.08017385923402008,-0.34593008186325636,-0.022774865257563965,1.725496435031881,-1.4075013492318855,0.3940247380263568,0.15261335685620914,-1.2668439463323926,1.0757240672739656,-0.07246536616551531,-0.08882121916841682,-1.5771514773358235,0.828905706619151,0.5565789188613992,0.9324320016197619,-1.7509674706444214,2.0647649313999326,-0.6938652292697265,-1.2877100457765411,-0.5073384510878107,-0.3858055225620491,0.5926897607633711,-0.6064497983853575,1.504905746490222,1.2065073436524107,1.680639024514946,0.2602883443320562,-1.9948361660694776,-0.37521547454410675,-1.597832051280875,0.2286034104232608,-0.3900060283585706,-1.773938431852445,-0.7125059502075005,0.7882821703902146,1.0206815152601345,0.7558881964256333,1.4045991049165376,1.626133349243356,-1.295641579765289,-0.23866111628357448,-0.5678933533526638,0.9211190128930045,1.155843898707293,-0.21210916435616817,-0.8388080854452213,-0.8459031973529004,0.0015357015679120407,1.549192502693247,0.10351564976529495,-1.8845406953969377,-0.29483948278882166,0.4263424664208166,-0.9293806810042542,-0.20743324986150974,-1.0173671407649656,0.6623631225146763,1.026287518974534,-1.0163239884900963,0.9489092310080915,-0.19935996112260182,0.2695800891733488,1.7940211845797545,-0.631423916500866,0.8691250552203178,-0.6392645582756395,-0.23356035610588902,-1.728293537195156,-1.3040952419262066,-1.962047399802197,-1.880893086734795,0.2975483688683884,-1.0831599007441777,0.969221909258175,1.1205169364194298,0.10210224549107536,-1.2276906977857556,0.9926596161076606,-0.30453282796784,-0.858130436173317,0.30671172137547126,1.1510888297944226,-0.06770736108742283,-0.641631150128327,-1.5136151638365063,-0.47605710360195935,-0.28738130636851233,1.3044943167166643,0.02246391271354038,-0.8311977396813632,0.6691866570495782,-0.2644303107150659,-0.07080840042385445,0.5537117305287153,2.193174700077019,1.7110157583915977,0.05379939279271005,0.061864523536230454,0.5932447074207605,0.9884763478663203,1.384505629953477,1.6181389459055864,-0.5074864541075933,0.6345817028775771,-1.4394114150492612,0.6449852392457033,-1.8767979692806003,0.419551852639756,0.24329397150327872,-1.4942760885196888,-0.27689476480470804,0.6894510214526941,0.266900836245705,0.02550439927578497,-0.08144860804112924,-0.1998532709461353,-2.0085810983710433,-0.17243857214286593,-0.25070657123161877,0.9530926111258988,1.3962437154305225,-1.7854819854551294,-0.47565377624369004,-1.1374452610478991,-1.1849541489020383,-0.16223934356611192,0.06896938950485777,-0.6440680190028201,-0.3816236845620277,0.6685570550840279,-1.6176767642990966,0.8424368940964275,0.7950516134811051,1.5919282565788033,-0.7191700253788995,0.6755584783001243,0.059851288562743,-0.541923899085879,-0.28691150298181844,0.4832134276370258,1.1437918154277833,0.8338787904227805,0.0994513357954795,0.6306133428450784,0.5571086726524912,-1.3145450474677343,0.235313235038602,-0.43805515755943314,-1.0172239639195388,0.42161640742438294,0.8950063507268146,-0.12232160252117508,-0.1529367881680575,0.6606173341423203,-2.3742287280491445,-0.7356615724251557,1.627822287384253,0.872014583089039,0.06718361035871223,0.9318234548103115,1.7968431856798075,0.25584018384239865,-0.622570182479234,-2.110825442775109,0.1876652920240233,1.5266684281068466,1.1642339901530663,0.31816488387904895,-1.2374900093800196,1.26882241437315,-1.2884292884228083,2.1198457719403216,0.7139177790398521,0.08201768476977114,1.8523496386833047,-0.9988797151356,-0.6650519576635449,0.23451440371040766,-0.5890567179563568,-0.834172320681945,-0.08798114886068678,1.3973442530904419,0.3230093626147396,0.6871690117062215,0.6369781821104585,-0.13274696222400245,2.185589723694227,0.15026169391632585,1.2761015850244077,0.5381511064482147,-0.546606217074804,2.671992291265608,-0.1942832346278696,-1.105583831609295,-0.1429551728696019,-1.6240106964668686,1.1304428772422717,2.8773445619705877,-0.8365407551196894,-0.23249075346140408,0.1496782763937816,1.197888218571816,-0.5187087327377259,0.5599791079047755,1.5265353919904918,-0.18305745453713212,-0.621034976373818,0.7976715344855899,-1.1434299513052029,-0.6998139240653422,-0.16045013351733045,0.19648325840655093,0.6147937319339366,0.21800065569208665,0.17604468162915507,-1.059655198763558,-0.5290106065717539,0.23730853577740404,-0.5720504816077676,-0.18032202123950872,0.9529046048661949,0.23584900632857195,1.512825167008149,0.06627013159763416,0.32507856256672846,0.01293137710227443,-0.7520949525803176,1.4574496685906497,0.04415604363152405,-0.7142912360421232,0.09056332540300123,-0.37928039359018556,0.549807633731083,-0.5843064224879208,-0.38525830811537115,1.1361252214258797,-0.046488292923496655,0.4105749948394895,-0.82133060101285,0.16908756384032161,-2.702356298367566,-0.12889430091009374,0.2971502096232857,-1.3006166841770501,-0.3865856090219952,1.4802277682126097,-1.3443437084164027,0.7060327457346253,0.6773318595214104,0.08375486116669253,0.5407026441559359,-0.6287976679489611,-0.24689375207673425,1.4927341488246866,1.9857288485832016,-1.7253373949324171,0.8974006292155854,-0.8036862073388942,-0.46768164900217596,1.1706166421736837,0.6151569061565902,0.8279152980981546,-0.007568741430815445,-0.44320774463037854,-1.692458703956508,-1.2652041105391263,0.15152043873120014,-0.31845042278069324,0.4559122927867778,-0.42244948919416087,0.48065293116768737,0.17506318829860984,1.2780339077026603,-0.8055562040059862,1.5156026316496742,0.09038725102145906,0.4607752444731436,-1.5241697037531587,0.8390000427736568,0.06398464539728951,-1.1841365389518297,0.5125026022727855,-1.6206856000269012,0.8054731808979956,-0.9524275345822357,0.41392867408360384,-0.044651122694612,0.03922078695540542,-1.003375961793849,-1.4160576540192416,-0.5378025598497738,0.19718479882127085,-1.3412206094256154,-1.1295693660519703,-0.5285875239543224,0.9300370029081747,0.8223801746360249,1.06240721087461,0.6800810922062611,0.030127135113407772,0.1194146114896407,-1.7683746815743706,1.0664632270838041,1.5575973027291454,1.302702915600725,0.3932688099449561,-0.8704152329978543,0.19230430933700834,-0.06607622358552062,-1.1377714617189285,-1.245055539831193,-1.013705622950039,0.5914576176417977,0.4228446493755611,0.10407514240332129,1.32626526273204,0.4619138083686507,0.715742293404785,-1.3446675310006466,-0.870245047192279,0.2906769078135076,1.016080226896843,0.03495712929640348,1.734411643125169,-0.3553237648190193,-1.596216729160294,-0.4610204960924604,1.7009587218325397,0.8209876129698588,2.534398842555123,1.0051993590037203,-0.19463619077597122,-2.0004293852445083,0.35907794500609247,-1.4308157825267613,0.10522099570560253,0.24888637486339665,0.37778918113085863,-1.2646942270696435,-0.4783834118998241,1.4059424258758288,0.7117544143851111,-0.04381221508733239,-1.2211878999887211,0.9698633934992298,1.7691442477350316,1.3706186520737522,-1.2362260329758878,0.2864693064366072,0.8172180013629035,-0.8163438991873584,0.00996709900787174,1.2809034819785337,1.2479262150460315,0.749999052139995,-0.4265826674541523,0.11882399350999365,-1.046259373570637,2.4277043387469615,0.7781793342218053,-1.5253666232507053,0.9520490457680141,0.3929902384513084,-0.38791137721379076,-0.6768858907991585,0.21948641167318722,-0.9056656055154099,0.06413032683590941,-0.10647375948142246,0.7872102785930326,-0.9417729158901492,-0.5860859322993243,-1.5111595650781704,-3.055544953832297,-0.7764065402882824,-0.3058664983047843,0.007754175182156654,-0.7804323301483526,-0.37959992726337033,2.5903505732648013,0.17063710529859333,-2.0155022131124287,-0.6121632982712508,1.8832068875321502,0.628341916944977,-0.0725379329981685,-0.852376949784452,-1.4925043482384281,1.337354139869096,0.8641713964089257,-0.3078389514864088,-0.31405724842528415,-0.19388281332337498,-0.21571774912887276,-1.1352988930827301,-1.7916725102743258,-0.6946161152306809,0.0455218416351541,-0.20510230206853788,-0.6058084226772497,0.6472255253168078,-0.6480182719228604,-0.37580173147220974,0.8886629955093889,0.5074216768857506,-0.09701278993231474,-1.7369471291869116,-0.9582649436940931,-0.29717900444156814,-1.4355610912287915,2.4525531631480493,-0.7511300222608416,0.9540092260921657,-0.2084409598199984,-1.9412166164210571,0.0672384108929528,1.0928999308894136,1.0550849360244108,-0.3604220668543517,1.8705766691388948,-0.9180104418105833,-0.007796317501170298,-1.0505208065171885,0.3185736980865564,-0.14461190445332045,-0.3888492205980246,-0.6723673133053332,0.055195877495441345,-0.848419024985748,0.17027399709285432,-1.6600894749906507,-0.3278567788502177,0.9292512859242849,0.05725007847826782,-1.1047621644507648,-0.4418708922427952,2.718553220639105,-0.018571603973373305,1.3605726035127093,0.5398058390344518,0.14936082269495177,-0.42477289117733846,0.7135894281167291,-0.6011770643441635,0.10897641570586913,-0.3080067082039112,-0.6946223135882724,-1.0674653853868228,0.4711808370484394,0.38201367500686795,-0.40147493448435195,0.07927574227801515,0.03267433538378958,0.5776472912488613,-1.2594985381970623,0.32132017306335975,0.754900682321041,-0.5701152450830883,1.0489188918639483,1.4163964120957622,-0.007709605326893327,-0.6465515339915852,-0.5747431780690708,-0.26695066684982055,0.6818845566861497,0.07205401284178027,-0.7967638180361933,-2.1524678165572046,0.019067212584673043,-0.05866086625637414,-1.8211712357500682,-0.26020891193227563,0.9268782149411899,1.2571691035762986,0.3461389114628205,0.09506040400354383,0.47112710781963346,1.060358408927286,0.4495289935574444,0.46167570834651545,-1.2141005842068835,-0.7335560885720304,1.0400931861733915,-0.7006312848877035,0.45892112429413623,0.5695338821946013,0.21480590598650323,1.5958435781416218,1.2487883376877251,0.7310972976879354,0.7826908630956102,0.570292442369056,0.4269631344336985,-0.143622658551287,-0.3128900366664313,1.1979284835304063,0.35108144524585555,-0.4428284868259378,1.3964385339402297,0.29721790165905665,0.21279083924075123,0.17047870647966495,-1.642384764717777,0.8204912187365516,0.785425852883873,-0.7609900486240158,-0.3647090634416318,-0.6896220975210625,-1.6275174581317295,0.9004576233623388,0.1868644852495471,-2.0416910642972956,-0.20861160274671073,0.18895132318952915,0.055723984343695375,-0.4309518538226118,-1.0836468234798131,-2.0722857858948704,-0.9662407917653207,-1.4401027391360393,-0.7556268195052582,-0.3274715935790129,0.7812372769923104,0.5557904780517762,-0.7993501170842117,-0.07030271896336356,-1.5190399759098083,-0.3289901590729256,0.3395418062178127,-1.8043798836590024,-0.2452870311843106,-2.263448593111574,0.6961923044773128,-0.927286257260297,-0.5661973818321976,1.5893863237618013,-1.585882104842098,0.02372943822290044,-0.17970634729058918,-0.9038770396540291,0.29790733201379027,0.25872176342194225,0.06914495015655528,-1.149480846552779,0.7447433920909451,0.09614979054137657,0.3405061285708835,-0.5801942211180813,0.4791389868121264,-0.37561683942322294,-0.563497591059781,2.765736004899159,-2.4134335216512657,-0.09027435689365834,0.03804396390167317,0.8658662554949292,-0.1114495296741557,-0.7699849254369666,-0.7563233443021259,-1.5409010022779661,-0.3833856257742311,0.17401822735285272,-0.40631049594011753,-0.6671085672235467,2.233539718839128,1.5861086696133502,0.41306249750873936,1.0363070003836972,1.3364037355539868,0.4074252056708936,-1.0942510033340591,1.474117646011972,-0.941898216394721,0.7037406277000233,-0.8831512997994392,1.0982917804292516,0.26435777823846995,-0.5436582978294732,0.6027983700165364,-0.475454223905275,1.0864369116653412,-0.1442923414435675,0.5631137177715146,-0.6061001034804171,0.5550680027686381,0.16390627615082748,-1.1241850220205776,-0.45438448693293937,-0.051181711837903335,-0.7542900508135097,0.7117590877967332,0.9822041035020965,0.3567852415029628,-1.9689117041434803,0.16151773976468778,-1.0873370257745179,-1.0409429977798959,-1.656980208953403,-0.7879885024056295,-0.20611584022825938,-0.43120826216522873,-0.1993462640789289,-0.6956147536613925,1.6755498064553147,-1.3389173664535958,-1.6196441348142476,2.134827905126854,1.143415029130706,-0.3672058518051299,-1.8879294804404325,-0.08580621389835721,-0.022577347815052908,0.2525937919654023,0.352678605297083,-0.2663863992338842,0.7225050670145581,0.7319929926703871,1.940290509841527,-0.6945149215148191,0.20499916544011387,0.014318100605820823,0.6614843633394331,1.5343022588707298,2.427875392820422,1.2850566613467604,-0.4765319974328759,2.2180736171710818,0.14675509381473767,0.5387796873065996,-0.9304333230287681,1.0658869079379045,0.8870932138885791,2.3141604691666857,0.13714179301691004,1.8093611401666232,0.5820553271181201,1.2896321996374465,-0.48423293977191867,0.8786901443429573,1.052021591620001,-0.5471157416176073,0.5880915839918568,-1.2449054977000609,0.2332478781236122,-1.047571598529098,0.15734461396292207,-1.119837552834601,-0.8764376222353988,-0.33935186185431765,0.1206996959360485,0.6730172942991001,0.6987884128446533,-0.14101177342097007,1.2091170385564587,0.0067804637223325805,-0.8316428381723743,0.09313738509784737,0.5670031152627776,0.46534545266276667,-0.04264706671906294,-0.0040235699125961135,0.16940253502006392,-1.0933212354403812,0.07870304488622269,0.49151894819229947,-1.1297003939294756,-0.8374871036919215,-1.1478355812385888,0.3462537649883861,0.7474504794108467,0.33045826823014707,2.0018755337979344,-0.5029556953636107,1.7263083940747792,-0.10655063466786695,2.258278269035333,-0.8566142463509901,-1.6789502837166688,-0.624444202602869,0.7381952049731257,1.3558477496942514,-1.8346876376585852,0.5361721771303698,0.8548651490440761,-0.17032410107766538,0.2442997016367413,-0.46181978011351765,-1.2503468173176457,-0.507516500012804,-1.1422021839468517,0.5599334172477654,0.1052564407693278,1.082147244470117,1.2442401468514372,-0.43111445149259264,0.08992953482353336,-2.1136460404885193,0.21855819905748522,-2.366529966483709,0.2898043609262293,-0.3642578480276812,-0.9557667266608354,-1.2621419887242358,-1.2727696481314876,-1.0691722537067176,0.3780715621860666,0.33589380941215025,-0.7982534988906713,0.7599871094228918,-0.4581595885467717,-0.540810129822754,-1.904593445432872,-0.19532695129832764,-0.23741163494543155,-0.12251035120884347,-0.603946078397742,0.1789855654485417,-0.9914518208945268,-0.2301771925297076,-1.0456024940475683,0.7467436918560224,0.1485110841811382,2.0586217080065747,0.2968144192931703,0.662967178432675,-1.0851614834686207,-1.1705121178980424,-0.36216542366173393,0.6879247849417698,-1.280841142578288,-1.1459851951816933,0.2284017146483698,0.9600609957991689,0.6685864899676163,-0.7018539927503192,-1.4495404008597912,0.6932093498778878,-1.0223109312584922,0.456150791920733,1.682207309282974,-1.1293977087351912,-0.7691133438102169,0.1510928166001556,-1.1445290436900433,-1.321585217460517,-1.3564423546407312,1.082606815158987,-1.4103377110460462,-0.708418602237712,0.8575197940882016,0.24461238172276345,0.11510628600881334,-0.4434383326950378,0.9815753105566287,0.2599809981052739,0.4455082081902815,1.22707309826727,1.3670928708427432,0.7652149482633671,0.6404127357789493,-0.7862735826810272,-1.5875133648002688,-0.12046317608703502,0.7821703755227639,-0.7265953870938472,2.2290401396217487,-0.42585405040690244,0.9305266482754043,-1.7263385499783102,-0.7181640794426059,-0.012816297869729988,-0.3215901179510168,-0.5369882195257512,0.42377900589759454,1.4129546831814008,-0.7373559438825233,-1.050441650416562,1.3670920296969853,-0.29605911221180187,-0.7245339939906211,-0.20947883205971565,-0.768176812749366,0.8740790953229246,0.740438594112293,0.9101332487710132,-1.5796615881339842,-0.2428549487169962,1.3468127265541503,-0.4901600659565154,-0.3378834821633687,-1.1943874608990308,-0.1999508675697373,-0.4419895336070207,-1.0374528530458282,0.4964481275583139,-0.3402097961105363,1.0137421143664969,-1.1372169469065387,-0.9400950746926001,-0.35072245538765917,-0.20978364854525264,-0.331553069510128,-0.18285123614204501,-0.6486914253839876,1.8440051679192169,1.7452467893811603,-0.8224500772193716,-1.5187823577518982,1.240411276917301,0.986159222572135,-1.0665979988400796,0.46828621569185835,-0.6548057925052557,0.4500493361998692,-1.4584264847267292,-0.7779790206781586,-0.4062707060496392,-0.5509667093831423,0.5710657006643532,-1.6640253835974785,0.44333552265658094,0.38643638583424084,1.7598277005536342,-0.19713790281061908,-0.0010922875826142292,0.4039984503519193,-0.9178678042652766,-0.8006859551373303,0.043844910070983324,1.2502855626689968,-0.8804974576219592,-0.7661229080251853,1.7050766032875893,-0.9965253764952865,1.527894659658982,1.2407178691665848,-0.5007110448119342,1.2057194998541039,1.380516150040414,0.10809788531620743,-0.36799192514685963,-1.1333865169360364,-0.38302636602586404,0.4533766153744996,-0.5106819004485307,-0.477834314822569,-0.3440394592730372,0.007753761840706889,-0.7579839136063102,-0.5547582598558072,1.873951255791983,-0.7181527401554484,0.9718039289443514,0.5550160273860184,0.7787398818420149,0.42609146230886263,-1.582312851110678,-0.0995434959308445,-0.4823713936880465,1.3151303065881537,-0.1918155506289437,-0.7636695080038413,0.1337995154926876,0.8831954578776653,0.24588011676692612,-1.3862330026732497,-1.1617218450922355,0.8188946359677299,0.6908400465570534,0.3715727148588084,0.5712546424426466,0.18747180629551105,0.05618513867978989,-0.23129492589549092,1.156381744866084,-1.610636986683766,-1.7156014139593407,-1.0557057706777369,-0.7501044122581522,-0.1175042782762231,0.1324591478610397,1.4932552327041115,0.7638008537516334,-0.9891171112681117,-0.7238918533594361,1.150677969425389,0.6696316722056749,-0.06968508106511438,1.3209265689347074,0.08126352716055428,-0.39648988058516965,0.6988684803127169,-0.009605506104575657,2.1036700161232833,0.3440648483376693,-0.5621405325375711,0.34405672733729536,0.8425129216818802,-1.42497357473455,0.2616511148712505,-0.9266359419321081,-0.6930646545915415,0.36280998268043196,-1.8199529673048762,-0.20124427822635865,-0.8038899424284135,-0.06461458005160413,-0.8232957878581161,0.10132183554414692,0.7543335306812857,0.061546334162665965,0.8536705971933948,0.8769447096398882,-0.07547931305289007,-0.6393594066343846,2.1446163342491356,0.6021237355908363,-1.15436586586999,0.23958976726421494,-1.1064272041159176,0.5859514523831498,1.1238749574985207,1.1120602691017782,0.55500507382957,0.1948242423335353,-1.1481395295835903,0.5943935403069318,0.16383456584707093,1.7295113521654277,1.4278986402031026,-2.1144379066574803,-0.24683954259032972,-1.1665329870444794,0.08172066833133554,1.6775781493814959,-0.9320003211112111,-0.1168156492406179,0.2327206580255135,0.21024583174594833,-0.3515626398030205,-0.07538140861852875,-0.26153177585615117,-1.6853119399207332,-0.36031963627951374,-1.1026877168465343,1.3384067216591953,-0.3793091051224653,0.5366234560197193,1.6595082815440187,1.043885992067355,-0.09671801230231944,-0.6546106303781298,1.096775248715587,1.032430132968377,-0.0158273632194364,0.37406064795360955,-0.022105091075648484,-0.03658369495028511,-0.4694597936282551,-0.14578509831141703,0.3441736633436968,0.7358800093790278,0.42356804762781464,2.24743018170511,-0.792236632607994,-0.4984037777446333,-0.6692619893461945,-0.35779053407336486,0.1437592209816915,0.21960084543286837,-1.5073612146234066,1.171459277997084,1.6392314021198195,0.5295679480496761,-1.0036910496218958,0.3671142580642727,-0.24570179341011925,0.5432169819664039,-0.2861922664511987,-1.3162593168570407,0.27755137065290714,1.3904374954728267,-0.1388465530082706,-0.22979939486415124,-1.0708501428770558,-0.17042264189155046,1.452030878451586,-0.6165891609439684,-1.1063567522546873,0.38381303757458196,0.33716091602333753,-0.21180079626883266,0.5338171518241348,0.6546919231891809,-1.9277728921884063,-0.05645158257076476,0.4248584546943136,2.6423087959605787,-0.531855447439391,-1.3730061578427724,-0.3990369361113111,-1.6512599693249765,0.36078624228185846,-0.5635487432778755,-2.0751036400117115,-0.7700500616627383,-0.338970852275441,-0.3980820501739775,-0.8736341444041056,1.0599755091737817,0.3103631061645839,0.12077089278275407,-1.1751810105535057,0.07201007593543736,1.2060479699917805,0.2743922850952486,1.6852856633699687,0.9239255429514328,0.7208718099650983,1.3572290405089036,1.5726114073283253,0.07978985258818896,-0.2843103186167782,-0.0010146679523134051,-0.6913481522321342,-1.5210558285960947,0.44896500141179524,-0.26001615619654694,0.8739820357907979,-0.6404792291310437,0.592619437222358,-2.1061884265696285,-0.7025188482001052,-0.8092249958295632,-0.9574357190927195,-1.3992003913510298,1.2609000129052839,-0.32524528780556,0.84492849664214,0.6520491237367599,-0.02982959811693832,-0.7989091162601512,-1.388500539511058,0.36752580173692034,-1.2981814759017793,0.22977049560453958,-0.21169629038669713,-0.6510099244955838,-1.2588302186802096,-1.2738576894356524,0.12389390467691563,-1.3270049724256026,-0.5637184078048094,0.09058885325058166,0.1626815202294856,-0.1820330452452041,-0.51379132764519,1.1055054570527927,-0.9904257338126724,-0.6280256894397043,-0.23593595693156388,-0.8709240081287376,1.0573690772014068,-0.3762379391828997,0.35802073264889406,-2.171972166495898,0.5659522318243124,0.27402171478758164,0.7430321969733856,-0.15421444678219592,-0.46218247618006275,2.3079130602513622,-0.16704682333912343,0.2194313243300384,0.6231006567199258,0.08286854371569917,0.043477848787481094,-1.2498732600404343,0.16371110440911144,-0.40534155834657665,0.08651442714385449,2.9169931555054567,0.004327769810496674,0.37237790971922713,0.28005228522463516,1.848897716197616,0.4106443992320932,0.19028449673198894,-0.5802382998641026,-1.713979145151909,-0.5242260676924482,-1.1307824665646733,1.6418647507355841,-1.1033911165410026,-2.21708024821419,1.8718892440150405,0.8009100804308086,-0.26602192391309326,0.25152549764039694,0.3877650227667204,1.5256404263775094,0.30506221897214136,-0.4153738433846389,-0.17034822037576328,-0.3036544258483705,-1.8183376654326648,1.7861820643661501,0.2229361768111322,0.6747603155874341,-0.5599025272578336,-0.5445942616000233,-0.3062303296195684,-1.0570419931587036,0.6807613238311263,-0.6519502784951978,-0.31489916813408847,-1.4093303617825104,-1.0634251371981451,0.9785478525710136,0.4227728235965815,2.5635240346058623,0.4410111875896478,-0.45640763465941236,0.21590942126449858,2.544788219237945,0.9025266167856891,-0.05185268070775036,-1.5952756136791992,0.6848850070829224,0.041981467274464966,0.3032768790395316,-0.9087932314476918,-0.9947596721459514,-2.2499058617606273,-0.46370604685559325,-0.23889499271318704,0.3542498514413587,-0.29001979823591567,0.1865706592051687,0.6351517507365843,1.3169517296420414,1.288536757626227,-0.7423335184287976,0.040836424015733896,-0.12438835879892199,-0.09294745677129158,-0.2722794371054349,0.3653043014603642,-0.2900275858778023,-1.117627776598141,-0.04770667404767993,0.23880183829649454,-0.041735751877046964,-0.3538306260359232,0.8496720427464658,-0.2335717612456968,0.8353310187475484,-1.5324565447800729,-0.4524256332338796,-0.19496838596633012,-1.4130907447293712,-1.522794475390267,1.2789575883423014,-0.12497812920849813,-1.7256759850769288,0.7929213006612958,-1.1496165859048755,-0.41283282081221634,-1.4151995301481148,1.6509838017039011,-0.2549782692872626,-1.4571461583515959,-1.1062472128791359,1.6630639511970455,1.0268213600097817,-0.7041964202399019,-0.14935661401924694,0.6460272919127256,-0.6808855777078588,0.5085835336519858,2.1158304898398357,-0.081453211693684,0.35270918610969204,0.10335319165089896,-0.729551058337024,-0.7524365277441629,-0.3558134938377526,0.7055368537557868,-1.0450833318681947,1.0947941464061814,0.5328335445543372,-0.23470550424599237,0.006961534381111021,0.07623837644922526,-0.2938862154141604,-1.5750456561879729,-0.7582469699431408,-0.3721074190746589,0.0031394064968117033,0.32306274924881584,-0.14690968632366327,-0.9339000452502628,1.2396217524690316,1.2320445171693295,0.62357408353601,-0.32941364997907,1.6451765874553579,1.3485826713426776,0.9902189217574864,0.4967450245806616,-1.4212071325947997,-1.842737562087639,-1.3602476715022387,-0.5287307906056951,-1.459320320227036,0.9696414182227778,1.5841009866430427,-0.21225752117572533,-0.2968151721074271,-1.0158053411875976,2.4416648398670637,-0.2492941281824823,-0.42033280252029714,-1.2661213652087355,0.18044613653698507,-2.2614229378065573,0.25454201485240974,-0.7360911368689285,2.0351268981534627,-0.7522197460837255,-0.41388097902899657,1.2889508151672837,1.0133041966636371,-0.6414088023354242,-0.9605604049915951,0.9169486156126895,-0.02651641655193271,-0.5570681167062057,1.916059195583856,-0.03619090101191731,-1.5433831404000637,0.497646866013387,-0.2671654905261768,-0.6289226644230571,0.2129260180346696,-1.9440569157610446,-0.45422448384452524,1.377098984574338,1.4777107274188301,-0.9917942638119928,0.08637755188566806,-0.24497143913928787,1.327990484703036,-2.1367834358495448,-0.3117236023575919,-0.6330356454425982,0.9957834392486562,-0.3071253754469344,0.9992148198083266,-1.113321662712003,0.07762313395662432,0.13773625551915578,1.4325217032601585,-0.23561861935851747,-0.06139327983339581,0.31454344506608956,-1.7281863298919737,0.9682149510829756,-0.24395444417779885,-0.2703279339936183,1.4393902058499835,-0.3990618260378027,-1.4587410740020215,-1.5950388625006984,-1.3924204968392833,2.665980953053959,-0.9149562760560291,-0.1504356922299058,0.3583696466523855,1.0750972101484624,0.7369347708714781,-0.9256192964408365,-0.0313806989948808,-0.8176414990072961,0.9304031586057371,0.5319528139265404,0.879999921582459,-1.1719161898673782,-0.41271279785827836,-0.9353346614380219,0.7589054933959154,-1.210413677507771,1.09783963497067,-0.5578417645694214,1.1641960835215053,0.8493125185186898,1.5103790236015826,0.7470915815526671,-0.6448631365183873,-0.6561154235533102,2.113562121931826,0.5490172238600796,-0.48865008055248504,0.5518151889705926,1.0611635211694723,0.00893647182858616,-1.4083158567796332,-0.27759448864483804,-0.2760413703290099,-0.6987366419646402,-0.08718231264813033,1.1641413254897437,0.4069108564287713,1.0524256131738225,-1.4597871871779386,0.29057131593263413,-0.9359127304935095,-1.2136669057504552,-0.9875290626931018,0.37715957054362975,0.8135522150273177,1.2046092631781167,-0.1594686670019187,-1.1029857301249413,-0.43482474703672397,0.5411037587614179,1.605475757161128,0.4041521724913597,-0.03717898355236709,1.4822355654108932,0.6861161727701847,-1.3369192399898655,1.9929723185790011,-0.3212239253952428,0.7114956235176785,0.5575180403446564,