{"layer_sizes":[405,20,2],"weights":[{"v":1,"dim":[20,405],"data":[-0.6248480506230626,-2.27635267843442,-0.06359503666570927,-0.9061669119310839,-1.2588469458467288,-1.9159070232847606,0.10944033294909042,1.135218385639561,-0.6634239939016504,0.3746374574215444,-0.8139307351228814,0.40837854553377423,0.5736609679158471,0.06890909397993243,-0.9253758867890196,0.5045693784130754,1.4581494694608372,1.6178771891691457,1.2939585494585057,-2.044222680495354,-0.055222118294821605,-0.0044088659777743785,0.9073062122201343,-0.4140745578351713,1.4887420544862597,2.086653447010039,-1.1810674700978796,0.8838420963635705,-0.9622930799366004,-1.1469913028738439,1.4425385508603168,-0.04122791186777853,0.1413590313640783,0.6439610057682441,-0.8394639321635274,0.01494669424005315,-0.7132108307358923,-0.8305936473348043,-0.6586953183108143,0.25577728735523997,-0.4184092243651913,0.6445645359896955,1.6760329260854592,0.26890975268700157,-0.29639357650661,0.8384209275901977,-0.39468701776437937,1.1464180709782519,-1.0056749609161657,0.7850196338525585,-1.2230522119408898,-0.7276142217386479,0.39336721018582566,0.9435365617630248,-0.061519297799482904,-1.1155066525957302,-1.001812184006847,-0.5502659196514039,-0.16653768259774782,0.8684386513809745,0.1957134519718149,-1.0753171846748908,-0.40043869973947027,0.8666622114767516,-0.285589115437707,-0.698526173203075,1.5874761152938803,1.186981159425212,-2.555383964464974,0.6389156624019983,1.9093360928242682,-0.9253917667625239,-0.43488062542071554,-1.4309445167949826,1.1168962380991414,-2.019953758420959,0.056947673395704175,-0.000026448748243058104,-0.8993666463488497,0.9010219564566315,0.6013397941693328,0.18526197001414688,0.9755205745236085,-2.7616446466688656,-0.1518919170382539,-2.361883158035762,-0.10733088948661478,1.1785590154897303,-0.6644274131158945,0.22488040127011488,0.18397708930438011,-0.9164165640621661,-0.1163478383476082,0.1811126019830402,1.4330223190408184,-0.6000005257245207,-1.2728731861037985,0.0016005152882970777,-0.5409524067110338,0.4428541273167184,-1.2334257690374575,0.8643541037150688,0.07396546830367301,0.24154825505019895,-0.09627256326463814,-0.4238705906986126,-0.767382983125144,0.1498589470791499,0.9019351754114795,0.25197175666615723,2.482398565441053,-0.3835549622539408,0.44080501141506895,0.48880978059644703,1.714402903818765,1.3046128234408811,-0.6784996418214605,-0.14176956480528707,-0.8848943969321699,0.9155899162013634,-0.4460992823109015,-0.09792063405723614,-0.32566978922301526,0.914280477147071,1.2978903886273112,0.6609347491307135,-1.7066476469990204,1.3152509095392226,1.7594558803786733,2.4691709995778015,-0.5573888810027234,0.5963430993658284,-0.8641884050399112,-0.011010865740177362,0.5018567604080892,2.963546014101317,1.2056858183050445,-1.217131614727669,-1.3912888253306275,0.2366222807649734,0.018609680492570682,-0.25975831340575206,-0.5523054388544748,-0.8840138987416876,2.3157325978077825,-1.2127096730865914,1.525668294170918,0.49006047117932544,-0.21651972752069865,-0.1366414184965899,0.3919609300740933,-0.6411614323571485,0.20777086010020387,0.19299745626134063,-1.2318754402334167,0.15863652321869734,0.8971311705976646,0.7984499655866704,-0.855518756112617,1.1184102108662146,-1.3733980618162365,0.2881350883104446,0.9364070534325595,0.8395717416605244,0.2912262417518685,0.6896879551691065,-0.6131411239632857,-2.8272047676635674,2.239725710998729,0.017815053711257408,-2.002199715911968,-0.2506170997223462,-1.704007743570468,-2.856515269230406,0.053992124489834654,-1.3602368063683299,0.03668610602072673,0.5222476246537733,0.8040811236258693,0.6616097335233992,-2.0359410319712605,-0.8523459418842819,1.6268964545893063,-0.8709153972447773,-1.155323754323684,-1.1737626818711604,-0.7475040084207899,1.0801291380855673,0.2833218851555609,0.2991578953005368,-0.2537380951967871,-0.8830816534698794,0.2911617566153822,1.0864950961049669,0.7500434308636142,-0.9345666515425373,-0.3820607781346109,-0.709213143968011,1.5595817242090617,0.8296863988036417,-0.7174274489072924,0.5136935418680664,1.0988756097578187,-0.11060140607548229,-1.0451600364108702,2.136810327457053,1.2562648899763593,0.45756331421747387,1.0418612406910615,0.4384174672454933,0.6654185476646264,-0.8307699388274962,-0.7310788441423053,0.7278676845078561,0.3578113326602857,-0.7846101229226297,-0.13991482968839683,1.9310924812981063,-0.4111141690868651,0.06593646064380933,0.4291350961580776,0.5707897564267382,-1.4532304720420812,-0.5875076156382388,-0.8306487348318946,-0.1906134083089261,0.4399577383845174,-1.0706069610200666,0.9475706235447933,-0.25565511990937784,-1.5017422376052625,-0.02667830494958265,0.2388670484652441,-0.7008693429590134,-1.4092537226205328,1.3206874259719132,-1.308261596067911,-0.9626767429980576,0.07833476356301151,-1.3891455497068146,-0.5153516125877458,0.08716752165819965,1.6341355523224683,-0.9750660673308181,-1.9157583123078772,-0.7972336990444991,-2.5140890144058936,2.2067174667639673,-0.6644571949977166,0.715992251670554,1.3006244873420048,1.579847779605189,-0.42569274804320784,0.6096922210526851,0.1625680327666506,2.1887159394127123,1.2545387363919742,-1.226670883080001,-1.569579513811797,0.6576303931523945,0.42283385398444795,0.35996567264190266,0.19966713054979213,0.09511639140487778,-0.7367282450019504,0.015000299568340598,-0.8146551005825209,0.9278744544148754,0.31920304965803253,-1.3500525041569909,-0.022952304942967454,-0.46800742677125023,-1.30896316259462,-0.16725800347595055,-1.421320853256355,-0.38038402704532526,1.1824195251878906,0.03467419178611601,-0.24349852177580752,-0.22790935936866932,-0.2577306618163846,0.012606330779562002,1.8956348415030837,-0.4415146500489884,-1.5052304475805869,-1.5707389687856046,1.3148728499239482,-1.1536934172975613,0.4605435188753647,0.5430007269226129,-0.8331583149137508,0.34157753404637486,-0.7009128164061096,-0.2801166421245426,0.02500806870337393,0.5951036438262842,0.10635491010688077,-0.6962199253607987,-0.5302240631013015,0.7780054762130877,0.6339452521692314,0.8673426806835565,1.220868781747849,1.3153874601109918,-1.2011053801509566,-0.03386703540576935,1.0836955484502804,0.8672592442922511,-0.38724202562169113,0.41410334042832164,0.9366168922623233,-0.9704219955816124,0.947422724493982,0.4917456574785036,-0.19739168380753946,0.4061106008789349,-0.42931923043971026,0.540929038509269,1.83359464293498,0.00026715048463741523,-0.06896557073597358,-0.6056817187441698,0.03161026330307846,-0.01873221407527213,0.34715933061723453,1.1222655233344592,0.7599738736043816,-0.8327394730669084,-1.3214909647600956,-0.3807587080158965,-0.07319442696096556,-0.9674015387528206,0.7025715088373509,-0.7536548360554247,0.3725237459085003,-0.9571329479763403,0.5970370032667545,-0.4937905848729061,1.2540737989448432,1.189519330940079,2.661140884139118,-1.4556004822822033,0.5566871106737595,-0.5019769541312654,0.6958924594846605,-0.2061093246410621,-0.9530679050207572,0.2140458415316551,-0.12312181206985134,-1.896172056024955,-0.5839585332835056,0.6210957850917619,0.3424762964385078,1.626671441247742,-0.38565552545387,0.20023659595587312,-0.2536385874604127,-0.6653680568335681,0.01946600977672555,-0.5354527496821806,0.34148332995535424,-0.19796850170046912,-0.34413568889391394,-0.31015639833768854,-0.8836695535595482,0.8444793320431945,-0.9363855117785517,0.8651641452448801,1.461494024169327,1.2858707738393582,-0.4169478058982344,1.1617649777867545,0.5719543795978458,1.0594082437998618,1.079983192974185,0.5554911527012524,-0.7612713751379575,-1.505203261882803,-0.5832175731413379,1.9270657522238797,0.7409385307087845,-0.38644915971444715,-0.2211706060450428,-0.5237545374602619,0.80190169623125,-0.8906084855502011,0.5640335461027535,1.125703342084316,-0.43157343000067344,-0.585237825697952,-0.4409406979909689,-0.8440521427578488,0.9477384073416594,1.6582858493717123,1.1227214619571677,0.5363347978818497,-2.3255074473747563,-1.5193908676771488,-0.5738399248164766,0.27397908837485985,-1.1815467090417304,-0.9725014825918874,0.37856070951790377,1.3519397692589201,0.05836082415954748,0.08843009112970525,-0.9448980280049684,-0.09222839960228037,-0.7990665972444327,0.951823678542407,-1.5872406342191911,-1.0450420698277907,1.516874853177542,-0.41660466418262543,-0.334064442470714,0.08282997752327549,-0.6424862025799841,0.683559756379639,-0.1825351567714101,-0.7930053936634389,-0.8509359160115095,-0.5086693372802978,1.0161043603096684,0.2904883269152419,0.7281949246137825,-1.6468893592808609,1.560123101932235,-0.8918822963798535,-3.187787909991158,-0.6175280509643196,-0.8459497840420631,-0.68085461129007,-0.7325202161258456,-1.726676165721257,0.7026197362996714,0.34461627850411647,0.5434917062392759,0.32704100367933064,-0.049860300397273766,-1.680490132120357,-1.456168906441685,-1.222593644308907,-1.1299669286630574,0.7807616304886998,0.5838158112433678,1.0495794705810602,-0.5227878202705193,-0.6441175618305984,1.675355344032751,-0.7674994618364048,1.262118820589358,2.807283837212796,0.1388865480013789,0.8399596177393815,-0.08852812203946851,-1.9419806945086968,-0.3436478224569592,1.4844413261128195,0.3167863939374177,-2.1408405163510924,1.2698758501025291,0.6014213936316462,0.31490845273208634,-2.212251238965317,0.17509580833380187,-0.06113913980692701,0.5921348608862002,-0.5700094255993312,-2.372549129294742,1.0142559962480837,0.8376216425567369,0.7705435046432224,-1.5654308671680768,-0.531260483445445,0.9019834850060122,1.2893132002128802,-0.5174686225241163,0.9069245264750737,0.7239413292196303,0.3616266741074296,0.4077892697316126,-0.0799746553609552,0.8081686235698806,-0.11168588064009226,-0.9111434454770337,-0.25755550016737605,-0.4540958578318041,1.6208191590003396,1.2807488109972938,-0.2610141719134167,0.5271454727015256,0.5197844124187533,0.1947779305222643,-0.05846853228179256,-1.6528332916647572,-0.8645101817672366,0.6405689319161972,0.08947867598140463,-0.8703796078022454,0.9880058762696234,1.2843972069170109,-0.025847656196605246,0.3957210329546254,1.835070141273333,-0.9836641731390374,1.4118354808443478,-1.6866376251476043,-0.9598143087557276,-0.6433357524348507,0.672547881493956,2.1001165992439166,-0.7937144219536283,-0.3325349110449122,-0.8389205673232303,-0.31247484367669975,-0.09565276754955873,2.1761267152067867,-0.4599172280859978,-0.9181614947373787,-0.22199453508336603,0.3070087438596322,-1.7053915247601648,-0.10087845102851749,-0.6648679856201594,-0.6166262097861676,1.1621666157761854,-1.010926646952643,-0.024736934703425823,-0.09444837689166687,0.9558434284443403,-0.5779004600820202,0.5679374271512678,-0.2858588256504556,-1.1988010214357119,0.3523252017539732,0.16028757985706454,-1.7450393819629262,-0.8818216747292789,-0.6484367752137502,-0.9706733081852668,1.3253468071399548,-0.21150343018654807,1.0798809297318785,-0.36471775849305155,0.9826671769605507,-0.5993954774374928,-2.9532122524212703,0.043475458218901315,-0.9436024594970902,-1.1766597326641972,-0.57868874979692,0.38381285780890695,0.5879921866164937,-0.29753532816727135,1.339028827540057,0.9645257006962726,-1.7697989311535505,0.1706987723627446,2.038061522324218,1.7868147582222733,-1.2593179490952757,0.9684566406066207,-0.7536665159457845,1.2394698765491272,1.4630861400517636,-0.5346028484674052,-0.6185284215392531,0.8393025100323647,0.8184345194346557,0.37199811541501954,1.4523903957576783,1.3394706468876263,-0.178500979860394,0.1344293754473507,-0.9079067620693364,-0.28943481695348006,1.090662933552668,1.4277253655972897,0.3347161176483546,-0.4376010859633335,-0.717848583731099,-0.9785771965725862,0.11036883498953484,-0.5888694369313162,1.1364257091150298,0.7069685304829425,0.8134051179226608,-0.20034835168243295,0.27908137179292036,0.12204632633936799,1.3143962264143596,1.3805790440357635,1.6369701706822843,-0.23161139773005215,-0.536697522023377,0.7590068303898247,0.4275017275322449,-0.3301284293221955,0.05720159231876849,0.23825160843249518,-1.5297439501280023,-0.2937900596043482,-0.5090515523279207,0.3087157980276312,1.086708632624526,1.9662784856312399,-0.4827765721875436,-0.7860020236825006,-0.796073426160925,1.194437417030098,0.5049047099665387,1.1502426315577705,-0.2966906253788391,-0.5674339789883747,0.001031430179168565,-2.853279060001859,-0.26121571433591645,-1.4270753090872477,0.8800047404001173,0.3305552224332607,0.3557271336921691,0.41386106279902013,1.467688748364091,-1.449082532144344,-1.390139031679015,0.8831392746932717,0.03277753614504649,-0.16900561858893762,-1.4182110056962403,1.7624624057702103,0.7089958020926768,-0.4124475241211465,0.30699348265405635,0.035353471647782665,0.5473032700306849,1.9378205363569245,-0.1676218183852906,0.2350455683158226,0.2768334400960104,-0.12679286037534976,-0.24599062540554803,2.3954618783270303,-0.57837842130238,1.225942447790208,-0.004233728563285788,1.0611026829787331,-1.1873978948554367,0.7774903271426993,0.3227153867635351,0.1641757672596465,-0.41507186429606974,-2.5449645196246777,2.3348906794323683,1.087975487019386,-0.5831836693266245,0.5133266557544018,-0.5119513954155929,0.6533313622547943,1.2304160410256415,1.0308129601900309,2.418621153688502,0.7906950068146635,0.05537789041460286,0.3873288240704279,0.15500428612142558,-0.10978635425114922,2.7735767554663098,0.6296826723448324,-0.6757044950628988,-1.9074199173247246,0.5280735611877783,-1.1480060249687993,-0.12909141709046745,0.41526843244068606,0.7905377631497146,0.20182123480220052,-0.3567617858692945,0.7525775136991618,0.580668143606451,-2.463633590609893,-0.6922284060129645,1.0323705966163341,1.98135696529868,0.9451516871491765,1.0344290304376735,1.3733336758727839,-0.8159091012099564,-0.03253355244647484,0.28155265390100404,-0.13058317679302095,-0.9536568679147993,0.03670750087075723,0.16883412502697487,1.2957114618482173,-0.8327031008604846,0.08469668949152091,0.3847223545667761,2.0767224175144317,-0.32058701551585367,-1.2687945034091843,-0.696213464865508,-1.327376672538655,1.3250032525560262,0.2686481814097861,0.6794600091565617,-0.35054063145272796,-1.503567990947546,-0.8797677432890268,-0.1664255672702478,-0.2893363951561082,0.30207804932088866,0.945965446794346,0.7696465097692682,-0.1294682743474355,1.4644324839110876,0.9524502392594952,1.1511139016792313,-0.9681563113422064,-0.04725514094195212,-0.3621765371518914,-2.099314089195687,0.838136403350689,-0.6377906304256068,-0.4364610659135275,0.30180554243642044,0.03677088960952092,-1.1255337379145438,0.5242692726100256,1.846535022488396,-0.4388057264433079,-0.7393459085628759,-0.33142075505339674,-0.7135847653804641,-0.4351368650724583,-0.02414151790495699,-1.3235683969141447,0.15419538564984908,0.6771240365162985,-0.5966301361045686,-0.8643098458191899,-0.2776767066453602,-0.11523097214054215,-0.9269030993035198,-1.3366564446288116,1.4517199940001349,1.2600046970142251,0.6143602229403798,0.9098388839392768,-0.8214690440364188,-2.300315830519514,0.6829279476587226,1.412018075554657,1.4159270963679282,-1.0586833344605588,0.8887713930259241,-0.9360365395284168,1.3273808462161607,0.26970343225096416,-0.30931339972977073,0.8519309417747252,0.07810568613143382,-1.17392630908388,-1.010902621246788,1.0430633205172355,-0.5403650654381796,-1.241722314691427,-0.1706581362799437,-0.8475723498693113,-1.0984598186322954,-0.21429148384740052,0.2500885547865162,-1.8175623636394829,-0.9018051730798088,-1.7050269173102746,-0.695808452698083,1.3335601148829306,1.9125077411983984,-1.548898430217344,0.3947582555822512,0.28858664077753937,-0.3187906047194253,-0.3915584811811716,-0.9206551857035048,0.38798317446563674,0.5577598057061869,-0.8006993169089213,-0.1994776383292813,-1.333136877665563,0.4833270816106037,1.2024677988021095,-0.07306891466399217,-0.8688169767161106,-0.6052681786881331,-0.46206376184557674,-1.7731500863639076,0.9402752546194034,0.5688737303393069,1.4785869119385737,0.7540337777476427,-0.9395349252555952,-1.4567673607975864,-0.696616905728073,-0.892693691179009,0.704446909831095,-0.7411130461875319,-0.3974137064259214,-0.3302078280626808,0.47579842540936695,3.325161574745121,1.2186884583815163,-1.0968252822298366,1.8513589826985717,-0.8819556820492727,-1.9133076980118155,0.13748203553066335,0.011406785126560508,-0.20637556258375658,-0.03483807855956749,0.41188054443214367,0.6042097375826434,0.6480477092554153,0.9364898330500605,0.2051182974068762,-0.28390175275545093,0.6763049653601367,1.1623292452412683,0.8596971349308687,0.941818304019827,-2.0540435223150313,-1.1279803363073901,-0.2797699366138135,-1.8174396637156962,0.8031610371976655,-0.008583399391881956,1.0600159552268393,-0.09496878042746529,-0.743647640485951,0.567605076191245,0.5510826826048701,1.0571315997973445,0.13200429493808932,-0.020896982411932344,1.4608393065171772,2.573026022273624,0.48529914716693523,-1.103859432697384,-0.1520056348029522,0.7040572166515963,-0.008743198179919096,2.2563678517177888,-0.12480429569462925,0.9151794955531345,0.2666713994845746,0.4190510867386186,-0.3130830008680301,0.13998050473637458,0.4573107031393661,0.7786114377201633,1.924872248602091,1.9598745833736015,0.6049288453701874,-1.1942924534557302,-0.2478246202682731,-1.1463574339296674,-1.1794510251354462,-0.16898691671952196,-1.606416152671483,0.7662389024188222,0.26057739176692507,2.0192938280782813,-0.650678836709205,0.7737751858181818,0.34244164223040907,0.06870825907510017,0.22602510783253904,2.2950894623836686,-0.3011101332307043,-1.5224945309331612,-0.22789047977892568,0.5062236117292571,-0.5184305293716677,-1.5525476994779894,0.4812828886112678,-0.04723263054673003,-1.1602630169823482,2.2098361137215323,-0.5775629619751208,0.4413074023733147,0.23950818081720152,-0.5334107073358563,0.44971569897239017,1.0579833334027202,0.4027171010548528,1.1812412037315696,-0.7996582409217231,-1.838196927234083,-0.24807427305335283,0.14553855349390982,0.5507455676135077,-0.678356709315935,0.38227457653403857,0.7321885698108934,-1.2934121902657103,0.20851561829828374,-0.12839062616675034,-0.2066475845649928,0.9072939864810182,-0.925833005842255,-1.1009883912928147,-0.18555793578698135,-0.027610262319405634,0.24237498369863378,-0.7361587639448891,1.101886804190117,0.5121922802424766,2.3968616617119127,-0.44366012052596465,-0.6395357290821084,-1.059906504669555,0.6511475046152707,-0.11446294850027164,1.4499998825288736,-0.1764749487159622,-1.7297545525816915,-0.2622857184211214,0.9200625687234462,1.6077669009573885,0.5304514725261842,0.20820733662960517,-0.12455289293743882,-0.1132547706222878,0.3785108816693885,0.8002097680852347,-1.9104696256464087,-0.4229590705754519,1.2596364908762925,-0.30223253992371973,0.4026851326290041,0.713653099340097,0.7671203764240345,-2.2753309301390585,-0.4900070100677584,0.0668661857875168,-0.42127585741522244,0.3512928842262502,0.24288759141876007,0.09362431365747156,1.3704133974314499,1.2068242149464465,2.988794526887585,0.8672820399089142,-0.2513194552036226,0.09750347350670427,-0.7997689316448964,0.6541746340977486,1.0610920423042118,0.38931518037068963,-1.5364965524913103,-1.0648553562264162,-0.9543637617440122,-0.2278674467249604,-2.4284805490646355,0.3154129163244776,-0.7963318698462233,-1.006005795058658,-0.2841823109358904,0.6504871337314689,2.2580223613184285,0.5208270409478609,-0.7468759372675069,1.571043807105329,-0.34036977516834477,1.0687376725045037,0.9621260593877796,1.165799835977326,0.8445264455647633,-0.378946912534117,0.0893740724593572,0.546868769159155,0.251165573319697,2.4215927444760967,0.15909694215239556,-1.6905258588083514,-2.1660851327226425,0.02662372572651169,1.5284877533595103,0.4165069989679156,0.0882433850402549,1.186768436696005,0.6765137968745444,0.7979022328603916,-1.4217636894458816,-0.264749344551801,1.1238250004458734,1.1234661173939333,0.18148529786319234,1.4967875815040204,-1.1331311400053057,-0.919418381005835,0.1734811109411005,0.005508055893482513,-0.007433922794372951,0.5833948067092659,0.3754214852253105,-0.4614842305049192,0.08914694459168225,1.905904593703122,-0.5201941615140001,0.044768489424385084,-1.8089716091546137,-0.5315308785326669,-2.9281617314319943,-0.2536222645176388,-0.33190920107604654,-0.14700814721192246,0.21973588817234826,-1.7216558004972418,-0.8960242533564957,0.7372157850044271,-0.611766157018633,0.27074521275151375,-0.3633238423399001,-1.0233289162856274,-0.44830383906307697,0.3832670340803158,0.956907185017313,0.03852159585485243,1.8977538917195251,0.22627169008481812,0.08902100601760751,-0.22917793674197717,0.44596031947100107,-0.7264826284140375,1.5438838537647148,1.7142532274296005,0.9628458974952434,-0.05356655850417769,0.4890729671980398,0.9350587533687117,-0.49224282058279617,0.10369315538991149,0.6159606497464446,0.03250032116204405,0.7017040967776412,0.47621873451221586,1.3244563664826252,-2.1699932713524817,-0.3171731606992412,0.01653220766154982,-0.525231836951753,-0.9794654313670499,-0.2273552981977714,2.027011790895583,1.3067292785957723,-0.6441939860431187,-0.272336828820666,1.2904879126134954,-0.8264151601524703,-0.1390473653439531,1.2842541301609565,-0.4034911164838284,-2.403353307132013,1.6804683452013671,0.39030651015175255,0.7921946911175197,0.040665155474050925,-0.03405327847536144,0.05185250794131349,0.9297288774813367,-1.457485342585868,-0.5886821489963454,0.2527270408296249,1.5922613215019004,-0.7988765377721616,-0.717110117671985,-1.5054412937087696,0.1359617671580991,-0.13425375749905516,0.1299998000646422,-1.1958457477362998,-1.189202638614566,-0.791611042787741,-1.1832546209580206,-0.20239165958731292,0.7502901641656495,1.1651445027073697,0.12443386178715463,-0.24529344454162694,0.3254727701342494,-0.49690543206679294,0.01431096108283248,0.18587816298445597,-0.2743719783087266,0.02200261819584149,1.6074069945926353,0.12959114590382456,-0.6905160115387864,0.5261712099368416,-0.9938735826579689,1.1481616880527625,2.310847916602901,0.6913457646110523,-1.2719959715878313,-0.45891587825666863,1.9952764321371221,-1.2007347638503798,0.40734585445025234,0.5607410433264125,0.08205326571111309,-3.076944996010837,0.2435231159463342,1.3279021439773606,-0.40996947300453584,-0.4294326558064403,-2.70323115002062,0.5155193762549405,-1.1248849957424107,0.953050617382511,2.200497758415745,1.592610922631215,0.4447862713124817,0.9410928726780526,0.8652574297719983,-1.2605407940573514,-0.3330171407860866,1.6074491316055735,-0.5630786436869453,-0.8418214394304638,-0.6223116754979918,-1.3728884178746923,1.4867878332408042,-0.29814331366244645,-0.7179815859780635,0.3848868850726027,-0.7001511007691524,-0.46727340325419947,1.898899761606145,-0.6185914876106405,0.07160219546142739,1.0607686692924765,0.97049552984404,-0.1345683785177504,0.878959175354306,-0.4667314081084904,1.1879371659857287,-0.7010476117054174,-0.2288126572842326,-1.4633511107895443,0.41942639278192057,-0.13974880446243193,1.1419094757626578,-0.17000439079398957,1.697589784715737,1.6733643167459062,0.8809568643048331,0.32907946157488444,0.319257790861619,-0.12309969730189556,0.4240041913047963,-0.3708933919946421,-1.270954148093624,-1.1203775688139048,-0.1692206719438106,-0.06461031518565064,-0.5929328053323886,-0.13253689736104302,-0.9978547175241138,-0.9473326166150596,-0.08131809022260673,0.35610746137540306,-0.9470142933608424,0.5003745223384765,1.5999250821663744,2.099527290663944,-0.11409040167284556,-1.6210123787121868,-2.054095093745038,-0.9157197873631072,-0.4183564002561456,-1.692218935539074,-0.09672188349202815,0.16457192152727082,1.7449297946313715,-0.21367211761983415,-1.2520304665052948,-0.9541557874028537,-0.5664939125466129,2.881553802751789,-0.06884848623042567,1.2318393487266697,0.9412239627208274,0.13293671537103224,1.3384388790244224,0.1272812350946985,-1.0834776730261548,-1.7245979441978228,0.042032123529972966,0.674626924393406,-0.4583885939589099,-0.9900165248644314,-0.7398200298312767,0.15919619963856194,0.51667369659343,-0.6214704127513823,1.6368120758207108,-0.5673008566659324,0.8381333191435614,0.19523285564951703,0.32449013362998347,-1.03665019156969,-0.5112497570637302,-0.909081335600058,0.2422904109959767,0.16262526741453928,0.015284038462280656,0.13267448508081586,0.14290445685954,0.6539465667869554,0.4127116386413061,-1.630177597795929,-0.8705224743846276,-0.10181462109646042,-0.43931918544918547,0.018446387962094468,-1.0177197010357284,0.24443645278734136,-1.5348245100183298,-0.019514414119459197,0.7592401467333396,0.18382001084088978,-0.4889498929857539,0.7120067810917297,-1.4303293994237387,0.5177055498188314,-0.11099984566094308,-0.2511790661282153,-2.1208315941937594,0.6168217487667031,1.9398305574194323,1.519759940808218,0.017676909249531473,-0.4287291408508344,1.0018211639742434,0.7284786009449012,0.3369674054792207,0.7187042572291817,-0.2787947434363348,1.324037303647668,-0.17767252107803777,-0.3787304352618891,-0.35193514995604125,-0.25837109196093205,-0.5135695794062689,-0.18087594198755824,-0.12545022241730733,0.4640233804119739,0.11793102949630188,-0.28607996241284694,0.3753731056015177,0.8273034811991516,0.24852204677710754,-0.6456930361903294,1.0004975366205118,0.17712860487110188,-0.8229307841337575,0.1137683270607672,-0.9707344512318368,0.3093515735938068,-0.01699928899387375,0.3301715770468062,-0.21987728288412794,0.40576713961369737,-0.570964489979507,-0.6194605506022751,-0.6161977772986201,-1.9885529638953932,0.2603591448666115,1.297952566109714,0.5405096421617561,-1.5736993822220038,-0.9608741842460464,0.36793217012108537,-0.3430916319264796,-0.767155177982978,-0.13047495184269126,0.5925057096694509,-1.9248204881793562,0.7178467351032873,-0.7910659256869637,0.7416818141053286,-0.7159056438543187,1.78084812939467,-0.2818128391480836,-0.20342266242716409,-1.4182169700299465,0.7368924442039664,-0.663216789593858,0.43247045035791554,1.42231176187839,-1.520976567392868,0.45160222861866844,0.3287289599292902,-0.09817553087162452,1.0425441221737697,1.3104496255774711,-0.1974899992785565,-0.8690718713549336,-0.7980206720521328,0.38401471761397515,0.10626897327426946,0.8074409082268534,0.3536255299701551,-0.1328411374406433,-1.103847636162484,-2.6558994473246194,-1.399958066333259,0.15330036172621908,-1.3989860627288317,-0.9046258302375263,1.7584151613820151,0.1179260988514786,1.425803243489424,1.3351510226673522,0.4397960070561464,0.9951101587083447,0.70332509676554,0.9138229064938262,-0.1961982428086468,-0.5974841491381339,2.0404190113718013,-1.1558364989633967,0.2718948895692496,-0.4718070177012106,-0.9173492656832424,-1.382413447169737,-1.2209485008354248,-0.05291821304495418,1.1430335842006527,0.5893290743478098,0.8248871771639406,1.848175080090326,-1.0146830870779804,-0.4182951091799254,0.10892567645857844,-1.0573821887692294,-1.4843982018850652,0.3748612747152207,-0.598885144428372,1.4063931823228637,-0.3753066992935471,1.3476467076809027,0.3225862263943195,-1.5585473354296944,-1.3772695814865328,-0.0027085815347777722,-1.2339225462127532,0.9846997925845961,0.11566633924103142,1.4188091926902353,-0.46336408065649154,0.08766393420396049,-1.5790501742985223,-1.3297991516644287,-0.11532256249118913,1.889205260048599,-0.6177125180297176,-1.7315845238541805,0.8740287293486807,-1.473295039042787,-1.632635959116727,0.4157116606583055,-0.45774494744807903,-1.1348743096142209,1.1694032682914282,1.0278027772478182,-2.1578206699044093,-0.5840314775864714,0.8566988650541023,-1.2583745821056773,-1.1916010111426167,-0.7194553914586023,1.4435603558536125,-1.1005192097419132,-0.7146385534306361,2.1236944302979293,0.30895191343219836,-0.3991046308038711,1.498224960555196,-0.922125398074066,-0.5917564833030807,0.5467211819541761,0.9174328654999474,0.529755764456903,0.8219799536923003,1.4847496054764489,-0.8573442147294497,-0.9000756570953107,-0.035105157974520816,-0.25121895299248154,-2.106530228751438,-0.7861053325493732,-0.4623760916057981,-0.2472081738015461,0.9876473882903416,0.7742200994160447,1.323415274386431,-0.7804402833263994,-0.9966035516145347,-1.319367486299385,0.06338349077488924,-0.5788605120416991,-0.6312892911857718,-0.8561910023378628,-0.11967158873612602,0.1089997477349754,-0.7284500051213342,0.5526419964792715,0.18244084383859885,-0.40361137907206446,0.3683445655402672,0.2963340050510539,-2.403264948176066,-0.07264140992044922,-0.6426395570402026,-0.11297949844973906,-0.788855618418414,0.26875396009515534,0.8587359276075531,0.08342428699722074,0.6782989464952126,0.7086498283264369,-0.67549575939758,1.1864113400752132,0.04685910174215982,-1.4445164572135667,0.5231192733460743,-1.0139227041658303,0.9201319937118408,-1.9187674065141698,-0.13348754686573092,-0.23641869147221958,-0.11184816205369578,0.10503927502617497,-1.3217695581238722,-0.5347244013762643,-1.2471714979561765,-0.47561569572324375,-0.9701730381538753,-1.1617874515720026,-1.1245611716656496,-1.4167509792167274,-0.5288803954301984,-0.6769295549728738,0.6102482354074873,1.1866048011262722,-1.7964695240183064,-0.8465821809000379,-0.2275737017398637,1.3189397326415042,0.0735985149378172,0.9534832093202368,0.13200085894675898,-0.6361853491418544,0.7961188068110715,0.3330247066612409,-1.109691421753086,-0.9167447232497412,-1.7548917515731688,-1.6825495367602037,0.3394726394824585,-0.8299071745476199,0.9670943109799216,-1.1973761449787526,-0.15775080211452705,0.3842705111599476,-0.9157407519214363,0.06566416112469935,-1.6606808857996695,-0.859281776969085,-2.0919277234227374,-0.03429989228216553,0.4244033351539411,1.0885465314412681,-1.0783092580757847,0.27194327675824365,0.31972993327926935,-1.411235823503964,1.7521024339662379,0.8776868369596686,1.5940650182364215,-0.8285488459149916,-1.0286367419010136,-1.6423522797441887,1.925588486344299,-0.6290251951768868,-1.4595907645480966,-1.7245972861259582,0.6908327399030978,-0.15967276799241564,0.5135693068465955,-0.387686162791316,0.47827199360335504,1.0245603522820963,-0.6474188814823261,0.10315307599498037,0.5059138286064978,-0.20231146706134842,-0.14430501719302669,-1.360932728416337,-2.0188634650498254,0.32674160789194906,-0.6913392421274683,-0.7128585947996101,-0.867243144691552,-0.04586322620297284,0.5787676744877188,-1.4575731061845278,1.4791618213229947,-0.6652735848406811,-0.05242247631251824,0.11185542585577131,1.3511952780318246,-0.9162079366091295,-0.48029832904520076,-0.270205064919424,-0.37193807307274834,-0.8238758368564297,0.4688563572790865,-0.6056106178755329,-0.719653914921087,-1.2312537102821715,-1.5581551094256487,-2.0720153367989034,-0.8263643573856513,0.14731531512745266,-0.1860878672225092,-0.0240388003813285,-0.7593736127352341,-0.9637799674295884,1.126044503140316,0.6605727242503376,-0.1189975415915347,-1.046461188023632,-1.0006642483723147,0.4594754495741719,-0.47706244120994495,-0.8298649432432554,2.064522876931275,0.5273747295093499,0.7446317854960589,-0.08024098470494437,0.9150281164895961,1.1759330941844301,-0.4233207656576066,1.0500222511439194,0.4272887293706632,0.26098949535260624,0.48171241986719016,0.20378684092942978,2.220413901667286,0.19994713937660968,1.7756210047601388,1.0944336551772875,0.9665808043804186,0.35579599463669503,-2.116472369813732,-0.5961701112965934,-2.4998928577175787,0.2325879533528683,0.8008939158364085,-0.8139379840222499,1.4861539924736828,0.7008817351444039,0.27058246137977376,0.5727605355247984,-1.3723757791122593,-0.216081416466569,-0.5636528151829221,2.482091977418699,-0.2604449751848656,1.4164396686570686,0.8985380637607985,0.19372764276218116,0.5599788829889043,1.450850721943885,0.913188168621888,1.8014151825402425,0.18365127844026696,-1.1057892775018296,1.595819318773019,0.07005224850113027,0.2613999619803517,0.1430932635505607,-2.467729826314616,-1.8293707471960448,-0.26329130532124584,-0.25741258418842394,-2.428826132800093,0.2823884315411472,-2.514479531002134,0.8452542533088286,1.9773362245439468,-1.019916861800226,-0.7330084606265372,0.11433052753422537,-0.3729780032543863,-1.4989508824648456,1.666728672666672,-1.2858258820585389,0.5435448617661305,-0.5548948945721349,0.05415420912798491,-0.013780567724229172,1.2100850446230187,-0.367178651828779,-0.14986423553175365,-0.7461271399587429,0.5132025943488222,0.5705437012242291,-1.9903521311403525,-2.502894918715753,-0.34565354945716115,0.09442080223363444,-0.650323074247697,0.8843787221083631,-1.622670690101425,-0.7520703102529608,-0.3045036542126348,0.2774682572419415,-0.10717906233382175,2.5760343457932176,1.0989736509678432,0.22794177601985993,-0.14062829421851827,0.3298958140609688,-0.7944986581686537,0.8433921697583192,-0.7513816942806041,-0.44410840726414663,0.2937398947647979,-0.6705101888785836,1.4509129534727025,0.4004147806980361,0.5710040411887326,-0.14795369268095807,-0.7172845749433738,-0.9279601379036928,-0.873022300049562,-0.21022178931174573,1.3188040111412398,0.06485060668044759,-2.3134609264827892,1.3476253713475634,-0.018556822807028868,0.08885025552486732,-2.4048976353037044,0.3899466516571993,-0.5063153372990512,0.6209501087577645,1.6354674699032756,-0.5917067515070465,-0.5382772336637535,-1.044446453754832,0.04390009910506806,0.9737962532098554,0.8599696436641546,0.692151030592428,-1.7894433360186477,1.1808577376445104,-0.23473210103817765,-1.7083476230772467,0.6252013411971314,0.9412335456547325,-0.2467377622631323,-0.1712448218939437,-0.0289165066324652,0.6086056772844177,-2.312071274264466,2.7044942060030603,-1.2174836089452237,1.1170261287385939,-0.5103418752477528,0.31304191566699247,-1.988292642139979,-0.16032631393208865,0.35896778953856057,-0.5190106282293669,0.47059534262211467,0.23233546570498081,0.4013792694428836,-0.01962814425653241,-2.387323543841065,1.5006855134557169,2.023050186245828,-0.37787375940201284,-0.07752011534414123,0.7193260034242192,0.5352242007561471,-0.7710188603312179,-0.8226580584556309,0.3546755408170295,-0.9128181290557476,-0.2275448227316292,-0.6890974311860786,1.049247927196286,1.506294669634119,-1.4404790413684234,-0.48555680572631754,0.008918272253448113,1.8073973664184084,-2.740966422139463,-0.8698639825943171,1.28986740615027,-0.5810741991204067,1.7645650795238823,0.8252448736762671,0.6158586759285745,-0.18503088366577297,-0.3976553371511112,-0.6944048934315747,-0.37712122557584554,-0.8438811047883575,1.520315821471828,0.6215494632172692,-0.39571682675278286,-0.35113644632157126,-0.015563031455508409,-1.197110428248543,0.028988690865589636,1.4256313482550214,0.49604844263353975,0.2642930008708505,0.4258417047449598,-1.2496772180155313,-0.44167194032652357,-0.07766731846661899,-0.8086546707777025,0.09928406684812863,0.5362501698671197,-1.4862867192499183,0.7413823613520121,0.14876875087652897,-0.8807842116363465,-0.5001918117021228,-0.8973917969339323,0.16472963227185136,0.22594760082310653,0.4441357369627318,0.599770299483971,-0.34242266613154587,-0.4237316697490947,0.024056356134101304,-0.5309679054261404,0.5517809748669684,-0.3591966454811279,0.06788662935347319,0.16735251973681503,0.23765273283618069,0.8964271811501516,-0.5484934151611541,0.5798742359251617,-0.04683501714524655,-0.6194450612654231,0.354753554689432,0.22056447116410696,-0.40883018719866693,1.0841280009823413,-0.6357225784099096,-1.3494437499655918,-2.6345000209474096,-0.9666545381065593,0.923008750990933,2.3190420633514,1.3386438003870804,1.084996107829642,-1.37580118344117,0.2523198182472374,1.112891392307886,0.6114528653054156,-0.8258370430181573,0.35174983161870965,0.5699194390364402,-1.4576690277559947,0.8035982419060329,0.7386252819765162,-1.0968233588125869,1.2987833476511266,-0.0826116864049663,1.080817927936019,-2.4375786501142804,-0.7695059198740458,0.8322618726167198,0.3121796301143866,0.7160603537500082,-0.594201815814416,0.736907708832636,-2.21622022351257,-1.9594857543125201,0.26942444653675546,-0.4926766777590394,1.2253832836439742,1.708749276974139,0.31278879928550196,0.02630796955337068,-0.35630802099934794,-0.003661959476505702,-0.19476330024638958,-1.134475728244986,-0.66298447028968,1.1106792865968707,-1.8761146652594627,-1.2384601490970648,1.3163555169874654,1.213875314070897,-0.14403546503818832,-0.9270250183577697,-0.29867255365245066,-1.1278827449005915,0.4128799741273904,0.2057213120995271,0.679182737735804,-0.388377645408722,-0.5039823175725082,0.1560591498972705,-2.035266971392142,0.18721248549172514,1.1312855061772842,0.6307450275286707,-1.3723272543645397,-0.778685541586061,1.4049970248279218,-0.4537155481253786,-0.06322196982359132,0.7877095903163729,1.9177451098226557,1.134375225385311,-1.738734882166264,-1.000070782462131,1.119819666060683,-0.6692504156578218,-0.06160421838852669,-1.088934079010281,-0.08329382638639739,-0.255096963760042,0.759658379196568,0.3099581346291598,0.8810269529059157,0.8306145959628184,0.11213755863561763,-0.742831965376752,0.781117047995786,0.00013827545614427436,1.7931970101843955,-0.6611035290255097,-0.8409868969839412,-2.1251817880183617,1.5106226722623024,-1.6052633200846855,-0.2150599111531688,-1.7365134048566677,-0.7930755073619615,0.026438222494833238,-0.5829763014164574,0.8647263020221038,1.8000857010509623,-0.8680704998147191,-0.2713150095896386,-0.9712963783970379,-1.7088321167024167,-0.3979401386783913,-0.12350801586789979,0.5430505546341028,1.5246944526610342,1.6102665146832345,-0.20386000933283618,1.1099617928248677,1.5512946193051222,-1.1988928356585895,1.7639962229185113,-0.9238980038795346,0.9003102399716132,0.5922609706464974,0.3948109582067919,-0.6802546424116329,0.6793564026309012,-0.4364301418227379,0.5848677949417097,0.2929348949409669,2.05981933861865,0.4714873195061533,-0.3558537115225005,0.33439706779196765,-1.3210416636701818,0.2529634660882171,1.8212422019323935,-1.7785307271556978,0.7714423967420003,-0.41179120014281934,0.5268940701195327,-0.6048242838908259,-1.361047976740412,-0.7162423172573356,1.1793136058973759,0.6302319107177525,1.0304625970594326,0.5128984183957028,0.4912327784523883,-0.7233850320293882,0.05829946164080074,-0.16947733155166841,-0.32713678394332657,0.3886844399516472,0.9200924388172438,-0.537742879235686,-0.8318857806198657,1.2565103030823723,0.5931421011993556,0.9824884556998517,0.6772738492434618,-0.5841418866174133,-0.1866117857873705,0.6718797188380294,0.8039111741105254,1.3773661112444613,1.2439123581988851,-0.7355365543230559,-1.0861405158461737,1.2173942522239012,1.5504198075155529,0.43482538557204886,0.9339887088008851,1.034215692462664,1.5513511946585004,1.229656451528075,1.008685966952308,-0.0365018509426818,1.0759237436693487,-0.56771345488635,-0.13591992062432126,1.0211321294945725,-0.2094435322595461,0.16523812809369706,-0.3359162300118075,0.4337635378982222,-1.2000766158978948,0.34146576675264084,0.05577974683670012,-1.6923841550217826,-0.20241317250618324,-0.570216505651599,-0.33869076478554494,0.7712991597733745,-0.244205337747929,1.333199582460005,1.151568016948523,0.7360893171557292,-0.8063907337422551,1.2197327832686484,-0.20249371536350447,-0.11089017891992238,0.8482306153826787,0.4778105229016756,-1.1370610711621145,-0.688503805099808,-0.35808257449414266,-1.0969868183524427,-1.3130349965190486,0.6753958196288554,-0.5254529581535821,-1.0939394696770857,1.0697910096892569,-1.289925428360536,0.05053741835536373,0.9065178800274427,-0.39479496265780517,0.12942057794594494,1.4916165166879432,-0.1372917915519338,1.3687940745243974,1.2435339434435337,-1.075975498336873,0.846888398564408,-1.352334637454449,-1.6696287847079934,-1.6220519073037194,1.6986889645621635,1.3196352403478242,0.9823436758493213,-0.20058832041702684,0.10035910365466319,-1.7995991829875941,1.8811114090777143,0.1326833084843512,-4.095327103785268,-0.5387447437685471,1.6152751555156597,-1.6979851125810153,-0.7926461023688842,-0.15328847952077523,0.5771097051318688,0.04709550422004633,-0.9429082904353459,-1.7791184903316652,-0.7697937929407268,0.32614099049131595,1.1302797322160267,1.7765887953072987,-0.4369068659949395,0.5583425614447642,2.244131567913478,-0.33198612339110917,1.166364383175917,1.1501197806638064,1.83051663137265,-0.6013349169423583,-0.22252187069471943,-1.0229509331793867,0.5882334031566646,-2.5508667640200335,-1.4227111861528767,-0.1426002104749228,-0.10888050168601854,0.6786912865377819,0.9841879478147767,0.004752493726742849,-0.17622755695093353,-0.04845706365254204,0.8747859766173615,-0.1837661557966656,1.1478952647409137,-0.36186099874093464,-0.09260774125279006,-1.5272116977078576,1.6457324479197042,-2.2618030540568173,-1.2081818240157958,-0.18829597082408972,-0.4641364801153971,-0.38325744022977765,1.9818900123585725,-0.5353988049390438,-0.270810800325919,0.5079203583347327,-0.3414011365180788,-1.0972469169306274,0.9653187333653667,1.1638930246546813,0.8205880463872265,-2.1759704026601607,-3.091754158467041,-2.039266041288694,-0.21407042242434035,-0.30804828819619584,-0.6817466146526928,0.42117923757636416,0.3999996465456436,-1.062541058364089,-2.107989394265152,1.3037456152921656,-1.050037212494102,0.5394318550314319,-0.11542626947914914,0.21919218736205487,1.5343570826103121,0.5968255416698558,1.658503372409061,0.4029041967614474,-0.24741811000651598,-1.1176429957208107,1.2839792729227604,0.08672388705193079,0.5255644344955795,-0.5149235234249722,-1.398030035099647,0.1049238693458874,-0.5139500080912432,0.4829357291937013,0.2618072312353752,-0.11919579869417676,-0.9717565139636327,-0.7499706057040595,-0.9105887553293909,0.31250282378237104,0.4807894989483441,-0.11977366599737346,-1.3511023893911955,-0.045196535909500776,0.19657965360511923,0.23472006587299352,0.09889063083598953,0.32226943187664936,0.5617124510661328,-0.45427673406875496,-0.37043398240847325,0.5994738053125477,-1.5166546542958441,0.4832200283909778,-0.0787661605900516,1.4002049102190663,-0.46155644043732136,0.9361062349336788,0.348867083025564,0.5142980451969636,0.30832491450015886,1.0354608902210158,0.09011479273200204,-0.9378674708578439,-0.1509870834287656,0.24947989404541474,-0.9669853778486396,-0.18459586426647204,1.1850908211066016,-0.0031064783656921365,-0.7109084099240551,-0.5038760761305897,0.04221331090147867,0.0037475637396485947,0.34282123153659855,0.4412824594455183,1.6104286196819715,0.12755388351249752,-0.9020520977209958,-0.5274423811730514,-0.8483563435792085,1.3862536448673188,0.8891295371215665,-2.3689516049933177,2.3133208557263494,-0.7014989291303796,-1.4515461894177166,0.5704295661012022,-0.4600471739987374,1.1523334900239928,0.21113868049801074,-0.5130886017107256,2.4019596009714403,0.20494661398467195,0.691308826503391,1.5802792032964943,-0.4888971468435265,-0.42134223291850054,0.2742722330852075,-1.8979613861981113,-0.10320357843300783,1.8154434150947418,-0.16942235934750866,0.1801982043445195,0.9179465841934269,0.3885956641551094,1.102157490702411,1.5697200877945996,0.1224377617356026,1.0692903994074114,0.060462246780519126,0.8042874345838644,-0.4230271705028751,-0.44998124852707627,-0.052726837003247255,1.4941828686906087,-0.3811853362341718,-0.1544252007580475,-0.33878228731306137,0.49464002313646627,-0.7091781708972503,-0.6297545913866677,1.8464432088934537,0.5513521428229846,-0.905460893923381,-1.1881435834999459,-1.0878884057178468,-1.4933211744924428,0.6899183802027274,0.9134722021932102,0.32405340877988936,-0.13844860183245,0.8017240219451476,-0.309521581581231,-0.24249360853492788,0.7721987971278745,2.35988101110551,-1.677383589811671,2.270201057762887,0.6368674131787403,-1.1286224217560246,0.993313312134214,-1.4236333459687758,0.06890979021780265,-0.31246907521326045,0.4212890827841541,-1.163636029067945,1.4916735128035656,-0.07416869400299536,-1.3102393974132847,-0.7312645214619349,0.9814227924263697,-0.7062991060392262,0.277595969730905,1.111143873883158,-0.54092664797447,0.6702097049674257,-1.1842317524501758,-0.4721711442610572,-0.48674058480063837,-1.5239399103487579,1.112843790626285,-0.26856926939630893,-0.09253984951415813,-1.2776925779747434,-0.23210914577625155,-1.4575407635917634,1.0984821823318207,0.44740158672378294,-0.456659688568483,-1.332019642238878,0.9810188134321939,-1.0579361227329205,1.5399970483318175,-0.2182811047738186,-1.2131464346186502,1.7423250097715037,0.6045005798857195,-0.14700529629899914,0.5028738523520571,1.1043455548184695,0.8648098034383045,-0.7974993552186139,0.03195925964062135,0.7605038539008203,0.1921198697508173,-0.697539492125703,0.34489109023577086,-0.3604127355370435,-1.446888083629767,1.965315573606237,-0.5035735579868541,-1.4432001696100598,-1.4598974062405015,0.1641938704190784,-1.0627239467453304,1.3769074848114384,0.6351214647662532,0.10140668630263845,0.3839981600181772,0.7623133933638958,0.3634165677121541,1.0889465019919562,-0.9004320164632185,-1.5627238436607607,0.5566854268314444,0.678706109624316,-0.5789199673686825,0.05210904351124264,0.6848933962862845,0.6892547042092407,-1.5862542489465188,-0.09749034211256069,-0.8154802129695257,-1.1421723607724676,0.045414553394196526,-0.19312487610049697,-0.5422157308319023,-1.2224577336135436,0.3390724606914775,0.26836492025237557,-0.9864477387628872,-0.831169615692188,-0.6523883270036093,-1.5249349972126338,1.372444952612511,0.08484384147728427,0.23974854745518334,-0.3440833398368906,-0.008449377396308693,0.07895659646009262,0.15430369768429159,0.8703349778692048,0.9031706447543528,-0.8493377747059041,-2.979963948610212,0.1516766277917109,0.2280949654795087,0.08144967103747872,1.1785248684655463,1.4806009541700988,-0.049728434038087764,-0.7974616740322099,-0.04814748389811325,-1.2436746006513928,-0.38651652293246347,-0.8264685742072088,0.69788233458652,-1.5792515847206698,1.448730240658666,0.2656451366777852,0.07613766157019039,0.0941427412155487,-0.8109943492218817,1.4895955122857596,1.3051052388126978,0.5220972313324621,-0.12060084969185848,-0.8785499745403694,1.1972018393632806,-1.3858662150897576,0.35594002197784463,-0.33232213127597005,0.9844966398150453,0.22427826510565427,1.6472693465154484,-0.23367655438073212,-0.7881602402116449,0.18925676154831772,0.3748213312133382,0.7614265575043614,1.5974444513753663,-1.0852719734323872,0.4489792449531146,0.793369136795098,0.781820437388831,1.124179834266231,-1.2406314723206326,1.9845116847686808,-0.11472261630160115,-1.0400014816581606,0.8383557456943442,1.3219569018086414,-0.7142418926337635,-0.9954761188069449,-0.6415309742006315,0.9262190616057904,1.4495500678512756,0.23091407474271575,0.42307078892427696,0.24162176432127816,-0.7857325931244223,0.09563487413633609,-0.4726071210116331,-1.0025152157202166,-1.1270779561987434,-0.8853319187480199,-0.048659938247192426,0.1680887246148165,0.5381769422176967,2.4981644819194426,0.2432911133800151,-0.06380445156529714,-0.6616661357541745,-0.8063256747510817,0.16664778698930302,-0.06491958833064713,-0.0033064140513015456,0.6145868544746377,0.5697615498721749,-0.10252933197637319,-1.9700751850952616,-2.0624021438571503,0.8966401271500032,-1.31594432717599,1.6862259916602285,-1.0817268470234385,-0.11119057587905085,1.0247167779144666,1.3196531431083396,-0.33397575141552405,-0.38359206343427193,0.4942603306120836,0.3903092876622043,0.829091819567343,0.5248753671541566,-1.2004826061180534,-1.7173970656691775,0.6084077818839996,-1.7455012547220818,-0.4863399614507168,-0.6884579384293551,0.08779960715663954,0.8395887338642911,-0.7528938527179218,-1.8953044518159896,-1.2536721184145445,1.5256672164209024,-0.4304856250615791,1.2134323315410889,-0.8592183023195314,0.0912552331346624,0.004403456170638794,-0.108082590408505,-1.2207585670354246,-1.5058275590445331,-0.5723236846028219,-0.548039102801297,-1.5352732745120095,0.7487626732589114,0.8992355295335254,1.8325733976268272,0.4363042766607363,-0.2285825597286082,-2.6413078299862205,0.4973817758873948,2.137591453155228,-0.6387993089113215,-0.4390758865665443,0.5648069942872834,0.953033202363389,-0.7863566361416481,-0.3847943169600628,-0.24019395461495716,1.3835943812077887,-1.5475307630548618,1.4148870201373824,0.5572070025083958,0.9276019532848345,-0.6396424428220518,0.9869070842573292,-1.4600529380064495,1.5745903230337068,-0.6557368708844424,-0.6487259915241526,1.1435304796151444,-0.30116936533496813,1.8563970140433337,2.1910857003116453,1.802174953875537,1.4655047618283004,-0.45422544395669895,0.2203246664765362,-0.7172686157361925,0.6845273905281796,1.4719071177486023,-0.449014146066136,-0.08657492798787025,-0.6399763911014642,-0.8736653533832209,1.3674572416345858,-0.29984998166622917,2.035989301687833,-1.416330678433958,0.8233344967616919,0.6889955161080394,-0.31402527417280857,0.1930499839804262,-0.4914296455561925,-0.3234341859656475,0.6558897058507949,0.3692313039939983,1.3113854483035352,0.71575769554041,0.19910669383014853,0.5456543300644535,0.6347754433157555,-1.1152498309888577,-0.1833590633004797,-0.48755351145739023,0.5430540197977993,-1.0795966958581635,1.3304469862870516,-1.0891043413125263,-1.9631343241367119,0.3839274245450544,-0.6810552464470887,1.2917814773762792,1.5825159815518226,-0.07084214879670908,-0.6427518383976184,0.09208799706031986,-1.4710779694147482,0.767874144480687,-0.6826044643565378,-0.06318590908986858,-0.5234108991818383,0.5293298891767944,0.923065109707908,-0.5947126849909511,-0.2876728472618922,0.47111072309099356,1.208820433276546,-0.21896037964047366,-1.3544588432352995,0.96989438770597,0.42800108762876143,0.5905171918875725,1.0055214842248141,-1.37660014820618,1.5591619383162365,-0.5805510515224014,0.9471211436312882,0.9086039518403484,-0.9897898754716492,-0.6783944730951149,-0.41051000653696323,1.758334569350947,-0.05950639093966995,-0.25211240074815533,-1.0370647780590312,-0.16317540211118858,-0.36176007068939026,1.3056999444624502,2.373964996764038,-0.6721815404976383,1.2608761512741835,0.5175431480814495,1.9305890848149803,-0.8494268098977991,-0.12361238706816159,-1.0894591716568547,0.7032044890357801,-0.3060858148367184,-0.2667358574147143,-0.32306649611821575,-1.7082601324026963,-0.8631858237142964,-0.6909924695415962,0.8646824157582461,1.4756686390619593,-1.1970510626064725,0.29310183006515195,-1.2292608307765287,1.9314403619811444,-0.9074474867745471,0.38516168224350683,-1.3319087993535166,0.6132036168495949,-0.6844371868172653,0.09969793521496462,-0.3677694898334338,0.06765033947877497,0.8197658680461881,1.7983100287853533,1.939927543662894,1.0449019028395523,1.2600652347017058,0.7710907585786861,0.9809214063066903,-2.6068644948351665,-1.3094213782901747,-1.1511268459145116,0.31157620855769386,-1.0959414192412955,-0.788022076286771,0.3483106907252137,-2.735027005578321,-0.21150642970387118,-0.30460660931821076,0.7203318591593963,-0.8558169618773395,-1.0838409619145946,-0.3579143701046037,-0.32972536498527266,1.9079663966088043,-0.6386714449908483,0.09387629615553679,-0.5393182861668339,-0.4265708894302969,1.9459551721630517,1.0077484881848469,0.4274925222366103,0.33329149015326087,0.18596979766231111,-1.272134053834203,0.23177081557061432,-2.2208267664223245,0.7831386966723854,1.0518385687869576,-0.48045585686740727,0.4836400080282154,0.31772310285885624,-0.6304139819042115,-0.5421230152544423,-0.056842123946912126,-0.5681471306547919,0.007016463697798687,-0.76375645472693,0.4047683528243354,0.6445078812420494,0.20435434608775857,0.9964589563566396,0.3603774403647695,0.10071031288139358,1.0236410628020238,-0.08186116849782223,-0.11600193676864949,-1.7142527208352127,0.1383493743158203,1.6648000503125506,0.1692068957783091,0.7363000886944544,0.36861654752342515,0.16921579588827976,0.8910620680691317,-0.267387722685158,-0.6230755901542383,-1.925886805626159,0.9521046761910631,-0.41621563405365364,-0.6096395775200814,-0.04341750257793696,0.8783201672604022,0.8488611753027668,-0.5125934790600956,-0.08079293869165251,-0.866755652357434,0.3343631924976158,-0.6670638478300015,1.723651108012143,-0.839175429953047,-0.06942766311854257,1.7411183187102404,-0.5667742802347743,-1.0351933709838972,0.43709410384070824,0.3836043950220897,1.3305466098645755,0.4880555905893796,-0.3807001886724556,-0.10633267705399899,-0.28214291445602585,-0.004458026550128905,0.65685603642332,-1.0183978477999762,-0.285948452568889,-1.3948147151374792,0.32470627810850883,1.0433356451725548,-0.03140399936278889,-0.1544607421993032,0.5968960783000323,0.09629675475990579,0.8623448864516632,0.8473236060542423,-1.3372375742967908,-0.5551151443783785,0.9300498087864185,-0.4167285121955406,2.7579488913752996,-0.6434640106822355,-0.7887914821062253,-0.6187831815606694,0.25543291914871635,1.7020561356316053,-0.16457758689783963,-0.6838018946685133,-0.42981436075967144,-0.02329633360714504,0.1283770170642026,-0.7875531326999168,-0.776282316448134,1.098955664304959,0.5627655091058773,-1.3915909898141243,-1.436611646640298,-0.8943220184941008,1.012778770603831,-0.8584002136158921,-1.83744937009706,1.0820206746876582,1.4213351490280053,-0.2443555234928821,1.450144911134275,-0.2792495816249261,-0.7584200188661724,-1.618811852175791,1.2900003601455838,-0.9377205140674726,-0.15983595486201285,0.482727569159093,0.9242261252140076,-0.011488746045947415,-0.2624647155589572,0.2945987268109361,0.8054372578007412,1.747276775390787,-0.821430860942589,-1.2023614210537723,-0.6430869525174385,-0.4450605212983257,2.108088546493318,1.4921865342355758,-1.3132536189795012,0.8730497638210963,-1.3149570512000979,0.46510438400008497,-0.22636394287060482,1.5620371656526124,-1.8086574713205683,0.1276417531331342,-1.6795893458489495,0.06700234675340815,-0.34701794970694877,0.5295762990812992,1.6916256099410927,-0.06603153462418257,-0.03938994299787627,1.384674424327145,-0.3692084912010063,-0.45640648736498723,1.3162861710637483,0.12491301083899192,1.0078216984696922,-0.13921789519226802,1.100992649350194,-1.0692059445840574,-0.6295742335408563,-0.05101612463845853,-1.7558659159299974,0.27164842677393775,0.03502379619132349,-0.6293536727837831,0.2643176140735459,0.8066655743297317,2.350535349985443,1.8937486518886801,-1.234318619489428,-0.8340157108516421,-1.5522158948153757,-1.8106347629519557,0.2568852121209082,-0.5346130245347859,-1.0936530148509698,-1.3499881428033467,1.6285518970657349,-1.7804686161084258,1.7835934805600115,0.0873040956692812,2.441026653515808,-2.111462277498645,-1.0266530439821926,0.5094651554642006,0.5554303902503458,0.29081305789942363,-0.15351572601469346,1.2995008918847806,-1.162340845609573,-1.436667384850663,0.13572102787266105,0.17991576921676405,-1.2360992566142524,-0.1672521968108862,0.19702610082046604,0.5657847198945669,-0.7628878798479137,0.028671983060464513,-0.4231259147538407,-0.6540515167816634,-2.799340616890018,0.8850025635261227,-1.8594588809172123,-0.80365085964467,-1.6453736952199456,0.5596265101967572,0.536007823652015,0.547936468862116,0.427890362464843,-0.03414691598954765,-0.042530225495498675,-1.0607361058311913,1.6066168928295879,0.3519471226092612,-0.004894390792197506,-0.31793677765721806,-0.798142479104366,-0.4193286785168811,0.2707924655066555,-0.0938918664797489,1.261507063792373,0.07588089060542617,-1.1159142826526698,-1.7617365698094658,-1.4448943969414114,-0.6675434488740216,-1.392090843209601,2.640753123432088,-0.5156035958622354,-0.8791017080388508,1.0739461860037265,-0.21472772578542068,-0.6930903813197468,-1.2699555111092726,-1.7345686124052468,0.8981567780568376,-1.9387629502991843,0.1576273448055984,0.21538075331283846,1.361019539364814,0.07166058979426218,1.719359132499703,-0.25224143108783503,-0.007737538661387915,-0.8851846189714235,1.8447271044299343,0.6835046902650287,1.4176998805162708,0.23054277104318852,-1.4342234462335093,1.3156843989608347,0.027304725537422674,0.582491429768077,-0.3179874716882925,0.9638821316808036,-1.2564730458353675,1.3379764557501694,1.8952161309022622,-0.4663028640370777,-1.3318422240440306,-0.46320154167951033,-1.7963277666298116,-0.6833249630151206,-0.988629205879635,0.6675401878741521,-0.03687648656367589,-0.15312171652514045,-0.6769022062139045,-1.6736227099578824,-0.4437990669536176,-0.2968260211162663,1.0575861064041834,0.335954733872557,-0.39980829076831603,1.1373591900578204,-0.3419381393952372,1.0420112132000734,-1.8083736523016263,0.6700830213991797,0.012559718851031399,0.6522561352837735,-0.3417601826341456,0.07522152964408867,1.5253905953567202,0.31037173739932455,1.3615390550104722,0.2733887588756357,1.0233035189911013,-0.010016548932890506,1.6655295885914494,-2.356892624043428,0.35413667639738916,-1.3841571160740356,-0.3689541592315498,-0.38087851582493054,-1.3150281857857082,-1.2294624341042113,1.868934269186499,-1.5738490979707296,1.260460058806654,-0.026594766145680914,-0.4164414130451818,-0.47751821952922996,-0.6800592837974744,0.6596704481629082,0.2525435376271697,-0.9424490432563549,-1.1977338654828793,-0.635458346980237,-0.6543614284019736,-0.5063337973812735,0.058166577629618126,2.3665909842106254,1.3370176408668317,0.6036002498247812,0.044028124807283055,-1.623896631237707,1.3476621720048705,0.1544794908201301,1.0563284191786624,-0.4820278971179121,-0.21779945924005625,-0.2063624488084504,-1.7427363813948469,0.565021925459923,0.8134364465406296,0.3394956974639751,-0.4135003992673763,-0.8705750317160341,0.7132467281608521,1.305762601032417,1.3450159453771962,-0.024960029482771044,-1.714904584984601,1.3797702969108998,-0.944045655288848,0.4319788912086088,0.44869830267319677,-1.1057301047546457,-0.7989313095359328,1.9224350585326744,1.6930201597210037,-1.2388526420652288,-0.9836387745152121,-0.410015746233969,0.05301597995831438,-2.394515050713296,0.46199393485106316,1.2167097640733928,-0.5476485815462464,-0.35666939358092487,-0.0507368594880444,1.5028811002706555,1.9918335007581636,-1.2400360832064399,1.601090944172993,-1.1758722763337053,-0.44626614242720464,-0.6228193498025304,1.4936756106957576,0.18082875609470686,-1.18245907004017,1.0840227100167927,-1.4793309226012856,-0.5121460974367618,0.016393675300375433,-0.5104872776692557,0.700538863060283,0.7147846880893961,-2.4723446490595116,-0.8563847842976079,0.2987195138698438,-0.2918511627297888,-1.420505292369684,0.35168891953129044,-0.235056613328842,-0.5781748696791471,-0.2829126325449523,-0.005077401767050907,-0.8027315716736824,0.513114239046134,-2.22243235066433,1.0627922246152979,-1.4334681698274514,0.9681855016806896,-0.2543749973356986,-0.04663937481594382,0.4783642284677099,1.7438771616367266,-0.28666382528269796,0.22477656254130768,-0.4315669163684118,-0.4786501168593912,-1.5805603001341326,-1.4962580336436286,0.5384988486301124,2.594618753849846,-0.48426481288875284,-1.6872584468434555,-0.605169932877838,-0.08590387747383643,-0.036525523064197596,1.258205649823552,-0.6129335229858358,-0.48163952481711503,-0.37114926968331924,0.575804902187827,0.2674666985900024,0.9254567375719533,-0.7858531667367015,-0.20669119316652687,0.38439768470284447,-0.05974068148593494,0.2209891404109334,0.4463815292593098,-0.6511146180087355,0.5682571824193097,0.09024929716759493,-0.320869071048069,0.5058513858881105,0.13429960092346352,0.573196722525119,-2.216705780760442,0.10892525562557119,-2.1268699649104383,-2.656730108478662,-0.6529836225897099,0.17427021104210672,0.145606441696497,-1.0575752160756966,-0.5025534299609797,-1.461488861747456,-1.3698475925144808,1.077481624898505,0.17861376112217747,0.16121543602003555,-0.7270191220556808,-1.5469591200447763,-0.1159526506060806,-0.5622938419453858,-0.27690811062216525,-0.38896911445163884,-1.8733671244235486,-1.5207902864946579,1.3739592753895156,-3.103088652180061,-0.3884664909884593,0.22600714336056757,0.05182870009795691,0.970812618196425,0.6138464734824868,-0.40709331019870715,0.8553425013222186,-0.6689559973129574,-0.4689850530699494,0.8643947212255176,0.13666781564763314,0.3521342573894548,0.07248822479124639,-0.8567558250134935,1.3547608709410686,-0.07669304097040608,1.1399140103770269,-1.0930866089670648,-0.39586826063642666,-0.5332626504723919,-1.1803195775837156,1.1454069203414126,0.30834280401464614,-1.2821248792626354,-0.20681896961181137,0.2590321872350681,1.5778562299738481,0.3819675356421339,1.0127642125601721,0.2570273027334689,-1.6587702694454416,0.00804953814079541,1.3188314256338451,-0.2922134867357,-0.5716957119545871,0.8611772620013157,1.577808133105304,0.96123673482693,-1.921129736040871,-0.12071109983237421,1.097053831444168,1.6468646259942685,-0.33663289848296485,-1.1237432895241952,0.05391309107825674,0.6553943088285165,1.655554522966159,0.3425082111467452,0.17721666862090862,1.2515640085115924,-0.7820093985192418,-1.0089904775524798,-0.6052674245085149,-0.35551685989777637,0.6595495101999084,-0.3896180972557652,-1.0482410482237698,0.5385834777670135,0.5886318498492403,-1.1008944299181116,-1.5279264175107046,-1.458161058649045,-0.5604981737527635,-1.9650490945971943,0.6859050993814823,0.8237893333204718,0.1977435974417678,-0.02083771322875839,-1.8904455050494986,1.437132420035354,0.7412701109893094,-0.15128594961445785,0.598855562204782,-0.6001274904906013,1.5848508267507329,-0.04216973908259495,-1.2657419100478347,-0.4644052686123509,-0.2578575855506631,0.3544666094577225,-0.6034327151790985,-1.2792138287459456,0.035583637497428156,0.4227623074146612,-0.8867405452975903,0.25380684655246505,0.389387273345639,0.14321433601522374,0.5002928355940452,0.4479150320266991,0.012859065080107986,0.9100779568946142,0.9458230709066595,-0.05699126000070818,0.974235208216841,-1.2428724416758332,-0.6602607551410524,0.9148042478064891,0.6972905215906018,-1.1593402863164801,0.00022988619419272036,2.6820074645554817,1.4652559903945854,2.106498620041976,-0.3225420666411635,-0.687483537364208,0.19010531987676216,0.8819301747663316,2.242453410398391,0.8301985554910397,-1.029301110923596,0.28313933985944406,1.6593149903632771,-0.6965611763469542,0.42756682322730505,-0.6695920708136939,0.06776767743890288,-1.0004369337187293,0.858910559318997,1.4008469586209602,-0.323897400065496,-1.3809640318597811,0.6756470591418993,0.997788801040298,-0.2324604293687699,0.5631228802649594,1.4912165569369917,-0.9151698478725162,-0.49775942317820815,0.3123913803166011,0.6167864400929441,-0.5674632832520697,1.879096374718982,0.38568229817819605,-0.40740308173988765,-1.5600905160488698,0.41385232530122057,-0.003030789810156911,0.6879995145544416,1.6444407729926278,0.01203659767523751,-1.8700708285435226,0.4478492620888856,-0.6194342709903141,0.3762337265719015,1.054444454711556,-1.085583573865059,0.9278744389943657,0.2568950395226612,2.884840851926175,-1.5032702690732438,0.4031385454078256,1.3277254046969371,1.5612447435586922,-0.39186752525562213,0.260955954305025,0.7761053074008036,-0.5477271362963271,-0.04717753441952731,-0.8781369800449355,0.9878672983564816,-0.22402664824656998,-1.706934146338008,-0.38795964881592554,0.027129086418005075,-0.1263238744087326,0.1126613615540538,0.8340374043256887,0.5828284027025381,-0.949430564378956,-0.11213050891617085,-0.3345342289520292,1.5719980550206727,1.7077468146371622,0.9386003191205999,1.615544589588192,-1.0010974437664144,0.5325248009222443,-1.0079776885553091,0.3098244111991185,0.7766013519899146,-0.7128067093344005,-0.2711135661770875,-0.10466677360691036,-0.6434559940566573,0.9549239694095073,-1.4197847658956175,0.9025332356092967,0.659404088697497,0.8740398370173078,-0.43692922377214727,1.1703539478425813,0.8450310439224971,-0.5478651165839691,0.4622038037123731,-1.337931156831489,-2.7436582758125576,-1.60443989592668,2.2024336927952843,0.502805772817211,-1.0638970047342313,-0.7507452185253294,0.38218977169097046,1.5267994744932676,0.47976716757577376,0.5010801583822446,0.3815577585148503,-0.8327858838950385,0.8188025464482649,1.6204449202781785,-0.5826456713917042,-0.7386691766517658,-1.9412123806676664,0.38476151971755906,0.9504946346907917,-0.7453582072876374,2.974302634815656,-1.6063223693921524,0.720673342861141,-0.2717317037986934,-2.268576724666891,-0.39922839797059645,-1.071174154982373,-0.5556261001917557,-0.4463534358197016,-0.09565924955991183,2.3163864490911474,-1.1964128281407522,-0.8300344451231209,0.2892930761597261,0.5009624150929178,-1.233760390743264,-0.7271328268712438,-1.2516936303434305,-1.854881259502268,-0.12119989147727295,-1.590330615006083,0.7125955600139693,0.9960601549384039,0.5585188865073898,-0.8990186372991703,1.061935918807516,0.534430374141938,2.654269032604672,1.1723160185348254,-0.2735740850014489,1.6490697849307518,-2.7584605471179904,-0.4548316243455189,0.2752790660833242,0.22427409753030988,-0.4433399281845079,0.19887212565838608,1.5494105442326553,0.20150972617524487,-0.04535653226841133,-2.2115462496431997,1.074148880797655,0.1606278890900079,-1.1196624894508846,-0.21190847068820132,0.958307800632485,0.759586630475144,-0.03436808240273104,-1.2203633174693487,1.4538241741105093,0.6050405809429121,-0.43165287029522886,0.19758380050266522,0.22445299227098062,0.6618089670696197,0.2688839289119702,-1.8414987792744812,0.9949871692604154,1.251693098234018,-0.21356484210406948,-0.7326957856953806,0.4395792478039751,1.844034585632806,0.13614001931021255,-0.31195151825149875,0.8332969747230157,0.6324207972092623,0.3652341460559001,0.3074733734769723,-2.070183669893286,-0.9960126867628659,-0.9256307357802389,0.3033989863022992,-0.7838014223825565,0.04727369266211674,0.6114056215643353,0.3036285674002609,1.8423221853185168,0.40164295641478354,-0.736335977227818,-0.7393248866269648,-0.4718447538790533,-1.5194771991455758,0.8242368430728725,-0.8121054062561046,0.04297869447617672,-1.7731644316985478,0.9491158544893453,2.5226402662766825,-0.3585826843753211,0.05613542909456865,0.5924592900846436,0.7492726364800953,0.9573372849603374,0.25621036687398024,-0.8562564207375644,0.15335437419895373,-0.5611331462959249,0.0302558591390663,-0.2643345637449565,-0.9542553115977856,-0.3020056937028543,-0.008316093220877762,0.7221941853675792,0.5680533894365132,-0.022155951499157393,1.5697158312803554,1.0705364629237386,1.009585538793287,0.38785013012275943,0.9810397994844526,0.2226245418938936,1.1424869073487016,-0.185232044229105,-1.2999546283806707,0.5530833220747027,-0.8581452106078493,1.1479238920546417,1.7423892111729984,0.20214339309391677,0.4706598289636573,-1.7244536233073595,-0.599826987535856,1.166721577808461,0.2136093147251172,-2.3506822798279616,-1.1266389589884958,-0.5254518998040929,0.6366523716547433,0.20760486206132037,0.13789296429407544,0.17738966797964334,0.32939743956662393,-0.7251303808815449,-1.0450503153400135,0.20998702738957234,0.5757533683851833,0.5111580510700621,-1.8090008765202106,-1.6602612347434116,1.0441485779818231,0.6513254266317144,0.8357596883157286,-1.476948412209541,-0.9556331637142667,-0.9114106947824882,-0.592594741090982,0.9632457337941944,0.8846904112624462,-0.2085749757355206,0.7219790053264888,0.1090926606793599,0.19713243635119188,0.27172310793349413,1.3066694755444281,-0.38449225661806324,-1.2716502447731401,0.16373947967116664,-0.33435696233539647,0.8535358815764,1.1390821590921727,-1.001966628430425,1.48426033345958,1.3520917606786316,0.8804413433683639,-0.8685267926701785,0.013444767046618998,-2.1407860024890217,-0.9109445900690566,-0.5656281876472713,-0.8655284356828468,0.3913970246478195,-0.7349948025297045,0.8657967693402018,0.9485774307152489,-0.2752236633998086,0.5455062747855253,-1.2281177714923632,-1.0647127799644314,-0.2667234654003712,-0.10880494538068562,-0.05797928624655043,-0.40031300057485303,-0.3100014788924119,-1.8833722811235931,0.8903579551259108,2.1612512587825736,0.9994843326619888,-0.7082560729164651,0.9265219975186793,-0.2934924866209393,-1.0088633983818855,-0.4704523363444123,0.053274789379790174,-0.5814524164858795,-1.9210942918585594,-0.12333203905137471,1.9346168705171278,-1.1409400649013095,1.1121587515926126,0.0989298656579988,0.9974431683008234,-0.6417439236257653,1.358642932121625,-0.9741306227132708,0.7122446060681253,-1.7816956298231783,-2.632850535728414,0.376598803012488,-0.3996377195531739,-0.1537416438397317,-0.09113128454332933,1.049175583424813,-1.06237748782281,2.6607171350550156,-1.5890390233295115,0.3293004111535705,1.6477226602361208,0.07003773087736095,0.3229602697990968,-0.741685276466876,-0.4429147191788028,-0.2642234281324969,-0.07419816227664172,-0.7718233452552689,0.9256036396898666,-0.1606968651730019,-0.1447842317731664,1.1839002992888583,-1.412343731359129,0.6687488922505959,0.7713680312422861,-0.622149417024325,0.18498003420591067,0.7720435172672644,-0.4617671725189306,0.08075351115384949,0.5059366176671959,0.4172926113226872,0.28710919657743306,0.3889171689084856,-0.008316325199765879,2.6492411325832297,0.5184561373861085,0.035272158854242314,-2.8142461961518066,0.45141579753172767,0.41027239853331793,0.43173627374663465,-2.426215205170558,-0.7291121854801504,0.5079135350829043,1.8111222581166035,-0.08140629382241665,0.3016921816636333,0.4310439253969555,-0.4027388568473303,-0.33774340008327347,0.1955631529897363,-0.5454113937165609,0.6595079677052554,0.5250163823419107,1.2050050006287643,0.636971467818675,0.17735174704052523,-0.9123554823788551,-0.9954748109434027,2.374582256160029,-1.4500511822153896,0.5088901639309775,-0.8200144894541155,0.05491030283808495,0.47348385849842795,-1.3035744784025585,-0.14971698638285807,-0.017391949990223945,0.7230259852797128,0.6684462168529353,-1.915764564802694,-1.117668101304018,-1.283071888268584,-0.008781359623815979,-0.6507872871688599,-0.9331132248289531,0.13087393035653833,0.7047746002551749,1.185366024836062,0.18049411387863573,-0.013301127900001146,0.08648110196319914,0.050716268724912625,-0.7218998231550848,0.3545508070789014,1.3615415767895416,-0.08749820685774386,2.358366677973583,0.8331985412354035,-0.18751555782893647,-0.5724843406586517,-0.37501742690683415,2.521372887658218,0.31658873286177364,0.7689126299610678,-0.03754175888686775,-0.436432278640997,-1.049534702554319,1.1751196218450053,2.139972675930336,0.4605689190378387,0.07957381220940207,-1.4698372206321366,-0.9212517026655034,0.5833434283985531,-1.184175829750743,2.6040210838862334,-0.526610577410489,-0.24925601934644404,1.41958538384451,1.2872259537300597,-2.024152456091029,-0.591436725614647,1.0790045031228022,0.15831090363696065,-1.4756423209577085,-1.109804771000724,0.9133818544217802,-0.4612789205332677,0.8370258991589922,-2.147543633387037,1.3783265000246747,0.23377764201989518,-0.8892713273309562,-1.0372477637943591,-1.4065749797766673,-1.293474060776019,2.1304356157147213,0.4420811168923614,-0.40900231421507416,-2.2488636595618354,-0.3795580757018179,-0.41299237340119527,-0.13482323160586338,1.2670267002787452,2.0452362755846747,-0.7008661182362388,-0.24167940954164766,0.019210767794391653,-1.1676270345882704,1.221321437550647,-0.5850923597281832,1.5141497562795225,-1.2461994820982571,1.225846533465555,0.7405891945445225,0.25753470442712384,1.1204990825453598,0.9182620897942677,1.3908458809738444,-0.4882624487635837,0.47247796453380503,1.0652027594862707,-0.14590486912863437,1.0417212283695125,-0.7221131524205986,0.026994269696154635,0.7853664528997581,0.3452124776601871,1.298662512205465,0.20489564498887783,-0.5190211655534019,1.0737840642462364,-0.31076644830036076,0.7930845689724766,1.3395873976132586,-0.46406281695125656,-0.1026151898871151,-0.1724713512227657,0.25924365124224885,-0.8861891505483183,1.0315107895257447,-0.6454748839558402,-0.2308253783090183,-0.0917666817956249,-1.9902677327171283,1.6042384292564615,-0.5374271591373155,-0.049391966861929246,0.4281189282824277,0.8295645825635238,0.03637657037514827,-0.8131311056195166,1.9800452397653232,-0.41160326801857594,-1.4739311274880555,0.38478347836983184,0.5185673949243007,-0.5044391043076252,-0.5689106667247412,-0.8727416136347702,1.3770348951754985,0.7777209902057541,0.3390533566702665,-1.1165994877216796,-0.8608357002359786,-0.8337515853323562,-0.5083271346043686,-0.23791264877069707,0.6374988254443485,-0.7634165829045727,-0.3122327840314447,0.3320171643575849,0.28755600876942367,0.5569532048810426,3.004942795605517,-0.6639252351638245,0.803046545022849,1.7074095916106427,0.5922340284717859,0.4036155249286708,0.19105221083438917,2.3162725413688445,-0.6198550919076976,-0.4000264513109173,-0.8731721728009442,1.8542393360631853,0.4704679421002996,-0.13664764603229737,0.2306678746639743,-2.1861377873859835,-0.339423817132498,-1.7939062939519128,-0.11207209028750822,-2.442522285485564,-0.6661576548949801,-0.31715881522155964,0.49064307699173454,-0.47254927279636594,-0.6337312399423928,-0.44665358010088413,1.566497844501104,-2.80232646483818,0.7397901612909581,-0.2134583329484878,-0.3142291491613167,0.49264045597942574,0.29369759173791055,-0.030168706859821922,0.389626342611414,0.7618643509547542,0.29122577182939985,0.4118085979637044,0.6574996990816933,0.8888293798436867,-0.02608170601397906,1.3738416656539973,-0.11427875728388782,-0.24535091815225643,0.9704856909083764,0.08338435835946541,0.10672063669412304,-1.3633615730920114,0.01672483052051063,1.2175232733738812,0.10326976899985595,-0.10431485578664311,0.9883552041537261,0.571791092996723,2.073609565456677,0.13425643728451667,0.5925831833835736,1.3772896606284133,1.088449409622465,-0.28260355423074096,0.8284072494243959,0.5221670736044555,0.6814394202129758,0.5880864344647821,1.1425301450155911,-0.746276342319629,-0.5525148697411362,-1.112592397946325,0.2708569030779084,-2.690407098105066,-0.07771401270224439,-2.032225483217195,1.678534063309199,1.5878872243412636,1.005462781473848,1.4695978055702115,0.6832616236567578,-1.6859572598684904,-0.47828434066659486,0.10347483966078254,0.040013854787913194,0.6710385366154128,1.7459724677788944,0.6460662804760878,-0.565048363516095,1.0091965185650527,0.7035748217781969,-1.97075396429446,0.43336996381888065,0.26678859887649714,-0.017985999973264315,2.164072808615383,-0.01396034747955505,0.8561977100714058,0.05242177253969134,-0.015700066892908048,-0.7895327412245037,0.7913537604710381,-0.08128808616511324,-1.4936166505930373,2.4483341968394883,1.6392679821990304,-1.3443276877744519,0.450764967891393,0.3114278530596889,2.5253806929135765,0.8941062064459622,-0.6030764173677601,0.21118239821949253,1.1266392294708243,-0.23531921374639983,-1.1051031130300977,-0.14703584282299226,-0.25415473202016914,1.7433694774697157,-0.4748084727463279,0.03738062980830319,-2.0043935360161393,-1.2462547611880692,-1.2263991193307497,-2.1710423977685833,1.5636934320816473,0.918644897165402,-2.3251488014596475,1.521905429465,-0.5998070761973693,0.518898321996659,-0.4776770864151831,0.5162283371634337,-1.3869208931352335,0.788199343038431,-0.9270336751994914,0.0510288073859322,-0.4685336188917311,-1.0327000559004775,0.3200070625994317,-0.18478208961477968,-1.2975542250594085,-1.1505414077428555,-0.2165825551350783,1.2398275366394607,0.23258676205529039,1.751342100688762,2.365391086108188,1.1580886465106544,0.006529495469508429,-0.2265453601673783,1.7355671320109498,-1.4542850654278965,0.8323039599409038,0.48023248046648365,-0.24250839917761205,-1.7982860116297728,0.22708754828094274,-0.8485754261273981,0.5625617293449222,-1.2524613050739992,1.975635564836853,0.5982646262890969,-0.307465404421007,0.3420559521629624,0.6611277401551575,-0.008615065865429155,0.7660593782459261,0.8220356593645259,-1.0191953073780162,-1.6224918049964536,1.7947745402316064,-1.186821454426125,-0.8164584633541199,0.45286944358688463,-0.047564489710107176,-0.7396603689945342,0.6588551200565576,0.43372581194034,1.0306794659907004,0.8629460780192458,-0.18482579288307346,-0.15135233099056328,-0.2792859070406542,1.527099813860653,0.7099408377299951,1.1122856752299146,-1.101158774246627,-0.27978508288000226,-2.6070126401215896,0.6958838684530989,0.2598501391702815,0.3617911138488997,-0.32418634331764695,0.6926885693310256,0.04546451882418406,0.13087378251579043,-0.8913073762012813,0.12834647757527737,1.4051561866905713,-0.3730025480867776,0.21441199231014896,1.232684561571389,-0.287117600039468,-0.46204864115524574,-0.6559111719631713,0.7898349976547591,-0.2463488462052914,-0.9854406612527105,-0.6280572414002106,-1.039612104537736,-1.7725875397260777,-1.1189083932917288,1.4382601171911584,1.7335538495615148,1.0988081806662402,0.7875719185024783,-2.9505723001914106,-1.0262535161657065,0.4466917268087884,0.7598286147030343,-0.935922102347522,-0.6007918021492213,-1.8572010226038693,0.039777256892659554,-1.188900860656134,-0.11455398812885116,0.12512695307398988,0.7413897912246056,-1.6447432681211895,-0.178356231735126,-1.4890556450596486,-1.0330304213081232,-0.9446590005927772,0.2075484916537487,-0.020778884859602113,-0.7341051077413533,0.4385887338507209,-1.4430343396864718,-0.8407152025474168,-0.11659336651213512,0.4278472038204267,0.8843320402468365,0.7854746804553179,1.3848152260774078,0.0656587422850449,0.07429899580784273,-0.39465652125166234,-0.4335424088647984,0.6602766446012885,-0.7040912312481573,-0.6842552549785632,-0.33950899222622005,-0.8731448268269639,-0.38808518380298224,-1.2423383902347749,0.4173290269121208,0.27226711583950497,1.4010722275976888,0.9202520390805172,-1.1306774165301168,0.1377443416189124,-0.07052217038136942,0.000056092910197349014,1.1439865195134065,0.8551279594226776,-0.523938668417418,0.3243670556264455,-1.5044129391865182,1.8236188090272054,0.40741381749461275,-0.036725899117850125,1.2389045789559916,0.2916452325671557,1.2932761750986037,0.8130877281981137,-0.47050706553789406,0.9334701340092886,-0.6480506467168401,0.35158461710241284,1.6853176322421493,-1.160988233917109,0.7957731331282267,-0.8098036164243752,0.2542063315888074,-0.8296623587460515,-0.7435705990368938,0.2177334881894992,-1.2106353077029048,0.721086176034916,-0.7312477911799335,-0.11327922949780889,0.7198278562395031,0.08367178719282431,-0.5076319216532226,0.6591010561370247,0.08485689027364543,-0.10157566557203072,0.12409629693062238,0.29970865577319583,-1.2530059672364082,0.47875845915740467,0.03538979212998093,-1.1234300789498057,-0.04108395076809256,-0.010242364921110178,-0.002727022929935571,-0.0642495837921006,-1.331628743660468,-0.32478184053346887,-0.6143771578780967,1.3713948505962448,0.5461210386836481,0.6767778108294,0.5960559793581071,-0.5492288941055454,1.0002697442772028,-1.169243205212278,-1.0896880920865153,0.7628967644272171,-1.3524438186023227,-0.655985358007368,1.841140064673949,-0.37539415615969624,1.079155790481614,0.7572577535733361,-0.7729328040724258,0.9767838593233888,-0.3595549453590156,1.0852937545356163,-0.3694843736782091,-2.475746486804793,-0.05779808361275651,-1.7816003169538,-0.03154856838729759,-0.49749847512422257,-0.6799729035200774,0.07431530312320136,0.14322198094898667,0.47648242120003265,-1.2686541230289388,0.7519727998141291,1.7110078004880334,0.01916486708767995,0.2264130770230299,0.10442293063734591,0.326999747983714,0.5039324308299983,-0.3969269343096189,-0.6544814674111621,-0.08684972962801589,-0.13137803778101062,2.608767035444182,-1.0538648440496707,-0.7842508029296844,-1.62830579906612,-0.3844842434407571,0.9570601994024995,0.08045305042783349,0.8301487991426736,0.2940467861807677,-1.0150023295332666,-0.6915165641630838,-0.16203695114046074,0.12953651819134418,-2.0844952095977187,0.20873499980587992,-0.18969802543940614,0.5785611199532329,-1.0075850056540725,-1.638374029770577,0.397404895321707,-0.5101350057723524,-1.594053792196962,-0.11367560577197937,0.7956227518162652,0.5042915677619262,-0.4532388420448226,0.33339338516382466,0.7245696990862495,-0.5454958595587851,-1.187719770633484,0.5040591822341643,-0.827812402166579,-0.23682432373931378,-1.0351733420134182,-0.17799226811179408,-1.8534278968482056,0.11314503596610448,-0.48840854369519104,1.4171491529959455,0.024264742782519933,1.3070033945792827,0.8054400310721207,2.009856365084828,-0.44987314273453927,0.13566168293315667,0.21380018337317055,1.3157325648651523,-1.7270637874536208,0.49977160567651635,1.048281939510264,1.1354707653386305,1.3444789859615125,-2.1468335567306536,-0.658622663764758,-1.0703990341100007,-0.4753471399635849,-0.5013456424409254,1.132292094696336,0.049508338760398694,1.018614230257475,0.1514644517845096,1.1094814647970748,-1.463451736134009,-0.39268883359444234,0.665149495595338,-0.9590520448089108,-3.019123585095691,-1.4193841380689456,0.21159428638357183,1.0784589502043729,0.21483121256813076,-1.2973399740505462,-0.033982641531007864,-0.921686393342018,-1.742681082644859,-0.2913223499366305,0.0020284013959739134,0.4279809562243572,-0.32886867983446555,-1.0357155082510408,0.5161996805763783,1.2106443211191087,0.6345705024752352,0.11997467763332914,-1.5233567344571708,0.006892343496742167,-0.48241828266186143,-0.5376807734443028,-1.9307672621859089,0.20819510294985447,-0.386391477006166,0.8024217373070739,0.15940658493532261,-0.48861329226011524,1.5102793829011858,-0.9616634260483441,-0.050948245362339044,1.8697699245949395,-2.6916223264474195,-0.5172431877148482,0.24863423857897826,0.21252654914489116,-0.9545720468356792,-0.5941312429802424,-0.49678191818808753,1.436532203005503,0.6821778411080425,-0.13089765439571385,-0.2841711996343116,1.6923813986435436,0.563754593612125,0.3602032377015331,-0.5722133422557153,-1.995965907146269,0.28761150307654926,1.195931551904127,0.7715897242804082,-1.5311579583301904,-0.6690088576588391,0.2575131574687645,-0.9349182375649112,-1.6965827097203532,0.07478943153878452,0.2438631734086055,-1.4564908103273921,1.1910913344682885,-0.3318954163562097,-0.4973349065824711,-2.4898823381503568,0.7843117071730239,-1.3620308338322267,-2.091224153500652,0.5108431559385638,-0.0539009812193923,-0.4936155968707078,-0.8047688331201681,0.43894193423115707,0.8004334350996956,-0.03943248582237688,0.8453893961049147,0.651242748320795,0.05887998739520293,1.5042574788515628,0.5106084572561294,0.32523081154424355,-0.05656798513805124,0.1475202542649469,-2.2100665883349615,-0.957547157277561,0.01656288778298206,-1.1925605120718636,0.3432230720898871,0.05961859106798347,1.3950251701796297,-0.22355351870998483,-0.4700532494636588,0.2539810478588484,-0.28527355586158115,0.87005745048393,-0.0032467603372977084,0.11516283278306304,0.30587019491647355,1.537469245470748,-1.0250866088881923,-0.4594114944911089,-0.5911947409571227,0.6329539646083278,-0.21725878923026395,-1.7345478256242106,-1.464471489578391,0.48518107080047546,0.413003775897364,0.7168319347455012,-1.5276227017903325,0.8637184583730064,-0.7042926600686098,-1.6603304072307659,-2.376986902176434,0.9115389511707448,0.9377201028850445,-1.6574425429632567,-0.14516545349639848,2.6468993471934184,-1.354532606543133,0.045744997016759756,0.8192353845627418,-0.18301194256103362,0.8986714532646721,-0.9533483907574587,2.2232248807458874,0.9059795300638779,-0.5605318326577372,1.6493948281266912,0.5637363778927841,-0.7549171138319282,1.2766313966537823,-0.4232338388029007,0.9570871832761926,-0.14003878047806292,-0.31129343618450395,-2.66754215929996,-0.12656719905399744,0.11388882523824216,0.41706249934816486,1.0002661585252923,-1.7162772662124335,-0.6134628139379075,0.9942202194092767,1.494285288147992,-0.06929570777546332,0.3705649397971145,-0.4095449459199308,1.8297916624293893,0.29904580603246506,-0.5146636380837117,0.7931288793528813,-1.0476437123439297,-0.4951485066791763,0.24659817637500528,1.5874128858177443,-0.6334096064632438,1.0554101007055245,-1.457388586221263,-0.45064566583250343,0.07314106402490672,1.2903988813907263,-0.039643727711599054,0.10649390273133916,2.0330814910337898,0.19244901903952036,1.5533281033922897,1.2294016993335881,0.6331810545427415,-1.0425024574432242,-0.5424580717677976,0.16347878991619488,2.2713146009006087,0.6981044301489513,-0.4893704431543118,-0.1822028273650883,-0.5620711468403181,0.22995496707643504,-0.200842262704546,0.018800851989170374,-0.28460504324932384,2.321305931234895,-0.5211698714358135,1.110605252205611,0.37080272919760054,2.3622535480067115,1.1156522274735428,0.4123897958938319,0.006145747421467014,1.7636444138576182,0.7696886328926156,1.490632630303137,-0.5819968291365805,-1.4627265563754956,1.20470591122065,0.03693002351113269,-0.7929188263446585,0.09163075969825932,0.384865682330187,-0.2168995003825211,-0.3386942082603376,-0.8361730858647842,2.3852114778484417,-0.450801611225593,0.5346771910987184,1.9119880115655834,1.21111318901928,0.24120909000925467,0.3990700269530223,0.38597565421868496,-0.7322727764530838,-0.7804561617392932,-0.29687799165385476,1.1659743463636314,-2.7835601728240786,-0.27687680701799045,-0.6214272985437839,-0.7821922063271766,0.33851115772137663,-0.4899673121962629,0.6436599422158485,0.07785516640202707,1.9083567419904095,-1.293629620795067,-0.22191625635519183,0.1393022590651068,0.7338754175720736,-0.08259719180735967,0.28557085040210967,1.6132763123786438,-0.9746104744967224,0.5291884564393248,0.4308629030882514,-0.3450767688684262,-0.3203582739083739,1.0219016130348983,0.7760737981784369,-0.3524670665967646,-0.10122567261817256,-0.32231010660219334,0.0035525607581916156,1.0988322052471744,-0.8983128473431066,0.5688803193719357,-0.48483291885546176,-0.5813925311534461,-0.971695622498599,-0.40230663561727076,-0.8990328335892187,0.5018733505611145,0.17557405980386886,1.36759584258303,-0.573988628303491,0.028984185424270874,-1.6646763867006482,0.5311226635977272,0.4718348304275351,-1.0887607903194974,0.02351888953353798,-0.47374456717595714,1.3742657254993216,0.3444979680371401,-0.18918207491917097,-1.2266674773220816,0.23789484893570026,-4.333173002844274,-1.2217603804510044,-1.0310226152137005,1.750529494039508,0.28373917280370253,1.1921774044933995,-0.24417002516649855,0.3347684741414824,0.730156273701348,-1.137121419307024,-0.4890090914612513,1.0818994549225447,-0.571290048955262,1.959983028136869,-0.6687452023368563,2.824736711438215,-0.46056994987547417,0.08039662043892253,1.6727224367298434,1.2238089854161498,-0.5572456233302178,-1.338760948433815,-0.6655170802512211,-0.6341235803298831,-0.42809268992920496,0.5191618054627957,0.6894945685505725,0.44046199052707125,-0.8890146796534543,0.2880214743957133,0.12836866385761672,-0.6813465040688139,-0.0501577239290555,1.147191857606766,-0.7554513322897489,0.2578602553811575,0.2176707547457104,-0.9785823645913536,-0.8190181121355589,-1.1038581659679851,0.37817987645875367,0.19316669188799135,-1.58405616278115,0.8964496451850978,1.1362228567221064,1.9995923618706002,1.3097174505797782,0.15436459428380161,2.094432108189907,-0.00023022966973223054,-0.7169630487738039,0.24440882344336615,1.6873369803200389,0.30136844882355956,-0.6071903685768512,-0.9461173211970306,1.687111964578633,-0.6838739926888637,-0.2873332274516636,1.9930986434835374,0.7856460355671235,-0.9476756948443424,0.030606463921253792,2.538270397245945,1.0833438658026924,-0.6733572498387328,-0.8229305220675956,0.2529306211631886,0.7123519083244907,0.6548864022412453,1.762764775711646,-1.562475720272171,-0.4683031761245362,-0.1759334082713143,0.8452141452753709,-0.1557253517433953,0.743939844413518,-1.408381060323048,1.4071704598093102,-0.779178235539841,1.0787975150816078,-0.026739008106291016,-1.213264758241782,-0.44959203614369353,-0.6930898234614155,0.9787073272878666,1.1459083826820575,-1.0790796145605137,0.7911687187510894,0.10586234422799978,-0.8539540441946696,-0.35457617158354954,0.4945295359083845,-0.6214024023261635,0.20002041758787678,-2.211770735862452,1.47719956843281,-1.4881112333503659,-0.10584965590618693,0.8158393555249666,-1.8227450252072506,-1.1652982932739837,-0.5681559771793315,1.9737185195395066,-0.03610485275789954,-0.1684043687791512,-0.22467273911824698,0.6802862652478079,-0.7325023361346581,-0.019935173735628583,1.4153207803707542,0.11377590783368748,1.0366805931447443,-1.2395829161123872,0.605690305156065,-0.21059155785377776,-0.4315618414165946,1.7076846419585483,-1.9750270418342035,0.3085665888415204,-1.2243478145279378,0.11079867011952924,1.5936078397499287,-0.020922947960048434,0.6380779219095764,-0.22622225699266615,-0.5007818764107046,1.0264438208112676,-0.4442832507099907,-1.5107251068816063,0.95554729800259,-0.815661505288566,-0.5323977891747337,0.9874633250851497,0.4835277304498654,0.12896018492079023,0.7049171923782924,-0.17328511381187336,0.3559042930803892,-0.4333079650721825,0.6680212175576514,-0.7709938383252573,-0.8682006347388361,0.16384453023081838,1.9870547073264568,-0.24699489674391956,-0.7663525466359974,0.7737707857513125,0.8830633767092644,-0.3123559149982358,0.43072262929715827,-0.5600596537906675,0.6391897908615178,-1.1077637592920904,0.9509176343739264,0.7867899944613092,1.0671230551022484,0.4544218187659803,-1.3426991646647148,2.2247216057073738,0.3231350740591453,0.18776511993835474,0.22279680758053874,-1.5459208331089962,-0.4091925676946578,0.13201354968206672,1.2699782021313082,0.1184717360084819,0.14549689677833266,0.04699326297531237,0.8937136942504981,0.8190449788035927,0.5595545441105597,-0.8886921445773333,-0.016619444628167862,-1.2195612488352108,-0.4714028214908541,2.445116510275205,-0.10750801708123787,-0.8933952893095519,-0.3929750274153035,2.281973144438867,-0.08909272850698671,0.7300881362438877,-1.9172649674229834,-2.3672949016320315,0.35912127807073196,0.3085310769777119,0.3395845277620429,-0.4653356196159202,1.0184207989002212,-1.2869024206917832,-0.4988071358661023,-0.4653600300594468,-0.07378556436645943,0.9747688704866456,-0.5016150929777604,-1.2212942959103257,0.11513234419982074,-1.4605987938638423,0.30875241576016654,0.1863351782559171,-0.5596076599101834,0.6587759253430517,0.19784935874614926,0.29808262720507894,-0.6056138779033517,-0.54956543769298,0.31541548522349283,0.769861742595724,-1.046669030464496,-1.7006171935075487,-0.9498882919942189,0.7511255744268682,-0.6505278977783439,0.667448445964972,-1.6629608243612464,-1.3947064162093026,-1.1587849058500808,0.6125567902468948,0.6843876971029695,0.9277845036464922,-0.6686980446849468,-0.8557897310144778,-1.2025801563270653,0.0037816101804466077,0.37537772937715924,0.7075396574385062,-1.25164024439358,1.6769644999604445,0.13784685131608368,1.7610563375962858,2.6518643173220915,-0.47840868522789315,-0.5205682756898325,1.0047130401886524,-0.7948392625554439,-0.6626818806172496,-1.7931780080545707,-0.28834242132828675,0.0068895680366270326,0.3424863271859006,2.465822295667468,-0.7313007287004617,-0.34121678359274465,0.17058659837697115,-0.28068583281370385,0.31468826685901774,0.8575495781527368,1.4550734065132527,0.981793775999933,1.0259935797159083,-0.4247166514391306,-0.3025662927238952,0.7598550043245395,0.2037358299444753,-0.005723754761250031,0.3808172937962466,0.5921964320330847,1.1705980412490575,-0.2437132281870128,0.5573694720477546,-0.23275060443981077,0.8518142999938995,-1.2042668813644037,-0.6443199516847984,-0.28216588412571986,1.0384958289191486,-0.5198451365343328,0.07712454344953767,1.639614789859146,-2.119327682566717,-0.7167139157565461,-0.39829376614897266,0.7839478199082784,-0.1178458629866091,-0.6039379332017416,-1.336178390974055,-0.5038658365070305,0.2865371232390024,0.88890784855655,-1.3836779469879361,0.41930014584563613,0.1253082842468003,0.09325478312777315,1.2210082916306146,-1.6084786503636637,0.9295139864927434,-0.145467050278645,1.1549495293755652,-0.224578273820181,-1.0419674269275196,-0.30146340740217037,0.9212070173582987,-0.5173671036624474,-1.6788562823115318,0.5239136237316975,0.9971991939169352,-0.9668871506359368,0.12192149133324866,-0.23832960926188315,-0.8516296298503414,1.2903025957808263,0.6296761047801371,0.6611396984189917,-0.8598111524621471,0.760713471019193,-0.9483505159311193,0.6579244989016647,0.687665772133578,0.08993564950553422,-0.8962139126646708,0.019932424556691787,-0.816447565547165,-0.4590858914659421,1.145429342018214,0.25275662352605993,0.295625179192733,2.5106638608701233,-1.330638866181993,-0.02864220681961306,2.3611918066019997,-0.9877221289214698,-0.5504919756737278,0.5643209100195795,0.3968305917629854,1.1833516814702354,-1.4043143566206375,0.2604371046965968,0.7098294232320559,-0.2936212132209758,-1.2266678466769212,1.1267737409123357,0.8010299498780544,-1.6151955894276941,0.43605705409687856,2.300422350022127,0.1080488894470787,2.031847041671204,-0.5093142039986357,-0.45864212185685677,-0.49516202662936637,0.10706881912698667,0.49560608554367325,-0.20180466367399882,-2.094888350813661,0.07249680035811429,-0.8519252017100495,-0.13965318495884171,1.6170331716152255,0.728374159917634,0.36360897172865625,-0.18669537547261844,1.0714896784116128,-0.6974291469029205,-0.00571334611914715,-0.7473761399251495,-0.32106682161046274,-1.2126121205808555,0.6267182105178329,1.2652106817191695,1.9250988273562748,0.45377659386229385,0.4617936320138036,1.0789950708577916,-0.7925061745919558,1.1008192979563305,-0.5469809788553124,-0.6151339445399299,0.6806105503886563,0.9112807212391305,-1.3983249382890648,0.1922934104865971,-1.1746366344859462,0.40958954198908526,0.37776167920104786,1.7501697042739572,0.8189053261194683,-0.14491802699569603,-0.7533732659117098,0.16500469986989183,-0.28394942214636315,1.0235831538935964,0.18172518196110254,-0.9197916433428052,1.0502846355505133,-0.5083856988718316,0.5973867874702742,-0.1397668520897733,0.5800140035375917,0.5813380754050838,-0.5331649943821507,0.2996747636434914,0.7193104154516491,-0.49990538471623924,0.6654492772332569,1.6605169224754923,0.13504702184941758,0.19802681977966205,1.4854621574601248,-0.004030511241601652,-0.6868971904399233,0.11910249494755284,0.5123566522803764,0.8327670772896403,-0.953762473615317,-0.6416428345789736,-0.7505848601727508,-0.5566146748218472,-0.19612289635327446,0.459823360982876,0.7617028009830997,1.361184915778714,1.0705426655519765,-1.7382494034622324,0.232868841154824,0.8105909553267987,-0.839099108266338,0.32411924403131565,0.7963421474686742,-0.8718521375467926,0.12001242531410863,-0.22161115640157353,0.2847142747008883,-0.6190940550089933,1.7497329946792293,-0.572297362101663,1.2696451392561698,-0.06586298517762963,0.363822971390737,-0.37807976596823567,-0.6581876670900747,1.2328991874427333,0.5554617306276514,-0.4942178103112546,0.3994602172136274,1.302588178589981,0.27272790495554816,-0.7304219588034702,0.954745202172682,1.4912892857933926,0.8245664575227408,-0.390555984353225,1.153867881789834,-1.9669119728146796,0.2101325402805404,-0.6451362463262301,0.22740454217872125,-1.4546549670967879,1.4767780335982357,-1.8229000787866014,-1.1988984853969746,1.3902883969036373,-0.5074349294744926,1.1930309943348902,0.43099205982618527,-0.5125662061257262,0.07510274615868381,-0.3133756924609988,-1.3431944141868315,0.7417795725511375,1.2290338103789828,-0.83636572813571,-0.7697404255582586,1.1678583542541778,0.04805620329805782,-0.6347989544202439,-0.6411631816333793,0.07134085303176584,-2.2580918652007784,0.23468431993541908,-0.7212959884050189,-0.3715366985873376,0.9811527600735096,-3.026768737341023,0.01869438659788958,-0.19358076363991203,0.3592758935162784,0.07212924888437505,0.2719409755891084,1.1069838987038336,-0.294139369915809,0.9458497698874823,-0.4259883442805855,1.2750632325959312,0.6834591120575337,0.0602020933399321,0.7988869010865981,0.5253636317609662,0.26462159854765477,-0.1499678069017416,0.5494032444967359,2.5030490733317556,-0.8085216468311103,-0.3848602912696792,-0.49640497824592683,0.23841417107329244,1.0793788841291094,0.202653644202395,-2.056278716851118,1.2449864071557155,0.462916278828177,-0.9179539666202475,-0.012951840084680763,-1.0706772753323945,-0.13233479349115682,-0.2215172044553289,-0.15321790584099235,0.5318743611328467,-1.0779622639874489,-0.60867219376463,-0.7296271559324774,1.1178853229449446,0.029000580570519668,-0.22298548569199572,-0.4698306586766926,-0.40386864464603306,1.0924614092216216,-0.9091012505832174,-0.051003987236344896,1.9141264755755356,1.447355584666275,0.25858205309081356,-1.0993404377354887,1.6205341785706984,-1.4259474920547561,0.05533196264284409,0.46702238920026895,1.3331961095289533,1.2584260630581237,2.3728592034738165,0.04031410635564599,0.31329944449015623,-0.11103937318574836,-0.5362818345087649,1.4534037562793105,1.175267086954237,0.6324880299649068,0.29611067805507746,1.440850643712974,-1.4463343215605469,-2.0107239463491844,0.5881879709439921,0.7173271241785398,0.9487609707284499,-0.4067317950129475,-0.5970788264739902,0.8977972390147757,1.2710836586384795,-0.8167313661443167,-0.9818883452217367,0.8765369207389846,0.9738348562222784,-0.5752104142662591,0.6436787375257615,2.099643806205995,0.8003266608996118,-1.0280349152339598,0.7213497249937133,1.694945592449968,-1.0296024701733346,-0.1047674767477154,-0.6008373607561565,0.7052389286156263,-1.5427741718779175,-0.4074749683862397,0.6337732273614021,0.32801541366621034,-0.9210419787245641,0.8971914115298831,-0.09019894486716626,0.46404717169614684,1.1011483322405236,-0.8457089401755908,-0.75703060217765,-1.207835621764888,-2.9711250307749313,1.0675110063913908,0.5314843753688058,-0.9618732650041016,0.17349825604918262,-0.6568371591935136,-2.17566268092691,-1.5569642399315826,-0.16227751425593556,0.7829791757079978,-0.7647611418391812,0.20063709950888114,0.6269243659957401,0.6546979853093708,3.2570276567807346,-2.128857219926451,-0.5403726676582379,0.416059774271679,0.6174754214241134,0.7474725771972562,1.4062658480658796,-2.1705114260685514,-0.2620849766227592,0.8986851601460848,-0.424412648395203,-0.5361007961276625,1.3865339171523627,0.46853715487019043,0.15557999186638882,-0.7691902636387348,0.041753262753585776,-1.1405658946804804,-1.0445523859040364,0.934240947049321,-1.9702840645905348,-0.5923943826011536,1.032254183875653,-1.3755958906488384,-1.1824438402231323,-1.799710198055342,0.9253233696764815,-1.5490617612901707,-1.3192584911808656,-2.16811341353101,-1.0411393743909814,0.24129294146314942,-1.3060017477979513,-1.3417763129135447,-0.6563559111725251,0.2908863569947249,0.09732512069802836,1.0982209181323381,-1.1442367130925906,-1.3140884529872918,-0.9531260792645094,-2.0699969045904174,1.8007521372351183,0.1241610173716844,-0.3288719915648713,-0.15823657632912255,0.7969995246626603,0.7069164149428475,0.01879651223439146,-0.32151542385490167,0.09673334257592238,0.727899591453009,0.9678786764574066,0.2463532008944716,-0.46680076404530935,1.4999585446999926,1.6829749748167269,1.4394079898705354,-0.9437109906954283,0.9145891507111199,0.4457786733914878,-0.03542199159270448,-0.03125040080541889,0.8880681873004734,1.2803045091411587,0.31624092456867764,1.432597774208786,1.4296316144956558,1.2238634890691116,-0.7440511448587205,0.5314885238452438,-0.8325343260226944,0.22310113198969184,0.5910132367494861,-1.2638348085590496,0.1650469681257188,-0.8993591402183806,0.41564813740573364,-0.0553666241409938,1.257541150420327,0.7351156408900611,0.3118477220399851,-0.2894370796884401,-0.710311366864407,-1.64670383995775,1.1995450745271266,-1.0647494628920884,-0.558587145608459,0.4634652894579263,1.042061015151883,-0.6295531118113278,-0.6627175866628778,-0.45298242181631293,0.6073071488703651,1.3168585528891779,0.1522807893384329,-1.108837506732091,-0.8204558179678161,0.21039106569628177,0.7328268654027196,1.4833882499976516,-0.7101724331965641,0.8043257748362544,0.8951465873011428,1.513361130749529,0.25250825804769067,0.09611481409136358,0.6508080091166538,-0.8914354885515873,-0.56871194370396,0.8284714959216902,1.3219833300271537,1.5422847577453644,0.2845705607146961,-0.5835755135937009,-0.5537749304963524,1.1951082352133233,0.3710518481752517,0.7446243253679049,-0.5003947902677907,-1.554287706669582,-0.10980463344466555,-0.4900838318415934,0.15330417579097136,-1.3317277787920594,-1.297492701437455,1.0434727865451163,0.23000076664188576,-0.06677772148707314,1.307783146747727,0.2924035755138576,1.7796386135108657,1.0068087025093564,0.30040984633821943,0.49664005298343566,-0.11680191289437428,-0.3582833516370395,-0.7418167353427695,0.5868675744528181,-0.1562832690739401,-1.0711212136640371,0.6331218752686142,-0.11534820279573636,0.6337816111495049,-0.08176974939909908,0.6519480616885744,-0.33565726190060974,-1.0750974457639662,-0.059185632498489966,-0.7791490530433517,2.286895821644407,-0.8530141145674548,-0.531450185165963,-0.2603941062384221,-0.09691009030858877,-2.4294128600977816,-0.08235976018801622,0.29455353167471404,0.6626856241757827,-0.5179100731584798,0.8273013318707145,-0.8353143994517274,-0.11575907921417009,-0.5170466486884543,1.4217409056492267,-0.4577952612005204,0.15696310167925187,-1.4180476510000484,0.6220685387445907,0.06507766118433862,1.198320529522893,-0.5514074885519744,0.05341683740709541,-1.7452441454906416,0.13766642156196143,-1.4111346956788005,-0.654741682653469,1.6735462822811782,1.088414986159753,1.2713493620529246,1.3297424848432593,0.9276861167774121,0.9170956322861228,-0.06020000619336409,-0.3956395173548913,0.25965537381962683,1.3066827714861617,-0.8604310086547996,0.048338567222999965,-0.7848906566559047,0.5740393513511021,1.7633565746661533,-0.6572170816998004,0.2608411646039131,1.2632242675883283,-0.7923840384935095,0.21502028107145263,1.8452864073296333,0.5233933850347138,-0.6849136804106775,0.8596481223447993,-0.08476766984200118,2.723242649891138,-0.3431533726775779,-0.18822924747022513,-0.8059207889940304,-1.765500291449389,-0.4935474778050232,-0.6829116855732011,0.060872402132326905,-1.0380792809458859,1.2239801757139528,-0.7761604556694186,