{"layer_sizes":[405,50,30,50,405],"weights":[{"v":1,"dim":[50,405],"data":[0.9807581007870277,-0.4386277488681291,-0.6377319774670893,0.13705422625503058,-0.4214713543611517,-0.5615868014925767,0.2724105319152041,-0.35933430133832406,-0.5002155083698563,-0.2989314404464116,-1.042325519993731,-0.7175632080174122,-0.5612134467956029,-0.499235244022073,-0.353330154089322,0.37786223091005455,0.18368076123074958,-0.023880894034281716,-0.9004917065450232,0.4099887555808761,0.5698686855186015,-0.7520820747303407,-0.5239704960108428,0.7904818394413737,-1.562965097719802,0.9164374575756093,-0.9832738390115776,-0.47035318863795433,-0.05502031613016727,-0.2451003163430336,0.2840329221129358,-0.21033351741418763,0.31741218395426124,0.3479819831082333,-0.5802432521431088,-0.5038253639453975,0.48875132434910684,0.8529522879096388,-0.6841701325953192,0.04772691847931957,-0.7752266355293441,-1.2296219523423053,-0.4627694156398489,-0.14948724530342036,-0.3546112822491219,-0.9184470053865461,-0.9078481295995263,0.02186816359370146,0.9501503887309425,-1.315908449096834,-0.364714094282797,0.4541947198716063,-1.2233548897137514,0.2490408568499162,-0.5974074512951749,-0.6503298157114181,-1.216959982580354,-0.7517970692195932,-0.4301824147753797,-1.3968821487197334,-0.9709717282560807,0.8005478031654151,-1.8399946280346196,0.10634713338376275,-0.9991314913261171,-1.0515435367506138,-1.4529615975247694,-0.5111060685094372,-1.7876909869852216,-1.5318532047903963,0.9567703252367568,-0.7433595993240467,-0.20733281069270468,0.24993117512909352,0.602144694979278,-0.11195476068575119,-0.19742018227766298,-0.44995574978577957,-0.6816734205798863,-0.14957570260565906,-0.006733860312228817,-0.8729374783747387,-1.290692609576141,-1.1578284881474912,-0.9950594443215312,0.07106323501216373,0.5924980639951632,-0.019276213526822315,1.1018239454801733,-0.7109402767562445,-0.7827463999129151,0.07528232155741714,0.49992349115518403,-0.6283431632883031,-0.7038374138249319,-1.064956329012455,-1.008461113372558,0.7528658498436784,-0.19259077123426974,-0.05459157300881012,0.26494149478581264,0.5834288431584418,-0.8817414079171185,-0.2530234944148679,1.0959647038836755,-1.2373519164317643,-0.3439275818847243,-1.560653610724981,2.2538552904690934,-0.001877530964901725,0.0886355349026859,-0.02241591570908891,0.23258112125982966,2.1077429374364915,-0.026235499370319517,1.016237262634845,2.51825944095418,-0.9322772122199009,-0.448070981329326,0.11420379511700843,0.12769567331513457,-1.389415614764784,-2.027498758557646,1.3371500979207218,-1.8115471982247358,-0.5981524076471599,-0.8934045872360473,-1.9088894134527883,0.08860242729402205,0.9756805555726669,0.08807477799139604,-1.056156906498858,-0.8744412615409474,-0.7835239191099849,-0.25213235787634497,1.519456599202522,0.7594073372311744,0.05658100474920039,0.033469549418863376,1.005493045641714,0.4179461859767488,-0.6647816760727313,-0.2902959745212012,-2.815769473755551,-0.3950688321332311,-0.38701512210224104,0.447907934078325,-0.5326912135765737,0.1440959878971903,0.4159439778031806,-0.12063022716667654,-0.5343559509698494,-0.7087777740235418,-1.3734498679871336,2.454797719293136,0.6918458997725904,0.2973678509131113,-0.24403684399405848,0.2998593006699046,0.13379985721408605,-0.8355956814726567,-0.45513860327939426,-0.6609519608648806,1.1427016497727955,-0.38505652458788275,1.8762060223311854,0.7200971722025504,-0.24130961093360703,0.11654614196828125,0.39098714361301107,-0.21073758194363373,-0.3012152604691428,1.9309741024185825,0.7666372838744872,-1.4849310888657268,-1.3750893689220405,-0.43782570689438316,0.7184835423404401,0.870263039981562,-0.2265914302907842,-0.6343113756629444,0.5862435571084557,0.034085018273024376,-0.03921881101293441,0.30668167248687345,0.6299022736107325,-0.08251158113751257,-2.347575364579258,-0.7459836947741003,-0.2198122143722923,-1.319815356996653,0.5079259295894991,-0.21564392332503504,0.21041286778800747,0.4298865395906584,0.19253167767788842,1.425908929454054,0.46896598022773195,0.6790458059792905,-0.5309622847571187,0.17794159502349413,0.49450513083223047,-0.7197439034683365,-0.7840445687503986,-0.46063733420963937,-0.2949784681431007,-0.6039552008779092,0.23221282739171192,-1.2472744716564677,-0.42275224863029076,-0.14182624564928042,-0.2417974687806676,-0.008387559946158647,-1.5272778484996328,1.2097361582551505,-1.4237218370228897,-0.003919981491156082,-0.8180438316272737,-0.48352713432668376,-0.496396054182943,-0.2966632013421295,-0.02330597135397609,-0.6282135053763807,-1.7546632364614085,0.4716730417471799,-0.5424363573625683,-0.009833665245284671,-0.7234553044023281,-0.07801897037827477,0.8894340812928881,-0.16129989340682102,-1.358390598695567,-0.98621785262067,0.12197287690182898,0.4894958859005955,-0.43610754062341583,-0.14829162809411464,-0.28147824094341883,-0.6578724765726018,0.0564043148631923,-0.2909013097851221,-0.26702136849279834,-0.058319913157773046,0.7386064455430237,0.9095153937803295,0.046319250034327394,-0.24011756176637802,0.15711647314545923,-0.2506942009818696,0.3555175262513475,1.0906152144088568,0.7873283760866528,-0.4324325544838002,0.09344007839434373,-0.4160721152402219,-0.058654876686237103,0.30494226742048475,-0.21015674730261738,-1.0112156094566762,0.5155403946723252,0.027053311629817608,-0.25068857761470903,0.1515077513697058,0.7539652356446951,1.212545404083978,0.10344439116071323,2.6132331276099654,0.22142656759719667,-0.34106493778995567,-0.16889099364353263,0.2171062972965378,1.2464500498262514,-1.2379778687839587,0.48678775569231153,0.20115123470435078,0.7808665169649673,0.16213971372523264,0.739520567364082,0.11244585728679468,0.28841887387300164,1.0249793955206927,1.1863904541306785,0.8408334207291475,-0.5483988260808893,-0.30579097644395553,-0.43813302067272275,0.8313697830883456,0.7548105693919014,-0.403374133160997,-0.8183896124454436,-0.8747449837760672,-1.394173676935343,-0.6507527300745752,-0.6241812539290796,-0.06727838040007908,0.4183476928274742,1.0200466341388863,1.0115496314456978,-0.7120926791979969,0.03307407966637084,1.0133683850128823,-0.015923533122484373,0.13618907484198675,0.840591610213867,0.1081719439571465,0.3353198374615544,0.9386031881933644,0.2936635215915402,-1.7275957153440327,-1.0547881665638257,0.09136119462204748,1.2723658202593682,-0.9685099940139398,0.24990339028508277,0.7367931403765086,-0.4495174209086184,0.5685947638203525,-0.8558423181869289,0.6368812717469753,0.5876186029616155,1.266749309998837,-1.1387436374246267,-0.10427963174875908,-0.33290437808522905,-1.3352139901644542,0.38118702495328716,1.1859460826630273,0.6640485379770402,-0.10455640891180201,1.2225541726153246,0.8100044702155544,0.16426304665624775,-0.11768778190969757,-0.22832861341205332,-1.753267484729078,0.5753435979113102,1.1199922989432654,0.8185310973252702,-0.8616086622463198,-0.10854995530079456,-1.191971632809432,-0.47666036521493294,0.3361916926856686,0.17956868590719846,1.0130915667999565,-1.0797690528632178,1.6033425472245886,-0.6375069916880234,0.11741544778368279,1.6560348729655805,0.5832345748560515,-0.7714688176697875,-1.7695655598890856,0.7867042417126044,0.10014448133382196,-0.5486404546380664,0.686101193489313,-0.5291713860608995,-2.411668320161564,0.6654398925228844,0.6237125503433586,0.3676495263828032,0.26363837158275,-0.12102791489813683,-0.3927222065394383,-1.1069750240020306,-0.5392848279855572,-0.008684549063597929,0.012660812145586686,0.8328960586101466,0.7949702449067442,-0.6000447395053841,-0.6936225464196832,0.8881832524747423,-1.1550735379905988,-0.7011032066984476,-0.0936334317898748,-0.8152387595806824,0.5540652524264446,-1.5012797532363105,0.1309843555494647,1.2362855502269399,-0.7525514927699049,0.04755951387683026,-1.811000146454,-0.3189201452797128,-0.13712935873983143,0.988405273197605,0.34230856331495463,0.20167604211608792,1.3954072960078916,0.22701713527948067,0.35258622573692283,0.6657115125030996,0.06251591662151251,-0.28704312100935314,-0.5606774438664407,-0.3075407682853503,-1.3589168835045424,1.6019907068397736,-0.9215741419840874,-0.1025610157981471,1.1071303689912957,-0.11577540133888221,-0.12443316813025718,0.09013727858820368,-0.9842764468935375,-1.6767755954917172,-0.12345404026539564,-0.8321049722169189,-0.6886466650257203,1.1119441386182258,0.6270805005921468,0.2908879528343693,-1.0273435519939806,-0.13771260948824007,-1.1101087029212249,1.5589958303902278,0.5377554996559153,-0.2685027759407199,-0.14923200057261435,0.07752004896786271,0.02296789656198219,0.11385477504984926,1.116566435567306,-0.1877593430435866,0.12143218202511533,-0.3394601622801961,1.1789154349787319,0.3018238777446704,-0.842945592301782,-1.1630676917557998,-1.5794669269605721,-1.2311547867866999,0.2956594714079108,-0.3971702620871711,-1.5869884880173675,-0.17262498891999184,-0.17198173505623762,-0.0777714631134977,1.2693579429731174,0.23609688636017906,-0.5309513689810317,-1.6528834261330059,0.8478298005359959,-1.4394313012156135,0.21441726669202643,1.0437508277090815,-0.1935112061770716,0.12302074805431744,-0.1886823589260201,-0.4570253306346465,-0.8076949638032456,0.2394538450310079,-1.2894613166010414,-1.9091219327087832,-0.9827750515895237,-0.4676694239611673,-1.0671333301354566,-0.29863256268243277,0.21488846446128118,1.6954200524834828,0.17703485182463455,0.2547413398120504,-1.2610146321866043,1.389387972144798,1.4985588882353968,-0.27707196435225784,-1.0513422249385709,0.3369182939351869,-1.1541123432109228,1.0022175035676848,0.17244591643262044,1.2829145113329952,0.9397791089713584,1.420318497558628,0.9869036830629953,-0.70321793789172,-0.4773735389259973,-0.9614294078643433,0.0008914068396964059,0.6785847347165062,-0.28480305878818307,-0.1460018944035898,-0.5917385728570601,-0.5126332739683532,-0.5843368224863542,-0.33624722356348713,-1.6231817277532101,0.050163256945654336,-1.667486711783905,0.26217315028045834,-0.636981347264877,0.4572402113488174,-0.29106987063857914,-0.555014747714882,1.5242876955588227,-2.486784041184775,-1.5997780834376394,0.9094413038977456,0.20738071315729686,-0.27022879843269065,0.48233658905723453,-0.2245427728273083,2.091365413313836,-1.6641886655351097,1.3175821693794278,-1.3093782412236985,-0.04679653882044291,-1.0679378102920098,1.064542748000735,0.3346717118160769,0.03428801529836739,-0.7647589669599804,0.80863817091345,-0.5250305752369422,0.3865916380693006,1.140576895349253,-0.23471186222506807,0.2684067083777643,0.5910530082573385,1.4879645276478561,0.2657093533598845,-1.4871688684112438,1.5821586749605787,-1.4803493373126615,-0.9364132011056543,-1.6396050290959765,0.7881039023677158,0.16053762400343438,-0.6285322302632286,0.2100345423288839,-0.03056806780474081,0.04305270299971498,-1.7429372279478654,-0.8894946286323346,-0.9236995492105482,0.13632439090184692,-1.0259040038639975,0.898669430514847,1.7300394120669096,0.8458487731666169,0.1902454306434471,0.6476644843563231,-0.9548432278212596,0.05495598001283362,-0.29718943142489535,0.547115253350759,-0.03211576128797224,-0.5835529598928852,-0.11127289178437808,0.4126837892993417,-0.07094186366117812,0.162619373994773,-0.03541685318210013,0.9069190453134229,-0.46865264876774876,-1.2848726274488425,0.6123634028306063,-0.7925181008939791,0.1538747188013871,0.3516010342618318,0.7978909974840128,-2.3536982806595024,-0.24260988422704308,-1.7823007491053398,0.7492068831333171,0.06034760550946493,0.34529479136712227,0.25165582263175723,-1.1307611727469065,-1.7405951706121348,1.0310273650836366,-0.3523805171090437,-0.6947956637892232,1.1786152365354237,0.9398158616800245,0.4953409043893858,0.5986819918736225,-0.22072283058358527,0.9300021227627848,-0.4450724753679667,0.1475437098352715,-0.16494831849084274,-0.02960124707450832,0.6879556993929524,-0.3821803843831064,0.2048155534299186,0.26119601315090923,-1.2334096767580087,-0.5972668289742087,-0.23041548163981582,0.45806083037770295,-0.5966709771832761,0.5336322188834972,0.8560383001353463,0.2738941292324906,1.1216550440977469,-0.08888492749738575,0.2672743633195891,-1.0933899996951664,0.3830051635077516,-0.5838790174422116,-0.12504178698169832,-0.19272561168049346,-0.6630666739628206,1.3247014995969817,-0.42660900351995273,-0.659552159701194,-0.4974075033597039,0.3922290400822733,-0.864782783915522,-0.3643945338921171,1.2570087713441769,0.1768677971726628,0.53323663856515,0.86697754109062,-0.45285861126483196,-1.801349813393314,-0.1197181261121824,0.47379649504935706,0.2882944963087523,-0.2831894376907555,-0.303019086372505,0.26185341691454167,-0.4100963989116213,0.2432874238589823,0.07308669578630524,0.26169124817431105,1.3397407301868554,0.08533356445392566,-0.7991331826668345,-0.28464349636759706,1.1759124035747108,-0.34446678910194983,0.13127573506057605,-0.6142489828321915,-1.813411719341884,-0.6447855350985078,-0.003537494737517833,0.6139411586594099,-1.0935088406282407,-0.42304857663039036,1.9011719774645919,-0.06025198778495627,0.08417000764031986,-0.6018154489587058,0.5063249359372227,0.10469320677945965,-0.2376357318826476,-0.26195583680766404,-0.37352881654785647,-0.19288080683512906,1.0390746126435095,0.44624777461187215,0.1272148044391088,-0.4481649892240597,-0.1312876067003584,-1.311849342279431,-0.9538203013126269,-0.21239975586051113,-1.0511917950283944,0.46665238692280114,0.4937865028517606,-0.7046308816797584,-1.0836437710752782,0.3046032236158629,-0.01159044770017791,-0.44226311402364743,0.22556968595057864,-1.0338519745699022,1.2676243254479471,0.883681661232929,1.2294811194750113,0.27976765781033613,0.7822290420312005,0.7981039524705312,0.6341695214030499,0.6953947682139869,0.9877365387613027,1.329205617975301,-0.2843398201787166,-1.1301333686716946,0.14725180399541024,1.3172665506598014,1.6072831701668508,-0.48114363460787624,-0.7970100489937791,1.7503864096515667,-0.36595599596875555,1.1182248857821087,2.066345880083711,0.553320746517028,0.04375953076519107,-0.5839961440280681,0.2838370734334477,-1.3878793912175944,-0.7485714004296042,-0.5424692807035072,-0.020361086274143292,-1.2044993565817297,0.5745761514067238,0.18866019456140523,-0.7244293859406576,1.457836428894398,-0.12763627164127847,1.6404764314820306,-1.0018873255471634,0.31756164384243735,-0.8290195771575736,0.1208662021636727,-1.6046316895466397,1.6018028062420866,0.4803430745342963,-1.9251632436024175,1.2706417999665256,-0.14770673406847917,0.5586578884030369,-0.7254037731173837,-1.4332177444021343,-0.04019599217083221,0.3772130874577516,0.4311652408808561,-0.8790787983834708,1.1394152066477405,-0.7199050418144717,-1.161968227168843,-1.5029696004892348,-0.09905103538483294,2.0408242069605693,1.4436961999067288,-0.17793835218269288,0.8102025043404769,-0.5586114324505059,0.6195924468715411,0.7211831590863328,-0.7061207520299029,0.008552203239976639,1.1372522434012564,2.063996877070622,-0.495911579941106,0.5616414689701567,0.5837597560242135,-0.4578598583657849,-0.5107644940650514,0.9383432177778422,-1.700038630429059,-0.11328141355561798,0.6097250540327382,-1.6514330468163314,1.166855496804338,0.3022084361337266,-0.28290266970041855,0.7883309633594834,-2.2897948775806785,0.28827782502556837,1.0252328385989287,0.5821359921955158,0.21064776720225778,-0.7039217757254503,-0.9531402835970972,0.18843842273111835,-0.7577746494880272,-1.4696870658630043,1.044360358966996,-0.13882158426366104,-0.9412812696540892,-0.1746364695590556,0.603551474771841,-0.5118717711026831,-0.4136007964643748,-0.5699772669723808,0.766140895053044,1.0169078529020972,-0.025453862248263112,-0.1321780777978449,0.551731185148302,1.203602138423588,-0.8344273616466118,-1.3746760518669154,1.360357632064508,-1.188956895604405,0.2819516789781075,0.9962692104379758,-0.9192520312209814,0.07512692785134696,-0.6691669852838555,-0.36013919740122524,-0.12709522927709965,0.33931228978720646,0.6777214676020451,-0.8713633103303029,-1.3525231487183729,-0.248324017543035,0.7488840949305662,-1.3126614656176543,-1.082329888497859,-1.2156982501955391,-0.3633954556971532,-0.9225429856298314,-0.27623442879413845,-2.225890172746655,0.4153848732549788,-2.8459985152977594,-0.07832724212386664,0.6409283907160501,0.6778326461308833,-0.243094907796288,1.282324652763704,-1.8058225775083356,0.23922206303095683,-1.2250490419605466,1.4747904080628913,0.9025360748603712,0.9274669619027672,-0.23356266540594858,-0.27670113798788626,0.7808217519278662,0.00819567642611909,0.40640164527910316,1.4362205494284903,-0.7805340490399041,1.2601407985598452,0.21855489110067244,-0.4058044968534592,2.7251013028667948,0.6234613559580781,0.643853081600313,0.40033432395978297,-0.48341622103137655,-0.8553468403585813,-0.0959608430461693,0.5683079035028247,0.11018912874956108,1.691571981674409,-0.4459039528143234,1.3479733501341629,-0.2040688293836781,-0.4323347755116652,-0.7162166872916584,0.942929510508463,-0.447931223711888,0.8589121955767872,0.09400112370352037,-0.3085029975088278,-1.664958668317675,0.3007082835470639,-1.1339183679313733,-0.8746377132884019,0.12797931351529576,-1.9016603033412882,-0.9247255034772498,0.3572253712572402,-0.09496092530351329,-1.422057425096509,-1.1212447578337068,-0.376690079012945,-0.5653452165087225,0.6468771226907791,-0.1966124096361476,-0.5286201789909781,-0.9557775924080106,0.5738781530400575,0.8720881755360785,-0.6911765574562933,0.26823013175308896,-1.3984153077651285,-0.2641057955414737,-0.10401503568108476,-0.6211274996376018,-0.7658144598047587,-0.19679162645904713,-0.5249168463727365,1.2409869488983996,1.540530656317675,-0.017553245678992937,0.7250114248553191,-0.043731301902272916,-1.0541595602841662,0.722417469262939,-0.24707503869522354,-1.2756652625091032,-0.4572240310937701,-0.5601636241309201,-0.7102109512902115,-0.2619686253328418,-0.8849552564464309,-1.1844207545418326,-0.057384336359786965,-0.4544015401784619,-1.898690862046982,-0.6354982742478139,-0.341947485600536,0.4331707338047188,-0.7208281672221817,0.1362397398096495,0.24410545394905217,0.24110032422154712,0.040976192421084495,0.39153238409746816,-0.39885722097768517,-1.0683930831870463,0.21480939106175265,0.31162234164211927,1.3484494003529288,-2.3841317383085996,0.30532473000362703,0.5922382060634931,-0.7429359202699062,0.807111531316609,-1.0132791911251675,-0.6483965542418764,-0.6226733376300798,-1.1567863258515376,-0.9563938822759539,0.7996272515061321,-1.263614156810066,-0.33893875031040327,-0.9159986077982769,-0.11256687477905127,0.6273715300706365,-0.9504341284706,-0.541037245438856,-0.553250875519256,-0.10817705874939573,-1.1975664798528676,0.20228988959499072,0.8924612327233215,-0.18941599741021464,-1.2335429324115874,0.7193742819189687,-0.519218085401615,1.193337958417995,0.7046280203693674,0.4555600762920743,-1.0955667598152037,-0.07093284358625616,0.37501160112343984,-0.9397122436376687,0.8310932114670958,-1.240184205436996,-2.1808841419653544,0.12416360388124897,0.03978833223103684,1.240217707396966,0.7593077524437863,-0.2216126767631968,-0.26302850664665367,-0.9414762933746064,-2.1948234129437094,-0.05197088896445023,-0.20461780445955854,-1.3726212111251348,0.34406460133622535,-0.3058906186203548,-1.4244524819246784,-0.3672886897181628,-0.015763571893110152,-0.3523001880350103,-0.18647854613536008,-0.41861922719239153,-1.0868008450098179,-1.0416027685318274,0.13847639465647937,-0.6254807265893569,-0.5670744248210056,-0.018783017358968906,-0.4302312435276393,0.6534639521493383,-0.28431036959894934,0.5819116619560802,-0.7719160285723425,0.2733762218673824,0.29268898321835674,0.3479192956059635,-0.181500899198011,-0.8622783426779351,0.9724176551417738,1.1539478127094212,0.6972038071098812,1.3526978103794738,0.20731511908277175,-1.251053658137647,-0.6878436074759366,1.2858870422324058,0.10430757159347112,0.4294023798094641,1.0117901212602851,-0.846147890813056,0.09933511465377609,0.7278747130288973,0.24565892813445595,-0.09697826044674485,0.7257224214062231,-0.42482706962237854,0.3033858022127682,0.9750542901176208,-0.437268598983173,-0.0036250548954122304,-0.07278408354170633,0.22704411727813942,0.4274474300611634,0.5449663831989314,-0.2908607643924087,-0.7562022952844666,-0.03879511157041229,-0.3183432152846142,-1.0629083112339792,0.5905593644020436,-0.12592943565291212,0.16985242339744377,0.5613086382486846,1.6670045185689846,-0.27131073579530873,0.46303476072793104,-0.3378443040863907,0.03575653127332669,0.08701572570169702,1.1499765868183707,0.1325783905466854,-0.8053712341081034,-1.3713217180875004,0.18795470626038357,0.19116157340997694,-0.7788728039050684,0.6019208139454396,-0.40889798040205777,1.0314273483721368,-0.1819133521156207,0.6006742928843016,0.5456237067405951,-1.594651873948955,-0.08073643474291876,-0.356413987668086,0.8324307333598734,1.062372628138361,0.1791766597713809,-0.5190030274488202,-0.45467243989414613,-0.6134442651514987,0.01638377508934387,-0.7775611908298039,0.31564105949049,0.20127390028653122,-0.1383623746136791,-0.011705635237863443,0.5190068171945011,-0.1254537618600594,-0.3547344272349649,0.06456773767409923,0.3488455547838665,-0.06543187462055405,-2.317909849414097,-1.2918824504038187,0.7503069193040619,0.8150973862486509,-0.6719734714583394,0.29680211507934123,0.045107183450911664,1.288936360083845,0.8550852215252879,0.13189983815138123,0.4453580317858569,0.4471672559432473,0.6925877563087048,0.523465491704768,-0.5990687109200789,0.07339134277190025,1.6596696336632288,-2.055076235968719,0.8045253860030963,0.07247528114139834,1.0203700706973304,-0.47887018552737676,-1.937373468795424,0.22088724024685766,0.4301952077501964,0.012864139744696386,0.17132127854750265,0.033100198517088064,-0.458455276865034,-0.017660711269829443,-1.2952196452586722,-0.5813285880974779,-0.19194407142330408,-1.0693564789388839,-0.6357202304680719,0.42550104946578776,-1.184645786039785,0.00240693475530028,0.7368412313649644,0.07103101320401045,-1.5249956343013091,-0.7733421986067992,-0.6432224886953689,0.5979761173785982,-0.1015636225201538,0.771911638823307,-0.36940023884100487,-0.6362474663920251,0.1602392062410384,-0.5973470743436287,0.058269452509672956,0.033039005484755045,-0.7383317925978877,-0.8822139867889568,1.251678475228362,-0.17693935714703318,1.0433292130170413,1.3036514000804775,-0.581737189493244,-0.1664789707973308,1.7340916706790448,0.767635499288092,1.0986521161977365,-0.856115389059844,-0.007848297546310078,0.13839389695865806,0.17495976480880351,1.203318949652837,0.9581440179388782,0.48192964956419193,-0.65454898871013,1.2330905289814795,-0.36956484534586626,0.1685374589860086,-0.3156819008975847,1.1242324546931188,1.094400403466011,1.0819487578729894,1.9114705491375343,-0.4136477648840943,-0.4867328841208726,0.0727277288365242,1.6521505153602127,-1.0364548311608768,0.3928802454866952,0.43228371417155614,0.11877924290976086,1.6234198069282493,-0.6484434361491654,0.2577745900601354,-0.3214139756814646,-2.579046869055186,-1.581865686974961,1.4306141165531172,0.9601730639355368,-0.8654676380786214,1.6146846554240253,-2.1077710391081235,-0.7189611086762335,1.7971801754254197,-0.015417660864098615,-0.4850873369039725,-1.84214164391354,1.8436054331253922,-0.8032671672088223,0.08773628927927174,0.3012699630810298,0.4210401405246039,-1.2561129271433578,1.2601617477260436,2.3665437290100204,-1.441200744398812,0.548057501597911,-1.4908787941479515,-0.5145117314854951,1.1469735401037113,0.13544255850545184,-0.4255559998938851,-0.9600626574971532,0.31007103608544057,-2.604059023381959,0.7234364553863308,-0.352982308869289,-0.2986670585355004,0.15069467827466076,-1.7275642430194886,-0.5076253102637402,0.06451993371082657,0.9108349968508084,0.4935123957416673,0.8290481786807276,-1.4407197377504852,-0.7685151023443454,-0.39165687438758107,1.0051837350226334,1.2472018713302675,-1.3355328666905297,-1.6592174015097627,-0.7196750606857165,2.653632899493218,0.4677548895722415,1.6019367023615436,0.6246947857397638,-0.32404749924100135,-0.4156415212307332,0.9275577591606828,-0.6248247669425949,-0.42704204770138865,0.7130194983939299,-0.41096000206857164,0.20735225034039012,-0.23871070520615453,2.0510362601410597,-1.069901027532672,0.4317139504498683,-0.17711728055592738,-0.295306432121624,-0.24452647277362916,0.8770077278533472,-1.3384150412019458,-0.7567300707714081,1.0613961677255583,-1.04603843738361,1.2238078015998797,-0.20448383424832944,-0.3732042734832396,1.2621042283823474,-0.1991693121224947,0.628556751782537,-0.2966278130719563,1.7445087115944216,-1.2287996519701854,1.2469274149038154,1.3112231496370133,-0.6902760779028274,-0.2770921059343184,-0.8935339015675249,-0.9559605371028497,-0.4949437765819244,-1.3184648719940937,-0.08826183808488822,0.1511689931368763,-0.41638604550859487,0.3919441549697078,-0.760515847647493,0.022688438265736317,-0.5640182479052276,0.1455365133068936,1.9070605044392333,-0.24073216120799773,0.07132512237751527,-0.17257451906575388,0.35689664296690227,0.024356328245460288,-1.674213474261154,1.9347656596869123,1.1369915306910034,0.8934116823862461,0.6868340076839603,-0.9020555441692545,-1.4878124867491094,-0.2940143263157277,-0.8724551650176092,-0.35421444605407004,0.5440216454340684,-0.9903342675934989,-2.1469214785901047,-0.08606902143690448,-0.4378214750262041,1.008864762260981,0.0381709821863411,0.286703673010975,-0.02789574857096459,-0.3510186113222598,-0.27660627963974266,0.12460044298586448,0.9324549502360748,1.035744855436191,0.5634032503407304,0.5108443006224871,-1.0204170673775534,-0.3910524611970932,-0.26613470153377594,-1.8977033382891995,0.5506192272052118,0.29478918374871876,1.188809111518044,1.1879084158685207,-0.22974427032269973,-0.3461871848290991,-0.28773590005087574,-0.8305073927480641,-0.9254798358552633,0.6374198840530355,-0.03403832199657951,0.6688151689905169,-0.7531027812418378,-0.6093615011660676,0.14893963272722552,0.28878817460752576,-0.43792691405035616,-1.0690154167060824,0.882164380697794,1.510507863940591,0.79940058423243,0.4432721175828115,0.4613578916940397,-1.0045794828449643,-1.5262359509164025,-1.0353409161064098,0.08653277880053603,0.9111180775637249,-0.8168402097571191,1.332872477807417,-0.13893236236788462,1.5375552367885514,-0.11445865397637722,1.5227894610288313,-1.4318761353833078,-1.0678047607306658,-1.2372935174916484,-0.7019693402804151,-1.072697009214338,0.435266318156006,0.05339675721851687,-0.07181681852997096,-0.12788955704327493,1.5014387831763165,-0.5013553353100996,0.3517575760743419,1.4487527365982844,-0.47887837003450956,-0.284962871993658,-1.583206355641269,-0.4028697731645964,0.8448570043994773,-0.38786485535232923,0.2263302121858972,-0.5575966313027196,-1.828667537544015,1.006531247179374,-2.3155893500114484,-0.5389065369740085,-0.7711754070109693,-0.5243021930228763,-0.01032232341572318,-0.5097035081413981,0.40628452056348624,-1.1863121033358381,-0.3492828503181561,-0.276134890344258,1.0292667168321354,0.03532513979511465,1.0073720805000062,-0.18385788844972126,-0.8380678650352025,-0.04964179486284535,1.299329587321764,0.3591231145910821,-0.321638556162161,-0.787754026861568,-0.1785459829091634,-1.4830291480855138,1.3245694764414209,0.24745677166873123,0.4880924811627695,0.4762012724960055,1.2879284594273623,0.6628214424422961,-0.9140405041880463,-0.17359007642094798,-0.11834951373165938,-1.0017738289677383,0.5449439180159729,0.2561932028437486,0.32994334685171683,0.9275039320934554,0.9650325691355087,-0.5168195796971393,-1.4184285979900617,0.38720811719921183,0.7379241118832003,0.15812462703275143,0.711555206314496,0.7335647921800407,-0.6873725250187764,0.7630522530934126,0.39212836049172567,-2.3267453641063196,-1.5550526082340204,-0.9117138085394181,-0.7450603365876823,-1.5515195525870111,-0.08792017526836615,1.2362089201423736,0.474898427746908,-0.4013354376963482,0.4093118985648232,-0.3485717242522258,0.9264634354830751,0.3782769281054832,0.20203795747103018,0.5272020337894536,-0.9634837435446408,-1.1820039216663933,0.12741096587223744,0.39405743687957456,-1.0509373580548116,-1.2626717753171586,0.6467803639511818,-1.5322280665495287,-2.132637023012126,0.23386360412124005,-0.3713071022827924,-0.3238463805149281,-0.46315170383667503,-0.7533127127389367,1.1782660680607369,-0.9084245758627897,-0.09550616566581009,-0.5565196990166819,-0.7405777676521424,0.8705762521518017,-1.3706422545947798,-1.0322858190616373,2.4355788667822216,-0.4792792806326062,0.5364180197257234,0.704831815718502,0.2571104564469045,0.14038880045844587,-0.9312182712834147,-1.5533463983421205,-1.2892355263064967,-1.2550677601596296,0.81897103034655,-0.1849580909552432,-0.25291075354057563,-0.024605068802271632,-0.30294130613489695,0.6693319296543287,-1.1056735349319453,-1.3456837152894456,0.398081399564099,0.482313004973468,1.152720790398578,-0.12032386954174343,0.3895962987490445,-0.13486186273736597,-0.4320199948243976,-0.6249726209115386,-0.5025990567668882,0.4946197912706454,-2.0634590505313835,-0.20040696983721637,1.34099377923522,-1.1098071549624997,0.25824184995247423,-0.12624077859992824,-2.0797981347611056,-0.01781362705759417,-0.2804428573292065,1.2155387974950602,-0.6553130982277611,1.2670628415035954,1.3566486153891093,0.605373270993877,0.9494994799754283,0.94153958272528,-0.07187662044844687,-0.3467061481602091,-0.1896940078373719,-0.5338196954187819,-0.08155433202220473,-1.678084456698504,0.58218859769329,-0.3479609577125,-0.47996695331710015,-0.9685926779149233,-1.4055677540131044,-2.223835177633596,0.12120717891616149,1.3668759506106822,1.2345747733817232,0.6957107941557286,-0.06108526509653393,0.00802834811441933,-0.7724507983806238,0.6078774675294666,0.8943095099015599,-1.482898505369044,-0.7331183616251992,1.0965351727509198,0.2746114190994193,1.3624971358997835,0.2716785408931724,-0.018744269760293832,-0.5108724161595145,-0.5476328341834262,1.5241703937241498,1.0607205920911855,0.7772713968684731,0.7064648734386545,-1.0412718794087716,0.11755653811819193,-0.44773694025050725,-0.9365626304357763,0.7111603908853082,-1.187901607753757,0.930575782803634,0.6957158762051207,1.0074040692977657,0.24888005364149743,0.3738815476882467,-0.038944001008685204,-0.9355153052370374,-1.0732874728225494,0.23957684911070612,-0.5322885200647615,-0.23818199775826956,-0.20712452137368093,1.0100584106424038,0.43848511364649845,1.0420469871653766,0.6932419516319579,-1.2880117548795924,-0.2599934946649675,-0.5195767571208466,1.0224909923156706,1.2845963581793378,0.4958992669663983,-0.15506817345909832,-0.7685765113011447,-0.7083232974554374,-0.44848296949782174,-0.06420178326245866,0.7867702796134343,0.7737031247242563,1.9952634791656172,0.7266083304870288,0.7325563386472227,-0.5144060876081491,-1.6476026418963818,1.4220818901421055,-0.9796585707767004,0.09812917127269359,0.7722781161301714,0.5387207284023833,1.4630846336900116,2.431789909036672,0.9924356006669962,0.6291303252104545,-0.8023573407496009,1.4042615383142039,-0.15357141376918035,0.5886210237032083,-1.2830278525625465,0.5226855319364152,0.6047931089672968,-0.011430144426981134,-1.1984656105319909,-0.42900003649836704,0.769441500710251,-0.6963386253509473,0.9558847642097679,-1.0708951543092367,-0.24562153435124626,-0.13403485800487788,0.24089669382278173,1.1855138803965015,0.1258280532639824,-0.12678274577079487,0.06363737152395584,1.04947449545583,-0.12057330759266688,-0.22676046944831843,-1.5666979097190479,-1.418213437897337,0.618125138658616,1.0331388392921186,-1.463059057427736,0.033003295564242446,0.7288085710251496,0.0109946174719016,-0.30415435370559973,0.21188839972207033,0.20377741543411562,-0.6012758317932219,1.0862614893193534,-0.4952684175962652,0.6488667374860103,-0.13761824881716342,-0.9344023255296228,1.066604827837296,0.9777272018467291,-0.31193896665361664,2.493155029741483,-0.7020165549570199,-0.7603578864685123,1.3807073678722388,0.9112830291796492,-1.5608168307425607,-0.188301864457595,-1.0155612646278322,0.39834187695305695,-0.46715919183113835,0.0017972446203189875,0.15960437765341468,-0.42614817560356055,-0.6405881157540269,-0.3921837785760469,1.613723827390818,0.538077251084623,0.5410074004183509,1.6254160136792397,1.8306421812560327,0.870371698855871,0.11853977581954787,0.6171908479137237,0.05343586549558074,-1.206636405677878,1.1609974911835752,-0.037970094123401577,-1.1028680178689445,1.048474524561526,0.10732580570037695,-0.07826865615735948,-0.3970600980163067,-1.1239043705900984,-1.4091059140102615,-0.4112729240154397,-0.6285605110099053,-1.503059241271604,0.03201396721036185,1.407690151197462,-0.4350921680854256,0.687617464700879,-0.9590197010654278,-0.4391014005708864,0.003057014963773843,-0.4565866572838899,0.611620844661693,-0.6934255460599289,0.21517651058329978,1.1738130949888548,-0.9282392046197593,0.33638680386646874,1.1053837654216172,0.32290339286333997,-0.01937205069572199,0.43572579644231263,0.7796343257569107,0.19544610085196298,1.588373258688691,0.18383039042957833,0.08778328750346172,1.5372789380233693,0.5132620254712614,-1.5115935513399998,-2.383030350740415,-0.37423346603141805,1.7444160081192583,0.1837966441837265,-0.3160946943655176,0.1741304543934777,-0.1208963839411967,0.3227617495398401,-0.05277513768913625,-1.2937163586330342,0.6752736588898084,-0.1809009479875982,1.1316639341681896,0.17639218951660773,-0.7145682781199567,0.762931832890639,0.3514931321857605,-0.26838639786442964,0.7627282830741597,0.21606312879822567,0.02434402576035859,0.502491912185767,-0.3851385592839267,-0.19713761245907108,-1.2137400965860738,-0.3952386633104889,1.0431525464646108,-1.4337659960156872,0.118032640885547,-0.014370641225455994,0.2534115519420886,-0.1585165589491563,0.48301538264243116,-1.1657643226733794,-1.6825771524720183,-0.5382039831417584,0.2787431520493433,0.4290276264495406,0.8772227793646984,-0.2836503095218447,0.12520663738466936,-1.900927218569505,-1.1709523673459854,-0.8477733664058315,0.0890973416561842,0.692099984438356,-0.03470612216253415,0.4214312921174858,0.2125611946581699,-0.22690541736315636,0.48405756867190747,1.453994190555181,-0.8312020068717851,1.0662150043336323,0.08099325044229529,-0.07903927522832825,0.47492521975032637,-0.9368375511975228,0.5074191075007894,0.6539681892166838,1.7388299145462216,-0.9368845547429131,-0.12237658914807453,0.40711767315687264,-0.07138878620092662,-0.5602492798680928,0.48440491921184964,0.31729178486353365,-0.9889675283350431,-1.067200749244796,-0.3431227405792608,0.04162402988060585,0.32765370295073937,0.40290380489468636,-0.16161601679589216,0.33838883005152803,-1.0602448683657892,-0.7207928285344904,-0.12958553850731563,0.16873257468581798,-0.6023733906574723,-1.360854899590375,0.6307442446372417,0.6680367674263389,-1.4810249274808054,-0.7569658141036093,-0.03283263278096271,0.02901111568805204,-2.006949598273719,0.7113827886780079,1.889438820307433,1.0205177622033719,0.560919658893258,0.5167275916174483,-0.4341700005286335,2.491119825021319,0.7724119096026385,-0.840720551477804,0.11205236292619836,0.8424927504625359,0.03674135192289831,-0.7225503383525641,-0.8734929780568539,0.3519617542005564,1.3824054385155071,0.4037442224143147,-0.475037983300338,0.045990896322238975,-0.23292141444574532,0.038059563365668,-0.03784005670752645,-0.5750883599115384,-0.5654919994467639,-0.15456881566395747,-0.1379047856125642,0.25278297321046833,0.7049116359727174,-0.5574080956539188,-0.1765166612285099,0.08564765541524991,-2.4909786053102416,-0.9487118289333101,0.35283778839846025,0.19224218179018884,0.05272964279317779,-0.032066465659745844,-1.029137340442384,-0.22201807915521005,0.450968341165302,-0.11724916240611503,0.08771944019935615,-0.23129412760920004,1.2972573748583305,0.3455654544186716,0.08031250133647688,-1.358878623672297,-1.3763334812752033,-0.02423948526441819,0.2958674981528851,0.9728139807422188,-0.5569197580016181,0.7209885364784612,-0.9653109160997075,-1.1878658209627289,-0.33538430403884956,-0.5267959407884636,-1.3326237155457166,-1.3399786678500594,-0.04425977256154401,-0.21647762289117253,-1.7077041651817355,0.1593326616619679,0.0394274980868558,0.5910603606451075,1.0774189625773585,-0.8141373526778175,-0.8003675610680863,1.4055166875119067,-0.05164028430711036,-1.1221043997830862,-0.10630034833167475,-0.06871823635519844,-0.4369345885263921,0.12371558597878982,1.6594067318558994,1.6157627355542108,0.8906724105410764,-0.13347382166997476,0.24164030778473888,-0.1779704774011886,0.17646378632343987,0.4662631469801016,0.15677744745405786,-0.3112724110796598,-1.6819557437686457,0.22317358936547863,-0.12596185511633295,0.4938082612250584,0.046906178388050085,-1.2682490867160532,0.7543517247420884,-1.7180947462900553,-0.03213953438006676,0.8414748513101479,0.30660382341072157,-0.4026944888721358,-0.1679801726755876,0.00029066535613985335,-0.9807477389521374,0.8909846646789968,-2.3456521629097127,-0.2794617450020833,-0.07729845805824974,-0.437378461928197,1.0148248243538427,1.0013354195590114,-0.15600315484941932,0.28053687239752617,0.1268517974399293,0.3382477540976198,0.2457904770996698,-0.5400883426286102,-0.4499361879749363,0.040692145166392274,0.19553445013142784,0.03068329943502573,1.433385064419455,0.41874285297172653,0.46144558405395314,-1.0761426278571338,-0.753982381912596,1.4233677682603456,-1.6045038795243924,-0.43396173598159615,0.16537839917448247,0.22122383422883252,0.3937512085128233,0.16504868256329475,-0.5505865810477474,-0.5091197379833593,0.19461476868587851,-1.7275245835037878,-0.22423342980467853,-0.11555311101668353,0.6497459662709056,0.41429749018162626,0.6299450455160817,-2.3474820429433647,-1.3313469487097322,0.5632419409029044,-0.2270375016066205,1.129573171200784,1.2791140812832793,-0.6584051377124722,0.5757541105356195,0.09236884624601276,-0.6811045885460532,-1.207364914285963,-0.5151586295057703,0.10921621753544021,0.9994627948064211,0.0586088998887452,-0.6868720405571291,-0.4505264097284928,0.518022245024912,0.41213735448330485,-0.8937646916126379,-0.3215719746724554,3.0035831533363684,0.09133047769572271,1.2577445939375398,0.7830832814179277,-1.2037901507374265,-0.11093586466091718,-1.7236407758401282,-1.0467179426435584,0.15820146879249145,-0.4119474368590243,-1.4617218839161878,-0.8774372629340437,-0.14422992284794467,0.7772211744729209,-0.023492200544304943,-0.5496915868295722,-1.2919580998880578,-0.11039156671463124,1.6806282195118147,-0.1724720270162635,-0.8486108226686588,0.4078844090366568,0.10820468552378007,-0.7208517951965197,-1.3335420373552382,-1.183507004784583,0.17179522701649802,-1.546986244039512,0.03543915417308942,-0.9562243460790448,0.5269664568206492,-0.7073971413159562,-0.8778815422067251,0.13922025561135631,-0.29697501889960026,-2.689669685991889,-0.5034083462161865,-0.25593282096943193,0.3792996521695452,0.3399087557829159,-0.7857884179573005,-0.5766145677415669,-0.7140965825769302,0.5490201232467613,-1.0423691733085052,1.0142316205075037,0.9990251451375629,0.9391425616054616,-0.16908478202586136,0.3637011739053499,0.8440575830878031,-0.15048266647514105,-0.6405429504772213,-1.067753587042923,0.06129544167277153,-1.1346486685212671,-0.6621449426492039,-1.2787716785476904,1.1214888119267143,-0.4655726971595132,-0.2905911322700758,1.9124192729368852,-0.4250891659336511,-0.01639186648980391,-0.3328962109386687,-1.7477122449557665,1.2619434500268156,-0.8756291799479438,0.7534693467466246,1.9211469821701443,-1.9712207073440993,-1.239891126526421,-0.5285495660432074,0.9020354653994218,0.2830879389214738,-0.38228854392150474,0.1768297009490392,0.3662031005617947,0.3554691410918749,-0.20341319453770998,-0.5136547098424772,-0.8778464795855422,0.5319242413039705,-0.21911099178792387,-0.5219653191174795,1.3686097737908536,0.1682391070919601,0.3506362860841729,0.0821442821252395,0.6171945225359283,-0.9805996669615882,0.5795587216149258,1.5065876070341289,0.18068991532150389,-0.0007532471586672702,1.3208529689626007,-0.5276563809017791,0.2910770785529118,0.34488466465166284,-1.307428142649265,-0.10998884210245444,0.7650897924667354,0.5539802848918031,-1.175459878757359,-0.05311856252914414,-1.0046486210178112,-2.1666283733228857,-0.9470317023464849,-0.6174438640097977,0.4233756853591201,-1.5074181366201005,-0.9644997210391597,1.621192539313565,-0.2277454751365767,-0.36952313721293834,0.07622085133713075,-1.377375140581586,0.762710938594047,-0.06823596587352736,0.5230029659539341,0.8119025488270316,1.699466679960965,1.1022554685090218,1.5142260189386088,-0.5760118901695966,0.19505165447985823,0.728279502684244,0.4986043794020503,0.056650273494836145,-1.1323236060612818,0.9071581433504432,-0.42391044865425886,-0.701638439793702,-0.3609847338444239,-0.1964585176094843,0.2813910289168793,-0.6513956375079353,-0.9953286802906809,-0.4133380873503716,0.5192033943069383,0.6852953040658162,-0.18908057150998303,-0.4055807413419617,0.7823710540096364,-1.3958858614878547,-0.8067483971836606,-0.0987418567918163,-0.9109976984231581,0.13058097293101387,1.017958405864854,0.06317843769567176,0.32616239684285037,-1.329243359722134,-0.6036983123378037,0.4291236474853398,1.1014265910010308,0.14015577193375134,0.3499598061892138,-0.6904244061494129,0.0809048189283298,0.05010452334914413,-0.4581888280757731,0.2000068136150806,-1.313702853597618,1.375160349099704,1.4049915069312287,-0.4467385605527466,0.24156113308593904,0.6589202690451783,0.8894885604771772,-0.6207375523209397,-0.4908702839084588,-0.1810696683391227,-1.2448797663752382,1.3461003546317516,0.360411784387331,0.7889456768113005,0.4510894273778993,-1.5122457157305191,-1.243475980301762,-0.3510715354604214,-0.5613716050373281,-0.02058745836160348,0.7088544934367759,-0.8829673296954372,-1.0401137543697438,-0.008674950525792372,0.2649929127936612,-0.3573048251854928,0.2502749735329741,1.216452424489793,0.6243641141183736,-0.5021822623787413,-1.1250891833113077,0.692729122617462,1.7042669255401075,0.45679986446973486,-1.1285370889784225,-2.0017897572187464,1.0466273548574587,-0.027939736326281644,-0.8897318100775206,0.13545550543986554,0.9740414322290092,-0.7312732981287138,0.6611638383410431,-1.1503552524639449,-1.419544701038031,0.28879700818457543,0.40983143446162845,1.2727918645397591,-0.7982614988839638,0.6111477814900032,-0.22412385971348936,-0.28269326588009586,1.1729837762719828,0.16361482927202614,0.7265496758935788,0.25446525470335124,0.811702635146314,0.6226258619880083,-1.1615569116224687,0.3861312259353894,-0.22195393662887775,2.082648866931972,0.131068538216016,-2.4137582269339877,-0.25130770178938683,0.018303378319502107,-0.1700572474937463,1.1540391668430863,-0.05192218680362947,0.47356655495487227,-0.6582564309999576,1.0337991855937798,0.6977596771655477,0.023777998493223425,-0.27403305170183967,-0.4106611766621219,-0.38226659812060637,0.39656484799819597,-0.19936063894512449,-0.736307382233814,-0.3664133675636974,-0.6408747476728952,-0.42381121614567824,0.12459405402343919,-0.557202274636457,0.572568096300337,-1.154099018187665,0.3667144768661315,-1.0400986304236641,0.7492024914996734,-0.5514267881363266,0.029274902663610266,-0.026189158122117837,-1.020346538552409,-0.6760068761959973,-0.778107620841477,0.24167269058722554,0.3622726217277791,-0.7081312347901386,0.43953775015460256,-0.40556952721094436,-0.146300960202527,0.270357715986123,0.7141214406876274,0.2571318836391984,0.4776482687894802,-0.599840166168899,1.2986371359864164,0.16847434042463785,-0.5316577442600126,-0.5945493220574329,0.7177292073861301,-0.8974603131325762,0.43687600159481194,-2.2583849690837114,-0.6629106977323962,-1.0214442805976274,-0.15992416445004995,-0.1445577948861424,0.4369179962715436,-0.042810824771285644,0.4387437226710482,0.7250061723807587,-0.11177320351028143,-1.1153545274339949,0.5983832404243852,-0.8298976115239213,0.03830420068395771,0.8104085775596136,-0.21916484217586318,-0.6248968753957894,-0.045664625611834965,-0.12657364669182547,-0.07828674818895352,-0.6429195263519684,-0.2585187643682059,0.510559295026916,0.08099862878191434,0.2961769725155767,0.30749639106869414,0.8269781571527091,0.8886511300726099,0.6967815770736471,0.6095187377726976,0.33072677507372894,0.5279105902194311,0.6236089176814357,0.6161720622314352,0.559126986009366,0.5017176442669261,0.5228859001418801,1.7274706995992022,0.08354324910967104,-1.086465481407762,-0.14078086165957085,-0.2065753850788342,0.2466305073962624,1.2078766232757703,-0.16380875715688298,0.6491183895737881,-0.7039357378556704,0.5472716895508434,-0.876503659231967,0.30061089642230054,0.7128195625781368,-0.1741797471451137,-0.43313079559928735,-0.01469226015601883,-0.5284885358116032,-0.006802220575422691,0.17279661960659537,-0.27639553994734123,0.10089172276557598,0.1163772426331794,0.2413719505425813,0.6656278924078943,0.23731466003218996,1.8771195804566343,-0.9423605062188392,0.04686665937616717,1.0077495914879655,-0.6434551252343716,-0.18178729597033202,-0.26496756000858407,-0.3364887952390704,-1.0230880218164202,0.509507171616447,-0.7976225347994407,0.8102057129473723,0.44609755107498333,-0.30531094249321505,-0.6824806726137396,-0.16609100087632472,0.15378915938269808,0.026757046926008634,0.03212112691643525,0.6397768446614037,-0.01843581989084426,-0.36376785042605075,0.30896446391555993,1.4851034644871246,0.8607869388284214,-1.8066472466119383,-0.09104385770609683,0.327540934450518,-1.641855960432597,-0.6256535332342571,-0.6314373802245755,0.10457647855843384,0.027548932134677174,-0.798605917646735,1.2088020507822053,-0.6895029052536618,-0.6251032419540865,-1.1619285504346322,-0.5167611294479647,-0.46484278421263536,-0.3855790587497296,0.27761485466640595,-0.7428511182171524,-0.8257291538880245,-1.2876279664495627,-0.298558751738382,-0.0389417113989146,-0.0845817068728961,1.0504530331527586,1.2527559643368265,1.1339163782717627,1.7108291052645628,-0.2412686380923787,-0.13039531464228576,0.2536276931053643,-1.2132536008361947,0.7941894196458371,1.225205189255301,0.5245976315631486,0.16656980657383022,-0.22922397953850046,1.447257227851102,0.515618350317359,1.2166857320911133,-0.37131633053090746,-1.017142731893255,0.05512560361867513,0.4313813157969598,0.5625919410114482,0.7787833847418419,0.6886543583458302,-0.28489836966776033,-1.354212854105271,-0.8939385894073026,-0.12543414405816794,-0.5677548879642844,0.7988857868881085,0.18320260771144134,0.043220579562055245,0.2691106393267694,-0.7207615549097698,0.8321386231083524,-0.23576086814818065,-0.4664158543297942,-0.8724899548971949,0.5185430778707144,0.43426567406140804,-0.27750979505200296,-1.1282507012211553,-0.0837197378378736,1.3208343765091206,0.558476020445578,0.5924991640233627,-0.22637517840595342,-0.29421928669121,-1.38395055541596,-0.04503285679249318,-1.7175032875843508,1.4354347764985096,-1.0662736301117337,-0.6823648660151757,-0.060822429077217195,1.4994923964778668,-0.3246284804827647,-0.9792685373261101,-0.05729643172810415,-2.0972240072881028,1.102960383996578,1.908745486971872,0.44947234062495434,-0.805049853447894,-0.845923130160464,0.23737132034555392,0.6466829601066275,-1.634772367704009,-0.2905963444623312,1.2525096735933803,-1.397041690496813,0.10841974774578667,0.7070508297051755,-1.377864670798847,-0.8667398629784542,-0.15075535065965268,-0.0257710321368975,0.1309787639171666,0.8346465838738296,-0.3986728423442191,-1.4839976057196296,0.006487638889488556,0.5219178319855622,1.3438750796606607,-0.8379945646720496,0.7344566957564203,0.009262468123655693,-1.1495653382932605,-0.07085023647523303,0.8065053776862614,0.3930100079313126,1.061780556051224,-0.35629466068830073,-0.6895146701910689,-0.6889100072094247,0.9969642541804832,0.19479813434043383,0.27998618560016814,-0.8898399086800167,0.9999931019679312,-0.4097443988445001,0.2771643448032101,1.622374449641969,0.8397709092818575,-0.036415166680894916,1.6773238834571345,1.76355080617637,0.17952962727257335,1.3691424462025612,-0.7632746806227785,-0.5935394214012882,-0.7859378315698975,0.5224775348736679,3.765525823378811,-0.8677371891779218,-0.3919182929699907,-0.9371338633279556,-0.8511673384193942,0.014833792170364497,1.241960475815352,1.0451213179073193,2.186502813910381,1.5617180990682218,1.0300429788065466,0.9929436991675666,1.1110671470931444,0.685506158786195,2.4861459163143995,-0.4695668274558594,-1.0943812831476587,-0.38320501538085155,0.7257177896827346,0.7419050866896935,-0.7288384764108573,0.8268805925205955,0.7729368488533904,0.5177476837489577,0.565982654097455,0.6779720382115031,0.1247769323736116,0.589292047771791,1.9771451446899546,0.2758530418009677,-1.2751779444747022,-0.6972572339598178,-0.516722023663174,-0.009637894079243833,0.17435800542547653,-0.6968892451629353,-0.6677566369878333,-0.5972003505269915,1.4173660867461717,-0.09806646412508349,-0.015178973901785587,0.9254230136227901,-0.40893904557721367,0.3377667063934055,0.6293358075642236,-0.19643675208798358,-0.4360236524045502,0.6911443009867473,0.8124208872266551,0.30364982862285644,0.6445831613120432,0.29824025665726334,0.4610691182667844,0.4313542657380824,-0.418246258234186,0.40430198728659644,-0.18881319644005293,0.2057147076380491,-0.6293080493098032,0.03491875835014909,0.3400627418999206,-1.1419219587866911,1.424149799494184,0.8380362389229997,-0.3495661837010852,-0.09895091080744153,-0.9150770949018828,-0.1463594515293801,0.7834829931427714,-0.7252435819060269,-1.4497180406385954,0.03933147166148308,-0.7567274440942504,0.9078151849542309,2.183805719624835,-0.30777145133850453,0.38873860937575744,-1.062349733905233,-0.6794145239840331,-0.2747132620065051,0.6868138968661999,0.7658215556271694,-1.0229157111952987,-1.1103341709126149,-0.5000993276869883,-0.8602545763150157,-0.15791187957825664,0.7446347773664065,-0.953619018403136,1.4358372678505946,-0.14208849029187942,0.10749162559752173,-0.9900189791168333,0.38296129174568166,-0.510705562580098,0.22930700359998585,-0.20018702321062562,-0.9810328123380632,-0.3264020406214649,-2.1571351124783553,-0.7621692194974053,0.04853105884580457,-0.25719025104173976,0.40721055863129,-0.6513404322914422,0.9111094068963806,0.16071110594397223,0.9985492388948585,0.15782662319168908,-0.12196530214180483,-0.07870248997205355,-0.1429834579574762,1.8742655960942498,1.370217160956851,-0.9744283768500672,-0.01191087950749775,0.8353217216349003,-0.9571689066216597,-0.25492145655224135,-0.5756700068353318,0.7734618748620465,-0.38058802651354884,0.21390842657151207,1.2524043075857885,-0.2471027926017107,3.746082700539058,-0.8356342829008241,0.10559971389049752,0.39335122221092356,-0.25693133259381173,-0.2014990724253745,1.2992935044694676,1.1695529555808257,0.7909114504055041,0.34126287263762756,-1.9636105695475492,-0.46562701502696624,1.5090211496555261,-1.6669347529295448,0.43990604615755563,0.04453633394728235,-1.0178744543436224,0.25178552284652916,0.07934085168686449,-0.5567284654934977,-0.18464995746665297,-0.10900684182307946,-0.693117110808131,-2.407442400511564,0.007129379936686721,0.29007641384248567,-0.9032769384261801,0.5230608630024688,-0.5334074166020749,-0.5462097891972721,0.9752142864940856,-0.34619025920306307,-0.9518515251737767,1.0186842847540039,0.41557014991360103,1.3195467486691388,0.6510402561592662,0.5525397855301157,0.41141057487401594,-1.2830943215326325,-0.22642732583726025,0.5796329286250577,0.5402876894751678,-0.4907437502298911,0.4510168901022938,-0.4286607090390939,0.6388079934679517,1.1279694552056008,0.8999344905449103,-1.51339109277658,-0.11653036977781338,0.7165908104260437,1.4455639040468422,0.3340774246898572,-0.42006280068626367,-0.45316631586800105,0.1401195033692581,-0.5423394829300909,-0.7292700894203169,-1.8002473671078227,-0.7011074441136775,0.19693861546065425,-0.06574004853511001,-0.9058022474906041,-0.821988935981025,-0.6070745194298723,0.6246143402993609,-0.293796550545648,-1.2718455954339345,0.4251386496772052,0.6157292104904726,1.6215564572346124,1.0716718290749028,-0.5834222519060899,-1.0005947725695343,-1.7562982735909896,0.3677701482717269,-0.3793618170502148,0.9171641445495142,0.7678657906728152,-0.3568187450631998,-0.6920873009320334,0.44389429373843486,-0.07208229507830939,-1.072805030873785,-0.09950970119915474,0.07566362458487325,-2.5872373185919777,0.5643997424052614,-1.6104988277298853,0.017770809187940908,0.47602763794326125,-0.17546657442787933,1.0317852296667225,-0.096130008134619,0.6422156232763075,0.854602552867952,0.5194025094577053,0.17035018055018303,1.3179781544693445,1.0948121283723298,2.202630389258212,0.36302653413841157,0.18207713277597878,-2.374955084792766,-0.8886176129875288,-0.996774919812197,-0.2621218052077953,0.904831778929933,-0.26390619066287285,0.6429553306950968,-0.31889914441711387,0.3584170191297246,0.6800426086344602,0.46685801852829545,0.24061948048246215,1.0412956740067014,0.0018324168778045844,-1.6101223658508406,1.3042430198215802,1.8893884034630286,-0.5359905467568266,0.6940176201477037,0.8650053014171423,0.13638849830492247,-1.20043874132673,0.6167503224327741,-0.1243565408088679,-0.5495283112427962,-0.9478622520992658,0.08553405179722526,-0.7241397457555522,-1.4086760082935519,0.4833517178961082,0.1687368216881665,-0.8551868716531876,-0.30525416399144834,-0.6318849748782839,1.142860128727655,-1.462699535510606,0.19347539460179566,-1.6418969654453146,-0.757427241766697,0.15429893723947466,-1.516732790099339,0.35892996067771654,-0.023367062532539104,0.23948623923699436,0.0833137224249186,-0.4499257293113181,-0.026250356096858454,0.17838274821076688,0.30649651269717537,0.6046980226001372,0.131805299533159,0.7381449501254781,-4.576503599503087e-6,0.25384791505474114,-0.8980415829941932,1.260157084013191,-0.2620618286210287,0.644983420672499,-0.16778536300272698,1.085449151945812,-1.5808052007085602,-0.4496741065904705,-0.46271940571335735,-0.1707274360640127,0.42245097385092945,0.3162829197898993,0.09021507363555636,-0.6063806648138822,0.4501669555850827,0.6754511310229561,-0.5327463593364407,-2.105358028967426,0.42307193256967635,-1.4202548412510165,-0.08651905736000214,-0.6165283601870362,0.7085064009360299,1.6814822998513088,-1.4586483517869362,-0.39127995107541974,-0.4117118603989342,-0.627115388393815,0.7556038900548833,1.0493227396219038,0.36131664725302953,0.16777380443296702,0.5506610472482297,-0.3680066518275997,-1.572457584026906,1.1564036669019329,-0.22039586422374471,0.1066379623481516,0.16907931445577282,0.22309516040286534,0.20449578966839663,-0.4838672077087676,0.1631309535527155,-1.512680588116499,-0.20935923772330883,0.8379013808059514,0.133997034747841,1.2849906723252535,0.5618412857583529,-0.16872206955898067,-2.3973889601103306,0.2928300959865508,-0.5845879407791178,-0.4370361083990903,-0.26546958511791247,1.189831457573582,-0.5298100961126408,0.9950896555573527,0.3597008488741219,-0.8495157390782783,0.11276171906750417,0.2859000263193098,-1.043283831330638,-1.6708183737883644,1.1325139626059453,-0.07792131706079304,2.2021654461224527,-0.9519747738671479,-0.1336000885048556,-0.11570004392468553,1.9299633155238043,-0.14739904640159465,0.2032511158294304,-0.6838272525533052,-0.2015410935344351,-1.1788401126168955,-0.48845789996698713,0.2616599450756335,-0.29747490467730436,-1.2864670574053478,-0.5750379719654223,-1.08164471364109,0.006878293801956224,-0.7129776473129562,0.7179103378617587,0.6867959470494457,0.29678686346845506,-0.5558049832216685,-0.2743869812300101,0.002952829117018793,0.33888014353611506,1.153967354418758,-0.23123325302885725,-1.3678754955379004,-1.3718938367996198,2.025871646930553,-0.38967367262509517,-0.989075519055693,0.032767650084328186,-0.2794092073985051,-0.5755527478051823,0.7636848795400719,0.6386929458842457,0.40390619511559456,1.533646805018314,0.11640854482316643,-1.0045314392010163,-1.4579965062785516,-0.6437102011218917,0.8393447625861172,0.7004130725161862,-0.3681948779378282,0.41062195174841526,0.6877771700431419,-0.785913981982751,0.3705494803709749,0.6035224455971702,1.045727543037668,-1.0499275586971946,-0.09310236018629567,-1.2638017008759588,0.4850885653383679,-0.04637189660885187,-0.3527617631118379,0.27889668376077575,0.006913035952104146,-0.32925564489840786,0.41328560209121923,1.588303683801497,-0.08180759531990082,1.5096192042094965,3.0281176631569897,0.3712462272945053,0.6021303332541083,0.9414519434029682,-0.3135177687828156,0.16700846200248615,-1.5321411406896501,-1.0182343815853914,-0.8326021404658465,0.6773077230968404,-0.004144664707284984,0.017720337037598486,-0.6668146469066364,-1.0102285460605298,0.1379919469644122,-0.15933609228040355,-0.8278830186981868,-0.0907516675946699,1.3089323836187976,0.2837306247553248,0.6192143110614446,-0.9229074063515572,-0.034762898717616765,-0.10720794708105526,-1.5939429830922682,-1.066926393332409,-1.5587284108305095,1.3223421915998492,-2.5035155956379302,-0.1414868488197753,-0.7313202862697804,-0.12105855990817463,-0.2930886436091928,1.356347172901699,-0.2074875698295419,-0.25406176271619607,0.16535503359475476,-1.4384378534906228,-0.486613326220136,-0.4005710403204418,-0.18006709734055495,-1.0312131496932222,0.416274443946121,-0.18956185556450775,-0.1340059251430936,0.32148865833347373,0.17086035702782387,1.0022211563081602,0.7253250660412698,-1.8880091223960789,0.770611324120401,0.6301998244367608,1.3957901953960659,-1.9055833901103385,0.17678348521969559,1.556135015963797,0.34298265406577594,-0.718100589362947,-2.792410356767434,-0.3532796703730426,-0.7909977193169025,-0.9085543675169874,0.21033997206450117,-1.0930658584671362,-0.12433954965198953,0.23639382993580627,0.5438600795201288,0.9988321044120466,-1.1368254091716992,-0.24437461906361593,-0.871017330194773,-0.6481422817389972,0.12152535568771339,-0.3382095314966109,0.9262230150923236,0.7153937557214405,-0.9898738900679303,-1.1996359349430334,-0.5803883042064206,-0.1332006853150787,-1.6979288014826,-0.25433356248228084,0.3658615199989783,-0.11260995472672705,1.5751464163139377,0.30973763081107775,-0.11223492016852978,-1.5370694169556085,-0.6929726400588535,-1.2555394389562735,-1.0860034065324746,-1.1540704533172559,1.2439775209429726,-0.6347077467993205,-1.2171022657944852,-2.7508899544505567,-1.972608968874148,-0.5190191535613058,1.0481857534953205,1.4320177228221922,-0.8483699605814213,1.1807661323552232,-0.896961030187226,-2.2505732379732546,-0.16982764659931374,-0.983156556294561,-1.1469294437504236,-1.444648030742277,-0.35148738681099273,-0.3494278220237065,-1.0891598266974645,-3.169970268850245,-0.46658513755443215,-0.26560970508786913,1.5528234765254911,0.7257123651755213,-2.2841336638804717,0.3099810322487288,1.6129829390895258,1.3502658058313064,-2.5889425274019646,-0.04018330436695519,-0.5391783925708623,0.03685736390465039,-0.5122067686473234,-0.695804427714469,0.03908285707543698,-0.9572651002061416,-1.6450393991644179,0.4300735794909279,0.38926303731449025,0.03015938331248509,0.044817934690309105,-0.12836171227378856,-0.49426316634754686,1.1183054422123608,0.3375603264335049,-0.7082845507762786,1.2154547750426545,-1.366680995019332,-0.7790504305998377,-0.609763607906672,-0.12280460931487505,0.37564571698632265,1.239190017256636,0.947525810261724,1.7806773800554365,-0.7705413446699992,-0.5122128978441928,-1.6161053616148435,-0.574203834536724,-1.1791023663174292,-0.40670370737515404,-1.4271696172858324,0.5220131137100744,0.5311696218302039,0.1782867699061316,-0.2371523950650143,0.5246225574789697,-0.3216955844465286,-1.561400158806716,-0.22170192362539765,1.2838540438082475,0.7131866754570116,0.2490806644109771,-2.461121960207862,-0.6113379340186847,0.6279766244913109,-0.8526993108803423,0.49261127838489194,-0.7538680002677306,0.16519580193073466,0.2638515889706206,-1.4462574748868484,-0.40626555450685187,-0.82381647332192,-0.3107037341568807,-0.07261934083900476,0.854961952590072,-0.2590613972755782,1.0531105326326442,-0.6926409025451398,-0.6863266404652902,1.5515114985978875,-0.19327445889452452,-0.2688792666299907,0.337934040486592,0.619720771851437,-0.14854754901427658,1.6522533676678244,-2.2189868328187643,0.7837129651023649,0.5415497105489243,1.4349887852360423,-0.0698201020407294,-2.159490590076171,-1.3309929060609893,0.1725902020837284,-0.46325404506352086,-1.4213170456976671,0.35699142794619093,-0.6547106840919835,0.819146064191801,-0.41802355039898564,-0.09413872217583312,0.9203232729961666,-0.6317037424725472,0.6227337690994845,-0.6532495850293571,0.2801849859270991,0.1699320722357373,-0.1391486248078494,-0.6176699136146628,-0.11372868885551324,-0.5511751686226176,-0.10312370487525369,-0.5694637832438618,0.005366690483710027,-1.1153623654833176,-1.3010494899439933,-0.34718824181945,-0.5527079511654523,0.42645685330708993,-0.8371766195389695,0.05784117779934966,-0.10999057453212008,-0.7418346813628035,-0.02107645761633587,-1.049231689509233,-0.28911834591281604,-0.13306970964688564,-0.29103540137391704,0.31701639527137987,0.7585126206325087,1.3777764298288468,-0.06762339839482923,0.7418317273162462,1.227257968226283,0.7049648328623671,0.2642305767198462,0.2012577478057756,0.24593731633810864,0.24548169805915768,0.21511190481455722,-1.6446375549605112,0.2802330901786457,-0.47319109744284665,1.6186695638449624,0.8855732862396171,-0.04604765873926547,0.8457684824109613,-1.309474516941591,-0.009991810538808961,-0.764236958964117,0.8156605057773642,-0.16556872594923297,-0.38528961859517374,-0.4948638206881817,-0.00337213877491934,0.647335773549387,0.6565960815005556,2.8995864865594347,0.7669553709308246,1.5056168075689471,-1.0344192494815467,-0.4908688804938009,0.8599229831238461,1.3111967466383418,-0.5279665268372639,0.5271331450404619,0.24259450989673392,0.5673573739061599,0.6976981134281486,-1.1973915173701373,-1.3377745979973266,-0.19310714110285587,0.7863867119591355,-0.5540259481739449,-0.13489285303520068,0.000052850482521571754,-0.10013127806862879,0.6853960602380799,-1.380883848051726,0.021203431612258322,-0.6654420553242362,-0.5467581771662159,-0.4817606417725388,1.180023189204662,0.4119146382269678,-0.4229990454043009,1.4351472533957277,0.9945619092974736,-0.25059847564157983,-0.27398030697769093,0.9881280420197612,0.31215021868374854,0.934957402536761,-1.8037481612762867,0.9877388877594873,0.6714198906318006,-0.22620090600881068,-2.243632155467801,0.49870624867250585,1.2923246804815312,-0.9257121312080896,0.38789737448939987,0.28866422355408666,-0.8079777083712942,1.736183665849984,-0.46768462812011674,-2.1483839902025235,-1.0027031936094513,-2.868767837882684,-0.4588716687645053,-0.30700653694725877,0.8339650701564312,-0.26524897324590274,-0.05504338612004232,0.8232453922749454,0.01829333113065041,-0.1699146034701552,1.2769378888598635,0.5820584576241413,-1.0983781557969856,1.3139606844193492,1.152181428279961,0.4849530155613132,-0.22360579786242163,0.6162532010856906,-0.899975879530775,1.0877558547821577,-0.5798353853730179,-1.809083456074038,0.1246797503687289,0.20205233776459566,0.21379601208482216,-0.30964400035918554,-0.2792091195596028,-0.6759082284142002,0.08925155811636144,-1.1492950525513823,-0.3831384012582766,2.2890008136465037,-0.13054114841345868,-0.47435028067494817,-0.41881235508913806,1.2360873907510037,-1.036940114895613,0.6109180079659123,-0.4347587152337257,-0.623141593287003,0.2282673143986674,-0.3130704358265253,0.04661246622242235,0.3168719803090524,-1.3068454548616717,0.2587277693099547,-0.19633070336889805,-0.050896743794875056,-0.028789500976007774,-1.3356035929332684,0.2005529064137384,-0.4121152298546919,-0.8565697622933254,-0.560034497901115,1.9784240812416503,-0.024745062789022644,0.9624232766070804,0.03905930666116322,-0.24507745996482608,-0.7472903697850948,-0.4741654904358225,-0.9792316152290794,-1.4312196589812882,-0.34485239535006157,0.022472860257390353,-1.6014392260069703,-0.8425420606777707,-1.55222738186688,0.7069418242417415,-1.3961916946589863,-0.25911732816651484,-0.2643884818253585,-0.7765817673863024,0.6561422130538425,-0.5429102271391701,-0.25672059555776017,-0.4017599612793859,-0.828716063528914,0.4571036992872087,0.4705337852166445,-0.24602853788996268,0.3393694769431153,0.9576006055240766,-0.4510085971132324,-0.648944133786315,-2.016861239595241,0.008372546011428858,-0.22041060267197457,-0.9959871276660112,1.6065708239880556,-0.4988477906284855,-0.7342878735573206,0.3423367890874881,1.2842115575465007,-0.3831468836478163,0.7239065048727813,0.8845744411330752,0.33636412688541184,-1.846438417077956,0.6686320557891104,0.6120904784788362,-1.3171968494497786,-0.9562274103177104,0.9786076506812097,-0.24541583315996937,-0.9317891243322648,-1.5861524005669208,0.6417077556828921,0.025578680846453122,0.6247194979105907,0.3040654480868371,-0.07441142705690726,0.3376103351986658,0.7644560730457254,0.22517157280711295,0.2797434606555517,-0.9348874522218793,-0.9777780077706428,-0.9833203060322401,-0.09917790829601894,-0.913677430589432,-0.7039336040525407,-0.4844425253270831,-0.033974612053172315,-1.861676665536307,0.19381148951299562,-0.31615780709692115,-0.4435193663072015,-0.039227720183537526,-0.2422493341038025,0.18969409857410682,-0.8070433244047288,-0.29407295234065906,-0.24287377523590464,0.4132121352074171,-0.23169721215775407,1.3669724033145227,0.029764511637861722,-0.14904127665085798,-0.6390245498038767,0.5790805750987887,-0.7763500807886193,1.6483223381986236,-0.5064647198357445,-0.20875651843149262,0.6650346889121308,-0.04054909070239899,-0.7445248878844225,-1.8575329342420446,-0.4949714214791519,0.15714218050328763,-0.6454994636809828,-0.6487593443481181,-0.16115057529715407,-0.8265314996527111,-0.4368123212370269,-0.6930929401486505,-0.5230402128548309,0.6557768667398024,-0.40395611959876904,-2.321250777132353,-1.189604417447565,0.45142133061535206,-0.5686447084165954,-0.13927298006744313,-0.7873598678150168,-0.47533926423019923,1.1572695334087522,0.4052373223261485,-1.1200281802303,-1.961807707837603,-1.1830296648124992,-0.311081943068843,-0.3010183994850258,-0.6382905990759988,-1.6071037899346474,-0.1652053618655753,0.05788712183526002,-1.6594083238825823,0.23234005904685676,-0.8659914516799062,0.41509532058736825,-0.5040127437289504,0.05934255763518423,-0.8602104977929882,-0.7679286464816211,-1.5691280667448593,-1.7531890901921738,-1.849019657540157,-1.089766422108191,0.43093582100914235,-0.27334702595496874,0.01808074179241621,-0.4426247773037229,0.9004921251297933,1.8165678498512865,-0.7438530582049947,1.5076372319111295,0.2788661561470065,-0.25235052620152754,-1.2834334568646177,1.0766107639783915,0.2606252613161437,-1.0271249631852286,0.06414320026130658,0.25504653345333184,-1.2473208321001532,0.5875869789150233,0.528689112832819,-0.4341863340644829,0.34771805152473273,-0.07325954969981505,-0.2788924155673704,1.3192104582933706,0.3432352758268355,-0.9707166001144039,-0.9807268912414394,0.01200297271143788,-0.6359403713701398,-0.4976811753082852,0.8072412421629741,1.491292531002498,0.22615419367750725,0.3008029140014831,-0.7877807815199127,0.3210768745476553,-0.19577633311800074,-1.1496964001187358,-1.6984716226394783,0.7874100224214553,0.38318867829764997,-0.6455962723952988,-2.602045020124182,1.0850616426373842,-0.4985999108428712,0.026546919177133792,-0.777875826474653,-0.1811590408413392,-0.9679191756006517,0.44919712241442544,0.9053145468814118,-0.00930923836171963,-0.1327612494309713,1.0229735266775604,-0.9401881505434577,-0.23139407480895896,-1.238316066003724,-0.6799824030675626,0.13525497847083862,-1.1460178694841752,-0.9751706064336368,-0.11927226430062575,0.9558238273523314,-0.17271394679549412,-0.14687627505570555,2.3578537945520557,-0.0383507096038392,0.030458206568221798,-1.0556626579522692,0.5730055972240573,0.7461142399857834,0.9678976753622892,0.9279767758688773,0.09197511652468811,-1.2139891668376956,-0.8012117336915459,0.9803764618517521,0.45806737214257504,0.6744058931547252,-1.0919527964967533,0.07173900500842989,-0.19354318064564563,-0.24138566134216527,1.039357724152218,1.3557127047119693,0.7851111824201576,-0.1621207966316229,-0.14282582548065145,-0.1646005483304023,-0.02671883899638883,-0.41255336922517005,0.08667950219775344,1.3196690942034586,-1.102581194731971,0.40678550319568924,0.7465597035904498,-0.1740799198312578,1.3802095714226976,0.1924135311376529,-1.669505066805827,0.682248251651509,-0.32579401515062245,0.9430503868529416,1.072756094378554,-1.536772240612564,0.8229509025594234,0.8571911797005293,-0.673608651770664,0.1653827233263906,0.5068869534717455,-0.7584840543558772,-0.6553004908157476,0.20567842026925479,-2.7691748834012486,0.25618162026923,-0.9477401440657959,0.41314675420318914,0.08954401037503777,0.5045058419469574,-0.9534856132260431,-0.8308352149550263,0.43602375008494915,0.4526257369954194,0.024637125771780705,1.883767055244297,-0.417045109387718,0.6357877593543931,-0.48177594189288664,0.9685143764296974,-0.2953153034319787,-0.6087998898008584,-0.9990424485575942,0.6870370159296695,0.8261663818935945,-0.5442369093425031,-0.7771973807436875,-0.8847222152911521,0.25491743272500667,-0.4911258667865459,0.5070861111492577,-0.058547108360729475,-0.4293487261801966,-0.16978851282571153,0.7270099449888949,0.3349080312804464,0.1973934521283882,-0.6381395511619363,0.2611327087511089,-0.10063994197214798,-0.26063210629863254,-0.27646007533255335,-0.8191444713559443,-0.5367001586423141,-0.5988163851628792,0.6718758628004928,0.4294095556305656,-0.3893400672581837,0.10063751678378306,-1.3953564996708725,-0.10111223399663213,-0.42464418423157835,-0.004758491355240279,0.47071821535069885,-0.7049290916411518,1.7014109291240669,1.0535311575020931,0.11751747061763815,-0.779454678384209,-0.23910594914352468,0.08426594631717835,0.47036633623386415,-0.8605750047418655,-0.6782412506861948,-0.3513775036030369,0.6410393463144062,0.275163147633248,-0.9845594381580715,0.6790839349919805,1.1671522184268543,1.0826308936610394,-0.18898275375338905,-1.2315095810015828,0.21200055422994554,0.5668870496041579,-0.1791128180267415,-1.771740731079798,1.6470093053651358,0.16799570522558904,-1.036039522524969,0.23004957361872824,0.3829208115533146,0.3331347829122701,0.04847294957841626,0.12862642902013713,1.6331245110650492,0.7469445247993021,-0.7203923945080961,1.8817134688044541,0.16668250238643587,0.44374100203107514,-0.12896142506229333,1.5220374878174914,-0.12319666909681488,0.9608783229831777,0.08716393201441847,-0.25464925331877797,-2.0916603204640176,-0.40069472941038675,-0.7377523808594726,-0.9947660592985904,-0.794178433819842,0.8810434969633254,0.3614814125125819,0.6560127303844143,-0.22515430294234415,0.5210538720108384,-0.2873394170659459,-1.8346560323605359,-1.5191413306321782,0.8081239332044704,0.8368021727176256,-0.536579739298235,1.3617350598124065,-0.736168812119693,2.6698303155631753,1.0963658243541305,0.4846642266489859,0.7391601065091516,0.48233728701103434,1.4078125728540014,0.17640570074914355,-0.8715904454856881,0.8660712942953875,0.4042625910122358,2.018217539860094,1.2726966911799575,-1.6359905524579001,0.9299747270397084,0.998692135184901,-0.7626677298241481,1.481913256265415,-0.0984118644172984,0.8179471572049378,-0.3875018342723453,1.3908797284476218,0.18407187641797598,-0.9940511931658844,-1.0868668180490166,-0.8578102317327313,-1.5019203887726975,-1.7401403926806103,1.036939693255717,0.43739273863556793,0.9494535027627649,-1.1182483334782543,0.08574086192158406,-0.35780097677999145,0.04240140300192953,-0.8482324908463211,1.5047657012522015,-0.31776847570389977,-0.23578396786740977,-1.030485981122789,0.6264551544829081,0.5223143023029468,-0.7221940394000971,1.6202278102496304,0.6592559902437657,1.0753889382373687,1.4406003953053157,2.2098714360910905,0.13325532291311734,1.1962747866119352,0.953405451252855,-0.26947045275806525,0.038125687200286966,0.2715651218622734,0.6619865009186092,-0.2957819481855131,0.688031380647229,-0.053282047428306514,0.5504056825441814,-0.025497858190944266,0.5129425555564142,-0.46049936329402447,-0.3408942039183432,-0.6729512556142857,-0.8830108115309473,1.0083408782138936,0.10548658632766257,0.6936029621571835,-0.5201063306728776,0.07474494973021185,-0.4980612967913468,0.9165602329714598,-0.268444459969429,1.4964203542388144,0.9409250181644346,-1.154087956084952,-0.6831581412179539,0.15015175010404805,-0.15398319060931512,-0.7798888592349439,0.7175547283343682,-0.86242053092387,0.165687913824977,-1.714038831080216,1.0767206819586568,1.5957653384159642,-0.030925992821571786,1.4067974408856316,-1.1351996460978786,-1.937479722593672,0.14229037657302254,-0.3782627208494418,1.2210503534414672,-1.8452619572645226,-0.06341296571863714,-0.6080110249630483,2.372099274693164,0.5834238869282294,1.696251258929352,-0.37457995382806064,0.5335027827855153,0.8117132609655068,0.08161978489232431,0.23479019575320229,-1.8832278230221515,-1.8919584215588015,0.43460000128843934,-0.12267122075480384,-0.9627451781898472,-0.41781089997618026,0.45869774233827654,-0.10131257685899034,-0.4000218845493729,0.15456871390585056,-0.0570632775944061,-0.371266011268134,-0.8259240821849188,-1.1224702767296986,-0.5798321494443733,0.08648563220197493,-0.7485246368137697,-0.5080126413752385,-1.0107048993531085,-0.6993774587379796,0.3973876836910548,-2.3202616180936686,0.34564974896907613,-1.2609830564896736,-1.4889584462492984,0.10757322530381655,-0.19422030779322025,-1.7147901974677968,0.5350813881243262,-0.7467947467295907,-2.6021513050470317,0.3413719367122272,-1.4343963046290278,0.2472469767807527,-0.2961380717523981,0.13143839663037302,0.48016717376185997,0.38356751917640175,-0.5901043456489032,-1.4152833416720811,-1.4393066527315173,-0.7413165752238066,1.173391859747696,-1.5187235832259733,-0.024449818467058394,-0.5826534104823812,-0.09973291785531432,0.14297253554600947,-1.0305361860318352,-0.11925738965440433,-0.4540626602190079,0.4912290750617011,-0.3631724279153308,1.121598946621441,-0.5166990052794469,-0.4583969147015247,-0.24120023998324192,0.23212674518133752,1.4482973522708682,0.008798406813124809,-0.6391923204499984,-0.2743477105651579,-0.2849143131860739,0.5919793594601777,-0.2542612447627539,0.24325127460612472,-0.4487331768348513,1.0113034961508223,-0.08197444958964892,2.584116660754011,-0.8884451398557466,-0.4375244668469346,-0.8147133849412584,-0.1456359694686429,1.6058326838930217,-0.015203518554077963,-0.8679532035126372,-0.48546154656580187,-0.4070513105505579,0.12389921104750368,-0.012304644396993879,-1.6293545726798284,-0.10589179716228107,0.6416838211346363,-0.1321597516155358,0.765590108281786,0.40042941937351156,0.6920715414999806,1.7503645031462007,-0.6731864289212748,-0.38298293300693564,0.08662691626851214,-0.07710293666072915,-0.25793774918436235,-0.21235416417639819,-0.06468610703899108,-1.3672738936410787,0.36323016476952913,-0.3333295191810734,-0.5212595548341816,-0.08883021007706678,0.48636762024765057,0.4114942496751537,-1.6790246856247006,0.361797088976648,-0.48294813522292546,-0.2692939239477479,0.013637236133671567,-1.0228047680418981,0.5868643554070954,1.3307472928087445,1.9001743429993183,-0.04675137961148745,0.5768801400310397,-0.2296287397737643,-0.3585006903145019,0.7516440843437283,-0.04779419987045735,0.4887503551506393,-0.0712114689314546,0.1957972570937984,-1.3710227297114594,-0.41197541673653987,-1.1981476009606005,0.3266909714107632,-0.9205834771164482,-0.45123863867418573,0.454985719040491,0.9660545986522003,0.5383341150803543,-0.12699392268898832,-0.7778778492427729,-0.11735272110059117,-0.823756896559424,-1.0883649028011344,0.621675287703152,-0.2796604844102202,-0.6220467782394226,-0.6721986258261226,0.5186034726006749,0.6268962583485218,-0.13625087631170063,0.6487578259363863,-0.41771984088542713,0.5505244697735862,0.641647575449935,-0.4477503688654594,-0.24269979474595135,0.781233421126131,0.07279426322348673,-0.9449013911331319,0.15873240087037818,-0.10756413240436265,-0.09716142762934019,0.2698310035707586,-1.2265566812244186,0.17367227081407366,0.12473317509316495,1.649595439589242,-0.35768774053741886,1.017375745986696,-0.3055199228674422,-0.6841146150522528,0.31224803154937,1.6769324966779597,-0.03481940566519932,0.9520122441819804,0.9361073607845716,0.6068882086357166,1.030972314041147,-0.8341649716579345,0.10435373322913002,0.4780505594950034,-0.35519707893336455,0.053805448408695035,1.4565787653848288,0.2697018339809306,-0.25645772132964795,0.25648247730249973,-0.7837082084819476,-0.020644442381007218,-0.7876065577439939,-1.2699694041051293,0.17135589115178307,-0.539390290875865,0.9832105463918237,-1.067548459044042,-0.7211289793878147,-0.9083241117764232,-1.1611150090150326,0.23751373601879452,-0.9953500061825791,-1.753607957104146,0.16278340633039418,0.12077814293971327,0.011633611555028643,0.4796474409632268,-0.5587794636807665,0.7779875171238375,-0.639366318256306,0.09835598494243009,0.18658550608384403,-0.1809604868696212,0.5538508091842564,0.2513660250131767,0.7814153095987914,-0.7565590032875356,-0.24653194077449492,-0.020539968317245482,0.05664512884148693,0.9377840327569551,0.2701517626242581,-0.03312891707887231,-0.21409189427178935,0.08372993016990533,-0.804705911519524,0.500484866314423,0.08935646822912943,0.08558620381196647,1.3478698428652789,-0.0824927547554086,-0.59781835698923,0.3117119283632173,-0.16043790057655455,-0.12075833448964915,-1.280549497986009,-1.627798341308686,1.0203849065802182,-0.7968808636746801,0.12336299498381142,0.32646152230586056,-0.35636420296706683,0.14116608527994462,0.9013317048911617,-0.09184200303991313,-0.8303317853082842,0.7808549540270134,0.08976686340536999,-0.21727466917235994,-1.027381445550194,-0.15948841662050497,-0.514464054365178,-0.7659377091127538,-2.061825702780283,-0.20636367912571885,-1.3337187059270497,-0.28812454739468385,-1.0360508274822906,-0.5241464169989966,0.6209709200154927,-0.37125904852079633,-0.12683966445170122,0.7684446541158598,-0.17002692864758703,1.3551657026993646,-0.2975777392454707,-0.3573765953861792,0.1580692619213588,-0.5520000756431022,-0.4234471434271354,-0.8225223733982749,0.08210582922421239,0.17310029315255013,0.9912677174118965,-0.5967272396593897,0.13516216291022914,0.1658628763844895,0.014975869589994951,-0.16485131294992902,0.1266462064759516,-0.8669746775965618,0.5151419379080112,0.9807096342815046,-1.364010956992704,-0.3319137384022847,-0.29760001618936005,1.6503605763449538,0.11494290746942505,0.5656289583031451,-0.7911432008474408,0.07678801557456193,-0.32332933728397517,-0.28511599806953414,-0.17229944618197787,1.2180601993570168,0.5491768395051388,0.36292731974596604,-0.7150432288628537,0.1584976965523675,-0.45858092640190923,0.6240078624199391,0.3634569285362155,-0.11879909444657775,-0.2304751413935189,-1.092372317795497,2.2573196603033345,-1.781487956478268,0.9306400799196906,-0.07109087858473366,-0.8140328490277788,-0.32053635395325086,-0.8585592741820851,0.07272029264829845,0.29912126878715783,0.5158909696329276,-0.02310908994972287,-0.28298620625017495,-1.465461009058721,-0.5987093481387096,1.1280741722199568,0.7656215416391021,-1.2350714514471113,1.0090376933916805,2.4433066021393834,0.15517875329876954,0.05655017049855751,-1.8661142290465742,-1.3156833570798434,-1.267648473172077,0.14958612074550212,0.10525219824802784,0.617730368816984,0.7673414648845751,1.0776654012767513,1.334632949854722,-1.4940155201134437,0.5187426169126371,1.2105705599426733,1.3292373464919394,-0.20967600442705872,0.08652897614055469,-0.298319523391828,-0.8678058711874752,0.9782406006022676,1.0573319335773124,1.549000640052211,-1.2806815324087815,-0.02864380994097251,0.5531125809407211,2.0124723022402375,-0.20148714873704726,-0.684914985541666,-0.6720492991820942,0.8485689646050175,0.3242690997970117,0.16063875149355253,-0.6912839390109385,-0.5978204503052109,-0.5504989310720899,1.3045785377961732,-0.4820414586008342,-1.263206996489434,-0.6136900572104979,0.979792314088722,0.1671157309810622,-0.16010711874329853,-0.3792436214034343,0.5180786564883706,-0.15867506034875356,0.25778288188080234,-0.01701613057090042,0.19271820382550864,0.7624551766541442,0.950579292636509,-2.7569937179814095,-0.4642287587281808,0.29541582001353184,0.07392270584152678,-0.09089864774211864,-1.1122881655430688,-0.2962644379123359,-0.9831994976236488,1.235265243429607,0.11109733617625026,-1.171402852089416,-0.7910306377249589,-0.8680602376367016,0.6555819086283146,0.7492703920747824,0.1126298543238739,0.5429721316480132,0.621551890189124,-0.773416020638701,-0.40313357751537854,0.8552096646285738,0.7019587191128988,0.3924412490259046,-1.6425661586363025,-1.1428005821503207,-0.06898364956234104,2.2787457383003837,-1.2618473759074298,0.9639295838440324,-1.7863935115049023,-2.30288656721121,0.6306133494192371,-1.7073780538177872,-2.1158146907980915,0.2148561600683594,-0.30434381340862465,-0.2082655789119984,-0.43450624925601394,-1.2801679352604711,1.8394083090956828,-0.9367684342490348,-0.19275618616119072,-0.07624211780610664,0.13028645483068865,-0.682336843713492,-0.9237717403296481,-0.6510876128509917,-0.05972885207873193,-0.2128401206468304,-0.9908273215562261,-0.29584109154457855,-1.1062985125708984,-0.6236074132077829,-0.8061348653690941,-0.4245072816607103,0.042338024503388846,-0.8170591522900597,-1.8353958104591603,-0.4426831199418109,-1.2656819442970642,-1.7390924953796476,-0.9578817576747897,-0.35131127364220344,-0.5506910931833503,-0.2863833912730695,-0.8243501407382513,-0.6364356844054817,-0.3806074971194874,0.5157254002323418,-1.1086317135499433,0.41651957233083936,0.17137206194352927,-1.8222945538244948,0.801653844053445,0.3116047440633175,-0.956208684905925,1.3462751884398463,-0.44689203637940955,0.395471018379933,0.46222432149810705,0.11297800305916957,-0.15709325019256273,-1.1997723312763553,-1.1981353062060134,-0.601263240014371,-0.12192488107337054,1.4367584460748934,-0.5492809523701869,0.17838785362020568,0.05585719264892341,-0.07817849964876314,0.4337087491474012,-0.6913757562858847,-0.492227088560305,0.2913749191829992,-0.340594061447373,0.2869301024992793,0.22009401730107844,0.26885656000578306,1.474404143597609,0.08293649406501745,-0.3515774795573933,-0.6904984364554358,-0.8848581384867248,-0.5894490078217415,-0.8032945568493233,-0.6300823256443001,-1.217532829812557,0.03878076809614221,-0.45405655656874605,-0.16756427963759155,0.5309786192799961,-0.2599629011963168,-0.320138593941974,-0.880607411326553,-0.9451944700859941,0.7867491656606226,0.1966577870003489,-0.9047880676137099,-0.8203778055603809,-0.2496945731990582,0.48379197970641263,0.27586891150227866,0.7167385811250755,0.687683535675973,0.33025932881110326,-0.7213624697379826,0.30120048470575955,-0.1317489015065077,0.28210415695527324,-0.567671855454286,0.25277192353473465,-0.6215056330324962,-0.5530966595415958,-0.6412666494445846,-0.487795867817502,0.3984561810026041,0.16930429146807463,1.0753566622984176,0.077073548830512,0.011604513656624927,0.5803795877087751,-0.24037102684492256,-0.14791245353448637,0.13791548375612947,0.7865906343675807,0.029202880327067762,0.5661741484426244,-0.12207659142484054,-0.9422319441157729,0.8912069600330723,0.0032940819610386652,-1.8653424494495376,-0.20155482228765154,0.5200328150139052,-0.3209951655245962,-0.25318033797522527,0.4170039377189215,-0.6318940179152508,0.5690544404809116,-0.36293248364534475,1.125206564764687,1.1463692376178758,0.6165965700795538,-0.47033616036703796,-0.11323103050801657,-0.7829024971412943,0.45201503339360144,-0.16583003867636703,0.9573382572621,0.38783539991568006,-0.23703043465171478,-1.6226004059344359,0.17587924760393775,0.22345452144762779,0.44252538787257534,-0.4109645122957444,0.6062367443816519,-1.5320658348105256,-0.2752848929291281,-0.5636362446507536,-0.7741518613805954,-0.44203284330044373,-0.09509586473701927,0.28913732585639723,-0.06604880871649858,-0.7790823347472684,-0.4444998782801956,-0.2698123979069529,-1.061594600232849,0.7937536412394491,-0.06242775177592908,-0.14698167209039448,0.7961742173549972,0.018111038725543056,-0.5993928205409215,0.14740663412465724,-0.20960424687399634,-0.013113615403702742,0.28375578700913157,-0.08224518844553581,-0.8744421572978712,-0.1518526171423416,-0.026757085416336406,-0.26006622085687464,0.33652203676139936,-0.3618554705022354,0.03014774923170556,-0.33164564810623043,-0.17748375765461394,-0.5796374822429986,0.4385378805793198,-0.9134252308865258,0.3278218240363403,0.41804160726215883,-0.3526447031865396,0.06774228337099232,0.7265284851205268,0.0684755918471505,0.4007332693208479,0.13447723783543258,0.07018923275368166,0.3718144285079784,0.5262688197494868,-0.20806057760608393,-0.0814229127098002,0.8040559408442324,0.7114593750465251,-0.45727036615706995,-0.8366358772666492,0.20014856714957976,-0.06282677809691141,0.08674129013632438,-1.2115827224273037,-0.0790041074115218,0.38086510182277594,0.05813598365814657,0.188491570423539,1.551224871072745,-0.17609670252505968,0.6856589274898047,0.3600908171488555,-0.07359836610162357,2.2284838323520924,0.36958971804342383,0.15488723413083622,-0.7189021731446114,0.05100091210097218,-0.08538025066424845,0.0749050696547972,-0.764781324388047,0.614087664791253,0.020651302635950074,0.26954019227964665,0.5687431487820939,-0.7763480451341849,-0.1554164453304856,-1.2047947181579954,-0.04873249072174483,0.7269190644172007,0.01947878734006111,0.15385233134451126,1.397660206518433,-0.24782200770443613,0.2736807557977526,0.2649399878086845,-0.9321140273978942,-0.16882699072559837,-0.5158648025041224,0.25960763849648366,1.7426014701688566,-0.3265721801393649,-0.0756349135354453,0.6902113091367486,0.15119528567372764,-0.41078863522751785,-0.904406252873856,1.4973700529651874,-0.42212327331225213,-0.09088310525128507,0.6998106508920627,0.2677942487860981,0.5894424116306107,-0.06677695485725682,2.2514944693064596,-0.5573983838420575,0.23123850417324535,1.3338950070626945,-0.11178545955108143,-0.6045624339613147,-0.8169218429600681,-0.15564413699642746,-0.09967177799414731,1.6364094685938526,-0.08465469409951659,0.12256976222442095,-0.4547031550496606,0.5892558373275586,-0.8057737398166276,-0.3247343129332241,0.06335667588523938,-0.048949802979164105,0.11893313736854437,-0.5628914180190722,1.9455839000341812,0.15513430238222284,-0.2623323360095606,-0.0064208882838789946,-0.14714185316221332,-0.8120948242788774,0.33643169163868897,-1.0276398973657013,-0.23560976958664878,1.1236635126832242,-0.9502903010131049,0.8380166147905829,-0.06751937206260661,-0.1579578158787334,-0.8562292001398518,-0.2747092864834047,0.7528602075729821,0.038119761718242426,-0.9819487974356572,0.5074686507519541,-0.6944854310059564,-0.7579030153919614,0.12710692574799579,1.082651367994921,-0.13827152239007925,0.5010249407399211,-0.4003993433971235,-0.024693184277056256,-0.26960901870965104,-0.0791616384128652,0.30046869709895724,0.08769439142767468,0.49515571695854727,-0.8161281482276412,-0.94654594438107,0.11793587163407053,0.5870992216412693,-0.43175327829903953,-0.3461541677320967,-1.781244416424149,0.291781288507894,-0.6741825106931406,-0.20828863454862506,-1.2047538748076612,-0.8687946626508951,0.15697094209411222,0.11985409791760027,0.7244478108879415,0.960387258993557,-0.8503106830586563,-0.005083903208343964,-0.3835935699742625,-0.5443304520317267,0.21820769737596132,-1.0217458835865527,-0.41363973169916746,-0.31308322998318494,-0.9443921275554112,1.2345587573577608,0.4227379597197686,-0.4741386728973987,-2.581274154886732,0.10562240974136643,-0.5612139227593733,-0.005329282057789381,1.2663726911028872,-1.0453757074583272,-0.5245535905094616,-0.0973979662416593,-0.05282488282309178,-1.7926653124454712,-0.5949582782141262,0.5118570272711064,-0.28450056071278795,1.3541867302861206,-0.6413804234843753,-0.28086781692284063,-0.131084227613184,0.25896165459696,-0.2697106420994377,-0.15938576381528932,-0.9796963480400688,-0.6850220142816185,0.3522128014628925,0.4756810218386555,-0.17309961978699348,-0.677645162929918,-0.017768691909717617,0.5921735621765979,0.6713659698217637,0.618191967355035,-2.1615951752484888,-0.7657693386094602,-1.0147898494530727,0.11937727063234913,0.6242714992867926,-0.4436617502868048,-0.10710269157874332,-0.8062904071709757,-0.6503424606368431,0.29611606581901084,0.8181465685105711,0.32163124503334817,-0.6684358567348818,-0.570432769358159,0.019951232842866755,0.7129340351524007,-0.44904750638055807,0.360542201890064,0.6114551167264902,-0.13762288171686204,-0.7474363459216268,0.28467326442990276,0.5845789130629736,1.2102960900481872,-0.08767408141638501,-2.1792808173803895,0.4386624904846601,0.07380342680656946,0.043476637679019346,-2.24317414165629,-0.44834913981883423,-0.3757732458914759,0.4086328882666077,-0.1369889809903097,-0.10301583221635638,-0.9361115108399815,-0.3159462037412133,-1.6214819298817185,-0.8873813583103312,2.1374056523654987,1.956295762833601,-0.12341976832416825,-1.664614301748167,-0.31503755323518234,0.4585785180545354,-0.17800080796026546,0.7796231986835642,0.011707753744502544,-1.32385867990898,-0.5467133954544107,-0.3662896451465193,0.7388385300368586,-0.8536374743001491,0.11400657097694575,-0.07097493793214658,1.3733674300884775,-0.31514517952523313,-1.1182229035777258,-0.646943353672215,1.1182977548716655,0.29158263094005343,-0.36234282340734697,-0.5214671386222716,2.558721231232176,0.3369733612431448,-0.9792821048116275,-0.29117156282086165,0.8079154549895289,-0.24279198196127072,-1.0637897839824546,-1.5050293749339623,-0.1528488715520566,-1.3282423683597075,0.10524789912423854,-0.5488256763257042,-0.011652636886317168,-0.5239261730354904,0.5987258904869363,-0.37311050067672974,1.1340725849029323,0.4329759573233142,0.25647318715937584,-0.30817778024992487,1.3139061408474764,-0.5584858216254256,0.2134010936576751,-0.0300319166060619,-0.3507614626724739,1.3030423048681228,-0.9385543986530731,-0.003328272128782981,-0.27890358262803444,-1.9008920646855234,-1.2619909994966676,1.1398152953269647,3.7813357048937526,0.6791733788405436,0.20791632688727768,-0.4550268285929282,1.1541036593026632,-0.03625374020648534,1.3635866747379461,-0.8517247348113667,-0.5354627824313569,-0.406178681610873,-0.07433267031888446,0.18972234355437903,-1.4388433253990922,0.9300846480945016,-0.6421390265875536,-0.7158895657971519,0.7005238614783277,0.24999813138646962,-0.3261532795035837,-0.3170061037621908,-1.5701560913417687,-0.11571304456510786,0.39629846635115673,0.9080645951809263,1.7370745462496129,-2.0453022993505248,-0.5564724702492401,-1.8073124000425913,-0.726494359137338,-1.906420031795017,1.7090469279056342,-0.03169923684079524,1.1748889271216745,-0.7432593717833624,-1.0047302971462708,-0.1888864983002526,-0.08696824024425578,0.2798345325138775,0.021317180438190326,-0.09683723682162665,-0.31185483907521777,0.7695707663662722,0.2488924806234416,0.28590440592598154,-0.6981676871382172,0.4081888112270913,-0.4567116378640396,0.32113451940407806,-0.1808101464270851,0.22738168576386672,0.28583329697928334,1.3560243829987826,-0.638809300930285,0.46446535218599905,-0.10683466754250957,0.498112098798491,-0.053145033777110044,-0.7423063350232143,-0.7622914579629639,0.1941270598193069,0.10476674055852216,-0.022433041999264387,1.3732310991039594,-0.6151594741739864,-0.6190890080303054,0.06015210451953575,-0.7650358725738436,1.5112322867407757,0.08165194647070484,0.3913493704198587,-0.8074881218021028,-0.5642679592694021,0.4692004442233452,-0.024406146451226976,-0.346080254777427,-1.0835341239325829,-0.5961180540012279,1.70095528996051,-1.1699058085049512,0.037156408017130195,0.2699283817694802,-0.34676084830779536,-1.1395989262002,-0.4723431623529964,-0.3828889486441045,0.07222263543109751,0.27344458203164007,0.0690396982562746,0.04710185780953815,0.6098649949503769,0.5067492041201037,-0.05415134128578298,-0.6669942371500132,-0.051691325152422016,-0.2782176618342734,-0.6303806852959074,0.05223843566931083,0.6995001402869899,-0.152873124994681,0.25063927179967027,-1.1905079807779866,0.11192126098853027,-0.024819645674211775,-1.1018809564784278,0.4007336506290214,-1.5184999619754138,1.49682959128487,0.1330242467577782,0.5027344464301835,-0.3930267596375502,0.15836120350389082,1.1445257547608798,1.0055070661927863,-1.230552042627553,0.19340699468500339,-0.786009571724327,-0.2688160021492206,-0.0763222500028695,1.5532294406561156,0.22894884347397731,1.0272062224787568,1.8016839109909104,1.5016967718771859,0.2737176404122061,1.0355382178310453,0.522636198409186,-0.2239830436597662,-0.21957854591832543,-0.6734399469138419,0.7499671557604021,1.217556934194833,1.1256969379286776,-1.4740169986882625,0.005433937150423901,0.19571054856568307,-0.41067855717913415,-0.38369108062998314,-0.22666866505811134,-1.2227573898810367,0.38835714530256155,-0.466897423975289,-0.3080234813774553,-0.41504806612975054,2.1981003746970043,0.10654992739372611,0.9470118551922032,0.6463721031208852,-1.2218017465782733,0.37822304636120607,-0.5507935681467538,0.44841939359903427,0.08830369203494315,0.21418234882669637,0.050285219287194226,-0.0015774386656960196,0.45194603015069007,-0.8194495862640994,-0.36973680812519966,0.02903072652601872,0.17176862822869618,-0.45194715423415577,0.7033832207402166,0.6440782793406439,0.005191057136164294,1.0452673939750816,0.2932421612957792,1.400559712468824,-0.2574994475889939,0.5203351086995016,0.5923318694896028,-1.169252132141857,1.361673488833058,-1.2896394835393266,0.1647508130683059,-2.478025205739684,1.2193324455279764,-1.3982234738750823,-0.410091846311043,0.48441509165712376,0.4011067852092567,0.08830437156188453,0.9694082361318622,1.1999599294883265,0.23536662823437235,-0.42920495860237196,-0.1732323139954669,0.43948519856432655,-0.806547787300153,-0.19435259388120155,0.4550728460369028,0.05444194611305501,-0.43382406910644183,-0.06101235269153602,-0.42207051549601715,-0.6149550800635382,0.556291463818582,0.9424746217882828,-0.45191344855533777,-0.1263702688894947,1.1030945692291445,0.6403626167898367,2.5690475752248174,-0.31542399228603746,-1.2125832649077608,1.2984275505366223,0.8422151548141118,0.1984862750309375,-0.019444145297792276,1.3835144842892244,0.5646433618922155,-0.5570413458783173,0.5856683386443831,1.1797443252418622,1.2257325034989461,0.9706019261352671,1.4603872896417378,-0.6490112238411633,0.4662031723435546,0.6039322867319983,-0.3831083908124849,2.1265471901620376,-0.8332100419822019,0.8161312228046181,1.3972933842927109,-1.1314572136563927,0.5973730915309751,-0.08852877952173253,-0.3047806052545848,-1.9562823267341454,0.4048774363916513,-0.5601850258718345,0.265421973934004,-0.5755960057136197,0.43626887841157513,-0.6771805944077598,0.35786141318894976,-0.698718277397291,-0.08061571116903103,-0.030584475371995,-0.8626358910544157,0.4586146277921231,0.4856948836746912,-0.18097234114370125,0.39467612913064054,-0.4183749927270714,0.2982615634075386,2.3097848051907284,-0.924649623994243,0.10128516679854772,-0.5479963603833229,-1.1733884390125757,-0.2306344002458981,0.17850352657755023,0.4531905491075081,-0.4947881801111479,-0.7750349363955332,1.3628926019463692,1.239528380250712,-0.15001587197893598,0.02914546251242597,-0.3494827833064524,0.2519446918734195,-1.254959318550603,-0.7124215255675779,-0.1276320531426318,1.0377500926647634,-0.8757433203331261,0.7870877955718485,0.19856570600047063,-1.3988428071655274,0.5157411254582096,-1.5110197748850005,2.659253194158094,-0.7599249686833296,-0.012951161980463508,0.12481632488821254,-1.8863002260700608,-1.594090975277081,-0.7719623323345636,0.264697562719833,0.471092585759245,-0.7555671516640755,-1.002088493302513,1.240056706123474,0.29504188305522444,0.3006985656635005,0.22399337860300095,0.8631074795983648,-0.052095434619596634,-0.6653729542814352,-0.2875226882374839,-0.508315265058621,-0.9705191213842882,0.7133907671684654,-0.21357167196445412,-0.596920865354539,-1.2867368768157186,-0.08119915469422859,0.6382325505595867,-0.4191933079321721,1.6997509299643725,0.38110796352710374,-0.7189522358959524,-0.14696904073224332,-1.5925930797678267,1.3801422648615136,-1.182951334002584,0.5911590264996597,0.05241976430383776,-0.20168799122552808,0.4848610661013432,-0.39430697535288367,-1.289125732265925,1.141665808584805,0.42474396854056085,0.4284841775691651,-0.4906058697825337,-0.6070583116709748,1.5014982713783243,2.2583978985559874,-1.2660792212394565,0.08949985285163489,-1.7000527607328517,1.8592309579331299,-0.6954208483963192,0.7954654588872175,-0.5224033789975296,-0.33838140034807834,-0.9662200271020382,0.3458478098333985,-0.2837037958659376,0.045360893576397755,-0.7405428496232879,-2.0810378946110424,-0.891941045391562,1.017545386305634,-1.2052879458995085,-2.4253355058715194,0.5726480889619772,2.254722181923533,-0.16219192270183572,-0.7159644262907294,-0.05332043941706308,-0.16959606739876332,0.5624796737171592,-0.8020326574555643,0.853776075441063,-0.8554661190689117,0.101435836221307,-0.45196279215830193,-0.11362736824891151,0.1441164071283486,0.08157863178042078,-0.31683125332106993,1.1305779503850548,1.6307055458781043,-0.05843569966664219,0.8867784238686796,1.4353082003402982,0.1009462366976576,1.4183413307499726,0.41030261141216506,-2.108278644088115,1.1656122517648673,0.021680648415737087,-0.9093569781574861,-1.842193957747521,1.0505801803583672,-1.0390339196393603,-1.1680378004214798,0.18434975736686224,0.4625736677591364,0.045833320933894445,-0.5040289697103418,0.1393375345675463,-0.9091110825004135,1.738495924209245,1.4987774362280484,-0.529560129656331,0.019129278832283853,-0.35704167935715364,0.7192409714220321,1.289110388573756,-1.6162960565915718,-0.801147778567491,0.04901377638946092,0.5065683497530006,-0.4278873565038542,0.25690131958410095,0.1680907498940987,1.145833955686699,1.3780758749577482,-0.37458637499802105,-0.9018937725096329,0.41897220680689,-0.7320330280664246,-0.08957399724076413,-0.0486380187877573,0.3144722622455399,-1.2099911931654215,-0.577628474864265,0.6583668063321194,-0.691049657161827,-0.5440084280401439,0.3028788206259146,0.9012594439543068,-1.337366515014789,1.3866621860321309,-0.5838400255757891,0.21672431183241367,-0.3190510105074691,-0.9366414727772396,1.0224760321893367,1.0732989649273428,-0.6217411559763751,-0.02365679451617625,0.6947520194497661,-0.11497590072691893,1.6159817958135352,0.11094048092095686,0.19855547739729915,-0.9241422218534381,0.9606532029304892,0.9771176938165169,-0.2213963781019236,-0.15148368609710117,0.6760687551739174,1.064837383976994,0.17192564886477832,0.5269181618371296,0.4803156358563712,-0.3896915210585079,0.40668582676084747,-0.89085819509902,0.6489358781690386,0.8928568728088965,-0.6169347155755363,0.4774881165962066,1.6058586346411006,-0.33872769680165854,0.2333407637553278,0.4682717764693351,1.067652047784171,1.8711741805432742,-0.7604363883844688,0.13877573290986914,-0.23715387942246197,-0.37108447105820325,0.2860462735643085,0.34096618517345006,-1.2943993468595545,-0.8056692700627383,-1.4643931517597735,-1.2032478876145065,-0.1229515705373548,-1.2136636756536114,-0.6848380807895272,-1.416161892081012,0.7348169769535262,-2.1329634843463188,0.5869939654646915,-0.939959973904972,-0.3117639309413679,-0.6406525103687652,-1.1286086386998528,0.04177383128923599,0.43471360229301237,-0.0022001598731303616,-0.5027380915206411,-0.2338855753137162,-0.647076660675557,-1.5999365775809815,0.9664393897851772,-0.22879653408220707,0.28216360079671154,-0.28841166145959984,0.15140224151480056,0.055683836526975596,0.45359301103992294,0.08219051507604339,1.1213748552962186,-0.3929341511831405,-0.7806047802085581,-1.50141113800618,-3.0092045185421123,-0.8273844339493924,-0.9502616206421345,0.5534043152630586,-0.3054018180288814,-0.41180662402443635,0.26591949127455594,-0.38850080252485475,0.06957170450318298,0.3255637932082978,1.4615517948204144,-0.6902690189726242,-0.08618048090432487,-0.3964078672063361,-0.8890257855134209,0.5181733397538666,0.9211519976584683,0.5546927343215302,-0.5422953702705295,-0.994939444863483,-0.1253946838397531,-0.9503860594192206,-0.12244681362704826,-0.2274571008136847,-1.0472569782076115,-0.2787759062541683,0.18720681326084318,0.06316447579645702,0.1441022704021786,-0.11280721599653769,0.3561958611002102,0.04233501591441797,0.5550718558534878,0.5023204800161707,-0.7021289262895558,-1.7884469609357625,-0.07250184741016565,-0.18334704507026425,0.7745773407826269,1.0049460304878726,0.08605181227218905,0.044721391044614436,-0.0296331965166258,0.9900777736847284,0.6246585052210857,0.023293159370971765,-0.20986996893171386,-1.9902655591221603,-0.2395839787615679,-0.3536573018166745,-0.5343239220836961,1.5067448030712705,-0.7567910497924385,-0.3306478083130589,-0.7564471484912152,-0.6098119546974512,-1.154566508540178,-0.2037608359488342,-0.906616609938731,1.5897325886285176,0.19335204027571815,-0.44864004793207607,0.7899108566163412,0.11401411891250986,-0.035373930044084935,-1.37610255932887,0.04810149002142378,-0.2070558735399232,0.6394805622338531,-3.3783893308049193,-0.355136781052529,-0.3515773328608372,-0.4429626265431259,0.49778486303909125,-0.719321087921745,-0.6553676219155479,0.4193258760845534,-0.08203955724985006,-0.3690117540216547,0.28370050017147075,0.25996332946887774,-0.3651794080295988,0.8845946971911783,-1.6620861783068694,0.5119359812419335,