{"layer_sizes":[405,30,10,30,405],"weights":[{"v":1,"dim":[30,405],"data":[-0.021268744900821847,0.42965827799825346,2.8134977810677215,0.12427990170059244,-0.0952545804548778,0.7214978699205675,-1.6668230570062414,-0.02828832151430624,-2.249822568095315,0.5552379303539926,-0.3888539467034146,0.05804803761367276,-1.193037888670228,0.5721914204956015,0.502935644524075,-2.5786306489983812,0.4366600818268803,-0.9154040871688559,1.5978668833640215,0.394093163589092,-0.034717707798132,-0.45211637215283096,0.41871340473562346,0.21477338251051076,-0.5456158345164283,0.6415802720638769,-1.2535026778192548,-0.534593972162018,-0.4782762219040133,0.19613051595004086,-0.3981807862322021,-0.18831816231749898,-0.28427103652876917,0.647578916864653,2.0517317931378583,-0.050737866108249055,-1.1314600691707153,-0.4644812859944563,0.0804723390431289,-0.3169659161827067,-0.320727415598135,-0.3826193053713465,-0.032719549244047096,0.6678329825536771,0.006778258598714063,0.20554938211021562,-0.22726097294724676,1.1932152221856813,-0.24668591540393878,0.016072295627294328,-0.7606662279682266,0.58523350979263,0.5549870955740276,-0.20723452290344715,0.7938506279107577,0.516127245511048,-0.1283577804096899,-0.3375466051862775,0.9962349563047419,-0.29445090385811584,0.7558063780650452,-0.8278766213550982,1.2078735995179937,0.10180803643819704,-0.32092760160009726,-0.34162074750228366,0.7213938698094928,1.0443362258711937,0.14396924296588484,0.39437083272356777,0.5353020433999734,1.0699460835399757,-1.4872146721618797,-2.3436556900600976,0.2751890612804502,-0.9936929264269048,-0.0700157473335573,-0.4817266791576329,0.20232283666914053,0.33084910880356155,1.0182919420342362,-1.4657006851461107,0.45373995738634854,-0.8334160501056826,-1.3791344175279343,2.7727792637428172,0.865855134194959,-0.7629213596012001,-0.5666070409272688,-3.074792919376341,-1.0685784789694954,-1.3966116716673982,1.5275042036400535,-0.37469202796211115,0.45444939047725424,-1.4736434455560807,0.1748764040317825,-0.3333049802765311,1.0744402545418679,-1.0712994803975275,-0.1461818613038585,-0.2128940297533527,0.8309497460990092,0.8160709372473158,1.3224480318955893,-0.3430919697183579,-1.9223028305401026,-1.6151759436772588,-0.21549712113225625,-0.8223899878992081,0.1978004851596296,0.1629333238174292,-0.12187899122819693,0.8802361443674858,0.05789511080745029,-0.9426151713958509,-0.6185704941351555,-0.11373371074408682,0.6903704752297446,-0.07978301857594226,-0.47640288969239886,-0.3867967963327587,-0.3155318082204254,-0.25089146484932023,-0.14667898937281193,-1.0110358170979832,0.17162573552094385,-0.0571980952662726,0.2425596852589045,0.3291362491425259,1.5261361268001825,-0.52097235596034,-0.46326419538085517,0.7338780783186724,1.3193219793324804,0.042274653429784294,-0.3982197002272077,-0.17627949330335657,-0.4421412849488278,0.23457906379897536,0.4754278397037496,-0.19783295323268274,-0.36467746803693407,-0.519738884904841,-0.0010158212274862224,-0.779070199327007,-0.3664193761145224,0.35722119575854316,-0.6540542041752144,-0.2800383386494626,-0.5560694676494033,-0.27115911416393745,-0.6447684682084541,-0.5391627326194243,-0.41313897235093744,-0.19081949009713137,-0.757990860362113,-0.20603587744521148,0.23517307824554562,-0.03130268812811112,0.00496290989418939,0.4165906654599599,0.6296477618449542,1.3280089224386014,-0.16293838319053902,-0.1081652437888903,-0.3962661185244481,0.12208372206517693,-0.00294574608047336,0.4273905394653472,-0.19696386467578383,-0.17180262192738444,-0.38634590730094454,0.3488857831053811,-1.178027167002179,-0.210882780774463,0.48343260384607467,0.013601394461755215,0.32539913453175173,-1.008583041732046,-0.24856436336627433,-0.9254243240141818,-0.12273122930149528,0.8910557079188235,-0.14241052161374615,-0.712230832725567,-0.8261193278467301,-1.3647961142571432,-1.2873338351018555,-0.3576621519041726,-0.568330195102967,-0.7394747603789682,0.3930114802395318,-0.3705927275019908,0.5263988769905404,0.3897419740026321,-0.7887957393224506,-0.03508904829748916,-0.1807755492213832,0.14614964817969228,-0.31582630856743477,0.1664758514668271,-0.10339560317362065,-1.672936871263927,-0.2869397850527969,1.1842618814602912,-0.5520553509213216,-0.26102400891008115,-0.3955141653622426,-0.9116650233317458,-0.5764656293150145,1.2208018965835246,-1.4373989793514075,-0.018665062032248818,-0.7303933557839116,-0.4973966240442667,0.4133675541209784,1.723757088561743,0.30471312040475135,-0.3401901618454678,0.012750078381913768,-1.2743492102512877,0.07112205867048814,0.7239715813528076,0.21524104218120113,-0.6818849081477938,-0.9128713302177539,0.6452772060820787,-0.8594475466312206,0.5145844900010602,-0.07851353926387511,0.5864695305483193,-2.578074776814896,-0.7207333410788547,-0.04593788148638386,-0.3747127031509126,0.42910332116310634,-0.01363457639856228,-0.20326914985465203,-0.3779242868583172,0.37749195033927907,-1.0574233749107824,-1.4431924912581455,0.32990431278426924,-0.45900352127686295,-1.004739132427556,0.6307171117304132,-0.41194836221037406,0.5293439177404239,-0.46403359853432846,-1.5675560288585393,0.32794814582754434,2.2653962630301496,-0.47215886340396446,-0.3591627352543525,-0.14342772583696856,0.04996261993426838,-0.746803769073006,1.3913820354863264,-0.5959276383245186,0.45093904606540114,0.14111380364291468,-0.7206257343337402,-1.091033832855766,-0.3466249176809243,0.36225272045345075,-0.476808607152319,0.704425484063684,-0.36306293017201874,-0.3682927994082634,-0.3304724818900143,-2.1067605317761813,-1.2188751318972535,0.507424699032989,0.5259542710253798,-0.31132186300577247,-0.08189945885259033,-0.6411970314083868,0.20612430464560855,0.5149139333003186,0.48916455581549073,1.1195280609354838,0.025569814369744013,0.4345374152523015,-0.17966923590853529,-0.5580102219154548,-0.35186214906460717,-2.3625133888603784,0.16586252851562194,0.3794022863097986,-0.19557792785578768,0.15676278227357932,-0.2204255775977727,1.1066520806677569,0.5156793823879974,0.20276286364543447,-1.4050629530365777,-1.1552764725134894,-0.15710289090716328,-1.7258255112435705,-2.050386005425243,-0.14111257651611483,-0.360829656395802,0.10880633902235144,-0.07577045530945865,1.5883852456853054,0.6227874283887783,-0.6938433418354323,-0.7696394970523428,0.12450402831764196,-0.9756135848623908,-0.05341017532557685,-0.16795181999400594,-0.017097232019491232,-3.2365283578112694,-0.7069214102428916,-0.32624646070071905,0.2723384234910661,0.06968668130591467,-0.6886292463973733,-1.10566956609702,-0.1923370939103901,0.02365959222491205,1.0252449821390484,0.32839223085965724,0.024395630463703563,-1.0562293779155352,-1.718357861373999,1.28790077652013,-0.10746374358656705,-0.34924190303880415,-2.8272485816297857,-0.6308510063800118,0.2187386428532702,-1.0704052056735331,0.0010005752074610686,-0.594636254498657,0.1562910384724369,-0.029465040848859737,0.03707730925068892,-0.6097385549110983,-0.06771031089555106,1.355185347950159,1.0432323088685191,0.43956054993488275,0.1268069451838674,-0.1894040418534051,0.10501513996176894,-1.6211967935606293,-0.6963992513908734,0.25011931873249843,2.059101312625186,-0.7528310263090349,-0.03480598981582458,-0.7813271621807892,-1.5221584120651614,0.404994662854953,0.44137985204499824,0.4694897621077896,0.7087544821643021,0.6651753357509802,0.8021545640358412,0.13473428887309802,0.882778838433963,-0.3333523431299261,0.05087254966082394,-0.3611778386254975,0.8184783206328027,1.7835557856251063,-0.13941344687322077,-0.08684019968586236,0.3279292676209828,-0.6255433433739845,1.0681345834177538,0.7855604754968332,0.03533772800956046,-0.13497754938240736,0.1458255760829154,-1.96632716920612,0.845775615508515,-0.4007668612691679,2.8496545942703837,-1.062300278204664,1.116456668896924,0.3533575018419544,0.32164930780070083,0.5241385318520311,-0.6507888999052277,-1.5840449672913175,0.9459446261319298,0.8038936822959534,1.2000967757974832,0.4338071291071276,-0.6112532678084664,-0.6688312919033079,-0.11721846273234518,0.38147468120551736,-0.965150828372497,0.5521747140448334,-0.1997923433696616,-0.6159968614776178,-1.4113351427844651,-1.0826292246456057,0.11319942228838009,-0.7633525866927211,0.6801646517660563,-0.4429167835647324,-0.11185735302607452,1.4993493748284266,-0.7055091425113885,0.06011516790420651,-0.3485300823047004,0.3554334459231125,1.1928115745029702,-0.6314356687206799,-1.2117526398039786,0.06166468810309596,-1.2068109872123993,0.3334291519716051,-0.19561909047195383,-0.28671718606345464,1.507607382408961,-1.133524245956882,-0.9949178744856881,-0.9991095979030095,-0.7610551066459499,0.8834825261807411,-0.7336766788882231,-0.15729379247373063,-0.5384608489901833,-0.16558110201036558,-0.09798266527067846,0.2903358681543804,-0.6643883245920511,0.69291479136573,0.16789438484787148,-1.021842724518055,0.677531081661777,-0.47584185664629536,0.5186171513880389,0.6788186583810242,-0.615599359523796,-0.11748982162514077,0.693377860714519,0.6761269064553418,-0.3811068064286599,-5.4301100951007335,0.44250830129652424,0.7025310057702596,1.0885231399189181,-0.022789546316525217,1.2677263097470344,2.5258401575628837,-0.8995209091489531,1.7731759341632023,0.2065626366549194,0.030904264645765497,1.4979515242929085,-0.2977754925905272,2.483970373832816,0.33515681872829706,-1.0796140051245524,-0.4175049088283218,0.6315491447609877,1.159287849262663,-0.06583236936603258,0.34619347348268353,-0.6682116729599754,-1.636009301316871,-0.04724822963434051,-0.8506807226893806,0.09561626755117504,-3.5225685320145517,-3.2183979042981377,-0.0932965626584163,1.1074422605177894,1.4708708981301153,-0.648964512962825,1.6545814083380816,-0.12038385042117251,0.12547525148719882,0.34409434570364955,-0.22121668573811762,0.2564041706405804,0.8703639487473444,0.4538472715360401,-0.06878099096253462,-0.5095435367975532,0.7323662392204482,-0.025400469734989828,0.3987718739343934,0.3094278024459817,0.30239181337324345,0.8438705207493621,-0.839341111862826,0.17161370262816894,1.43011940454019,0.47535748199804756,-0.22278187989087728,0.7980368906127516,-1.393662612502996,0.43433251424176406,1.77226269152897,0.5746461627481798,0.5199047316112051,0.549848775448143,-0.488187662014238,0.8903637914074651,-0.18468706432063023,1.0742178773134516,-1.3026886230039143,-0.16881218090321726,-0.03618918350109845,-0.6079365572847569,0.16275458475737992,-0.06236627628808796,-0.3412942546642158,0.9695457051043777,0.3893279780463448,-0.7897727443999,-0.3949375453252989,-0.18724958662443314,-0.7551241336625889,0.7397713113632556,0.2763185162352613,1.099402316878132,1.120811863084501,-0.5363664805287175,0.21383156828328193,-0.027413955664006555,-1.1407594591102768,-0.3012805213103418,-0.4170648458491368,0.3402341333581694,-1.442741017994938,-0.3446024200502325,1.2577117641299842,0.43004682414340306,-1.4132730327453904,-0.37525624752713965,-0.8882056632509547,0.3948480200514549,0.4494939573093389,-0.26956403308674587,0.5691644570475068,1.09113072595286,-0.018650825621429282,-1.4637600307462066,-0.24080212976366608,-0.03051878675566584,-0.3723257308986412,-0.16079065884021765,-0.8796042982021197,0.4114669343361503,0.11489533930639663,-0.5428912291693898,0.1644829042901761,-0.5571653870376083,-0.26650511148052153,-1.679526093395171,-0.4846825874168664,0.7877978856731123,-0.3102869484641587,1.88657464166943,-0.7013818162476494,0.0332385207344364,-0.4636556787891325,0.15773106499880873,0.4146698885249276,-0.11993341672990283,-0.20796555326583877,-0.8938785513871866,-1.4257237929419382,-0.2872844588380956,-1.4151582699262955,-0.264613163014248,-0.7778991731174889,0.8111222778697352,-0.8021548805587628,0.41962945074404073,-0.8765575943133977,0.46453232350024426,-1.1738266299374376,-0.9401561903518054,-0.3088418241435512,-0.4690987019643243,-1.1239781914819573,0.2967693693142844,-1.4515879042137063,1.9473111401649112,0.4183160641804051,0.6186111276471838,0.8403452504769829,1.2070203651292066,0.5624285053093541,1.3758321751544678,0.4830637147271561,1.2648874948970399,-0.7344850425598978,0.2808557129077246,0.827453257695626,-0.9794780168743444,-0.37141933233863084,-0.20348755283528508,0.18124926004476158,0.7338042895890863,0.1008757892152425,-0.44489981391957484,0.8379062100488804,0.3753677202305883,0.9571442412369487,-0.21447761359361378,-0.17989197458931097,0.625957098255304,-1.3022739499826999,0.0184073306988248,-0.9201268471018683,0.7809201760391732,-0.4501587978186046,1.6586926489785387,-0.04644867017721339,-0.3133391914640088,0.058090052712631145,1.123978657070989,0.7133583106386404,0.30734060878374686,-0.5806308326189896,0.13733882190076782,1.1212392160691496,0.7819278954708019,-0.0783813960946296,-0.700601108729919,0.7695318673351563,-0.5366845433269225,0.6542683788029071,0.5957691469053845,0.6033753824076353,-0.5514396486082741,1.362593565554907,0.2470549967690962,0.21230036979075284,-0.7275543877299598,-1.0910270831737712,-0.1487765805307388,-0.2729369943944255,0.3476814881936151,1.064832609535878,-0.3213640502714501,0.626682512235576,0.40696385041227656,0.5705271161527811,-1.0638622648170049,-0.6753853048673232,0.6365686783746409,-0.38414083042650404,0.5646120921816946,0.07474643116353344,1.4962218468156292,-1.3175917083421986,-0.15010521756045478,0.4429337501893077,0.1659013474362783,-0.4671974251036137,-0.26659094182911414,0.4084004055240458,-1.3004761513278753,-0.060937653410616424,0.7345676011749498,0.3613052916049772,-1.202188360964525,0.9484784862274723,-0.8390219383461088,-1.5770102344246375,-1.1363766076506694,1.1926349367197528,0.33754679397487913,-0.2872553959567063,0.3256958513259676,-0.4135726396258863,-0.47478750593752067,-1.199971153853278,-1.4786458040222934,1.5251554676891672,0.7700948952461857,-0.3207405230636571,1.9201003702688137,-0.02159248492125044,0.30144568143328915,-0.4781949057349245,-1.037632283963107,0.5125243636134963,1.2895286093123968,-0.15955313023313072,0.4504446282090677,-0.18567750022421572,-1.140842334642905,0.5595733209357417,-0.32069320601171447,1.0480141124717048,-1.2772408855181416,1.3952702251521558,-0.54220664621916,-0.337498224246723,0.7116697495212844,-0.11851331170414173,1.3675066040468098,-2.3771299368348746,2.919224310280477,-0.6508020309760869,-1.4817340682408482,-0.4512265404640224,-0.315981519336283,-0.21576002762083116,-1.53881415556235,0.18996905606642017,-0.542636564617954,-0.34370905003264024,0.47307315605315875,0.9610337302016618,-0.3304984805390187,0.353449587494016,0.795760361716575,-0.3391426667169668,-0.5495268434774521,0.5328657028700678,-0.25704388548362783,0.5834747593101708,0.2732346643751358,0.8860246658906649,-1.8110514211230204,1.3780824947804524,0.40600128128200896,-1.4459781452994165,1.898948012475827,1.79020545429324,0.32847731665601826,0.39532667993910303,0.3509882099161774,0.297285346488466,1.4772940992421466,-0.2713603733981584,0.806436924077035,0.6011346177830964,1.0945470791709808,0.24700741637517248,-0.568286700845877,0.6283947572780407,0.19834558771356886,-0.03369320913606412,-0.38909761183487235,0.6180821878540538,-0.43461491456907736,1.4156284802332832,0.7235553580000341,0.17604627498886866,-0.30776522482599933,0.44901519826790176,0.8569394484405588,-0.2789014768051713,-0.37295394215050665,-0.6557041121937032,-1.090342805991864,-1.5454012079585058,0.9022413677852479,0.7327813960662416,-1.575553518882009,-1.1944958113843522,0.33522193769160724,0.14340069886882065,-0.4120667607388314,0.2903414700325745,1.8260114932982099,-1.9311577059530405,-0.6357201114680797,-1.315175272038964,1.0545777298119878,-0.8837024798235963,-1.1197765748975324,0.6818600024808413,0.7915998524280353,-1.9999857042332978,-0.15601288315449616,-0.6913244474345611,-1.255971381722308,-0.9188966436512818,-0.4501670363783211,0.047315925139149326,2.435077055597161,-0.06923672744374534,1.0723210117846558,0.6861235264644584,-1.584189803242732,-0.8705117557518136,0.4951295784421926,-0.365838548004863,-0.329582316887593,1.0828137782901475,1.0291206566658446,2.2802735811333505,0.8677275204646493,0.6561880884183381,-0.30079719639588653,-0.5705907206096282,0.44361201247867493,0.965809008745696,-0.8670000092158167,-0.26683340422433205,-1.7874733808442531,-0.7599240183523284,0.8014942531760614,1.4162575824407229,0.5415525805003036,-0.6739448303214262,-0.09314473392213495,0.4000795733155919,0.5406483910200872,-0.30253549141533875,-0.3881671201751016,-0.05697558700595483,-0.25931303655172183,-0.6600247072261755,-0.8257641724447085,-1.3547640708800894,-0.3351509361968029,0.2834599299254775,0.42771134532625255,-0.8662251324330386,-1.1448493598786555,-0.31155873672987977,0.39959667516511743,0.16814229364029845,0.8452344250432041,0.6999060738588215,0.5372274888305245,-0.19378269278865126,0.4556943902085107,-1.7004181098172266,2.7695874776691967,-0.638819440753247,0.028726501863879015,-0.04432539911834728,-2.5839354009684787,-0.3365601109560411,0.21495597707917133,-2.2999404548489304,4.000140980112891,-0.5133034264592087,0.3732882434415283,0.4350962159987883,-0.3467514740114532,1.7713021943679181,-1.6116667800912294,0.5809941669588635,-0.6615283927566425,2.433771499933815,-1.143742065829309,-0.36212431831833614,-3.279700577084773,-0.3092985467623147,-0.4204313596948106,-0.05768346157872402,-0.7277341745815264,0.5894665600983838,-0.2848685648677421,-0.28805477530181234,0.19358041181780417,0.6231082255819348,-0.28768306867527205,0.8852314674578428,-0.11850699666661915,0.19814689322827092,0.15516684264114955,1.0197816405340843,0.3432744952683603,0.18363681261672926,0.43692740371069255,-0.12645101242450532,0.7165428312226515,-0.24526985882858973,-0.11557747180020934,0.24814439527913912,-1.8472940186512739,0.36803610073579396,-0.2542191562940846,0.5114912609082984,0.08254171039399703,-0.09337551689592014,0.34469171805635296,-0.410213188632955,-0.4230631923680194,-1.6025843111051443,-1.2115572454034422,0.3708699558411484,0.08595277868059842,0.43489759719845805,0.48730359785390004,-0.6086710641948205,0.24945794782680705,0.22493954325103754,0.8871318795502703,0.596113134485741,0.32791904491507495,-0.28978790070646765,0.46787378776577726,0.4688199859929844,0.6314879161373319,0.623038588252628,0.5064152717520197,-1.2427143505444451,0.35027596846606524,-0.3074213462458309,0.3664113928374721,-0.126617333705532,-1.0090866788693234,-0.5705911683612461,0.43189012965762247,0.2614820749774615,1.8729652533703056,-0.0009395204919752549,-1.3700665293079137,-0.36619757093748717,-0.2405418990288556,-0.4105832372681695,-0.4878066878581133,0.24115448654720045,-0.4178430128549651,-0.2237049276824795,-0.446172133707513,-0.5684846392536437,-0.4388404933322436,-0.35951766945716546,-1.070650218403901,0.13193019309901285,0.5750616386377813,-0.9861023091988789,-0.6954741904750358,0.23343154053436405,-0.7397645779331853,0.13882006083189155,0.12941668818958357,-0.19867975378845,0.5021055379605972,0.7194969325322217,-0.36222144745898494,-0.9485311232678808,0.24706160727424736,-0.2333361889181896,0.19900279005985125,-0.17389616770030009,-0.3464728548110827,0.5093003288551514,0.25816138968810953,-0.6251162084961669,-0.8276485841122745,-0.793855143539313,-1.6783016565826394,0.14559105077775164,0.10970184056591385,-0.2365177065083656,-0.23551192299017792,-0.031073442808924427,0.24190322829975672,-0.20937666808646113,-0.0832702418388255,0.4969110867008531,0.10101556272447033,0.7191536266362997,-0.5743008260585425,-0.2255752568940185,0.2212284350911672,0.35153063618255637,-0.733521762350911,-0.3631900457590035,-0.02594360501300022,0.43693330759903304,0.37512522479317695,-0.4446450439118076,0.013611641309466032,0.29329500749595955,-1.227800535519937,-0.5076111708438032,-0.5580406034315102,0.7022843560139606,-0.09848768641485905,-0.36199221576137736,0.20425126725602935,-0.417616892319823,0.08479688175663062,-0.4885020110256238,0.043823884121035786,-0.2525890739396075,-0.3364996721033121,-0.6801948029170807,0.7482573324602786,-0.7487954419290337,0.2488905199978278,0.709842053429329,-1.145767149479756,-0.0034109736433011544,-0.23614873548671209,0.9417915602528657,-0.11867996579022118,0.19289279103907858,0.027766706894784384,1.339816262031967,0.2472165190571792,0.51409443115306,-0.03256252184955697,-0.360218501601047,-0.7727514861181733,-0.3402432292871319,-0.23324487625128448,0.31293343057124207,-0.005911868384913904,0.36091283967552196,0.7411888020082094,0.3661508280499396,0.4024419274055427,-0.03874700832854713,-0.12354602395666152,1.05499054014987,-1.679320153823164,-0.4817328950990715,0.8275903629934125,1.7144652442320376,0.4653165937876525,0.2395591406354951,-0.10768759439732371,0.22446194758654991,0.4929498849850108,-0.3956346815801328,-0.7884204604016173,-0.6534043077825329,0.3180970258743627,-0.6186113900433442,-0.656484545893561,-1.0767672814359577,-0.8698703345385683,-0.3404161963613843,0.32872507715534444,0.34350933044290566,0.23227527698892603,1.3814034338456072,0.1562789762313496,0.030812556441075886,0.4632327976374804,0.3055973742041738,-0.2704441050184353,-0.12250680829618874,-0.03684526285654361,-0.1594849107683684,0.06160913917686756,0.7543753946127554,0.36761760645476704,3.589101350420981,1.2010266900463178,0.2060457535885934,0.3891875975579922,-0.10527198917055436,-1.14518229656565,-0.1991595569293301,0.318889325400586,0.8505978339998408,-0.914341470184814,0.5314864745863732,0.5127864832127196,-0.15256351327091747,0.026583268178369025,0.5922776503602413,1.2859834689521872,0.6079287985663061,0.21342138554480908,-0.33277591157365394,-0.3820252006020885,0.26686026683293784,-0.33508842001010325,-0.440919718251428,0.7787179949477161,-0.5276258513515331,-0.09890568264881404,-0.13426169205581753,-0.26858908624043315,0.5716263298259537,-0.8692614042771889,-0.30343623776431805,1.2349563697866082,0.97616095749286,0.9199900607948133,-0.029641888621889267,-0.9538617224327302,-1.1009105016479566,-0.7661538058530574,1.3183582952532644,0.7975228431947377,0.08975937656360218,0.17751076483191838,-0.4131187575965331,0.5934404181279953,0.01317322811069256,-0.1978549049392131,-0.1521981678091592,0.7794769245836974,2.405836292799171,1.2360792130100695,-0.37261874381113297,0.6859541997977515,1.047860151541559,-0.36956894294095977,0.5124084813131219,0.7096277213002281,0.2949364519398693,0.19786250674208683,-0.27888510050509796,-0.06313492163141901,1.7892512138239205,-0.217110766302693,-0.6451215105169437,-0.15055142002340116,-0.8506667830684931,0.6236861843881265,-0.27233061482252097,1.1016810327193918,1.2374849822200944,0.8669619681786198,-0.685212687534479,-0.4248136940081081,-0.684213150059897,0.13323919582354277,0.344692525969648,-1.2541639065639516,0.4786210697102644,0.06403820664626714,-0.07190440834035776,0.2907515638569006,2.073575283534739,0.43484823477308665,-0.012462401982594415,-0.14328890520806248,-0.23213973480733413,0.6704535607502782,-0.365891741135843,-1.7222154639379121,0.21702404752041607,-0.6737181058409136,-1.2643225141053178,-0.8188369005256335,1.545250605983584,-1.312662653828294,2.210444487857623,-1.3740945576664874,-1.1583142661672416,-1.084312670027712,0.34835640255795014,0.5855667796915612,-0.08802322808909814,-1.0398965694537825,-0.32312390598668844,1.527854250615346,1.2178248244542043,-0.3012588133801626,-0.12686748177725324,0.546419258817025,0.35843644512341805,1.308787797563171,-0.5590325770631552,-0.48902025519020703,-0.02263286804565542,1.311560459914038,1.3328007170461114,-0.8069608737097042,-0.9178648066367948,-0.8097634729610662,-0.5365967514751463,-0.5080689259805907,-0.4322960002335912,-0.7216271059514944,0.3068980653393605,0.05413819706144263,-1.2286426956002814,-0.1959265481809949,-0.46871505275222436,0.09806229073653713,0.11079275797327942,0.22501242908868363,1.1111720548971116,1.3329798637136123,-0.6169837559840288,-1.3118661254957489,0.2340308033270414,-0.22998940413847935,-0.0028263659841169272,0.5360004491593795,-0.42517174151274256,0.5382525805821695,-0.25562756901005546,-1.1589621371286074,-0.3742777708308999,-0.795586281825521,-0.15235682497622516,0.3354487724343692,-0.6522848297637114,0.1975059897294744,-0.985038912114926,0.4756311421295374,-0.6401347373194927,-0.9676112512354506,0.13147797025494887,0.7072504330002607,0.30723271623609166,-0.48287744947095873,1.9634772841536932,-0.04766955680793068,1.0811971069006021,-1.5081427851478637,1.13793946116923,0.7571356025149975,-0.09879702531165936,-0.24833768636979509,-0.26122541949478467,-0.26321707743731587,-0.22033326265553757,0.5913706025438467,0.11558409583589671,1.3669052221962943,-0.1503106273030671,0.6219567991457285,-0.803050649614372,-1.032107932815923,-0.12446911834847123,-0.23999795257740536,-0.2604088185140172,0.6075464664938022,0.2719369112313114,0.9419604819861078,0.6700762592157427,-1.0436684003250438,-0.2512812978303371,-0.08422328896198555,1.599410851741819,1.323197579490289,-2.294763774443769,0.09961010179494811,-0.8811398907077441,0.4490028920537619,-1.076453921641352,0.27799074943606,-1.1322260778734083,0.7406505485244025,-0.7299057975773549,-0.008946330055174239,1.4810176200877956,1.241989782580208,1.3435208473861306,0.263364851077801,-0.8282592081690848,0.5002112263733139,-4.652120177011646,-0.8088919095076982,0.36032981289183447,-0.05482305269432333,0.0016634136364018356,0.7566034308975275,-0.31407990781906076,0.6602893867889169,-0.8922432801524354,-0.5473280020145946,-2.0002014444925456,0.5426259775074841,-0.6416192252250649,3.308165124638052,-0.12670924835870898,1.0917796405148628,0.6473980078988718,-1.6219380285278568,-1.0550219340969422,0.46323667969151555,0.8162896824220891,0.734655800498324,0.888712842783402,0.5027895083646545,-0.002055887346573599,0.2845298238366038,-2.1733183674645393,-0.7102158785536911,-0.1231340333557786,-0.13506182656113072,-0.15164868293787812,-1.2516895435007442,2.3447172819244395,0.6984407074357372,-0.4319034145130587,-0.9734435651405211,0.5320990852200175,-0.36621879167750276,-0.11675076823131586,0.9143367868212188,-0.0043413613376597025,0.2865774201057078,0.12045036861056334,-0.15706241259978507,-0.30026980685935467,0.6361341707483894,-0.3848882187031087,-0.18826030375783961,-2.7667054446122727,-0.4027432725025635,0.08002406183940632,1.6331039753803616,0.8783635282331314,0.4870852591415223,-1.1219933189265314,-0.652954779981064,-0.14823165501634095,-0.7326254802260926,-0.23708172089938342,1.004030218198902,0.21532276813812212,0.15217186535234503,1.0330265780907666,0.2725588043591159,0.4728852841541785,0.044184871883455434,0.6803916584074102,0.1701933574421502,-0.6342929310406821,0.19198168957114417,0.10588837893728005,-0.9581527971269012,0.7036096566237674,0.09536095432993974,0.24415927887233532,0.6617891589434204,-1.2212212466133294,0.18675447288870106,-0.9660026961695477,-0.5079921940443746,0.38051521098356517,-1.3371320350179612,-0.7349017831918302,0.08071239548619405,0.015184456179885163,0.42595391983458847,-0.30910503996111344,-0.8338450932467638,0.5360937664076773,-0.7503705820032376,-0.08098276852052662,-0.6127547910287134,0.286485110229812,-0.44949568255463535,-0.14760335144046033,-0.26011185620185784,0.00012560044623801802,0.1286043413876352,-0.1477143672077874,-0.1531833965911592,0.37177210872351396,-0.11922926447247653,-0.12668797522315609,-0.8932289540448898,-0.026332121782708818,0.19695467778931752,0.13457841393032008,0.12070395220396553,-0.8506556258112954,0.0670986175921541,-1.2007484278251601,0.9048969562336474,0.3910346600223709,0.30922712293279236,0.8507200717674931,0.45466348664737516,-0.5056386659060906,0.009896545222383103,0.26999096211741436,0.6617081067886069,0.07418992251718204,-0.5062003046684902,-0.08500064356092563,-0.537633378180211,-0.884108195514058,0.7053199231451436,-0.2135488655665484,0.05538525037096369,-1.0774214750327442,0.003686713959295553,1.8488036031561892,-0.26836652827074414,0.23274977131914046,-0.7876409718828448,0.3503106493773259,-0.8915363306561898,-0.8875096972339798,0.1623264382108986,-0.0036705093103748753,-0.07424463155400324,0.1547059584509399,-0.2922111436100521,-0.6339206016756855,-0.45653101640507654,-0.28001659816148244,-0.4911666281688608,-0.4044379420093302,0.28991382434532453,0.4464642519353211,-0.5198526080464968,-1.508558676604226,0.04835479958658246,0.4456356675714314,-0.367406537678436,-0.9080159778092878,1.1498014434733974,0.0463687413459936,-0.4792259284332102,0.271138402738711,-0.15839839728053856,0.18030325918514023,0.9288668624217409,-0.31378127148021845,-1.007395965909471,0.8261558493511955,0.1360148213483382,0.08831411488878893,0.37008595472887346,-0.5078581792997864,0.057741890176854105,-0.8785201599054733,0.694388049640813,-0.5049720806033349,0.3960846285922005,-0.14994558396087748,0.7029847566278166,0.9444811028666379,0.503871801277477,-0.2390997302825974,-0.017999492768720295,-0.19376234438683654,-0.7888782594697028,0.2627613665654794,-0.31081941192326623,-0.32176008404576945,-0.36503500405897626,0.2068214454223271,-0.6294536415488744,-0.36448071377741065,-0.6178041480929745,-0.6881443731186828,0.4687004843148678,0.01851869416365925,-0.2773813378758093,-0.30235760500818315,-0.04937002631286431,-1.1867049765562472,1.5163317393616274,-1.157375164578793,-0.043655382169203776,-0.6154086960163861,-0.16688834152620843,-0.16951941227737,-0.0999672119722659,-0.047173892357720154,-0.29131108478015694,0.22466744799405794,0.737388999504896,0.016420914400330344,0.7473210212811412,-0.1202947716935183,0.04264514179761899,-1.4906110227447185,-0.10370304584713903,-1.1929824943127838,-0.029969421732143526,-1.3933796512073435,1.103169084837983,-0.21650818179115092,0.3048569455452988,-0.16502167897030423,-0.4823231786935876,1.553814515397482,0.789106419434815,-0.8717399746723093,-0.5271217070753842,-0.5860986396327456,0.45800552651600784,-0.1902779697089617,1.9594580131692048,0.7241104636584332,1.5628808442226203,0.9203826181679868,0.2785132851727243,1.0285891907089826,-1.648296469790975,-0.3689849565880474,1.0950771563691892,1.3799634321190912,-1.0017242472207482,-0.16741456765453114,0.9398256427943006,2.1208359139043615,1.713481690756292,-2.068358926710565,0.48510999087204687,0.5648811052629383,-0.22301275440061688,0.3038577808755076,-3.4184372175210136,0.19569171606965519,-2.1797946314866015,0.548857772227264,0.847046650268368,-1.1937289073124442,-1.3454677381787596,0.6100241395955106,-0.5174901041717528,-0.05945936983593882,-0.7150767506841562,-0.7312169560055897,-2.362232665440032,-0.35827636311035604,-0.3478516815057539,-0.49779180332013595,0.9570377267922217,0.6361944038574374,-0.08766017374776813,0.36586481912823815,0.1972727153744939,-0.5699068252448947,-2.370049503798396,-0.3789459116348956,0.05403218241956937,0.3649719910561348,-2.3215136277664343,0.11421058285824957,0.5181827191642558,0.5163061941748674,0.0696148535504446,0.3913782317403552,-1.5095397239944877,0.17664254348469166,-1.7128070096062145,-0.21520307040469105,-0.27217849617449014,0.8120640678135128,0.31252431414929416,-0.9838310473110218,-0.2972264155561192,1.5917261540497125,1.3021698339955035,1.2934547896763322,0.6680237101428662,0.3733967292985326,-1.7609265797988982,-0.8463856410563517,0.6489187340324764,-2.129027329420282,-0.10786007314519928,-1.2289129410567436,-0.1262657940355535,0.019572894304422186,1.4355521505942526,-1.6887750698816304,-0.0418680772365199,1.2620669896143264,0.5955155597413454,-0.06408202050632146,-2.0556229249091804,0.6799077196372224,1.142439620846175,-0.3700154449457115,0.6066498172724661,2.4393450370495597,-1.5930492342631457,1.2920431487927975,0.23200845741826684,-0.2666915888536408,1.4627109123961382,-0.877018172078101,0.3722322791199511,0.031184016872724964,-0.44524032038486044,-1.0936541190040123,-0.2991472041028535,-0.00512579597265903,0.5973667383587375,-1.4411400110117745,-1.0896381287812187,-0.5586719356804618,-0.019860607712479755,2.7444082385092323,-0.0204315782163896,-0.977628560155584,2.5084597023780453,-0.3707604947257647,0.2662533130826578,0.41657338865376475,0.976217176005631,-1.5278481208969728,-1.3434799859681532,0.1715042458905491,0.4729088890753096,-0.8027103893164644,-3.015323485454551,-0.24774739253953185,-0.1523916407527145,-0.6753195910964573,0.0009140772218291003,-0.4711158594811873,0.5312726317562064,-0.3319235141938981,-0.8054579496577806,0.8799616848857295,-0.044178374232066414,-0.9145063444917113,0.23810282495212223,2.05112675706208,-0.33831331658625413,0.06626256994718621,0.027661565845290614,0.8715179674607902,0.19655425578665944,1.603677435502348,-0.9215673845889669,-1.9718956207586706,1.4692886425905975,0.051040929062425223,0.024255016702453704,-0.20842004977023318,-0.0033837587557963575,0.663551021948649,-1.956931246134373,0.07574322530051099,0.0017484060617623234,1.2735896892196144,0.19451420329580754,0.07864873284737504,-0.7391449916377385,-1.541481776041364,1.3069166082867376,-1.9795926179588421,-0.48950489596746716,0.5696912445250004,-0.43248217849003784,0.02011576683997093,0.5713267006414192,-1.1928628192237591,-0.6885331628647194,-0.2164876219091987,0.27589715552661603,0.4242046858517537,-0.03602971382198876,-0.7191696192555999,-0.10777295629884841,-0.11310470376009021,-1.9725678724006284,-1.385254873365397,0.6441191287027568,0.061435335899773104,0.4856636522845233,-0.29320253332736246,0.5809314613279862,3.034132888382217,0.825369903925206,-0.5187274810786808,-0.6260484155905058,1.5814769470994017,-0.08967308462674452,0.823106341902265,-0.7201424911244454,1.2382152165438003,0.08335449852819302,1.0775305639554484,0.8338713233341383,-0.02062996449427326,-1.218271210867912,-2.0672440612572367,1.0753250833010788,-0.22073401307290316,-0.8428309711537927,1.0257926244055446,0.6680366840856083,-0.4507525716758677,-0.09435533048852364,-0.5834664583291417,0.10766123446602642,1.5708304930842059,-1.5436886277058433,0.9975056641175291,1.702263129293361,-0.6878483447434156,-0.47382361538185835,-1.7710946221863244,-1.9698485645083925,1.7577522310060112,0.5706894227244406,0.5825357421744992,0.6222934091639137,-0.781819231343353,0.3233660906995332,1.5396217724492969,-0.3250912927550353,1.002580186821177,0.9687340908996324,1.3736983334496011,-1.3602896706716643,-1.4777623605049512,1.1240561455796316,1.2104501798192253,0.9011725074645002,-1.624128879245576,1.1428661637640556,-0.12915963601385952,0.7879099052551307,-1.0567635873291077,-0.6491952916503226,-1.0612439865224013,0.3334976467617788,-0.1436596145485831,0.07604249542301407,-1.3828013305900393,-1.3935904199049935,-2.6953277811182073,0.27915184577522345,0.5873637769891816,2.4937524227139294,1.29488837039714,-0.35157994451119096,-0.5302330941535924,0.9858732691917608,-0.19814000452017821,0.3733793815358149,0.575317141061577,0.6311156196369717,-1.8271152406207547,1.5326735312895814,-0.4438171704915357,-0.0689957708962216,-0.11510193231923367,-0.037821997816353016,2.1399131300185408,0.7388307038865424,-0.43475934387809095,0.03779071329224855,-1.4280979394457642,-0.27557506187466974,0.6661603508831624,1.565717992403526,0.04513209468172101,0.9047705952074645,-0.6461311734527616,0.35675783284609014,1.2667291951713415,1.1518142218507355,-0.5556373217410161,0.2642731995732204,1.385946596541295,0.21125534948749972,0.6546495242229154,-1.1280812554832933,-1.4958423350198795,-0.4390596718958117,-0.009719963973874528,-0.0011314758194525428,0.02035393664212472,1.2362946445983247,-0.5903135136691152,1.8720063715541195,0.66746465981089,-0.991403606528969,-0.5453851408144818,-0.24644085236982233,0.41756423734024933,-0.9609066090706235,0.29551880561886934,-0.7368794904034237,0.767484618206533,0.39451773485575314,-0.7246356072843312,0.5695921049077716,1.0700328991764685,-0.1494333033361871,-1.3227183305191248,-1.1184280386163712,-0.3573137523359593,-1.2840546697460384,-0.40299139498897685,-1.3711950442739043,0.5756171242391193,0.49556113132888524,0.22909769921827003,-1.2522133575931054,0.3847062047912684,-0.42580209853870293,-0.0009014182168608064,0.33588204692495954,-0.7171435861444513,0.23463204593675735,0.379405647143125,0.14358810001713582,0.8156006484279336,-0.5551291934410513,-0.5767601709321414,0.33399269325253717,0.10799295051171409,-1.511590532031153,-0.9212869023868778,-0.31987688854924323,-0.4918506444723617,0.5444979885476638,-0.1940686392868669,1.7913506189315669,0.16389274618888847,-0.3061379289228392,0.033374087250562644,0.45681787623119535,1.282994239857955,-0.8424596311719391,-2.4067929723523385,0.12655189063041578,-0.6144059054150208,0.15579408840783482,-0.21265569830350764,0.9415215337236589,0.8930995363378786,0.8323756912559396,-1.4727698319553644,0.6686481721060042,0.22393560158209408,0.10888240043258686,0.6929406023799815,-1.1970748700332454,-0.5604521216338947,0.4864627021611043,-1.0130491066365999,-0.016082626778730666,-0.09501238067222871,-1.5564781287735574,-0.05923593438632994,0.191239627364232,1.4984080154692343,-0.1633912813661615,0.8160417645485583,-0.25729210916861944,-0.614351832424984,0.5035729822273174,-1.4682099643732398,-0.8942954062517172,-0.46350489159297353,1.1230988598993459,0.31030925401387943,-0.61779527410199,-0.705895920045039,-0.712214480141796,0.17415491279448359,-0.9092213949719958,-0.8364058677831528,-0.09346677993267982,-1.3190009030631813,-0.506867300386356,-0.3885900322167519,-1.4898859608493984,0.24881840317323395,-0.7690221613594752,-0.4701528636826562,-0.4983112350320034,-0.40525714592686246,0.31697301758883484,-0.5207091418539519,0.02566047278782634,-1.6921822416302634,0.6082021711256193,0.36026440026046735,-0.9611314495764434,-1.9718816805752908,0.33093767689797543,-0.13223983290140645,0.5434062997563218,0.9533309314994568,0.21728452970734047,0.1489652511871219,-0.24647719161942236,-0.19269249998782553,1.03547779339201,1.431521916605568,0.7375928117033849,0.513584179659891,0.8882476451710639,1.4624298437846874,-0.9613270414982185,0.07436638946244732,1.6528925164614596,0.8674854537761447,-1.392694916099515,-0.31278745795436275,-0.3045149939322161,0.46106355453658193,0.6323311024350561,0.37979140305953624,-1.5898266623854702,0.7263229533449455,-0.4107529254100517,-1.7383272935905394,-0.6098305436335011,-0.21938998751234068,0.45050943341846617,-1.2920903255089036,0.3036794064970974,0.428046288526885,-1.0453283399166684,-0.3561419441586501,-0.04541182072794413,0.12320190033325974,-1.6566795846546143,1.3570185121795408,-0.28597543616963267,0.606501300694966,1.3833258396291237,-1.923085099867922,1.1131902383978254,1.40249684187435,0.5190776261207909,-0.7910059909025922,-0.09912730218276074,-0.06160050751754811,-0.09251796554926846,-0.21207353231246542,0.9864674305203744,0.8306101655036127,0.34304734274511767,0.514102252286796,-1.097794265643709,-1.4483790704686725,0.6111065717496181,0.7121002146863313,0.34673740200021863,0.04549782469266473,-0.12589306482300872,-0.3029280471582173,-1.1510955709859034,0.95608154274268,-1.0502359486025634,-0.7030696120178146,0.760204076768684,-0.9267111765827735,-0.8833006109427178,1.8567159161319498,1.1680801136891035,-1.7359631510466815,-1.140207212776853,0.931290323462584,-0.7128555969295524,0.24799872030446926,1.8488279170222115,0.6904764294816679,-0.7742935159957971,0.37467192200200894,-0.24219843209115705,-1.1286833451396807,0.5104102369181586,1.3922096820384298,0.6191288150916513,0.8965292971973855,-0.3541949215800571,0.6416763978561386,-0.7869284109839584,-0.9234392625938114,0.6735074203065712,-1.0437351185423676,-1.2585809170839477,-0.8122715972234795,-0.19162675111436864,1.3318167871044817,-0.908305787725825,0.16823662587307053,-0.3660292503167039,0.5753886951410241,-0.15000752630545303,-0.44468517119729384,-0.2970571735978947,0.6948919186498687,-0.23087957047150193,-1.3568550307894056,1.1641715654978164,-0.4599394020888137,0.44092873868644433,-0.6800707872786417,-0.15615613868876935,-0.23589500991236048,0.0681807996314129,-0.734605394117888,-0.8670128416961373,-0.21938161172487536,0.9148422767579174,-1.3259501861190708,-1.4898680924495689,1.373555034675514,-3.1465489533123803,-0.4658952365852637,-0.9641882409499034,0.5722361557469681,1.051251714037202,0.4206421560733239,1.3299830817016363,0.7072192700345228,0.3570176434599978,0.675126375102799,0.019691948697079204,1.2022983517051946,1.308035335126213,-0.5911762900118587,1.4009403798728521,0.2832385387215488,0.8728024462947558,1.2735035413624323,-0.456633055593425,0.923933316930432,-0.4082202040039172,-1.0013088694768533,-0.40779150947993614,-1.380163195986226,0.5297418237805558,-0.6865805594751697,0.11832639360963428,0.9685500658575048,0.30248699549409636,0.9270749354001666,1.0470787514884585,-0.6036197257021368,-0.33431966025232895,-1.119255835115265,-0.8581947146022055,-0.5738194206868522,0.176038853171361,-0.6831329741029845,-0.19088476530555365,-0.7055246353502892,0.20070181144846835,0.7812188802643656,-1.8258346636145715,0.3490647160183101,-0.16160446297370434,-2.6869077042075755,0.3502496433459915,-0.5127917993137096,0.8480326453307521,0.26542739659604714,-0.5014684701717582,0.1744295017747906,-0.014777441634501962,-1.1989092953016276,0.7083651067656533,0.4746328574805398,-0.3796783330413078,0.5586329577461254,-1.3275408989894384,-0.48076820548650956,0.2574876491142447,-1.7499401317308996,0.16343090259768167,1.4158443167843378,0.29601041424553887,-3.651909426093716,0.6228148995517696,-0.4984884212291708,-0.4807264517021386,0.2428984364765754,0.6197837454876787,0.0582555403286722,0.2745644763393951,-0.7202885376452588,-0.23599246416242323,0.8168610443625968,0.19250945266846184,-3.2118235523174956,0.7444465991299518,0.22550029605136593,1.0107546585131628,-0.8825012390552824,0.5717227488220964,0.3689375230822772,-1.916137248267803,-0.034607645848665,-0.5639887285644772,0.20758008657732618,0.7586082255040303,-0.1717699355073561,-0.860044890689817,-0.8833236734618513,0.25744537881004503,-0.04309915938923523,-0.43949014859561575,-1.098514711940742,-0.1529226642537103,-1.4545761995394997,0.3415108633034818,-0.07569034258276505,0.6645281350109232,0.4402944104696266,-2.091232153805018,-1.5300855108086,-0.11664038189915521,-0.2205957409594659,-0.1860439983893296,-0.23730828716705163,-0.27302300448873956,0.29276503174426666,-1.1412277388124707,1.9860117686138463,-0.46242654826400686,0.8616970429383924,-1.4147118150337237,1.5515333156073565,-0.44556668452063014,-0.4212594448114678,0.771073949967008,0.3140743444495635,-0.7063891098172423,0.9105325778791488,-1.1882084953695702,0.41727267681477165,0.1318735421693741,-1.2070928272996222,0.26929930641218264,-0.22234810694830914,1.6632762235408072,-2.3217655217522153,-2.2045579668928563,0.3429869332429382,-0.3575118337734925,0.6130328293576788,-1.5371691745688476,0.2694818347161776,1.118036751234574,-2.0605648988997407,0.5990787562319054,0.8014578667327557,0.30888014260512975,-0.10939996755142191,-3.1781756832229497,-1.0048223351110488,0.0019612803514231316,0.778833250190369,-0.6724658554631574,-1.7492542386813308,-0.34057767442437825,-0.5420884410113644,-0.49931034711568695,1.2834422067806353,-1.2929849414606993,0.5525099358495744,-0.5884797469080139,0.9329565012694998,-0.6446594210475489,0.8302903339653466,-0.20648517932147728,-0.795731712247488,0.8726148990890455,0.43909059435813347,-0.4088820353988976,-1.8090531003326222,-0.19140057890050485,-0.12879322451608144,-0.29024387079480635,0.21737578204950037,0.2446291619845911,0.14102469897642608,0.9241150455966711,-0.746603658501468,0.8964642671657694,0.26094260658658563,0.6819873425447108,-1.0077842053012485,-0.05959680667888461,-0.1989014302839832,-0.6404128832186852,0.7178030328349714,-0.07458700598972483,-0.9683586882612796,-0.13437407804196577,-0.5446616507052557,0.27449067256842197,1.033850345883587,-0.35119164634417266,1.1549648990250467,-0.8394473385404881,-0.489581926814867,-1.1377267020377138,0.28670027070740417,1.3112078038414705,0.8568164287619738,0.04913777560020275,-0.3820606221884011,-0.7023781754253413,0.1857665106479034,-0.08947458282999929,-0.23918702005670125,-0.2930460552973536,0.6374172055342799,1.684428986322561,0.31257349113926547,-0.3410491493956972,0.6597377061656421,0.6351158119808094,-0.818952417578303,-0.2961543024197765,-0.03554254152840614,-0.03478002554550788,-0.3690680093293732,0.442052248923825,0.1853517890626885,0.9676627732751905,0.1445670971199489,1.3432444431499928,-0.020712150138962045,-0.34708576228792687,-0.4848293742117017,0.8472224092898641,0.34034254858026447,-1.573060827162324,-0.3241397922246176,0.5994317612737752,-0.9017477233504315,-0.5647403634329847,-0.00933166879734095,0.931101715521046,0.007938209879856887,-0.5220114343509319,-0.44465025340722214,-0.8704797968719064,0.2883935564900397,-2.365874666145279,-0.3058064961397694,-0.5783862549197144,-0.15126992194015332,-0.9269033012122887,0.19590791119385761,0.5201555913960506,0.3809581986930676,-1.0638001037452485,-0.008220206708181873,-0.6730584972291604,-0.1304483135579016,0.6476992686307628,2.147249170958189,0.6404280771651624,-0.28915211878604996,0.4821320916738465,-0.03157638381818226,1.0903235831341564,-1.149412859159019,0.04220524190020369,1.053501962465054,-0.8088170516396711,-0.6587791914158755,-0.9398215643639533,-0.1010923291543082,-0.3271855023021282,-0.5142528809854452,0.5405771893073174,1.7927135571237345,0.1434697994915205,-0.16793473598121034,-0.8602349526792386,-0.3583998996913824,0.14004400844927226,-0.7589731307626201,-0.125441106555928,0.6530573065392947,0.32022628334554154,-0.12683337163299055,-1.0192343996766804,-0.4889636326649917,0.5244775461565402,-0.5222902558163691,-0.46792928369716486,-1.0496547112231749,0.09874244002259754,0.18650493648559463,1.2229283076237771,-2.151917830691606,-0.3745227149859238,2.2782028878397464,-0.42652406725668035,0.8882673757339666,0.385010836368946,0.6466121195736769,0.509461014759705,-0.45509386953454484,-0.24338827172120275,1.9993468452791934,0.6310403403286534,-1.163181409615023,-0.4990894630091086,0.8483340266665349,-0.16513520676261584,2.575731448734075,1.7829367081159748,1.0793771005307853,-0.17134187747659987,2.0825671048628838,-0.3516872962084879,0.6205136442644855,-1.0083620273720288,-1.287383525450309,-0.19617942003095232,0.5901395827904573,-1.3438343034310116,-1.3287007997209903,-1.2568315134427122,-2.9566376812416424,0.6562831230101706,-0.34567315909185414,-0.03893064855867373,0.5718468846464505,0.36903505949678705,0.34184796962557545,0.3995748987221017,0.5490557610019076,1.3459798373172602,0.6823278373824525,0.3779108857893523,-1.5391961440867523,-0.18094645114795951,0.9031738302760817,-0.696148209256958,0.31998958172076264,-0.008740064687171853,0.6998507675171013,1.2394971217130757,1.279747501903207,0.35246309597810777,1.498371235101516,-1.2570325354938876,0.4797946665929823,-0.9031017983823426,0.3958930135470653,0.08189323836527306,-1.1507804237435406,1.109875479329978,1.2284624144171068,0.7618463165322038,1.5397872484865878,-0.3937323524841014,1.0469098742094443,0.7016133633081992,0.39060996380554375,0.13891526790725478,-0.7086829688163077,-0.44574952768393167,-0.19240745698216336,0.05070908573411565,-0.6949556473297227,0.7216449976044073,1.5238698043102286,-1.0787422939080182,-1.7556507882014023,-0.1340051818274931,0.4317058266186469,-0.6022883741537692,0.002257631648348969,-0.20908652733950153,-0.18847496805503697,-1.760617763339016,1.922989934972296,-0.820261352733893,-0.9535341237058838,1.7885302121112172,0.9489792509210432,0.3314734219878084,-0.9580109100996775,-1.0835864762212226,0.3394429893411466,0.07489646809629273,-0.9618539412302004,1.2569838074572008,-0.7924059585945109,-0.20980504890419224,-0.26242387595800826,-1.0432782998207024,-0.8514243593309732,-0.5301887195567256,0.3022443226208598,-0.12356123967610384,0.3995151639734846,-1.519582086053519,0.09221274813830316,-0.9206754885008436,0.5877055360995522,0.5668664380698238,0.8175053502082141,-0.21515585182654284,-0.49723837657540354,0.21721853585412929,0.32402008537770793,0.15136109548201085,1.6558715315131267,-0.1796332028073559,-0.1195581343844932,0.7311703620886731,-1.9362069318190296,0.5696631237204816,-0.3949559887391534,-1.6950646590635436,-0.8729909055018444,0.23958140721303117,0.010813932672639583,1.5622254791710715,-0.4414789358798949,0.14234306334852534,0.11112169671563692,-1.128384835755449,1.5136262787005548,-0.5496475990891672,-2.9500438084462832,-1.59602699485082,-0.09685915004116201,-1.1221844361225493,0.4721998156745731,-1.091721936808083,-2.274508331209547,0.2518987259834986,0.5243977336172267,-0.6125721092882441,0.7202476344342168,0.6868416793151491,0.13827655437247213,-0.38725788489234264,1.2486931468515063,-0.5278344157627624,-1.153741144432867,2.0562524927786296,1.4131221786100991,-0.1227261728100748,0.4075973778677103,-1.252567014716247,0.9428950339979033,-1.6697355951267339,-0.20033127419221436,-1.1867071009863028,-0.11042524796776834,-0.1453156583461947,0.5009068399632428,0.47368798425473624,-0.3780481961140458,0.18188913676170232,0.9584782721683276,-2.5906600723137654,0.4305873647806298,0.2729119372919078,1.7879691994198081,-0.10097992884112254,-2.072625588241237,-1.493704827425547,-0.9506249906895213,-0.5661883741482444,-0.55974953745341,1.6593911923407827,0.9577694882969574,-1.062732340553391,0.20252110637947318,-0.9272369021420146,-0.35921124133345855,0.42306960038487124,0.7156192355368601,-0.7295115446012539,-2.95223545115073,1.4941231048759311,2.2354908562303666,-2.076036115409065,-1.6752594983217945,0.14761383260235497,-0.10681642151126651,-1.6320591575901693,-0.5157468665873219,-0.6884217469098632,-3.158386302660028,-0.028644924353874564,-0.3262202085215161,0.2169941041336778,0.10371174093908077,-0.07076042144730052,-0.3363316570792654,-0.5998298785358079,-1.9040587864659821,0.4145141001331075,-0.46071480368329887,-0.4608382560685084,0.12097647096959024,1.0165658457694997,-0.1997444292844094,-1.2706568589082208,0.3919965664092247,-1.0127408359142285,-0.17450465622444242,-1.2472595214516595,-0.5433320949887886,-0.5379018008475919,-0.6732887282654815,1.2301831594760944,-1.2944193411329616,0.10260688622310328,-1.3119308302868817,-2.307354335244347,-1.791811558073659,0.072063609078838,-0.3005352246224412,-0.2213987038768801,0.003928212803191568,1.177381044048568,0.36526985813763463,0.7217122009223099,0.668675668249313,-1.691256555032527,-1.2513778298794331,0.2770887538105972,0.9651492743407899,1.998408746583482,0.41100580405353887,-0.13920568241715214,-0.12342361529755745,-1.4342886043423007,-0.04085008740779254,-0.5170220552551515,-2.135485771102962,-1.3982218802331596,-0.26455888908175396,0.6678318323588543,0.6155183423506001,-1.2347574829772354,0.12507177643965425,0.5924069958814457,-0.27460454572041476,-0.7078217996825426,0.0908651270170937,-0.09900241545238646,1.61734958283064,0.8872908838941881,0.3625066251185567,-0.34387408553111076,0.7931078861631394,-0.4818797110703329,-0.10908174756129584,0.39032516451035665,-2.0902947748864276,-0.9316853803228918,-0.18067313978034408,-1.4089885298519147,-0.972770227517711,0.13313461108401697,0.5740227707679788,-0.9609209204340972,-0.33956156252178477,-2.462260711562693,1.4959717263233319,-0.5997926898677803,-1.05650122397177,0.58872359077034,0.08859805159968845,0.8506823585651108,-0.61113786072422,0.5843919767188015,1.0244195613603015,-1.136907218847343,-0.37428678995762615,0.5522599504043908,0.1562606316358581,0.5970213016083786,0.17214809034488313,0.08057945534822786,0.5325027157885454,0.10498280842803741,0.39941196756092595,0.42070762875105366,-0.7847859145832791,-0.16524818981885653,-0.14175877097327513,-1.9681063676374375,-0.47837491898727946,1.1684015578743259,-0.6806311788243635,0.4663799593479613,1.6020129705021797,-0.14981895274720333,-0.9695821449186903,0.6787096841940515,-0.21363293925627005,0.4763593603232271,0.6124206683096646,-0.4241011411348326,0.6051498344946917,-0.4036788636442503,0.11766945530218066,0.4180597007724612,0.45718060748348077,0.4523872959151261,0.03568595866452483,1.066205925342444,-1.6614230942963952,0.6822986448982316,-1.2903876108694026,-0.7810133864595964,1.2353784123774805,-0.3195178325421658,0.973584400885858,-0.5981655657139258,0.31202024426429326,0.3666798595660985,0.2137803061129902,-0.32604113398708584,0.29920822662923513,1.1265254076846243,1.42434002845926,0.4723034794225288,-1.1316260332408492,-0.4152876042696443,0.06174066299549228,0.5400693664447661,0.03460391775679397,0.19057794143509366,-0.2836042442404619,-0.10993187419541789,0.5375392342844865,-0.7795110745621145,-0.04912951057334129,-0.23373453725028018,1.418793188230646,1.1573911927311948,-0.08945035075243829,-0.6333423105887921,-0.7027664140183812,-0.06703063138502087,0.2826785110027392,-0.10575081569054998,-0.6724067536885564,-1.2181014351687691,-0.7151544757156734,0.3450014202461074,-0.03133743466630358,-0.5947734953051654,-0.5103984472533026,0.21702516883405323,-0.4784163405251714,0.4420138462732571,0.15047361828109418,-0.10304915386742201,0.11550209507373554,0.2460534023377935,0.6958631800860582,0.5040298875122754,2.0303696144697767,0.6758929802929015,-1.456382629022889,-0.4206959235806106,0.6015885550642536,-0.23708069335014378,-0.44161692820333626,0.8842803690478832,-0.8337091359547079,-0.4570454637082476,-0.524775020856707,0.5935450596410148,-0.33698016732103414,-0.18072298707650836,0.3537775170975947,0.8789519278368414,0.38799105374912723,-0.322509952430305,1.7167080450926866,1.9297280418985119,-1.0281399477064306,0.588206482086609,-0.1111661333069656,0.5418756307113785,0.5558046244614462,-0.43999065969120477,-0.1801565071387276,0.34164520688112976,1.5398374841625169,-0.13648394381366963,-1.3422486567363319,0.0814367877544792,-0.35368774648464396,-0.20676543458918417,-0.0026488712829396605,-0.6336209960463076,-0.6314835918711367,1.2362978238229176,0.8814827659775822,-0.4536449263201994,0.9738946762497507,-0.3520901720397154,0.956139226488481,0.43550236284878163,-0.054176492366852756,-0.38904953049915775,0.7264784876328257,-0.5391797338090644,-0.9941930898164096,1.0509811905187136,2.2611625554855252,-0.2913985852660714,0.1007265223049983,0.30856616327965974,0.8281357130740449,0.584710297119636,-1.7145242154931806,-0.10135011937744243,1.0792031148533334,-1.5036247975439498,-0.445721219476499,1.3324436776825992,-0.9480923266991731,0.3105984113090756,0.5837050695632074,0.16204895957777155,2.1550746398199196,1.1508071093553882,1.1638191821596766,0.09918574900141809,0.46757508387815283,-1.672687145986271,1.4360982218973382,0.6402272717854797,2.5922912072011632,-1.2006740207842663,-0.7031742195868896,0.2810331913182966,0.23827033361348668,-2.081231436222415,1.6052223295811123,-0.330304668639307,-0.5979010598016191,-0.22168430555592208,-0.7059076675588416,-0.3572205065110606,-0.6802446504309091,-1.0941975179489516,-2.187786321857182,-3.5624235261809383,0.23228395706311206,0.7391971768047743,0.08642339440616109,-0.10574631683217471,-0.5270180641837267,-2.1165510995501404,-1.0824430397953493,-0.9910924039103481,0.839529561778267,-0.3454786913119704,0.6738110804673073,3.0194774077946103,0.7001012767044488,-1.1360480737952918,0.9873183655470402,-0.3353641306467624,0.18661210183922028,-0.9314947355759622,-0.34062892635599745,-0.6207869326032439,0.765230541173381,0.5543035120828553,-0.31572574512926693,0.33311743904876406,1.3034921401037227,-1.215267889379129,-0.9747983444109488,1.746006668348673,0.9076999857196193,0.731233297536771,0.8189281002008632,0.2656144949113258,1.0425668613904953,0.1088123742268506,0.43105696855519876,-0.3119028490214588,0.44785031116142493,0.19562979248186935,-1.257237029262439,-1.1442395110720018,-0.5085907368475301,0.5811471046254099,-1.0298437453583729,0.8112949860306058,1.4554602535891317,2.769156443924266,-1.9168355646719746,1.373512614924944,-0.46592443287210544,-0.4415141562550958,-1.0580831456879607,1.4558137562251465,1.1864744699106018,0.035028931508112995,1.7278138623401076,-1.0365694201975333,1.5304258326187645,-0.7281479114321113,0.6255229377905256,-0.8958103542953412,-0.31183807465251345,0.5442172293433012,-1.043409601802408,-0.8269124095737157,-0.572110526733798,-2.657192649606957,-0.9586631442769612,0.542748576877409,0.3974080509625531,-1.0618213867747384,-1.9255974889248433,-1.0686380832411277,-0.7899230026281331,0.2847131776890372,-0.5569221143494385,-1.7083006107939782,0.23560082043316832,1.8434824080802938,1.6931159605771096,-0.15976971051164474,2.272866306625151,0.3683170698124785,-0.717684290502362,0.6824367521327548,-0.9503104670330285,-1.1037179869583371,-0.46685289750677506,1.3422305766649063,0.3307379786607128,0.8276260614434254,-0.48617309812461507,0.7191833860378329,-1.9956786376322355,-1.7192063941673563,0.009397628292437742,-0.08478998237837877,-0.1101413944853906,-0.3936872989709514,-0.22486408817255754,1.2648376772493062,0.9864539454986673,-0.8983654451478693,-0.5807182002539848,1.8872954257940089,-1.1176226331142602,0.6045024027865347,-0.11510326552588185,0.8805542880436403,0.4536425290228299,-1.3969808744049717,0.766162923426148,-0.09011899690110588,1.7919886051211018,-0.5865816928108288,0.9868869841938752,-2.304733236794876,-0.6651131142800263,-1.7904313713932536,1.2647403461569584,-0.0035078795856117997,-1.1937241010816222,0.15546433093257653,2.2623213443431927,0.0338364242821688,-1.0284179596864111,0.6737799112872885,-0.06375440838027674,-0.003164554073832864,0.37732825746176324,-1.0123761119096146,2.0909202208847826,-0.776967876694584,1.1568328320714885,0.2571551575856694,1.189574103059345,0.9171387651061249,-1.187871911988451,-1.4516499039881756,-2.13207558224215,-0.19608499164949247,0.6265155236456544,0.32578757822320087,0.11968475268403797,-0.8244964155830133,2.9373411447688946,0.2507166903017883,-0.27965014214044737,-0.633073070685056,-1.5540309679873725,-0.913597891487188,0.30837947724108977,1.660722071830029,-0.3490346519978009,-0.08054610506900275,-0.7940717768815767,-0.10874876864390037,-0.5858857608437654,0.30242799770897544,0.5288366484722871,-0.8321731376283362,0.011173696379203646,-1.0649005665851048,0.45718332585360805,-0.631193035017971,-1.1933998675488053,-3.0808504515065644,2.5315385513636626,-0.6435992189206251,-0.5223519706961327,2.2415691750338578,0.13391770503448325,0.09766535562187073,0.5061224974620114,0.05238896429560534,1.1226812293326067,1.574418574749292,0.12391967318974725,-0.0811238887295168,0.06359985959840166,0.18054730736287206,0.4255149240544436,-0.8759998200509818,0.8293076156323549,0.453903331070131,0.21944014566776782,-0.20597530835802616,0.8786405208650105,1.5244773175166775,0.6848909475485586,-0.36721143415319013,2.0917158290569895,0.1323790066184789,0.4237982819438974,0.9450835207763761,-0.7352946032962037,-1.4278623611697487,0.16262025964291982,0.03304058281118152,-0.2525384123726778,-0.05487500076083679,-0.4149306936749217,-1.3202551442303805,0.9583333936024291,1.3782040458577778,-0.1386337550010344,-0.18586855054569573,-1.0803683827476953,-1.07549394633934,0.882334585028059,-1.7235685756201753,-1.7376714736761514,-0.4435113867584467,0.08811612212777972,0.28556453192515524,-0.11988265369197348,-0.9750154174766894,-0.3947885896949102,-0.3621079428521192,1.5007346115600746,-0.31660108695925293,-1.0435469145175518,0.0741320461675436,-1.597597796509351,0.28618764442312117,0.4157313316240569,-2.057143692969993,-2.346960389867532,1.2838772184943876,1.0735524293691718,0.4116960082487773,-0.35802203689346845,-0.8788694142331247,0.8599993181320241,0.3629458576627055,-0.16887127339060864,0.6310245125011291,0.6052233473484034,0.7669061928157086,0.5530877740138302,0.32537100785572276,1.3064831286895993,-0.07998582989942833,-0.09222514284232496,-0.7456885476833582,-0.2505729925379875,-1.2795110618487993,0.006654833341832615,-1.530529877135466,0.31207405227125506,0.02884846941327162,-0.26393244945902644,-0.5491159548831456,-0.8469702633823677,-1.6357261336022533,0.929258602842674,0.1488621479802619,-1.7612519689461614,1.6156604726056314,-1.5747731714986035,1.125663144895774,0.9417573762175327,0.07569869969311664,0.6974672041080262,0.3522319451643605,1.5852553150542052,-1.2692201117665376,1.006630699778548,-2.0044646877093015,-2.1315713503292706,-0.872360275801145,-0.13422437485435298,0.15651781537478704,-0.5519063305012872,0.17778038999740373,0.07558795446883095,1.3185836044666832,0.8790345018924581,-0.034397313263483886,-0.2489042463509056,1.3218492692423796,-1.2184797595817767,0.4100736285996507,1.2140776177634949,0.9330099400375162,1.1304282116839859,-0.46854836952407886,0.6789675382941897,-0.10623432883710449,0.43701315215950887,-1.044163519381713,-0.9574426151118156,1.0710081332824988,0.4632736574755146,0.5837615510523314,0.5052075259653581,-1.0580031462734532,1.5716097864609582,0.25019588815597654,-1.1690765773901501,-0.24267214334571977,-0.3894140283250093,0.35850716715149095,0.7081092509364414,0.2819715971863283,1.0477342582665623,0.43683365454264145,0.15315006555425745,0.10793172633382539,-0.9390485997849554,-0.07108499042859968,1.4787107597204567,0.42895455523605247,1.1794614808712334,-0.14962132456623242,-1.4395214017568894,-1.4669784701475925,-0.4072023908080547,-0.7321531294020388,0.29421402931924245,-0.3752458580079356,-0.6882990849958269,-1.7171481341123613,0.1449046758625366,-0.9106764689554784,-0.282960372977174,-0.6354780881464092,0.6443390056262128,0.14581042018719967,-0.8964119965567175,0.8667120408172085,-0.008589006673857603,1.0516959062287028,0.40012342247666455,1.6039088789764195,-0.30169716109913236,-0.011216070773244205,-0.02367738381642083,-1.2683618428945904,-0.30061540112899904,-0.2664897869374357,-1.2211996052777514,-2.2539847851048735,-0.14835959273109334,-0.12323706105971718,-0.8693671131844282,0.6726749596714718,-1.512328360430777,-0.8863475294174343,-0.4503286129780778,-1.963273437547243,-0.4588199214414154,0.28895451102010705,0.5381568420590961,-1.7313061402025165,0.8676562201407744,-0.029373316222618486,-0.023461995770659032,-0.12798848080853825,-0.13196836315989371,0.6592765596012171,0.3049139990428168,0.057666235777922584,-2.063598459496878,0.5737560304659598,-1.818316107732638,-0.2488570871061252,-0.7344110849225114,1.0925919008143097,0.13499973772480445,-0.0016849951365917554,-0.31305105816385964,0.5960541183554074,-1.35312223208166,0.18179285496727507,0.5647158694310237,1.3769305342498284,-0.24308205929738744,0.028966454346508783,2.448071291698118,-0.47528148765854944,-0.010117895601415808,0.2223210418170005,1.0099967509347412,-1.20133008818034,-1.1009047732997788,-0.29804403961247644,0.9466382447913242,-0.9717691869948091,1.3655842935045153,-0.4568907877519852,0.27602426896370674,-1.1476724357976873,-1.096617361934999,0.8827915676542029,-1.4086512159697953,0.12000534573856725,0.05451450263206991,0.7220023196513212,0.4113534674593222,-0.6876692432631809,-0.9447709741251209,-0.26630554468839185,-0.075277920929059,-0.27600807568123636,0.5068342563338095,-1.3064492519356765,-0.8724784822732704,-1.5110019980298184,0.15511693482728647,0.5348279650820366,-1.323700931391964,1.3273913157007686,-1.0786884820706608,-0.7225275983349715,0.22651140043048343,-0.2848034605579811,0.0924783680811359,1.7014894139622596,0.38592330536075065,1.4396872113213437,-0.4393853660985808,0.448549127179784,-0.30145613384088826,0.7256301425008841,0.9568440370233793,-0.34894400969183964,0.07253924442123125,-0.8622082754722646,1.8859433536684012,-0.811648830994295,-1.076386913615897,0.8089257864102092,-1.2009075157623006,0.3900595366419504,-1.3753432840710331,-0.08426483910812965,-0.49384570091305163,-1.069507983755029,1.1493775758565434,1.0277163917848637,-1.2162413327282227,-0.5876741994742061,-0.8624140669494699,1.1298208746661935,-2.5650874497900573,-0.4109159555251784,-0.8785811335998454,-0.2771151593096692,-0.7732139124749668,-0.4921196678069976,-0.9428704660831052,1.203075483249668,1.1943988319717425,0.5918154014545581,-1.197674469384584,-0.330478298054065,0.08784653391397984,2.1283200610301023,-0.09913185473067004,0.4587369204087982,-0.5711558556084184,0.47590758395647487,0.733712105350435,1.9261610080092688,0.8500659859060361,0.24896152528881726,-0.39147740663044384,1.4602737860389217,0.4201201459289125,-1.3112797106780327,-2.093852554967689,-1.0010959063762246,0.10800103258341189,0.12107998016082971,-0.643441032587102,-2.455142491421495,-1.3799303954077284,-0.5151677648771555,-0.31517525964361,0.290053100976615,0.12795084601242243,0.14986303920567837,0.14264911976652694,0.409993205616668,0.7627954819589723,-0.2057858340717203,0.1535798381201219,-1.5313714460864043,-0.5177272892253098,-1.164146590138706,1.2340628042364352,0.7237031035247522,-1.943036307509726,1.1797906892012915,-0.6127994129814747,-0.4094163042597566,-0.07194375373968437,-0.1579368573544742,0.17137635440729682,0.4369105823585672,1.2097097886326162,-1.3310985197359495,-1.2899868395862513,0.5068561094958838,0.00002674077303280284,1.5344607951295464,-0.609977704172241,0.45623617002192235,1.093408688454071,-0.045041785688961986,0.8185000561021591,0.7050779822543667,-0.9732823051869263,-1.009035208497056,-0.8701593513920968,-1.0486934738857423,-0.4603790714100497,-1.2285815112005514,-0.26201465495138904,0.716914124144627,-0.2838085526844933,-0.8993620489851091,-1.2783177586441048,0.951816912499859,-0.5636927693992778,0.5913850789123231,0.02764699663407656,0.24693817270904292,-0.10362935719631663,-1.5877600510715764,-0.8550862970980115,0.08671198131678286,0.5411867185151131,-0.09261929671386772,0.6001692240082653,-1.4093303478065546,-1.2883387856532145,0.33859533130484865,0.9283955606115382,0.7169595165170445,0.5011782283086043,-1.2914530337863812,-0.7382620973530528,-1.4510248218784874,0.26681459933075574,0.30496864415391445,-0.1301291085220531,-0.9028156727064323,-1.8357431243296536,-1.2392450953672447,0.6232977249886432,0.22219033196531604,0.42087449364686785,-0.6513016522050076,-1.2657234368102606,-1.294859642951264,1.5517033987534252,-0.028717382828686022,0.13227229417831632,0.10934448353399841,3.3212185704366077,-0.32950029659173585,0.7552604436435596,-0.08665264057988734,0.7024515650125575,0.7444269874570498,-0.9220997444411196,-1.3652133994276923,-0.9167198445873912,2.342768646748932,-2.1238712084323157,0.15548559367410414,-0.30358708608660123,-1.1083846612723967,2.0233131238803734,-1.4286372282244815,0.46567960737012504,1.0089825196547784,1.7078571478639337,-0.013374839424959288,-0.807982973221982,-0.7593318000747732,-1.6259790393654274,-0.6745440276530615,0.16522697355956317,0.6828991467522203,0.43755778000291207,0.8078698506029452,-0.10193000442189755,-0.33009061231086606,-0.6495295135018221,-2.0035365233365994,-0.35018674617230305,0.3140302166030887,-0.9751879499137841,1.0500173557526626,0.29860923524257343,1.24986223696498,0.20779833938378997,0.7653518815695882,0.9655748753143212,0.21909564010593163,-0.31592744157715863,0.0006122861099084982,0.38425725413737943,1.1632988871272563,0.9353933296824182,1.4097243658768595,-0.8289699092896435,-1.0938277779989338,-0.2887179737093256,-0.2650347881423531,0.2589140807041393,-0.7181835964131543,-0.7371694543953171,0.06964409445761016,0.3367683755717901,0.7911517174782673,-0.43995060172367034,2.6799362967514426,-0.8640234179117978,-0.37934360810817047,0.6049867891026678,-1.1482714279880268,-0.979043129285378,0.8910457535551088,0.5759369117727702,2.1682312461943902,0.26022925065640895,0.881326042081882,0.02938195661852569,-0.03887701695118898,-0.44611077498088086,-0.32533326898736775,0.2590275770301882,0.3789116437460327,0.028593548043001103,0.7729049062878559,-1.1951898953162239,0.45852058561253833,-0.24085130615846995,1.1889994979174119,-0.25867611807643043,-0.6242347042541088,0.1141607142125676,0.3143800379951989,0.06046188842922214,0.5616586999467842,0.2522434947454018,0.6373389894434318,0.22723352880423622,-0.29803173912841463,-0.7639889867997685,-0.6619695801136063,0.21986872579820252,0.3685366664052312,0.16549359408528183,0.2924894446170296,1.1561785677621068,-1.8287645574848728,-0.7539910956828717,0.8666335891629787,-1.0060816498232614,-1.260052250249419,0.4298812797777235,-0.7587597063784624,-0.8579245857978922,-0.0695954388380944,-0.2323166744546058,-0.8779814713412737,0.5620058827845205,-0.4520421556192595,-0.4243590405192819,-0.31733944321428087,-0.4985934357917243,-0.13913363371299195,-1.0102161226119366,-0.6555123396348514,-0.3014542357724912,0.44533567961602794,0.1747213516713326,-0.016139742416260726,-0.28185400394567395,0.5389113656390718,0.9313627072108478,-0.3173397100020919,0.5262572304341183,1.157107398362713,0.17291866277445578,-0.45432891922524865,-1.6780307961051226,-0.10463781165152868,-1.3321106625343961,0.1901540420566405,0.7681524322116866,0.890413983968894,0.52825326443765,-0.6060045141465781,-0.9458371687755408,-0.015004503340009578,-1.1376620804982962,0.3813659785234892,-0.2390852383332246,-0.21464225023036934,0.4220219882502663,0.29076520318455995,0.9415042871232209,0.2856571756469349,-0.3005430571728637,0.4065210932723926,-0.4495120871292642,1.4154759867426965,-1.1060581089780912,0.08527075040491724,-0.7287463279854618,-0.9537076303283883,0.48883059804333057,0.9251458138352002,0.8383769960104751,-0.16125082382930142,-0.9915934389809984,0.24115232950411328,0.5975588371562606,-0.07739252722138863,0.17404327360053923,0.1646713956344428,0.5606355235516879,-0.6654478024046702,0.05019579131697213,-0.17448632731989913,-0.09677623475051189,0.06089725033323689,0.14566458336387325,1.7027180469228715,-0.506965970727335,-0.3162922463329029,0.3439676029925378,0.4478008524143265,0.5992664661234351,0.0704723917299671,-1.0544108755700434,-0.5354130182207676,1.0707434905077995,1.101406456947748,1.1775368951197656,-0.02142237195758942,-0.3005821261666958,-0.02572993981175195,-0.21801536875151128,0.7765590423526084,0.611596905197471,0.04615467269965654,-0.17278373812282835,0.11847077487693941,0.5521123524083955,-0.25805503493088666,1.0448812809276384,-1.0242762930545668,-0.021641853468661147,-1.3172701259681447,-1.614350126844053,-0.6381798072979586,-1.072252092836317,-0.3262385472528937,-1.0341484550115485,2.252114038754564,-1.2332363419939971,1.522155961461758,0.5625011148694696,0.8469616590101807,-1.8350417752601322,-0.03218473161113382,-0.32119631442119373,0.12516687073339683,0.7150359035242002,-1.4983635642355935,0.46013630715443943,0.28856149816281174,-0.2597711381400609,0.37687747489632206,0.7774141069427618,-0.018057518907809073,1.6484945824020103,-0.5702204472409728,-0.103442162791722,1.2884543002658095,1.19593222203917,1.020150025661156,-0.1241572516379965,-1.2796447358330407,1.0531587263327453,0.1497139913145653,-1.8190950034688815,1.6007229340735627,-0.15502308936068637,1.658592923424983,0.2750769279926731,-0.35637038356285167,-0.33173722768394387,-0.2732011430403251,-1.0887963998686812,0.6382460050005645,0.9370598084846586,0.8043532395606574,0.10914840529778697,0.5720672740031735,-0.6064795427264805,0.3216422463376347,-0.18042124120133227,0.16110862367606008,1.2673200840991987,0.31506900939720317,-0.6017188175832399,1.4135133416526082,0.08054013660169222,0.5665003238068135,0.7551681237628959,0.2685481973494006,-0.012144082406182867,0.0811008374312107,0.12335221141845738,-0.31070503871321953,1.8541971978259904,0.5601410404773183,0.15999411951646145,-0.8820251726697561,0.23166109661267814,0.023017177663389756,0.8690932749379736,0.31089820585034994,-1.1076250724938566,-0.9158568374839878,-0.9968606040558249,-2.1085561912483186,0.7514297507549671,0.6435525682886193,-0.9925211132528134,0.4515020493233069,-0.9525290959104311,-2.1357498469239107,-0.48896438504809936,1.1550998120872276,-0.32872493851032597,-0.7370939869160298,-1.3063711252706875,-0.268918289330268,-0.18845530104565808,1.28062405925395,0.2258177797278848,-0.06515999617753523,-0.8286214793555422,-0.41481702262190767,-1.294007218897629,0.1286408190470946,0.26890024034279214,-0.9932808456473144,1.2367875084788846,0.2214825144366788,1.1556905131937556,0.3964151564932184,-0.3896828629935671,-1.0392935931920966,1.082044111364448,-1.6202856217434058,0.017891131518192705,-1.4385392271822603,0.7506997044307074,-0.41157047204456915,0.4967094528991698,-2.6538256875274886,0.14246148205550677,-1.9863939512675282,0.10620273131168154,-0.6434508807656213,2.0830146077967133,1.9782105286093687,-0.10056354511810736,0.64552935780142,-0.23170571559049508,-0.7417940110318381,-0.6069470913762612,0.36929099580164976,0.8316762300222456,1.027260537926948,-0.8412325480016308,1.724462300147433,1.745593383786706,-1.164383503192246,-0.4304354619295551,0.6522972230014635,1.4979563379344576,1.0323897455570532,-1.0365108722253589,1.0419990652567663,0.32392694510013326,0.23249182949934655,1.3944426490290562,0.507502293494454,-1.358115182610959,-0.43448350057894464,-1.3014161228218089,0.1599530497048331,-2.7085031728414957,-0.4354998321513422,1.0196067588781625,-0.03078620841277086,0.1115250565526672,-1.0104887902614503,-0.5694614505709016,0.7020442604687939,-0.33328429617601635,-1.0802150352867486,-0.32699347506784543,-0.7897923950066703,-0.6831513298458393,-0.5454278899670585,-1.3849273326454246,0.8305504703111449,1.0781584295640145,0.35206973693378896,0.18321326299048785,0.6398253693002801,1.9814380375908303,1.5951351715203892,-0.8107617013446633,-3.3813937443133466,-0.5769399251876053,0.4620281700887829,-1.3955426699969449,-0.22162089894569287,0.18646218749918045,0.2841560782925335,0.13188025517314494,-0.5039527256949174,0.7642179015172911,-0.0875576200401911,-1.0411226153449704,-0.09292127890709523,-0.7446478444779373,-0.628577932826337,-0.38628317505581594,0.6936793118249743,0.9568299702609028,-0.30566174689924375,0.37937039853011667,1.086102735547346,-0.017894602289340204,-1.3714186902418475,-0.7041926767966284,-0.6044410601281427,-0.8455632571842003,0.9966963158273734,0.998733074424388,-1.840784471299438,0.5129417179193502,-0.47333438904349795,1.0584220239217408,0.46547363978282513,0.3450607119763385,-1.4698107102935245,1.1864003301838222,-0.5020316589757443,0.4057066083082401,-0.6592929353551634,0.6512981381253984,-0.562296146998955,-0.6600318809035848,0.04444490366424393,-1.1546039300594313,0.3547677151656633,1.1678227768433587,0.6458616896868762,0.5884421430927926,-0.0956663759753692,-0.19606506046881614,-0.2985437958144871,-0.3373455068931789,-1.0049800308189625,1.506409763599827,1.542513579316266,-1.5751753518709102,-0.5323798110062582,-0.8801670020341301,-1.864647447098639,-0.5409411145309956,-0.8234830923490402,-0.37779149519680844,1.5758228042771705,-1.855992315361963,-0.3228943150205292,-0.6495888340101785,0.051047340551656835,-2.8248264892717536,-0.11634942340577381,-1.1261767721076172,0.27818960720723507,0.825748063595809,0.03638377319218834,-0.19339439265494685,0.09385358406145586,-0.5505361302917495,-0.4990339924270356,-1.354629849240721,-0.3355635970891639,-1.3262384238402447,0.01813102835789468,0.9158450001269729,-0.7674422671386025,1.1360084760725009,-0.22543237915008457,0.21448599049375422,-0.8806037813103375,1.458092217715043,0.7302593683979427,-0.6639802868073682,-0.09526823899891315,-0.2554840232505329,1.5155984715485358,-0.9010463918887428,1.9837655271019121,0.44927253872321854,-0.2876767415048679,-0.7981607293727235,-0.7699645779703389,0.6903369715598205,0.7429633826803157,-0.944505868773921,-0.4732890439728308,-1.2741488475613698,0.4996872550418112,-0.10475089710275964,0.7308842458881383,-1.2334298913818587,0.06562739826033277,0.8726384653236938,1.1257193350343246,-1.4265098481377536,-0.06649315928893844,0.9735189008637961,0.3431166793851171,-1.3059451313155095,-0.538676741605267,-0.08656562411596715,-0.15936359213905935,1.3121619350567713,0.07505577148890386,0.017532309399387373,1.9110301117040989,-1.134811296471293,1.1427163585060205,-0.42405740551199794,0.9353871098759968,0.11882690260188083,-0.32228583715974995,-0.7886572531844822,0.7135494131978249,-0.05261785444761473,0.566404529368062,-0.05917194987355447,0.30983491156746534,-0.022115339076749792,-1.2738920490139491,-0.8604995955789885,-0.08702613023588394,0.4263702199706965,-0.588041461525366,-1.3039476808227874,1.278491251086873,-0.5038779049637214,0.3580868814033474,-1.077561583972045,-0.04646971680995123,1.1307704279548145,-0.7807513751387768,0.20209101122686507,0.7458445713569954,-0.32357471883300604,-0.1322062030306947,0.09557418576476727,0.13287431562325225,-0.38524037996246085,1.5557772177936688,0.5148700061509434,0.11568469486447765,-0.7938713046580471,-1.4797879665752187,-0.1542914240032451,0.40382688135388634,1.675385450136865,0.18053134461699563,0.019061864691877435,0.32193354853959905,1.8116321358670617,-1.2715418456691023,0.17791096695334369,-0.7756816069206485,-1.0427565715685707,0.1335020876574154,-0.9199528342535002,-0.14599340424831916,0.22924380006231407,0.5248443198375038,-0.8141500006958797,1.332781816142115,-0.27306096427175447,-0.14663285049027217,0.3295252893467758,-0.4998484026565894,0.9619424412454417,0.20646646862715126,-0.21334144941136937,0.5172628889111528,0.2617470165035474,0.12997831918348685,-0.6031867221011824,-0.5190272738633582,0.9157513030269937,-2.113526986795043,0.8102010867592143,-1.544247638197927,0.7009945578374052,-0.0021628136838506805,-0.04762027106171144,0.335122972184916,1.6464796674076454,1.3945118036671424,0.6287518516605688,-0.5341715905345875,0.6616051940465487,0.8948528562840657,-0.10411710009598614,0.2663007755662665,0.8589799833288425,-1.3196396211585275,-0.4660222796295047,-0.4704970253894283,0.5206092924551083,-1.1717288775569386,1.1602933518757501,1.5483542964710042,1.2579874663730486,-0.4020684340312106,0.23300458784738243,0.1674074441393713,-0.3690972987631849,-0.5246672731322096,0.5502034074030645,0.19263626135200582,0.06040249000434853,-0.4451333218313048,0.2545466078857217,0.21109990406944257,0.5357787104633728,0.8203344756263495,1.5752862890877095,1.8073821548521642,0.25518448620170564,-0.8132732273665338,1.2045048159857206,1.4829261010474843,-0.12519365772691604,-0.7510905709565325,-0.6129523521572785,-1.034012334898686,0.8522522415274357,-0.44875696665869236,0.5637477935251057,-0.17757008031316335,-0.2672573663543777,-0.3129581037676335,-0.5044299286404123,1.0775116156944964,-0.8533627959213195,0.055857161371060386,0.5911764619584543,-0.07886465719584895,-0.5401268129575814,0.30640207420340965,0.16633557349042194,-1.3152490728059567,-1.6563005558132382,0.2688538872160213,-0.040176489914371706,0.07018246780670985,-0.45846204198800494,0.525268835484521,0.300874448126551,0.7420544820298225,0.33418653078636273,-0.19167371109064538,-1.6781138741786885,0.23294641892345644,0.3321832117442873,-1.5419678746815946,-1.046054745115669,0.041888496133362714,0.19360146573821863,0.1441307282538826,-0.8351419981823879,0.5041925049322056,0.7704139902732742,0.5837433456669526,-1.29394060461835,0.1057562028437527,1.1859207730439538,-0.5407023307481801,-0.092540295009388,-0.7295830903561389,0.9834356204888572,0.36325018273581067,0.0580819410105863,-1.7763688971143345,-1.501076733903195,1.2221335165281806,-0.3775497597641603,-0.08609581523444591,0.551359446601632,0.9887675052634923,0.06999877068210819,1.1372136609443588,2.0579975110270268,1.351758313323771,1.3130923132210943,-1.3474310764942876,0.2568039359969634,-1.8475730559437678,-0.65741370105808,-0.7179433243192667,0.20524081792855228,0.9498729991382997,-1.248318085820412,0.20893829712358697,-0.0798795430960544,1.3983674580507446,1.3051325015756166,0.26214480394835094,0.5538818308242885,-0.382669351728042,0.028278695336802582,-0.6447133763631767,1.0250200602928978,0.6660234979334698,-1.0594606151185357,0.6913666665113659,1.3818140576551041,-0.584538777986345,0.8938832319855821,-2.7995281567494676,-0.3672803260682991,0.21822181568141952,-0.7125063606964543,-1.8676955903023473,0.17420357553996035,-1.45209364994768,-0.03775936398251428,-0.7525245034500283,-1.248193284350675,0.06456101367247295,-0.11003705130297745,-0.20297412334230022,1.3545411039217472,1.0076073374925776,0.1571601148940133,-0.41370801063263535,-0.12467409807565004,-0.8058205368189411,0.7334302949862025,-1.12295888214838,2.2277687254094247,0.2292467443327827,0.021137989633575428,0.8495040297549153,-0.2989702075246501,-1.2076507824165617,-1.4477111044242337,-0.3477885089467181,0.48752755587929275,0.4283738001695134,-0.01673910212699307,1.3651916181834118,0.4911613816451955,0.19354117865427417,1.0052898714841316,-1.2847639487788431,1.6074393978040005,-0.18908678877309693,-1.7425199738203978,1.6611085700163992,-0.20076456166820908,-0.35003996471815985,0.4874637383873813,0.6689557431003949,0.9800926023767504,0.15372088525380861,-0.24789238687836157,-0.9883434200988098,-0.5651895807916888,-0.4438505608277919,0.34166797874309773,0.3813001653123621,0.16881915426423988,0.591989220784845,0.6656698515620081,-0.16320394260447357,1.2681453542922154,1.593207104799543,-0.18021273644207572,0.718413202956473,-1.6445692580391986,0.4315773415428679,0.15205206868263726,-1.0504037395373396,2.2273056086142082,-0.4286336625964378,-2.915600737449181,0.3927418614110476,0.21090812069726353,0.04297528155522477,0.014728902831376163,0.08727781190400044,-0.6761886559463838,0.39013887957264104,-1.4726823872343129,-0.5513680556399195,2.3810915770373136,-1.1121939786441541,-0.7967329054679649,-0.16850458876603863,-0.532967467719388,0.44918748367022426,-0.2843710802568558,0.23355362332850826,0.8608351108989234,-0.16688718674595046,0.4187911354697501,-1.645175157475097,-0.9357544384410718,0.7466912976232973,0.294144648147486,0.18381904056566267,0.7418069496311321,-0.22184416655894132,-0.2801806123221383,0.04247908225491087,-0.7258251335393237,0.6433369868618544,-2.7309164924502567,0.9284201243955019,-0.450162064529966,-2.4471991233187285,-0.47272013032419735,-1.1780817978616056,-1.2873340028333549,-2.412862595085522,0.7901199763594274,-1.5812426330645037,-0.8305174918955756,-0.007562566901675286,0.10413904400743608,1.1929056133208222,-0.5882772693560863,0.6289098205040162,-0.5096415688850289,0.44089781173934306,-0.8256223746226942,1.8661504485896236,-0.14081269935330715,0.02970161607431283,0.9309792726958837,-0.5590835681556152,-1.8729466186251218,0.05612728735078945,-0.9733616884977798,-0.9926553496120365,-1.0542393120437157,-0.47322736623408385,0.3112807957630351,-0.21281216820549795,-0.5569716120847568,-0.45018620155837097,-0.6068852693208401,-0.05928235400133553,-0.10619853625158926,-0.8104894960922929,0.13365795729137545,2.1254873790908775,-0.5937502095724746,0.05862559633009128,-0.3030172667558326,-0.46606654847001405,-2.0477667503313737,-0.07639267907106222,-1.5681543917121066,-0.86743619499819,-0.394582286918238,0.002921560407344254,-0.02223728387379505,-0.5482985590701849,0.10394560694831954,-1.824825920147796,-0.5849142548046137,1.8715348592625276,0.3062852582962756,-1.50974177070263,0.8852128200966924,0.3488598334481519,-0.8886747298873924,-0.705828737903991,0.6344985033442135,0.39000099698072693,0.9294573013240466,-1.1268127139022541,-0.5162323405368326,0.9125498638132445,-0.03518149881109565,-0.1559996974165064,0.6017001748638848,0.34894107171851363,0.10270924478073085,-1.0182232472783497,0.4324927462076038,-1.0267193898321,0.42513487913979964,0.05013892306502209,0.23737654791078178,0.5514290293401202,1.967427644313275,0.19539226502180032,0.646933161847528,-1.5345756341160752,0.7342607190533689,-0.05989335753308801,-0.6732386774892337,0.63858213122512,1.2942092819617703,0.7653495374163535,0.12780432861630306,1.4864935935380932,-0.051109351300774604,-0.07558394391292754,0.9841859721059864,0.5734975003658656,-1.0012139338795834,-0.02303512829719267,0.1712918638081217,0.7716498106835672,-0.5904686287534309,1.0835412379395424,0.1886094253035059,-0.28118844767592466,-0.607461284759079,-0.6418791302182297,-0.410207885726922,-0.8136923527564983,0.9513857875433662,-0.9586614140106088,1.8621206807376731,-0.27721513610303256,0.038019861804879075,0.6707354739612665,0.48081613273517265,-0.06446106432910224,0.010609096768641574,-0.2381144052353409,0.6255534469838109,-0.31012231921984534,0.446228799469525,-0.5061081671434087,0.4932683580954649,-1.1670616923027124,1.7029637646491433,0.6938830073573876,-0.2657669775255346,-0.7027737139902576,0.8211652972012818,-0.30286695518972495,0.0444905263716182,-1.06628105854858,0.2334118888571302,-0.4061468980954014,-0.210036635495863,0.16236668604775456,-0.001147054164471697,-1.7603369572548904,-0.2864632646252392,0.13268427183889286,-0.4430025484733351,0.38789522927011916,-0.591272292160893,-0.5133067746855854,-1.1375115038071497,0.33272999043983026,-0.04731284618415145,0.20653490389645313,0.0545933903641357,0.8553200301645284,-2.363429790418779,1.1102362668305936,1.1052394175445475,-1.519315945750039,-1.5195786665768545,-0.49617315068346896,-0.6312431180967448,0.5108456851788975,0.4310854385211712,-0.5193781510533244,-0.04635203080623459,0.7810122935964973,-1.147774957655989,-0.3012319452458841,0.8017393089387979,0.4729313367648439,-0.25956203144166995,-1.568877650106645,-0.12483035798326252,-0.3663149986498066,-0.029747575669070707,2.3361196949122935,0.431131631373602,-0.6015277931552911,-0.06752064845642243,0.1910948084369829,-0.8205209030432261,-1.3568756643665951,2.166830848266961,1.0915842431264744,-0.7007542541307921,1.0899772271879873,-0.020562383326426757,1.1528046868941673,-1.0869752382974245,-0.31710612934817506,-0.2577623178094989,-0.025277523801663124,0.10543669377475995,0.003635919561774568,-0.6258727904070521,-0.041252923801670345,2.369324484572774,0.21860595712222555,0.2773516697407676,0.8286313949281021,-1.0565640493901043,0.027677557926597002,0.6345308495428469,-0.4583129492483385,0.33636939941120875,-0.49056095115387915,0.6833885831492882,-1.339938106967134,-0.45530619422331214,0.4197228685192842,-0.4622022116321556,1.3543883526117206,-0.3664340867688672,0.25000020675694196,-0.021467095687704208,-0.6137023187044067,0.5949563642952281,-0.7966114230406274,-0.06151427030374042,-0.18014626033016684,0.6207400898853953,0.27422751979156235,2.9736994407190767,-0.014603621469858335,-0.33814189535499317,0.5614854273729256,0.3024381426741934,-0.1723619947365098,0.31683704842822435,-1.5590682896308194,0.07086019172283287,-0.45072614087191926,0.565095415965553,0.4302420541610292,-0.11741286090796206,0.029428300220340542,-1.0012327302004556,0.4260711921859783,-0.1222247381958745,-0.5853348527818729,-0.41979981809279127,-0.5221700748439674,0.21589855471750083,-0.6814541946057305,0.4473229434062457,0.03276975616699662,-0.23450559167801127,1.9965873170132982,-0.6486713748306638,-0.3743304415508128,1.732753897172266,0.4794746305211784,-0.6215557827017311,-0.1780338115911996,0.9371583530675458,-0.2787005152537114,-0.13286712448862256,0.05093005574852874,0.06781671256529011,-0.3866930510959108,0.20089957638700925,-0.7061296872879764,-0.2230766855738611,0.4056276545784825,0.7661046797642289,0.5634954623352135,-0.7486268015582419,1.1540297277624576,-0.2633515971467688,0.637445629910242,-0.5226524897764019,0.9443804031796743,0.33385383515017597,0.16323795172132793,-0.74059861274196,0.28007637654618633,-1.709602782499127,-0.2265175517632477,0.062457172259321764,1.8708570445428412,0.12083261541048243,-0.10346365525998864,-1.5005759490097126,0.723388791964934,-0.8633834629649838,0.984789959523523,-1.3295459182214266,-0.08431683536019767,-0.4926767753115201,-0.1024574351698123,0.020141273684662765,0.31077959488359647,-0.2961677001770373,-1.3007202413049568,-0.8761706005177999,-0.11373311919661389,0.6682002626004363,0.06216815611527909,0.4101946786697405,0.11528785152109154,-0.37873178517463874,-1.293270515963909,0.39377622231577686,-1.2070313795078005,-0.6179166025216641,-0.49070138301596117,-0.8383757582020259,-0.35532378788136665,0.058178972567477796,-1.2743998913319252,-0.7185951685889764,-0.9497803666334035,0.1406318923048685,1.1019014671289133,0.17961215825001886,-0.7224106811460995,-0.22484590255972717,-0.8576319897154518,0.2238850761838623,0.7569954227143824,0.8068553462085454,0.6514238038629667,-0.19527479995098015,-1.550694972578856,0.3129252656444635,1.5703807793431885,-0.987450392302622,-1.400541976501406,0.41636359827927366,0.4362541755031959,0.36989314802126494,-0.010841180529918825,-0.5087353454308291,-0.5075962965347309,0.04737051783727926,0.013032205961648837,1.7596267263673124,-0.1532663889422413,1.059613628729148,0.5785718838457001,0.3247631973846936,0.506955824180603,-0.5139441274392,-0.2519400367047174,-0.5115839829017309,-0.9023361505228554,-0.09341076793003723,-0.440493400946129,0.3884713993951181,0.040630665510071995,-0.672785070392932,-2.058341608141229,-0.03783782675683897,-1.8921964676472385,-1.606482125089274,-0.5141349668818382,-0.979771850370152,0.301173005043127,2.225660036427262,1.4867716048264252,0.7639094181750266,-0.13740320124544883,0.613625277475837,0.31527122682716224,-1.411869573854902,1.876928640467984,0.22802454417158197,-0.4535778899943143,0.06256212028504035,0.41325886402807216,0.652817090456906,-0.1217132706656237,-0.06553793366412304,0.4090265898728922,-0.28652305894629126,-0.6472144178754404,-1.3864797569951857,1.3008746370111588,-1.0608768027068551,1.01644543374397,0.0015426337751560395,1.473283906437532,-0.5596978252983301,-0.15815048518817276,0.6903799627568468,0.20779230079012173,-1.7858207114706748,1.8339247798887033,-0.18991493698466871,-0.9005189033892088,-0.4775230115721186,-2.3594584408881527,-0.07901317027475165,1.3698686127043946,-0.7629861384329174,0.05441850536756823,0.4941308217464308,0.4697533935812452,0.08673426539711805,0.16699029620681652,0.8548241793012915,1.215551448742243,2.620669055595456,1.219369743548757,-1.2758368513035103,1.1744233312082473,-2.974731334598109,-0.6794649303983432,1.020836785789932,1.5771775258320622,-2.415235246405091,0.7127749913081798,0.10657204143453967,-0.8171102954295587,-0.964672482068517,0.39432826210800576,3.4759966019253428,-0.2634783757345459,-0.34630538990318493,-0.5523778484549486,-0.42211429748751805,-0.2542051778175504,-1.1489731796206404,-0.5519611233603378,0.9341374963610226,-1.507633399781568,0.6618069496303338,0.46322670890782736,-0.28676783406124695,-1.4936278616328726,-0.14065047553581,0.3677710682905041,-0.4890382444855426,-0.40451008154296664,0.3379115375656075,-1.0658257794254706,0.32358868075685276,1.1444595183426947,-1.0776276580502837,0.372719770821553,-0.12951374473677146,-0.5615951877942623,-0.5619060859790543,0.45125266176227086,0.5718202053202586,0.4397267782678023,0.18557710857987303,0.5740596269180996,-0.455313317753753,0.4710404811006164,0.546108984389502,0.6685543533750959,0.8617352923118531,-0.5016143140416024,0.22279359563228304,0.4601094122620379,0.06659704157429862,-1.1119215906760582,0.344549955159469,0.7142874461383494,-0.6345278600268279,1.4972467690133644,0.10489493574635471,-0.5702747317894558,-0.3768950673294339,0.30176149438525224,0.3951419515361047,0.08268917953666192,0.5487818476607549,-0.174784065956551,0.69652317063233,-0.7177182303818805,-0.014650925688101096,-2.0683364785893716,0.0986584342500523,2.0288874317054737,0.2023254546715061,0.649235274463852,0.29807262664407197,0.9930775241433507,0.23889147232252206,-0.5206307974448733,-1.772419053899171,-0.7464944324362116,-0.4618588742080091,0.3949917365204656,-0.05238852522988696,0.28400600780630775,0.9090837396591671,-0.10666213038113567,-0.5988456702750629,-0.12018354491196573,1.8064120580498244,0.19609241671764008,-0.0017401211430474496,-0.7369141061084686,1.334291676178148,-1.5282046747143816,-0.352703853738714,-1.3359250195850243,-1.542900130144946,-0.006061860780860281,-0.3926800588990335,-1.08564233257588,-0.29035740100963764,-0.021257493037407076,1.5058312072039992,1.0890658325779414,-0.13233959144384458,0.5676659556747247,0.5820456788788607,0.247721865226745,-0.5686267047409749,-0.3938660492220621,0.9315426810434114,1.0025741552011476,0.10281374345352533,0.11401313311789905,0.19318058021706566,-0.9575369949476868,1.1001995171252867,-1.6733336151854539,0.9885886308770417,-0.6557867593865488,-0.20517184920651033,0.47663455256133763,-0.8368146167834475,0.07547262597605695,0.5049259616778796,-1.2843464462021597,-0.928103690314614,0.48716855720688734,-0.36606914295598547,-1.0874266653912263,0.9435998041583943,-0.3987346293089269,-1.449956365964368,0.08109955459171908,0.6171283062222037,0.11819381105444453,0.41760501035168335,-0.49125833119082835,0.7831507434597927,-0.24394219673035533,0.9118615303948283,-0.5802203449797694,-0.9831125518897983,1.0199993535586127,0.15175685795733126,0.8939723356972683,-0.005766445958827587,0.6100761746787646,-0.43026668302031307,0.5871763178279366,0.3490336766425517,0.10782821309161603,-0.09819616230740255,0.7362097350779961,-0.5935323570304739,-1.7187968241501477,-0.607252326554133,1.2365675793384787,-1.171194934340058,0.31228780306349435,0.7339589537745519,0.9787929014860831,-1.2528787144347646,0.8679228708026355,-1.0226345498927554,-0.6715188033644391,0.2598119167187598,-0.5774149435717064,-0.3328164742589643,0.03821534643938927,1.1573801282643748,0.7461024754970123,-0.033413923357820285,-0.011912704932165766,1.9027627905143,0.9063388034562486,0.9571435160535338,-0.6921069139521903,-0.23196173994086455,0.22904808697625736,-0.015007506155499754,-0.6039024932290054,-1.9226896033268424,-0.06849303441998617,-0.2614536795601896,-0.2547279092019393,-0.271687869778258,-1.1567131490314904,-1.0225166162924255,0.23846078910524707,1.9664192424623241,-0.08924454194716498,3.389614245178843,-0.6114066007194648,0.8179827225533953,-0.3587832232014036,2.264340063072341,-1.095752249258708,-0.9680933231342226,-1.5351222901157282,0.641454595746504,-0.7704526419751532,0.04294894867820029,-1.3851383096108396,-0.9572180875088725,-0.1623007201752135,-0.4229732554369296,1.2406714017778495,0.5698748854918101,0.7302642076654601,-0.04253870154712985,-0.4757118401869456,-1.1631856935797447,-0.27933792732890733,0.806434930321997,0.14029826904260584,-0.6264865421993433,-0.04252761363232583,-1.399438745127528,-1.5739434197251168,-1.5630849653104228,0.1459392112499633,-1.0843614323628281,0.2997125322213301,-0.6677939517211565,-0.2690536204428403,0.14074844571286807,0.07096826948822736,0.9891511950973064,0.6150600647030415,0.4585138837684984,-0.7877894784587386,-0.7407037292384572,-0.46202452524162807,-0.23922031450047224,1.0658918474310184,-0.7159537078130127,0.4764133285168861,-1.6752336992003765,0.525594568377284,0.375203407810053,0.5109761545986526,-0.4207561428592347,0.7741675000345075,1.2287998587995463,0.3660442504781366,-0.0025793315272477817,-0.02944595217928567,-0.10334488905243759,0.36239628308170035,-0.8746542937062431,-1.8754670971141065,0.32056544046157026,-0.9810511528045096,0.8005102732844058,0.06265243463272085,-0.6679363575356225,-0.676906379992469,1.1461012663765908,1.3970668689534627,0.3254455217073367,-0.847819757469855,-1.1947435564241635,-1.3539269387474553,1.610225535972323,0.5813562533369645,0.770846312669721,0.5876700328080026,1.6092991025385597,0.5348307281829778,-0.7912371240499465,-0.3390911477557909,-0.8641987349590483,0.7625755809141181,0.31394664159985036,2.5592031094584344,-1.5243428163069446,0.9596962807523572,0.9454589398908894,0.459897708614085,0.6820364263730532,1.799399973513411,0.8125675465536204,-0.05415149856657342,2.434861529403843,0.19872988897341315,-0.3761172725013265,1.8902789744655701,0.8809590493769952,-0.9956945079591507,-0.3286194385525135,-0.6816121104702899,0.2327348876686647,-1.0554701856692408,1.6730691602552743,0.06598717911306701,-1.0841194621495867,2.5728213463135834,-0.49994024547400495,0.8082592602974247,-1.6270175392901671,0.3394118706186869,1.0919516590075753,0.690007316183568,1.6935841361686654,-1.687300839391384,-1.3635274090018812,0.47781547794832785,0.3576141777588743,-0.7440959565538564,-0.8086937157649466,-0.8073435274097412,-1.9206161882635548,-0.27301476071065084,-0.5260295992411796,-0.036643253541174835,-0.5782813945721835,-0.9477347176116148,-0.9337146118339174,-0.12475031277533269,1.2349733346504608,0.894446782462498,-0.7281693439027523,0.8976079755917825,0.5397498035828215,0.0495359478827492,2.0851569481609187,2.759167077221381,-0.17805889169029224,-1.006695092273129,-0.11848163134563093,0.34168137759557315,-0.8098051263904265,0.10969673107399297,0.04837863496962896,1.4531996347076315,-0.8630070120191782,-0.7234892246400375,-2.1071099362148895,0.7657898809958574,-1.075012488432715,-1.754077146840204,-0.39638859978846325,-0.49203484581743673,-0.7622294775632411,1.3771283195695487,-0.45823666951792175,-0.290273326679491,-1.4726058494420715,0.021982931567111477,0.025505769972747658,0.19149274386423124,2.1384050288482563,1.2318823644744297,-2.926570161322884,1.751207063748739,-1.571390781881817,-0.8662804204481382,-1.3420487341304552,0.1041762616912888,0.3271168120856625,0.0700183601774586,-0.10093705582470394,-0.9438061353203714,-0.7338661795324835,0.07613763813046213,0.9920056714355766,-2.0396457617524075,-1.4968460601580043,0.1148366654570965,-0.8479341086138669,0.5033278616338046,-0.5312659179945318,0.270451264008821,0.2635222418366892,0.43479908192244815,-0.48616711062611023,0.5173294597929237,-0.609883983640473,-0.2667975862726393,-0.3428133377795284,-0.08744397059673048,-0.06866272926177264,0.5613056339798165,-2.482275214753547,0.2993033718752449,0.537123661193746,-0.09281882274327766,-0.05452275236051478,-0.19148004188600243,-1.0457011089492827,-0.38135435587520494,-0.7574037162287354,1.1316953540766144,0.4386940474513004,0.036847456323166446,0.22799636973317278,0.8209408510648664,-0.4144312997171968,-1.7391197633641933,-1.883508701022284,-1.3776209538811044,-0.2959679252798593,0.3753039222698553,0.22627573665478753,-0.8958365444502602,-0.7855807096041713,-2.7388803239952004,-1.563705339205914,-0.11844447516258338,2.361546115700534,-0.1092179966701345,-1.598457766349195,0.8192251205061989,-1.0647215712044893,-0.45086416639770366,0.26013240030908297,-3.4341418990929364,0.03205925720925642,-0.37298614164068083,-0.12564593307930524,0.296810254012766,0.1615053727088642,-1.5945533357019783,-0.2634350956196223,-0.7187093875793543,-0.35167475639941975,0.09306636672303265,-0.2558656072722718,0.42479414917460895,0.4750627850319318,-0.131747018221287,-0.33635960981631086,0.1957988285274211,1.7033797878262322,0.3100298922488319,-2.3988140213933544,-0.41990435375719143,-0.10489163711838738,-0.9031738648346157,0.41095704197375243,-1.974095026694087,-0.5747368996581659,-0.26844265071121354,1.8811732581335467,0.042953363372679604,2.22028939518095,-2.2384970234168216,-0.6798017614594682,-0.5318929518731269,-1.8431867823807553,-0.009302249840975848,-0.5859869098131487,0.13655419630392582,1.1262246844004824,0.4738867206776805,-0.9785858911406472,-0.4699871727517646,-0.942503683407505,-0.5385102962173196,-0.33263221682753175,-2.550061669040712,-0.05182624020745869,0.3934616079029004,-0.722987827599319,-2.829297214923495,0.027618688744036293,-0.4464818424477741,-0.3639963612259475,-1.2248970494270999,0.6520051383325058,1.478302377773598,-0.052199131229808376,-0.770797527203601,1.3974853143027468,-0.9497216055431953,-0.6921460198457975,0.9601883802605744,0.3488608912121599,0.24234462769265983,1.2122749666912633,0.3245024022650417,1.43556855779416,-0.95188020313483,-0.1326718201994824,0.5523691996582021,-0.5076142739987467,-0.29695480007797126,1.4145118152315461,-0.4725805571702295,0.7845918054002884,0.28028157328708625,-0.471155316858934,-0.4456270613796095,0.18091438598760023,-0.674579435419444,-1.7711316488328388,-1.7166299941934455,0.30761299545263227,-1.548680135814597,1.1505264968898767,-0.4488598539915427,-0.32652498533156205,-1.5540939008584904,0.17625522599152535,-1.2155690953065508,0.7768106823414879,1.225772352065413,-0.2668594834021361,0.5651240022162759,0.8495647562113221,0.5630817592986239,0.19442482599463334,-0.60047759709096,-0.15339142724383198,-0.5098760150811552,-1.2534436319500324,-0.6747561850411935,1.2808054306256886,-0.5191663129245084,-1.664830804591104,0.7142478325963417,0.5052132880215658,0.2509356429330325,-0.07012141675797941,0.28282514974578693,-0.8693453300294578,0.7780978664059112,0.6552907769038594,0.28977115536678505,-0.39153832137564354,0.12260113542370663,-0.6831608547656143,-0.16108197692307438,0.3490712094154747,0.6150266812483772,-1.1338056271686097,-1.3671009826491254,-0.3320806603731539,0.34779756295563075,-0.33198983194995013,0.8070950348896982,0.22632456376463392,0.3185366191417345,-0.7769356264248125,0.9214495588731624,-0.37244013739829746,-1.8390436584045216,-1.336871206857681,0.023983666330424633,0.4447111371534201,-0.30759372346373637,-0.6146198204658783,1.5477070232289158,-1.432475450999863,1.0785031768124664,0.3171921297022476,-0.21615044547596368,0.21459136688641786,-0.3947288630498537,1.0295855070050246,3.212311737640107,0.39961286218077857,0.5176002377769606,0.0848560276879853,0.8167156851869127,-0.6225356175726732,1.1448165938979558,-0.18113462276754572,0.22888426044119517,0.16848623888167472,-0.2565274970445155,-0.9608355108001423,-0.11336861797953518,0.3582122608434122,0.9897242305387818,0.3026608194981941,0.021935712513148898,0.09068217743064531,0.5503086357325613,-0.34291962554400707,2.03770068679715,-0.366939127104223,0.09205484894173499,0.5340375172231726,