{"layer_sizes":[10,5,5],"weights":[{"v":1,"dim":[5,10],"data":[-3.373637503044001,-0.7784643616983835,2.4741024773805522,2.113126351221855,4.401034168631382,0.09819792361287186,-1.8805648195990734,-0.3105619471112999,1.2576008027157417,-0.06849757201159898,3.455228248025079,0.6272450090242903,1.7994437849237306,-1.5679991749224595,1.7368154992763327,-0.7807628172199965,-4.571053884703102,0.8379824532284201,-0.929167459693178,-1.804819147841823,-1.9175611912804988,-0.8584834725643721,1.0507838467877213,-0.3962065218541762,-3.5167418248523625,-0.3673932095666402,-2.278470822922775,1.8915747751503775,4.512295595896493,-0.37201010424679454,-2.8466428441703466,0.3795344837111777,4.43148345793497,1.3029593896236402,-1.705635155203133,-0.24700974706446285,0.9408384389203394,-1.0800897224896304,-3.0197509475183013,1.1783038758719242,2.803835909310388,-0.09761444056085994,3.552821240435204,-0.5344109964162411,-2.2718495355036175,0.7693043841054895,-1.1504648686904353,-0.8686810169013935,-0.27181929228543494,-0.45996845069279313]},{"v":1,"dim":[5,5],"data":[-6.781360962821016,5.189511563961806,-1.7601608079993145,-3.2997376367338416,2.814010991127357,2.030700697363574,1.4573877345807782,1.41070519561126,7.019624983670427,3.0292359853166246,6.322562059985282,2.1926480205246315,-5.596943822826888,-2.366994240445805,-4.04146853738645,-3.1001823524949104,-7.545188411413125,-3.0867542003150246,2.809649949546298,-1.145653852693075,0.9173777892540184,-2.7152414946100203,8.388266903150528,-4.295006752891048,-1.5551766742281898]}],"biases":[{"v":1,"dim":[5],"data":[-0.6961196037711173,0.5375178029653368,-0.5981068231720242,-0.6079051582278491,-0.9044783248532127]},{"v":1,"dim":[5],"data":[-2.7130174548838633,-9.230424070103025,-3.2841710700464137,3.4805195812987697,-2.846354689990093]}]}