{"layer_sizes":[3780,30,30,3],"weights":[{"v":1,"dim":[30,3780],"data":[-0.7640173486707316,1.1608264935079107,0.7477584850805378,1.697202890806151,0.9686257516169356,1.134239800590623,0.12857865590006354,1.1259750760829454,-2.592281183922675,-0.2741328540054049,-0.2478694902481169,0.0050478551951748125,1.0365635905912909,0.9952360727492314,-1.194759250341668,-0.8612261757533636,0.620512783067993,-1.582708359788185,-0.023746778553964298,-0.34429405313727046,0.2732993856471858,1.869790387658486,0.21129648833692702,0.2519251203981537,-0.47618609691506686,1.126856685790187,1.0423690908100889,0.06765890700559894,0.28273485731241155,0.5349804791097652,0.6760326517295429,-0.2869042193310637,-0.40257457697381643,0.080324910085334,0.5298093092413058,0.39328031716956635,0.7758148612037962,0.14805831910136288,0.22494213507236593,0.33492278552394456,0.48422377039003794,-0.23428689306476458,-1.4555994410969841,1.2723422867453587,0.48468646250508973,-0.9691563679837875,2.4118052871314988,-0.8328058773529124,0.046637672999312416,0.3581515745110739,-0.8295505297955792,-0.375209080570289,-0.37662579131631985,1.1200887880137256,1.2285904067638795,0.36274653997181744,0.6313520277429144,2.1237299021483382,2.11753828266128,1.409763931428166,-1.292489009526972,0.38723018087458677,0.9768894692247032,1.163564531318417,1.2557338946595575,0.36284938536803907,-0.16798985004986697,-0.6242925704532734,0.44126882000364265,2.0893500199366795,1.4547568317059025,1.5240021439792628,0.8954428759652204,-0.4540828465719899,0.8442868352843786,-0.9480203978377536,-0.2129053615435902,0.27201179232611505,1.0721837151449591,-0.8454196086420939,-1.0136804340802879,0.47390075305981916,-0.6283034178227609,-0.3030676587965806,0.6072154781324923,1.4867574611077101,1.2247801142836334,1.0280000697940843,-0.8841904750983655,-1.066334209439015,-0.33888011640594456,-0.8544490496341373,-1.2810691203412763,-0.04533089665667177,-0.25611635216289147,0.1445593293088868,-1.7048546520591052,0.06250147748177885,-0.6544926626007717,0.9700078112001073,-0.3388333396410476,-0.013012920827966993,0.7240046343900923,0.5706388998954761,-0.9960887024452141,1.3291532864110052,0.6594215189968462,-1.1970061385390762,0.12120635179756577,-0.7552129520987174,1.6375981595942883,0.8202606285224125,1.1083564314110879,-0.20056118991378288,-1.7084703309109255,-1.783234251245298,-1.8598948281754433,1.1951193096565502,-2.0889188319577054,-1.3129995165656072,-0.7745785380140204,0.5391534782966653,1.052605393456992,0.3971148845643733,1.461089285599238,-1.3317406988541252,-0.24340181795148896,0.04080533954594657,-1.0150453607530214,1.5203812186017391,0.59835996275366,-0.3567658935101453,0.09486769083091662,-1.6084949642833941,-0.8877318342929581,-0.7909193002434406,1.7246808212988676,2.094618462820455,-0.5272780382528568,-0.4779130657072449,0.02744662561446197,0.5058399508016704,-0.7082366575984052,0.9070538086998715,0.40331259897931454,-1.6340402607396711,1.0529455347753964,-0.6724410335519728,-0.513464508842212,0.21675371231097088,0.721541451909158,-1.5473035033457734,0.07019854924677547,-0.00853523341629104,-0.742128657582943,1.5676571474658436,-1.2686247211830448,-0.08444529221580147,-0.6831474685058554,-0.9193438646812364,0.9497222794965567,-0.6997061025162498,1.289243248857083,1.1989660000809663,-0.05989261149302205,-1.059954236562719,-0.23079204950479063,-0.7008981974251932,-1.2752902151015464,0.3644789643921821,-0.1615209216232186,0.9604089014972104,0.7313856437011539,-1.3237094409662116,-0.4427196786224641,0.338071103338826,-1.5965268765789722,-0.14674617436826487,0.8675498065184085,-1.2670717640773201,-0.3219735016869796,2.1383691461155547,0.9586819952178082,0.6376780100886988,-1.2902010721933614,0.2943607334627825,1.891118329485178,0.11007743776603159,-0.347903751111838,-1.611385231105713,-1.6238040993698668,-0.4816182657870905,-0.16136633337308023,-1.2415046242323764,-0.24919739814776684,-2.3826644635116563,-0.10508460964833506,-0.15208882855147082,-0.19828243034217088,-0.24824150029083256,-0.10661977974754419,0.1278584157818367,0.3436801048073304,-0.5847368485144178,-0.2837784390104929,-1.588146443416036,-0.04671287514761085,0.7621921821053123,0.8699920735651139,-0.4885846125939374,0.8507318375215619,0.5989226611790668,-0.7462845670733262,-0.9142189544343365,-2.181215646419303,-0.1735871429131856,0.6963534025499846,0.674595222731477,-1.1966614509885694,0.37329599573613,0.7625168956541191,-0.038135092385164215,0.46574294301727703,-0.559515886960827,-0.19815852930447148,-0.5959066449540916,-0.10341760204645335,0.024321453467661416,0.07404232335956991,-0.44794038325043967,-1.310917891575443,-0.7044022178304494,-0.1034463981417059,-0.4775794185498516,0.30127935306942677,-0.8185372508144957,0.8929922888126679,0.18567774771315246,1.2923590089389798,0.05400720480783346,0.6722186718761636,-0.7088031064950013,1.783751459212573,1.6000157461745341,-0.02025733394500832,-0.24300078055802174,-0.967406083956548,0.6820167663459181,2.202493017766287,-0.1732507698056128,1.6011272642436765,-0.6732541996213238,2.170494597712715,0.329988778600872,-0.8909593954526484,0.10401218355679079,1.3264527819932632,0.9887182611597475,-0.3468929809799552,0.18792174277484208,-1.413193591925484,-0.3537399791896619,1.2618696730948094,-1.235219704835385,-1.2793248844147318,-0.4030322354934871,0.7448699241907323,-1.1848477264897406,-0.939404274942142,-1.8108347226518215,1.116175285024244,0.6206597206859615,-0.7272293630324246,-0.3917663532067826,1.5380988239628581,0.9387779973527991,0.23522727322549639,1.0226814342800463,0.02148363649216074,0.5609193939067476,0.15042791472306682,0.15248728162549072,-0.230957708961219,-1.7726367906263543,-1.1520331243120074,0.49366114962562396,0.9535789450519863,-0.28494660432131663,-2.1774385034839137,-1.033456529547327,-0.9329956770118082,0.5885443428102788,-0.0010637673659819886,0.582583169689099,-0.7421479759670045,0.5167843390358658,0.30385828286439165,-1.2894233046658063,-0.779730998371935,0.372643728091408,0.05690428345327672,0.16366552206695578,-1.13133490077216,0.6457442360490695,-0.354309397726575,2.3494957888785644,-0.6790552525004009,-0.04125891111169714,-1.237915848419164,-0.026542430161600055,1.3081375335310783,-1.875701123463563,-0.9565985940040024,0.7244303630407412,0.7255578781945433,1.2823303984890706,0.015243610329550811,-0.14952324729893574,-1.2513868125488306,-0.5410200867664523,0.17059374267709243,-1.0577769241664943,0.6676940676527493,-0.3890974151421481,-0.3728508445316058,-0.017256433510997943,2.3197132830188973,-1.065545054586574,-0.3907860550690324,0.15528031914199755,-0.7441468766101343,1.3345975731812953,0.9018455409941525,0.9646637532510911,0.7001657068193349,-1.1539224792738294,0.08473471145734301,-0.37409025847585897,0.8788381763416614,0.39370775846201067,-0.23900115525306553,0.5785452587450287,0.026909755522803287,0.30009905946486193,0.8312075597069335,0.6634859332902021,1.5735851180590277,-0.0056149350165541154,0.5477866043447452,1.450178558961007,0.6571942890840775,0.7188543987158165,0.8449151766455616,-0.13763899181626055,0.2955520840387236,-0.29470550537844925,-0.1081913078475401,-1.3052586218015625,0.7770745264124208,0.8781893114597185,-0.903090079702835,0.6803515225742246,-0.539172074585951,-0.3149693455287855,0.05020104181680832,0.044509123941447,-1.3230972695192513,0.08664524222698493,0.313539026620791,0.3556452885592576,-0.24813210884639122,0.7698194769862655,0.502013893555678,-0.2609522892445267,-1.376831886847485,-0.3842780827923368,-0.3065920875683177,0.3962853152005501,0.5657174372116367,0.4638580202487519,-0.4382564655659209,-0.9085907147696479,1.0496278618717558,1.2974861627001337,0.34723727932174514,-0.731673997686231,-0.38560619490615516,-0.713745227872342,0.7636790456058729,1.466336268870524,-1.2757703694181382,0.05425479942003271,-1.5894592048612257,-0.2895976763677422,0.5874455620618952,1.9377492234575469,-1.4910496300513971,-0.18910975379082176,-0.848993649253515,-1.9593898856305236,0.41217378257493287,-0.26293831772334686,0.05548402333605336,-0.7653979355488995,-0.4986516988160694,1.116727315007041,-1.075228024675789,-1.1351869788818238,-0.17018061721520805,-0.9995308515715977,-1.033037382342433,0.30043999592604687,-0.18273453097331993,0.6307522172353248,-0.2774290200221689,-1.4802347583112316,-2.7139810271054357,0.13886469244665095,-0.3492239726900526,-0.3910523970027276,0.30039442535685223,-0.4762857273733252,-1.6881936838720952,-1.376434678547809,2.156020570754695,-2.0015101654555147,1.3753799677506775,-0.25935715359190015,0.6401234249975989,1.123591979921905,0.7655643558933798,-0.6131153624141291,0.2870445436359265,-1.6356843689822604,-1.0673173228118245,-0.312798647419204,-1.1290049977100978,0.9951354192306573,1.5605186406293414,-0.15119254261144421,-0.3602285615295109,-0.9095433029201634,-0.6083206909442352,0.07504686835092339,0.15692319072204747,1.5925062129909677,1.7639295383103653,0.06281845041852932,-1.8718275074234858,0.8462072524337128,0.46969529985604713,0.8062888196917363,0.7472018192636722,1.3075154632971768,-0.7996426414692753,-0.424928966771173,0.49672029426659847,0.7412668239849793,-1.774499384207585,-0.1285604582098176,0.7525365953884228,1.1938128738469629,0.24461496138736644,0.5197934850774972,0.7791943024429406,-0.9282103280278171,-1.6502101164172451,-1.0588082032221098,0.0901940282973475,0.1812175610956546,-1.5606200572645619,0.9768583836203562,-0.27179928805525194,0.37346672623175825,0.5100269826775387,0.09307482731487102,-0.7606076509579172,0.2215636238578326,-0.17976707157812136,-1.3876091724620598,-0.37971565845360783,-1.2730427300257479,-0.7866989994566853,0.3505107547357134,0.6815034386181389,0.6106655590188137,1.7389028822089851,-0.6794018069027441,0.9363580375822526,0.2137489221179184,-0.9455630620342663,0.4241491904462262,-0.8450290786386847,-1.2999722057862448,-0.29346275985925285,0.01215394124166136,0.5247779731813416,-0.6397915609258955,0.8116339407294051,-0.7880888941582349,0.3235075885007902,-1.102676763178416,0.7768166038269758,1.6337206373611168,-1.8918580512320058,0.46808343265332636,0.5285044109693541,1.67648075551663,0.7402015241156539,-0.2729683856761862,-0.8775040748410903,0.2747953388614711,-0.5289447075789635,-0.4753283633027067,-0.272724002717285,-0.4647226635377754,-0.484071755903602,0.5410229611752067,0.15373850210640166,-0.6883496185322748,-1.8066455201854767,-0.19763943064607747,1.0267185584138387,0.273583259318999,0.27636947335737355,1.0061418535529625,-0.40907708428701645,0.5602197403303993,0.5797675787936654,-0.8441755550973564,-1.458280958084655,-0.4231596996645735,-0.5118075200173092,-2.5714505238173615,-0.19573529338375148,0.13527548949355253,-1.007934079822806,-0.9180798195377612,0.7257069323151378,-1.2421985259831927,-0.17454214288798717,0.5562506815732841,1.271885646876869,2.5109093960009474,0.350394625155252,0.7552074315679255,-1.1289382751702313,0.3899667576913859,0.8604473712932311,0.17409173430569302,-1.1838578772239463,-0.27961139114594835,0.03257464878844996,-1.8211857077990965,-0.26377648979713836,1.7948619473695333,0.10837489862807752,1.218959863000145,0.2087290678887971,1.2382767972907558,-0.19020386227111166,0.03347632417254267,-0.23843188446665364,2.122246669123312,0.29572731539213026,-0.6558929207036976,0.5251839430004395,-1.02466984271849,0.2857896436204448,-1.277282440128196,-0.3596433027250141,1.1400156274048217,0.624199402070018,0.21957401150327271,0.9678544753484607,-1.0682014887924638,-0.6622566073961512,2.1735265521046494,-0.14717631327443975,1.1268472639411,-0.9787086219306707,-0.7263554612591634,1.5242856032500465,0.9790781057747944,0.6155280712588129,0.7210224628260847,-0.47236195997516445,-1.6841020201935015,2.163502302207316,-1.3901043377380247,-0.9438688571142274,-0.17601060516470524,-0.17923582280154787,-0.9506967753776063,-0.6263785891361323,0.5320045890494848,-0.8280029626079436,-0.24690696154626102,-0.19730586164204608,-1.0199143343109178,-0.9430060087536237,-1.6238735878318509,0.619824961997237,-0.05486143543831676,-0.026313500236482136,0.09293446842318526,0.5811300838768292,0.29640605827163746,0.49534139573763325,-0.5846036338299323,1.1424639495633933,1.6489374196063145,1.1156826906014305,-1.1508538546483582,1.8936794879512084,-0.7185029912184399,-1.4197400260581015,0.38789455177243215,-0.8796790482059635,-0.49485195215092004,0.9798300858986219,-0.42942212693512033,0.3485232933741504,0.5454333920656862,-0.16715056202133033,-0.773183445074153,0.2173497343734858,-1.430758569398376,1.8653394367362792,0.13761359833068718,-0.7207917704045176,1.9694136340955042,-0.3429853425322623,-0.18674717119384743,-0.19774177559762157,0.14331967291684053,-0.1565511086261564,-0.46771434255817573,1.2444760443514769,1.2069203259635695,0.934371156072719,0.5452419010487657,0.4938979745355843,0.2598762602915346,-1.4172226069704785,-0.7019647812393786,0.04671575151836611,0.5570132299182903,-0.34569803130348314,0.24717486574041772,0.10686037428295823,-0.9328270150360942,-0.19892804339430545,1.1118364505290312,-0.6608799687270835,-2.201251167703583,2.2504030713838303,-0.8237478150546684,0.07679402892837657,0.6434865668492844,0.22961874737579888,1.1100586415703593,0.002424961478178789,-0.5085525699550503,1.7176915954626553,0.5451540343903,1.0188014928466813,-0.0714533679232191,1.4562262403143096,-0.9951603385638667,-1.0163676820452763,1.0512239416346993,-0.09616394850749926,-0.14145793447425473,0.8213020681611081,0.0613418990937837,1.2243456798889458,-0.5632556841951285,0.056201014112392325,-0.6488593139782752,-1.1662475694817271,1.1090410275779847,-0.18524584805118688,0.08720319226250858,-0.3899096549201386,1.3434355879972921,0.6281802987009488,-1.0370055529145903,-0.6730314406836687,-0.7528679706343859,0.7699970266546543,2.3168306842875475,1.0360280296012434,1.3322751021096397,-0.03429878681795606,-0.2560335155798994,-1.0511982465976348,0.012635612962180395,0.7682831175634243,1.4263134736994,-0.8713768730235365,-0.9145087123382827,0.4538577809410978,-0.12787192948790918,0.6651280769128092,0.5378631391060164,-0.3597482259832254,-0.5777072183585708,1.0004450049527214,-0.004905351985956155,1.1165485392467474,-0.33116904846498135,0.21094429546225774,0.8820713089744586,0.16279563185890739,-1.6509562940452687,1.3639924164851582,-0.06112676096606216,0.24753127177056858,-0.0038872459317214484,-1.2909179479157395,-0.011780459813382526,0.7992575436554784,0.7240557994489898,-0.37497945105878255,-1.3326564008928161,0.8202350691244382,1.497910711735842,-0.5235173974030188,0.9139305190764473,0.8088798467552877,-0.1151775077458142,-0.9697626327942271,-1.91894059391418,-0.40139705179591123,1.1449730300971048,-0.8329114608512711,-0.44576654857095177,-1.0157805476129012,1.0463739806567576,1.3095926392397559,1.2221898418917814,-0.1523038270748293,0.5205688893301617,0.10566561500086433,-0.7130834674182699,1.0148293366178183,-0.17049556487776532,-2.0162717246531896,-0.5622650152940192,-1.239202601309302,0.8152620850165807,0.5138091201514663,-0.20493182102545696,0.41253104530381507,0.5732737047908627,-1.619077225326031,-1.2078820683229767,0.08919613897661816,0.25102660525583503,-0.07133777389579676,-0.5130480724903339,1.726265595108999,-1.5030139977745403,-0.1236999779930561,1.146150904254962,0.0824638641421626,-0.5094698607725748,-0.5243648970232346,1.020958130530146,-0.7622963659868615,0.5544131853014771,-0.41878376377312254,-1.267585575180013,0.7833444923942119,-0.8405700234890218,2.1986610997627607,0.7234706174657275,0.7777240688251654,0.10577874686247937,-1.836650341535925,1.2827820823744691,-0.23522485808327212,-0.3261593901075632,0.6598932109896473,-1.526356221242607,0.3894337326051524,0.5338713572797118,1.224243262142293,1.4304717828296014,-1.0958083412135984,0.021170812981258495,-0.12792054633239444,-1.6250987094864746,-0.7802315738641435,-0.18877188347025634,-0.23815548122421878,-0.6786191823851997,-0.6850134942805144,1.125013425990784,0.3720489466021459,-0.5945144374007463,-1.8505302660083836,-0.2782784079788801,1.211487268016943,-1.2109499661635663,0.7316573270852009,1.113162586133298,-0.41400977247063325,-0.18091663973149538,0.6433477928609709,-1.1735314718353627,0.2367466277380446,1.2440932685779327,-0.4908977653120066,-1.029354311394188,-0.2332619229219661,0.6146785195617552,0.8967109459903061,1.0677886612487772,0.4015357095231772,-1.0155502636301645,0.4639817915466951,-0.1803896407535193,-0.2894343986658097,-0.36732925593093385,-1.293686880024736,-0.4338392861308313,0.6475151760908819,0.361846651151385,-0.3442525894620736,-0.628921509841755,0.7669009599376811,0.6572465080932136,0.10454813729179184,-1.4921556086183747,1.47194892404402,1.4778512041301597,-0.4198792581751184,-1.6397562745352625,-0.17882081911591136,0.6134504924712406,-0.24730059473701843,0.9563963389101724,1.2780448267688511,-1.4447700853317715,-0.44596154596465737,-1.0714067075550695,-1.0327445336908447,-0.09899356730200225,0.026794462517194292,0.644428258683145,-0.8755987393147339,-0.19163748458422725,0.8638454268070566,0.46970578082604425,0.5768493842809096,-0.5975321991929117,-0.391292585554236,-0.9843361832793998,0.08143044877824075,-1.7489885358694783,-0.3476077456203686,2.2201169952425674,-1.497201765338853,-1.4095144403979565,0.2483489113994604,-0.5034567667037658,0.06578786948084599,0.08095752458958362,-0.026282893254373777,0.5072604479575338,1.0166246137875563,0.07718227803895936,1.7627046047748094,-1.7856500894927363,0.29290872654802735,0.42970873243945695,-0.8253818080767783,-0.30533968023278424,0.9962675744099824,2.1074405088895314,-0.6237995941059978,1.4657994807036063,-2.106225974372384,-1.1656752849732697,-0.5842542795989881,-0.5953685308339227,0.31794428615174836,0.02678732836512186,-1.5377834608165561,-1.5536442451721062,2.018196759045964,-0.30622904707341725,1.1171294826837865,1.2610314378329635,-0.25830678684169533,0.006138110671265688,-1.0635884266450486,0.6398363078592555,-0.18185391437974827,0.01488490132118398,0.7954079130664771,0.07786453117105945,-0.2168333946221896,3.142285245623581,0.030247596812512486,0.7967823932514642,-0.10614569138266565,0.5499708923929418,-2.4983858273048134,1.9162966401043557,0.9994492459533026,-0.2765996023178544,0.682819344056239,-1.5395516194296162,-0.49342124106163127,-0.5096114384557754,0.05082156260353898,1.3383797302873393,-0.1066548081446161,1.5606876202473452,0.5636296057820148,-1.0118930880790944,-0.28674454759898066,-0.1539993033682832,0.19655080237809383,0.5703714998922834,-0.9146281030709392,-0.9412464530456035,0.11520679054307537,-2.692237406149413,-1.1468105653689138,-0.9068890871677987,0.5875510532498767,1.5114929689796965,0.9547802703149378,1.1029417178370793,-0.2490753174784327,0.7812372721542247,1.7151548820073041,-1.762288434401247,0.2514344697939107,-0.21566904308577106,2.608053192481375,0.7188266339342155,-1.0447350747800896,-0.575017807019502,0.5517060607715594,0.25055552944175835,-1.0639230659409686,1.0042044398881251,-1.7243817699813389,-0.8330669969134168,-0.6938475775886354,-0.03483201059763289,0.666324819673245,0.09204383257286262,0.06330273349429674,0.4581349292564862,-1.1912556175956712,-1.3655180783276162,0.7725883067147156,-0.7228077475467503,-0.26113369711057277,-0.4589276245789325,0.018170007560318703,1.7358590099406745,0.005189421366238552,-1.219966266576632,0.088461571818816,1.0678870583654871,-0.4451747441192295,1.2501837877755944,-1.018052629834973,-0.2868071129585637,1.6391515300318087,0.9824500392031151,2.3667054055368304,0.01746902376531833,0.5663348998267674,-1.2347548417983047,1.2353374345027965,0.04837262938435985,1.0144261456210697,0.8906601901764708,-0.32497734305735637,-0.8785992838248157,-2.1218395200156395,1.0723623664740087,-0.9852060603186993,-1.5175973348591403,-0.5457878452289583,-0.07662416259028544,-0.28770711515649877,1.200210890668411,1.8449163309455268,0.06443604991915854,-1.0042484289598954,-0.5902855970827229,0.08869213702858716,0.009829429431207919,-0.7365846291749406,0.06630076256429429,0.9906814373421532,0.828384569810164,-0.2984707035308102,-0.10060600249949493,0.781145045634941,-1.2917227805195444,-1.0053821093682056,-1.7737250061336043,-0.6918265318264755,-1.0357202216420038,1.0191475260077745,-1.2400825000466373,0.4931891269647852,-1.3243853116824165,0.8992211834786392,-0.3881085662862929,0.304606334892573,-0.2768365040390951,1.628263874608551,0.2780362825509571,-0.9840461031178634,-0.7688230087090762,-0.11680039495823083,-0.5378060127439185,0.10627122770337796,-0.8057453403104794,0.5716004051570799,0.1914774750917279,1.654728339757194,-0.23881799483836505,-0.9777008253360796,0.14715328103546382,1.133294800281836,-0.37899579963285474,0.2448994841346763,0.4669047970492469,-0.6770890168812665,0.08261435040823341,-0.5031186483995709,0.07178190230228529,-0.5949321834562914,0.5446580267208483,-0.19777513035624528,1.4642364793241878,0.3122404877755011,-0.5255168160755905,2.16536908621056,1.5368003885709245,1.8863406456975083,0.4215427085840449,1.6328682665115568,0.5113260340689708,-0.7094207527436526,0.44471716588745847,-1.0587047791587083,-1.024972967493143,-1.4084566952619442,-0.8174139126197952,1.6187429251674839,-1.8798812277010348,0.3492826522324183,1.5466213893844178,1.5353235515361574,0.18641162718736654,-1.0740223199480972,-0.13790101453385964,0.7002663500694543,-1.7032604554541417,0.3100889885099,-0.44726032879165506,-0.7253026280497213,0.5125136629357399,-0.8224738254202936,2.468639461078137,1.0258876611066925,-1.9667775343473233,0.5290379001966111,1.1573386917103528,-0.3177793449773367,0.44455116348209117,1.4520678897548907,-0.7822083504769731,1.24236950094887,1.5160376856196802,1.5799330496596031,-0.6936761052616928,0.2239811202768952,-0.03308894563687342,-0.8839998070243753,-1.0621076958679285,0.332629405983191,1.2022359754772738,-0.326709907919076,-0.08534402263699963,-3.0364552335136823,1.4863433767057117,-0.24784300225598715,0.9619267959900181,0.801964384061863,-1.5076100986218897,0.8651510436916447,-0.41948108638004594,-0.5217165440403547,-1.5730457409336058,2.1479025014695026,0.1549112327541695,0.4445875885599166,0.5408701961422441,-0.6180428220571299,0.017822854614291454,-1.4714407209852434,-0.5518223017165618,-1.7426006463538766,0.30524109851041864,1.1133124409321387,0.5783605691160342,1.209785680149009,-2.922073563131566,-0.6695554650375787,2.089918814062861,-0.627677474633109,0.18842042611240645,-0.5222689349000713,-0.14355577461184313,1.1654590663884963,-0.062294801671427986,1.6196558389870341,-0.17273093391967273,1.3549034110100469,-0.3556818486111018,-1.3443823105328265,-2.739425171007274,-1.5722543105359206,-1.7818583376803645,1.4950679267008442,-1.6409048228864436,1.0011323292044674,0.427012965164258,0.38303593813087794,1.8775364117331852,-1.9581727608280926,-0.2803980295644193,-2.082236689877654,-0.07298174822886903,-2.332092174502945,0.4468994871650838,1.5022226137637555,1.2988108568825998,0.43142993658978707,0.06851890996160766,0.03297782128649614,-0.3311589148918399,-0.3525940253040982,0.7389874375879196,0.9059043296095193,-0.27293555896533384,1.8909978323575969,-0.6495536359165369,1.1027251023579225,-1.9522772679377125,-0.48117699933232017,-0.4751969250568311,1.8840532644874814,-0.403219930670473,1.0601357619907033,1.7287719946432665,-0.5267598814968307,0.5581376351064081,1.577458234976554,-1.4530398985250181,0.4689832269250279,0.8873806007630586,0.8264920136485117,-0.12318159043809343,0.07141510372814026,0.9544696997089416,-1.3648038153655861,-1.4448260321193451,0.2044075031558295,-0.1465292340155739,-1.9841582695979143,1.5272522171804381,-1.10056125840888,-0.7404473735868115,0.8641412323478035,0.6157879390113012,1.821519104427737,0.27344571375111587,0.48188380023166477,-1.3744727148118336,2.2016875635878126,-1.351524074253346,0.13119989891005196,0.0939905602439717,0.8223836954633978,0.6429473319042376,-0.40033088444212167,-0.5031181517240527,0.7492610660016367,0.8719931564885688,0.4822314971260442,2.109588745993824,0.43576232115191155,-1.1196010924893598,0.15742502345663126,-0.04079041233541175,-0.37653075365942534,-1.3012265983664466,-0.08915896648249107,0.23510144724765655,0.7455389476365506,0.034843175977996445,-0.10583756703255166,0.36013011950694096,1.7289565175156685,-0.39451635532814194,-0.5568969221690614,-0.3294210273326351,-0.7728778386427375,-0.2795156476776649,-1.3307735554556146,0.6756608265556769,0.163499574071062,2.0049261216246945,-0.18589035263766077,-0.8616171536415693,1.2200789591453474,-1.328304343100917,-0.15912372243793896,-0.9217596953992454,1.3616156854528534,0.24554688595457036,0.9774691959450132,2.0474480118481004,0.2222544952149693,-1.3411568562797473,-0.33290264911476075,1.698105044054946,-0.3358203752037486,-1.1385446337325063,-0.8357376358881851,-1.2706090111737525,0.16984947552499874,0.0075954236522132405,-1.0462653023212805,-1.3157027839894875,-0.9842570963924855,1.1626548443376248,0.5038075037479709,0.3124496883496934,-1.9503433765162448,-1.7323556369204725,0.4550876362306255,1.3229972229703886,1.306787702303333,1.6451679413534572,-0.5954070231806589,1.719154641195291,-0.597917749543417,1.0979538987553916,-0.9909254246191801,0.6356934714389074,-0.4061360608907074,-0.9444744120712659,-0.071237275369412,-1.0619322465433725,1.0305925540091743,0.6523705886396701,0.794041711261462,0.636498252977419,-1.6317208985050855,-0.8505968251852141,1.8068241237054552,0.3190123662270587,-1.8534000733923044,1.4373687073165595,-0.9161323737341089,2.1403322446660247,-0.04328296075967301,-0.020193078715188547,0.27213147670504834,-1.5592389736929748,1.5577265990546,0.317316713443977,0.730576749633405,0.12629029291032354,-0.31960366149007147,0.1553761520692181,0.6415757137899156,-0.19075690463867295,1.3725098929277555,-0.9801921219542291,-1.1338206453955708,2.153318484125999,-1.1619598326705094,0.35655331785233046,0.8202268488103474,-0.9229911034380867,-0.7110044456557133,-1.8855464606412575,-1.069368340819254,0.2352201798787728,0.7168934074661869,0.6977136745815848,-0.8095519974386803,-0.06939131000440751,-1.9133653763709109,0.09224272889028307,1.776032809485096,-0.2835333811286841,2.202023145879775,-2.60098826764204,0.30841027447781366,0.5630876258240884,-0.9887600755821985,-0.26248886831271195,0.3769595700988854,0.3719978712082767,-0.4650152113910816,0.69989188330925,-1.8984443219148743,2.3774352395420757,-1.5643240501082007,-1.123259600412926,1.0368179474050334,0.8788208735131074,1.0555244387748637,-0.14539880011903786,-1.067467710434518,-0.8003204576464031,0.0669977416538975,-2.573131945747694,0.1558960220204791,-1.0326128097172882,-0.12364546727028089,-2.4492606579956626,-0.20930811108813702,-0.007333651635577376,-1.0389386623258055,-0.38433346994412143,-1.5294839570607643,-1.108096460921858,-0.6358138023656593,0.8760758261221092,-0.27050555799757864,-0.6473409897254294,-3.532314717677607,0.261485892329151,0.17061134753930463,-0.7926956118291019,-0.8504567508448445,0.20493631502819523,0.016173551492841273,-1.0961702023969992,-1.5567833462282772,-0.3409851764006378,-0.1626526837057011,-0.9588375181947142,-1.1002970359072997,1.6388448884773368,-1.6365000041175157,-0.8982877524789433,0.9754652753471404,0.2803242439236923,0.22797783406220135,-0.42865023579859746,0.5929386284493351,0.5647465240307075,-0.055126080926131374,-2.046041474879561,0.5678340347148062,-0.10068900639943877,0.7167091705807581,-1.8719296031243615,0.3513045230016178,0.49201744354378446,-0.20159615918996895,-2.6860767490454416,0.34713736051041805,0.45468436286305214,-0.7186125959853963,-0.8750890194907697,-0.9565077065574187,-0.06381869566233879,-0.6803187423057367,0.060689068651017725,1.167399697807964,-1.4597350348544527,-0.10490645764097825,-0.8770402859062215,-2.0848169701899724,1.0735228023354797,0.02290570044115976,0.35819327693934233,-0.7166207216652155,-0.03201532458237308,-0.8086082582054639,-0.14230949854737818,-1.5242717695496946,-1.9970226244725806,0.1834999882483122,1.3724430530177771,0.8323691757721857,1.701927773525609,0.42729535262250173,-0.21652722457363863,-0.9102169215460804,0.3737308180031892,-0.7009818768835113,0.9053722983095908,2.7505562186505585,0.09232108593589218,0.7721158685365683,-3.0009004140048297,-0.666338370910442,1.5338272460740507,0.7202510189591658,0.8034403408192999,-0.451935251260939,-0.4809799857114451,-0.21879172241437167,-0.6227742806164586,-1.8427024990879208,-1.3412672145302456,-0.5376404489328017,1.4065680506472045,-0.048653447285157164,-1.007777569294049,2.2696339911043957,0.8691185429592289,-1.640008289336473,0.6214728721923143,0.15659148169246867,0.4983535990349889,-0.03268272595568037,0.9024454026655987,-0.31676818634841025,0.7014786674669341,1.6114937175770185,-0.9128067584770599,0.9099495228030239,-0.26010190707596603,-0.25066313570961063,-0.29497992425400893,-1.607271760069776,-0.20330284248498956,-1.1820335742031343,-0.5653030093073992,0.6740068943415817,0.19549497629332394,0.8890323990457617,0.5806079822147123,0.4314031747025756,0.4412671968399361,0.0010920900189516068,-0.060647031869316685,-1.2908985308557654,0.9004295051541543,-0.09975367204238003,-1.2363656542542614,-0.17854782479344694,2.0124265018086067,-0.4599237235447978,0.4138136302172039,-0.5139106134659297,-0.16860859977015524,0.18642183212397478,0.39910208213600373,0.6326124857461382,-0.8457195628622616,-0.613864766477562,1.6469125630805532,-0.29216386623233964,0.4131502132224484,-0.7243915310484275,-0.9231764792146803,-2.2320206797080067,0.9597187811684166,0.47973684296963415,0.11182262669313157,0.5577265881861541,-0.05365147811610509,0.6862263283227169,0.833756114326425,-0.5995055092700594,-0.1895334656365558,-0.33230586982876165,0.46880807799708824,1.3162230238936397,-0.5773731453672742,0.8401822852671976,-0.04015849799859677,2.4916325245400133,-0.10960515109875806,-1.4377486754768865,1.0065537726623701,0.9470164234921068,-0.5392913242743791,-1.9533395978701404,0.34675842280318575,-0.19703396265968817,-0.4097946340456566,0.33843972037328635,0.02909062774107245,-0.6238529044297328,1.2054143332853295,-0.48084873365876424,-0.8141481077901686,-0.38379032153751175,0.2704981897956304,-0.39970237134586334,0.27074252260485043,0.32202795136494433,-1.2587525875079715,0.282805322318891,-1.068679783691012,-0.6736159816631947,-0.6419617296354257,-0.6820995960407563,-1.562134461649225,0.31217548477807566,-0.13124408101592458,-0.3570251046077506,-0.8121337833462888,0.45462838772044584,1.4784680978002962,-1.9358514976292351,-0.0016497011151857637,0.9078920696173043,0.6179095608199042,0.07162540629192916,-0.4118905564076976,1.197738966251862,0.9331534163973542,1.533269725585781,1.2538042571903334,0.19535200053405494,0.48573542563438843,0.23420936785648605,-0.41670950429846604,-0.032228364556498225,-1.032698303464277,0.6047995209595864,0.21164956591728737,-0.6742837747549414,-0.37515562420478016,0.37962957602114505,-0.9895515855132744,0.6108709490164236,1.7065998502172866,2.456976507069932,0.21118840235750244,-1.4015538707222168,-1.67714612479742,0.24953557635352014,0.6826362388074739,0.38981387646587035,0.8369224745416876,0.4110351002516096,0.3894110022711487,-0.9612488647519877,0.32892165091904363,-1.1001084157931136,0.26123217756377615,0.7257432654721052,-0.18447515981987833,-0.4377464149874255,0.968771910213418,0.05489163724572162,0.7571590498027273,-1.282797903564153,-2.066629175516916,-1.484817217055968,1.1671175018772748,0.7913540499738849,0.8249498962913178,0.2969913506505738,1.4270484052023649,-0.8676609476241746,0.4691855746152219,-0.5772536216612607,-1.041206111323412,1.153005929313976,-0.6969540380257243,-0.05684719171114485,-0.5546350092462663,-0.8972231527049929,1.760187363791778,-0.00887587441942089,0.37857274518595485,-0.5018415727310509,-1.0276220197705677,-0.2982775822381403,0.8383010730876639,0.16707729864720777,1.357999461094413,-0.12470920089756712,0.10695163688378208,0.4634292593428503,1.2964406745375314,-0.4699624907822473,-0.8345655999286313,0.10773925775785,0.45306330294660113,0.8999943203889451,-2.325353032731025,-1.6543027047348937,-1.3862279800926174,1.308743351831829,0.9317461746627609,-2.28367835902987,0.5281728607142289,0.16407383863398256,-0.6309837397206279,0.030354080748776005,2.36630343486289,0.7619068666503455,1.7993715651216082,0.9886387179587145,1.0277451714667067,-0.2011286474746658,2.274918006523336,-1.422461096852883,0.9002498725181933,-0.5766621855794501,-2.0614060419146245,1.3375065434434679,-0.4819828093539528,-1.217418006471987,-0.34638444363266513,-0.5072885077078362,1.1419684775495633,1.365982769782864,-0.13223982740089912,0.5473744306503973,0.7354405636629615,-0.7535830793582052,-0.22331872088256136,-0.9847239321041893,-0.041108407425325656,-0.46146944469097734,-1.0028412744979807,-1.7645663084427634,-1.5037020219769424,-1.1790907631839695,-0.022057462643127412,0.7435728421086018,1.9115328865112469,0.4417788177690017,0.8967981842658986,0.3315830370861535,1.1120981500551539,-0.06617776466200621,-1.0518368310820445,-0.36367373703588896,-0.604172737574391,0.8258956105582492,0.7223656462686115,1.5957364801901335,0.22639065705951017,1.132460883929395,-1.6638331970021931,1.9503057875959193,-0.20659274908080433,-0.22875698806405545,0.5632715823135803,1.0053522393224046,0.7018049274862426,1.4990877308630197,-0.6765936066691512,0.8187848078531113,0.5148696166736161,1.210432285077218,-1.8207124539875932,-0.5193611904384651,0.6045773223207244,1.1983666577722107,-1.4104681876371636,1.1036953477467277,-0.3084297232576738,-0.34097983198352383,-0.21696464351824413,0.11878211536374182,0.6298239532296435,1.4510861102458879,0.6048339935116842,-0.9924116707229187,1.4047829279761932,1.506353481992907,1.4670497815076389,-0.19115956189787323,-0.7244231508302014,-1.1084740618555775,1.371520564435223,-0.7098262388513139,0.39648953688289,-1.138633223488887,-1.0015796905379273,-0.28565795514706366,0.8231514956155819,-0.5086305596808168,0.6319960355288945,-1.127032665735471,0.7287279721831329,1.0299111145981878,-1.4810036176394241,-0.39940679404422413,-0.11829249306093538,2.413235022131207,-0.9335613326555697,1.0634077283367391,-0.280390646396357,1.7085424649030128,-0.48238784435601967,-0.06678904524489436,-0.33169156238705166,-0.4143845391747417,1.8159578566105716,-0.9482046931297297,0.19370120909267524,-0.44846252101399775,-0.1038275491992658,-0.47448650548629645,0.400184612874605,0.2636090031973079,-0.4832623919547251,1.7473001940594193,-0.627174173299019,-0.7449848236062917,0.8514893995849244,-1.5430932464020632,-0.15194670949498865,1.2468815368405097,0.7332973442200729,0.5700651112116085,1.9901059336036018,0.03329033107130274,0.5813939307870909,-0.6956195405723641,-1.327024017563887,0.8391301957206693,0.00888148593294062,-0.1928266273133758,-0.4121262387916701,1.44484390567914,1.0049890118681082,0.06983456055863785,-0.04967822428421981,-0.507082557298366,-0.9889361783139328,0.16828302801580394,1.6131962351421063,0.2294360552112394,-0.16167889554801734,-0.27080254018696465,-0.3305543643853828,0.9014406639567231,0.12027289920581458,0.3351349114874058,-0.3838324684167282,-0.08703036161305443,0.9979357098810961,-0.27737180870435785,0.9301308951537448,0.4255754344357556,0.03377538171543582,-0.1396618880378944,0.5387023183015025,-1.7157271033739312,2.0981068826490623,-0.5910868935616477,0.570157230381462,0.6434263041348387,-1.0532354532303814,-0.2588183412243162,0.9994071479160861,-1.763736359978139,-0.2151571206418539,-0.506946678315381,-1.4804099182799806,-1.093150104524631,-0.005107198873397301,1.615081440951265,-0.10766977993825702,-0.5060942240868315,-0.05881265925158328,1.404820720516439,0.9995329892792248,0.18343897596625985,0.2824979421811077,1.6924866788789885,-0.5489942819060817,0.3816339840577369,0.2434159296657218,-0.29522239978793985,2.0821063602893846,0.4698307167536857,2.0083702026713954,-0.692155708073081,0.29087402931717976,-1.2572970722401962,-1.0529555661727759,-0.8882248196784377,-0.9314089050969779,1.0072761557948218,1.0312348084642828,1.3299578389477407,2.91320799282318,0.68335806233814,0.3321039388284177,0.17436939624295777,-0.19571042838104138,1.287799232076049,-0.4273131640269745,-2.146798537064925,1.4695682621427737,-1.424248254586179,-1.928903983916506,2.339633679705217,-0.932007134294015,1.3520261994002576,-0.7491009967707962,0.6452888511041248,0.1122516356361995,0.104428311016937,0.4286950619899102,0.17624486576209988,-0.5474599064496342,-0.1345839715218584,0.28084684117620484,0.09004666774441707,-0.5349155106885725,-0.7397537139274545,-0.4151141073531537,0.2254542857795705,0.24081462801209955,-0.3283814721969132,-0.41248161234995406,0.42451978032968013,-0.2478651730870116,-0.5201134625575979,0.7646991781209682,-0.6685973266064165,-0.04998024779426218,1.2944732071989606,-0.8606845715016088,0.2287987980680851,-0.30805022781796687,0.3219636170395265,-0.8658301918037615,-0.4632871727398596,-2.4740125258807018,-1.3380721445578683,-2.173016943155588,0.3236614680509811,-2.684149470680467,-0.127849489574599,0.18909348120470773,-0.2760871556670687,0.9075052869007195,0.42208784687562567,-0.39642989579380644,-0.3161651721854439,-1.5669226355244736,0.7826857873312741,-2.2828441975782208,-0.24183455904569748,0.6667976393241247,1.6948170641410027,1.1107982348780623,0.8994080154004023,1.4780451324837667,-0.07420086396547267,-1.9947844515910713,-1.1588380677363208,-0.6912232716659511,2.2903930900335854,-0.21993608196689363,0.7418148318926376,0.38364476931220026,1.3867621356009658,-0.039154569694421174,0.7005375858664397,0.8217253243621478,0.6689667953677604,-1.4477481004529529,-1.0070400564099968,-0.005456810777338302,-0.9188604823360623,2.0344596596375237,0.19478369021908587,0.8472544325590928,0.5854180553214763,-1.4873269593624836,0.2900520897047141,0.6355702734744764,0.36526131790538136,-1.46256228398114,-1.2720031529397369,0.8104990570418584,3.0924161004719206,-0.7208463661003008,1.9550145774366754,-0.8549655912109069,0.29965633896385563,0.15874678987045754,0.8904337471605998,0.35992169493115994,0.7651791112543876,-1.8254428386070922,1.2129398956284427,0.31907732105606357,0.2926036024907015,-1.105053394079393,-0.20541842770517507,1.4467381626592273,0.223952002161534,-2.736629320670213,-1.454333819608838,-0.3648931742021871,1.738971072733053,1.127292596296972,2.0478966431039605,0.7312971617927685,-0.7627956827008486,-1.6227570100652753,0.5320345862283746,0.00869030641550355,0.6798957748807875,0.30051553468616515,0.164253786314689,0.6150774694911139,-0.2714287010861535,-1.076289801584971,-0.40501972363933214,-0.06946479041861063,-0.12176991822844517,-0.03747397374147466,-0.13390728945750677,0.5117106192989548,0.13186154269714992,-0.21622070933753815,-1.7978400937125776,2.1851569539783413,-1.1108376159718505,-1.6433470361303277,0.7158899757038365,0.5920925150651064,-0.933655103606714,0.23594997483804808,-0.12709317909124207,1.4373165911009114,1.5475741969048766,0.7700842451113585,0.7770965323565738,0.5203662694820236,0.8381298610754343,0.7528717798663364,0.2501817208938814,-0.2954837561676084,-0.597644758353286,0.00499470906503249,-0.3258961863734297,-1.084424615623047,1.8813313034879882,0.4591053517478999,-0.24491688406511264,-0.7858289138290752,0.5124131053755616,-2.014860761509343,-1.3631625063699133,0.15588686281108538,0.4231089534447983,-0.8419848512689857,0.7255645647921212,0.6868614614317575,-0.2199619905204902,-0.16063395613246972,-1.1175902944396547,0.03646471432781565,-1.423438014357418,0.6216537979782248,-0.10899213714152882,-0.3297454780491428,1.5080628699596026,0.01067092253712062,-0.38692668253820334,-0.05222280681377004,-0.23772252137974326,1.0517282856604062,0.4066930948352295,0.9743323605735117,-1.9105570478774845,-0.7733917687375189,-0.712263791850394,-0.2543129032663751,-0.0919725627399776,-1.606191892939736,-1.444999217029568,0.9385651894898792,-0.3375078920633272,1.4296022306825975,0.2833612457317753,-1.0223284955689473,-0.7774020105297912,1.0896192710497332,1.2260372103289612,0.22956568679915418,1.0586985479722855,-0.43582818778206733,1.2620446187816279,-0.26979729255248586,-0.7005276559970743,0.28639127104210804,1.7161776932882884,-1.635866687564212,-0.17571489137433147,0.9132233463989468,0.34480717793541044,-0.9249760791425199,-0.45885597250514065,0.8113199200638412,-0.9948945306547198,-0.639765554355113,0.8460837371405205,-0.6715957448830072,1.3158941961092163,0.8928823950855147,-0.5122779863016763,-0.4260483267004026,0.5101085019642467,0.03317601410471851,1.3976527299125023,-0.03196928402908376,1.4170778569635576,-1.2425306447183437,-0.41570484810701464,-1.632611607262208,1.0326300857933073,1.8039153343122631,0.017169117107247733,0.6624096326869005,-0.7376584163426224,1.4047335998966517,-0.4517468568080431,1.2210656667551918,0.38019439913122405,-1.5186738785054703,-0.8566018366921159,-0.7306410801725628,-0.13833690923717998,0.6074560573349069,-2.7952019646601998,0.2657251364541086,-0.3243838583757532,-1.3870429728751026,-0.3372399770074441,0.7482935354090103,0.1792172732563383,0.7140166847283024,-0.2729969927968249,-1.5494051230106032,0.6847703458040428,-0.6928378810585455,-0.40927464641272493,-0.5439483918178205,-1.075753496027418,2.8737811732839256,1.0945970245501226,-1.2483213193765554,2.076207837003413,0.7846385652168464,0.808787838381956,0.9504126973701127,1.4135007160851205,-0.21579899799637617,-0.384407563215083,0.21347866453998968,-0.10609659729236988,1.1969131388899679,-1.0309466256205286,1.0318595799953296,0.9948077870891808,-0.4070684317255772,-0.7636327576958188,-0.9458683913793601,0.6968820724626278,0.7775652020702296,1.7086323005853659,1.3013251751030188,0.59163166714281,-1.44855395165324,-1.2029046547625302,-0.2881295526863372,1.4777875619973768,0.34847615300462265,-0.23770452159830613,1.4611486107217533,1.8091162320144494,-0.20334102533106338,0.9404584993990966,1.2162063472603446,-0.2956513943579614,-1.066571478469838,1.0222602337981384,0.278270170863682,-0.9960565575431788,-0.042470516647438505,-0.2640133623671462,2.2960307335321124,0.8921263551546746,1.0188861021010525,0.05541895186341487,0.8134400297189602,-0.33715838186352015,1.0360271559277605,0.356435771475957,-0.2730635490466623,-0.5352220269032318,-0.4044442007048087,-1.2149180301733316,0.5458933805770594,-0.7258278259921803,1.4750845410201738,0.346608388532596,-1.192451998681779,-0.19859728948511668,-0.08652131540815297,0.45892175272628866,0.4686855027900717,-1.9766655794618353,-0.880961281354264,0.4431650050800289,0.5534949259114832,-0.860024064443129,1.363923022174547,-1.6087651683879343,1.7517246381883533,0.7546250969982946,-0.4626853642454928,-0.0500218809219558,-1.100890569704677,-0.016635530377966785,1.0124138551086843,-0.19693629059997794,-0.8185553934861963,0.4661482335017795,-0.40683479650351106,1.1552832045547259,0.1378850147569721,-1.5492225850143166,-0.2838623028415518,1.8108013074072877,0.14781250402024929,1.0241317338146232,1.6025439173099627,-0.3159214351359361,0.14166588907950062,0.48667290938341323,-0.18652312680344227,0.5312346384138955,-0.5671783120208918,0.2521021952472954,0.45521223542204003,-0.8016767524056374,-0.49915276121799673,-1.2911495465689207,1.88008539191509,1.4933392598333548,0.4652761818488295,-0.04450422619311621,0.49300624553495537,-1.1427444500841442,-0.27060924662279007,-0.3885440634652634,-0.7093972215080363,0.5073408670959921,-1.4160406627737354,-0.27082960316425625,0.7664630160970719,1.0126146956008317,-0.13062341085537812,-1.0969957308326954,-0.808951119529197,1.7563664097265366,1.3476298946078502,-0.5189854325164723,0.35113018720511935,-1.1533192749009542,-0.7197291330738049,0.3950147417094635,0.6239258714595393,0.12303980188077268,0.29212658586095747,-0.3193483151544582,0.27102244056837504,0.7542711250223456,0.3136831534800684,-1.257727325389921,-0.503742503972869,0.6921474034422859,-1.418315077688482,-1.1517238528186753,1.2705530847116318,0.9517622258314298,-0.88920790945117,-0.5635763437279009,-0.6916503211508345,0.5226700304767395,1.431448610501345,0.7087934964259329,-0.48972273981714176,-0.7892614643687915,0.4268981982420253,0.798990473362837,-1.156978385924594,-1.4406661959622424,0.18280032203158392,-0.8270251760989759,-0.9753605463675064,-0.9156450716665177,0.40425757385972555,-1.2717515861825166,-2.2709420736249113,-0.05616833982778642,0.6796252624955031,0.11791829435882499,-0.8836842226915815,-0.08321205764544395,-2.1049439874458913,-0.8615582561372209,1.2043849365370358,-1.340500643658302,0.783738363011142,0.4133114248013381,0.09710421500526667,-0.1490557814999769,0.35714963092628926,-0.2772623679672072,1.6037945947586558,-1.100398750377418,-0.9584814867220449,0.7077933700002076,-0.08627710190842859,-0.3269853619077762,-0.6092493098902823,-0.26092538570768586,-0.41726720378859533,-1.2716914158644692,0.25272687701961655,0.005053094090647993,-1.626522625937134,-0.46496448191576345,-0.9129498960383019,-0.5242558888409007,1.0762243224001906,-1.7610383111900147,0.6614066605286749,-0.3048730680295972,-1.0659732605562326,0.7229455649648542,-1.2941193343630806,0.1422158510780287,1.040913631928211,1.032887662339734,0.7387977708622017,-0.00861498533756347,0.7731982348605401,1.1014343563891993,-0.23373994647864774,-0.9324317695007317,1.2889427880965618,2.3200227089494416,1.7493042439777073,-0.7986840919479606,-0.734461555617575,-0.27439725708969726,-0.18964069936594594,-0.342040520120662,-0.09799849544308177,-0.6310244057607058,-0.09875981103147993,-0.422486227459092,0.07611282911119997,0.40209126129546335,-1.0779789153945527,0.8942065590582395,-0.5596313846825506,-0.00772777102272161,-1.5266175001102726,1.2543152241673003,0.5217650397188363,1.9876911157668788,-0.35236377553763043,-0.031483602321026406,0.09064802551351699,-1.9527345765901973,0.4894719594246508,1.3470866395450942,0.6686329210961716,0.6547341659431792,-2.236384148392539,-0.0011333786637454755,-0.8726616263673244,0.31372475802370026,-1.1574512015966685,-0.11226675397533434,-1.6549887089192747,-2.4176580841896174,-0.7829259216722892,-0.8032060481408018,-1.208171229144436,1.6678185409383022,-0.66316840041213,-0.1535927334100886,-0.41423951778487766,1.2969150813046963,-0.4209156976061288,-0.6330936888050722,-0.44518183966999386,-0.05370972566067039,-0.8252429422563324,0.37988302985519506,0.4866828040965226,0.6132550272826722,0.3460690145439104,-0.5029494958972629,-0.8610725514929097,-0.15048249507972383,-2.730772441020394,-0.20320444546080976,0.07388480287897783,-0.11245052783126915,-0.21771711681718406,-0.3494904690471976,2.352040824995843,-0.43309827107999666,0.625427186007311,0.2715666074357969,1.1217229795391286,-0.817485428381097,0.21137376693423077,2.0112798879722784,-1.3053569922820167,2.673551223391359,-2.221112650704961,0.4162819180432913,-1.192014517386422,-0.21540095822206706,0.033143121108604234,1.0943921558466034,-0.5796813341928421,0.21772750546665687,0.8357277371630962,0.44125123977039665,0.27731050619138525,-0.7524215290561643,0.010610909728811973,-0.5862440804053896,-0.7352696137938014,0.5676732883667176,-2.290676552989991,0.13631372733307007,-0.2077915712020976,0.6886552851273868,-0.7335392307193347,0.9646290852450123,0.3361594087811868,-0.1287041711189295,0.4536742713547389,-1.0348782160890584,-1.546624439227916,-0.7466752130028534,0.7751267689131458,-1.408426080170763,-1.745205334647501,0.47910305281605503,-1.2717841673848254,-0.20973015058499558,0.007759445210795875,-1.1686126286406502,-0.17078910544232803,-1.6419605131194606,-0.10800215152282738,1.3507574026680207,-0.23280111459300862,-0.2031645772322529,0.10457332135208729,0.9231475643610686,0.5353367396371416,-0.17574579764716758,-0.31531137805305465,-1.0103042488291565,0.7496934056113524,-2.882740466162719,0.24916414013056798,-0.16553103239892447,-1.050344628749324,0.4306494115470726,-0.9699633260172651,-0.7939155933832489,1.5981524831221439,-1.027742528666981,0.040530251468625524,-0.6776798453400485,1.3334361030876853,-0.806852602469042,2.1365981816399233,-0.11333889633470204,-0.035124480938093665,-0.6973604006189783,-0.708901464081861,-0.4636874104309901,0.8896522308451867,-0.48370368549149517,-0.025842132753262942,-1.7847659256287824,-0.2599020479179006,-0.6340752437011593,-1.3250102295768846,-1.707430561944796,-2.4143437724112036,0.8296047526033071,0.2711888805953369,0.6392813820186428,0.16644126175346405,0.6608211521454085,-0.606174741805655,-1.0369846585985554,-1.2003493045398788,1.1816350728293812,-1.4176647299184235,-0.14942547537630746,-0.6996220306256565,1.4325495613203327,-0.09022599753482956,-0.18508667551195893,1.8979878651626605,0.8925169724240444,1.8967738265843188,0.31099773047563384,-1.6197046328093627,-0.973933957234032,-0.721175117561917,0.2145843958545561,-0.7479316791502755,1.6921525784626605,0.4422624881062285,0.7284608211206349,0.10187202528764619,1.3317799210189132,-0.4979289986785158,-1.373280427733265,-1.2209481211968964,0.4182645422292425,0.5343378977017607,-1.2006324325617639,-0.36157424887212436,-0.3455581952389918,0.3441183683818576,-1.0811247457506095,0.669498522394815,1.7651159267611782,-0.1767720343009535,0.8247844448200361,-0.40894515796259007,-1.6844406272255983,-0.922459704194598,1.3956858381235444,-1.1257212001120058,-1.0155004161675754,-0.7887641090726957,-0.3167752479102267,0.4881780320772449,-0.15061185171345848,-1.489079575572909,1.7652962267579002,1.9859023021234374,-0.3041769490632027,-1.1370367133086685,-0.8841337730567518,-1.4040258113100952,-0.007767088604869835,-1.5980425778759837,0.7263590314892266,0.587042885420759,-0.15493984822151483,-1.436133461303343,-0.8719567185350389,0.4467149646984443,0.6004261266380575,-2.1769909683085067,-0.18156079720866894,0.12975496616227336,0.7138555759715869,1.1022672812028453,1.979020342069426,0.19378804433849328,-0.2814760736965172,0.21702841506921203,0.6005224428905565,0.6772670222703469,-0.28669726218613173,0.48214899482385254,-0.5112413117934121,1.3206868413201367,-0.6863246312361921,-0.04051454440464116,-0.35796445780408365,0.3485813397697049,-1.3915460692136006,0.8719489906376237,-0.7328839559546575,0.2398770245287706,0.351254754090282,-1.1732764361304895,-0.9206690462513063,-1.0905316972326249,-0.09909409582345,2.117089087188554,-0.7372787391480353,0.6746272889542342,-0.923044983163759,-1.1825690187648068,0.3516169363853554,-0.4161935681310304,0.5843819279266066,1.7860021421214427,1.51540721097147,-0.08851736332656691,-0.36281743722292964,1.1819138356782601,0.8327895205061646,0.20716505091987383,0.16451506476781314,-0.9233879355964945,-0.4862826811467336,-1.8698406271605172,-0.6708246347160395,0.3041031374125292,0.11601316300772474,-0.8035710993949832,1.4116649575646563,0.6881656252660386,1.4298484988571964,-0.5389776057360697,0.8266157211193633,-0.7557950866602579,-0.863082425529798,-0.47292852040773253,0.5626625529978083,-1.2509581596071022,0.7121443744506365,1.0300835789118912,0.5673283740723537,0.10740873268127074,-0.5120780690763164,1.8588205479855067,1.282700101734976,-1.3619621364183756,0.19248522676524513,-1.2938932527536984,0.10666588743272953,0.47595623676531296,0.2394398792423688,-0.4053182976571273,0.40418876694908823,-0.3617460599490805,0.2683776930553226,-2.552017064329473,-0.8056910966639522,-0.35972360314153495,-1.3960991004611416,0.10054547059465323,-1.1398763830253342,0.45898992219226076,0.4531852400391592,0.48072411109302676,0.25370140423173004,1.2961224225047454,0.018347134138081662,-0.8464863485863606,-0.7672597365360898,-0.5695721363562458,-0.6916092873646289,-0.13928712838429488,-0.5087152675785512,0.48716515508779873,0.24559529901936186,0.6468589859867525,-1.288300511529312,1.2754873851655681,2.5261360751552413,-1.5645549579019515,-0.12003480701297548,-0.9931736079851698,0.6961391856993085,0.5346162162051675,-0.7200689507283511,0.29609609954130234,2.5314119081241016,0.3900661572009609,0.07223943161397495,0.7149457895331398,-2.11580049652427,1.2626706898480466,1.5976617489163236,-0.6695293600253269,-0.13467733853138447,0.6536904040376292,0.22578654738986317,0.6525457344191207,0.19967319720012305,0.1551879038791449,-0.35008013929471854,-1.3249261204241476,-0.26011223165110975,-1.83534934469803,0.34365593227468044,-0.565531298632211,-0.09135425116462544,-1.1507545848671117,-0.7321180719631387,0.531712178450028,2.1689079317002466,-1.81798320375615,0.4659235347972037,-0.026459214179849543,0.5377754255995739,0.5655718084236003,0.6621086356367465,0.370776079978122,0.10700688292590882,0.09850912737087422,2.6893337398899146,-0.6639066174687773,0.90955188090891,1.9677231831839483,0.19625656841861217,-2.8238191932743737,-0.3717180006467292,1.4587180792639411,-1.725017672614375,1.2502884095643054,-1.7621121606941128,-0.9919772070765462,2.171455039981155,-0.07306229299798898,-0.10609089649700022,0.2958714772044555,-1.6790501994431832,-1.3748706591092092,-0.6649953130145991,0.38046436907891473,1.2245509836880888,-1.7284874634176666,1.167454160237336,-0.010258971122145757,-1.1724385553734507,-1.054123549623929,-0.6394589044809115,0.859940293471605,0.6988841939178497,-0.09353841624796318,0.13232540137071364,-0.4631941131994766,-0.6079905974384693,-0.4953381870046038,0.02730865470285508,0.3216856468443972,0.8801712001259518,-0.38974433922117413,-0.5749434018671776,0.5007940124734902,0.5592457507852656,0.4207969597419207,0.7723950213355267,1.7499018155780723,-1.314290203668401,0.9627252112013933,1.0070407677965616,0.8732775197143212,0.28037214988670695,-1.001995959001568,0.49060047084903186,-0.11901903848024137,0.796270721508976,0.9880634717059571,1.1124252834535793,-0.22023386402228523,-0.00944223861278019,0.26904286315179704,-0.18806622362292663,-0.9129381295371014,0.1963120989985255,1.5765906380066315,0.2994080879318466,-0.6366964153711255,-0.8697401213449053,0.4649703988297581,0.786930649703522,1.0126025432210017,-0.01786424368271574,1.1146185641467852,-0.6307602833611474,2.736149225841312,2.0259068201329735,-2.6786796144370384,1.7331405422211983,1.3029750165572793,1.3857957307237718,0.07388863205942554,-1.7183782117982245,0.7290408036310009,-0.37270820816100436,-0.5369201896744712,2.013020752028904,1.0411429752498935,-0.310389239316071,0.40396055150081034,1.0464087984772819,-1.5841326078541704,2.028475407148284,-0.5477066049443142,0.40204392768678643,0.4141108274678218,-1.0731909131153088,0.7396573782776314,0.4306636359445718,-0.37208773699083775,-0.752092043792313,-2.6047020006342243,-0.3341953469173767,-0.15534920501947674,-0.6486124518850394,0.23673378119576324,-2.4370777873738487,-0.08168996568797436,0.5771918468626827,0.803478502112565,-1.6883232046868806,0.2530692674530546,0.5171295419233817,-0.6691249601634365,-1.3994172780178429,1.0021672181324568,2.215098604739985,-1.8932648404414039,0.17647027141956195,0.3121274117318975,1.0576852859897055,2.1028204786725486,-2.2740374082365507,1.3476451870569692,0.5911875434937574,-0.2841486628895645,0.8533489574411843,-1.3383605069467328,1.5762545709478202,-1.7928513169894151,1.927821578331555,1.3367355857318897,-0.4173087708780081,-1.3090020319271833,1.5563585058487281,0.279746424570262,0.3489424027384349,1.3463358757057862,0.8292824880942148,2.2481998152353717,-1.4866146373872748,0.5632450976050284,-1.2017412319556666,-1.582207680704937,0.17696230599298562,-0.029235809071412704,0.321784244537967,-1.079612915894684,0.4585675931727191,-1.9404361554479943,0.3600355944889991,-1.0829836387789036,0.19021093130166478,0.11623296254079966,2.5353494548790305,-1.1997962708907333,-1.0584303019768841,1.7567543201557163,1.3524652539123463,-0.6082998715378328,0.9584939052645867,-0.4893742063210235,-0.5319741059423183,-0.21570241641073326,1.362082414199139,1.9483484268608007,1.606289031506813,-0.48557653038076326,-0.758809728465911,0.13977314278542016,-0.03163933722031837,-1.1774202767221171,-0.6763143366532861,-0.008057333970039823,0.3597676316926236,-1.5830020142924623,-1.80713295654223,-0.6180655064732009,0.2802650684836315,1.088971109696502,0.6498258140657954,0.7354392225680422,1.02230575630916,-0.2709958809785722,-0.12211269549964053,-0.7590085933214797,0.07089202433309459,-1.1040823505396173,-1.268524921396249,-0.7120686730568276,-0.06796986041361198,-0.5736167553758496,-0.6065949156134945,-0.1284110357500629,0.12994812428046965,1.1058395771756406,0.4450450211173484,-0.8995511798603592,1.1191618567502093,0.8336631012377229,-0.16768574291762572,-1.0022338665819464,1.778740446988184,1.9659686479080798,-0.6469812329558701,-0.0563408576056596,0.13529572657215305,0.03872081506842784,-0.25664804288320864,-0.22730398525218676,0.8933210106373278,-0.7053285897458239,-1.2416438733158055,-0.6947019392380892,-1.1724581831476075,-1.3721753078601857,-0.8028756058891475,1.3382709921744838,-2.562361660199243,-0.16430023158225981,-1.0144020834734488,0.6105601767843392,-0.938389524287711,-1.1260699963418463,0.6805540760166233,1.1144788933959258,1.856090810187372,-0.7556388819317157,0.6284969504312496,0.09400441287587072,0.24892197516429057,1.0982291387686773,-1.4555060380857299,0.5209086086409647,1.2285114920741453,0.036207527545454775,-1.2528036344269895,0.8886999784483564,-0.22319350038124847,0.7702426931601831,-0.4629038687694564,-0.44942378631281127,1.3803763946609529,-1.71553500142164,0.06669931989972683,-0.951071361562338,-1.0481900507829116,0.33299179055228934,0.5462509379751307,-1.2609663869860062,1.4699072166188814,-1.1170655672442957,-0.5388483234115657,-1.0568797841548518,-0.9887891846626738,0.44279025537121597,0.5681090387461022,0.7007077273471272,-0.4495203128945215,-2.2826932386646006,0.9624392459939367,-0.014503905588692688,-1.5872497771641982,-0.21233870309036715,-0.8652317553139243,-0.4434493463862361,1.3347858493961444,-0.41964433118786126,1.479280135866601,0.9127530617946963,-1.0524311632512178,-0.3918948439091241,1.3680209084316746,0.9975763920734463,1.0397011433286234,-1.2752164224265639,0.02797421434517023,0.9680415173741694,0.215835725465448,0.43925452293674466,0.6661804046340363,-0.8174266898695577,-0.19345639451948124,0.8135829051835971,0.6208844088271303,-0.6598789275602774,0.48467978844816406,0.5423359102152026,-1.2773242084324035,0.7577003816939774,1.178157043116366,-0.39855567157681093,1.4935645907074206,1.2191817231186155,0.40567160466182,0.029308730638985415,0.5353812854648764,0.7159334168655185,0.03834061553578842,0.03675173602737,-0.06226420986840957,-0.45472696555343095,0.718819762786718,1.6765093345111954,-0.08159848270526618,-1.4916677019200828,-0.10727775395447656,-1.2413609069771485,-0.7874506913297802,-2.5519603521631256,-2.0101073317370055,-0.289751434844619,-0.09422086054981255,-0.7529737906059151,1.5500269578040353,-0.6984660929284647,-0.7325217928075469,0.33122153237469504,-0.7857118053687207,1.062980904176788,-0.3178992740514478,-0.0648758466381534,1.3071033149252,2.4877673320217117,-0.6212837348126277,1.0114473585834696,0.20348977899465703,-1.2900768030720353,-0.33613511585282374,-1.1366950079811928,-0.3621664146764021,0.24749777798842604,0.01355096377262119,0.14658712251950942,-1.6653639761591532,0.214570320315003,1.3021925487667159,-1.2802223778550552,-0.8715857528218118,-3.112766858653203,-0.5848820078174245,0.03748927223595293,-0.1539899241508864,-1.1422495435524511,0.4185574589621199,0.2341116505878405,1.2906142969971874,-1.0041315823448889,-0.3048822672779418,-1.2695296267010503,-0.6619467374973682,0.8880043968915536,-1.9705931746258598,-0.6999701337164446,1.8879230254188317,0.40370613216948714,0.29748951809458657,-0.9744748720677424,-1.2185378585311666,0.0356116211851396,-0.7535359052522071,0.22971147035975426,0.7206591769112524,-0.5079100820373611,1.319271177448755,0.9465963699022436,-0.7982027731349799,0.9480226668337747,-0.06013127166407869,-0.454830484655121,-0.935871680253312,-1.6198054214729638,0.9904985338322527,-0.5277066821256339,1.3743904299660432,-1.4938657901736736,-1.3666355801504146,-1.521791017507464,-1.5540237421275669,-0.9137266385441773,0.5233141511739053,-1.014171948369158,-0.6344110786445465,-1.946997707344566,-0.585437142595111,0.9036359306965573,-0.38809396628571097,0.782565295824245,1.0561124687740555,1.5081559025189981,-0.5639843530376767,-1.09789252221099,1.1667576531625607,-1.6568041138880512,1.7780930444474412,-0.2524477079485992,-0.9907764278758077,0.4760497701305132,-0.0339907576876845,-0.34522898885287084,-0.47296038053508344,0.7171143995437088,-0.6225154703762771,1.0470608317996632,1.6766891103060488,-0.7533821217784118,-1.1570767809428124,0.841011244282473,0.5712008816801508,0.8165290647537377,0.2039137372123547,0.16250855112367998,-1.275215704297262,-2.0653356316227702,0.5018537690429692,-1.5766988460519455,-0.5822856403627366,-2.035150605718915,2.597127047902599,-0.7278429616851276,-1.0718459381102918,-0.08519555033140927,0.49599319219797133,-0.6637944763496394,-0.15475326287296837,-0.11379940290391947,0.4536632034492323,-1.8576783187261272,0.7815987511939767,-0.9226205095895305,-1.7552711549668876,0.040478050621268344,0.32659806194770963,0.5740494109021267,-0.04673027829427225,-0.8866218592180704,0.08172873149488286,0.11437677671391948,0.14986558862562743,1.2440068345082993,-1.4184899608962576,0.9423253607405774,-0.45907005812850993,-2.4698942705171607,1.2396716544521702,0.5943280445998447,0.41887879435929715,0.18053912542315487,0.46323805025512244,-1.2469098035862445,-0.7989910508134721,-0.01689145976028947,0.9594255211406185,-0.6013601611523399,0.6227915809109542,0.3579285610167405,0.7933010479188971,0.4576060530325529,1.1262940221700635,-0.8566675554753266,0.5268517225126165,0.11130562153330752,-1.6893597116858365,-0.058771399593256626,-0.49868576551198796,0.7286380725207646,-0.5300253804291416,0.6767670883959043,1.0844345687592876,3.0598215481537046,-0.18331296499580302,0.3659479455589753,-0.9948755392096741,-0.011624028748887988,1.6204879526651752,0.03304273016756927,1.6378152144593174,1.0166264671675795,-0.2519923301451854,-0.39495678023638003,1.4363763418713424,-0.881992026066201,-0.05150768641002016,0.10281955484262384,-0.018188283797686302,1.4125269109677987,-0.9021352331821937,1.7938213654593373,0.35692721589191373,0.4942048045974505,-0.12028050042490633,1.407037383230851,-0.596148811579825,2.4052074440321074,0.685362328606794,-1.331258700987514,-0.4309668090459259,0.8819829083810087,1.5815833248675568,0.00267292867116834,-1.2162551424719492,0.20448190934721616,0.37206925518425726,-0.7833898763101591,0.542737527377532,-0.6531007639561147,-0.9478473827478548,1.722951028834599,0.3703259625652634,-0.8153828945868193,-0.9937040376093144,-1.0788898592159688,-1.7669468402271837,0.8092128205271466,-1.077633004856991,-1.2527564833606855,-1.0993844698119615,0.07276648961691869,0.5413585411388164,-0.005300288712666798,2.216768656796244,-1.1101768478676035,0.022668994544446323,-0.984989755689525,-0.7641660188362199,-0.6278614005575869,-0.2904959569580141,-1.2333145397537142,-0.6609028785620888,-0.6091701566589992,-0.4376876205308321,-0.5532345975677554,0.6650545537167026,0.17585364405212345,-0.9541246781423183,1.2482657763996885,-0.82333599643758,2.2036177220770727,1.3979330335896187,-0.3586341817983578,0.3495434046439949,2.0996478318732525,1.086087094251139,0.5704559521251871,-0.005628894086742665,0.06174669450347532,0.7002922489366088,0.8408763973560748,-1.7042604263569776,0.8381646614443419,0.325957379685784,-0.38464718411751603,-0.5386193685467087,-0.9175289545232264,-0.3445813888580576,1.3661749515809583,-0.7360002926789485,1.7185897371077274,-1.563189195987259,0.08876987844935204,-1.1519895749055156,-0.415754097138784,0.3169235502289589,0.3862967662526798,-0.007721962864192375,0.24676872590247143,-1.1814551573574568,-0.1416218921786916,1.7146588217935277,-0.12197164499083778,1.2992972001495313,-0.8278087605253656,-0.28460811727872676,-0.38035517859576945,0.07264302442094665,0.7986915286361908,-0.6937751756871254,-0.0724323352481135,-0.19008103739893403,0.38021202503248197,0.6059623582861453,-0.3429452316164723,0.4009474995415133,1.5128568161455258,0.8400918795300423,2.7551263126295473,0.348692272473148,-2.1826734459864316,0.0711353270107008,0.7025623790545389,0.12929855624649195,0.9400635582883874,-0.9577048390754401,0.46052702636792253,0.5653354050932948,0.8551215459613022,-0.8966578445521408,0.7260724348997334,1.6033447090352129,-0.1768893869737277,2.820194002666237,0.6539757862588053,1.031304242254735,-1.8629235136782718,-0.17481568857695354,-0.8476547319565153,-0.32161964141726385,0.40491956049468564,-0.056897444361612856,0.6880112733057878,-0.8909436972327314,-0.6439544095313059,-0.8599471286461899,0.2157899905303166,1.7493629428202861,1.111018249084689,-0.5024751506321129,-1.6246620702907242,0.5087398035877173,0.118089672953103,0.6855435057207051,0.6196617111513283,-2.005826660804141,1.096032941159059,-0.1865998909345178,0.4396742839199352,-0.06782038830972342,-0.3903983005384714,-0.9743556589568574,-0.779035836380784,0.3987856083364279,-0.7046144408569924,-0.3851159282836898,-1.4565720399810704,0.30416113318471305,-0.29518448982757184,-0.04432517344924837,-0.6676900297730579,-0.23226050226752235,0.909451795015769,2.7306598137207785,-1.0171333643907678,-1.0626863707011438,-0.3290111717472574,0.13810291867666755,0.22394396746332132,-0.7193640781617022,0.9644921587339245,-1.1133617519692616,-1.4147478765338088,0.32282674489704016,2.3214886586815817,-1.007128490483725,-1.0882668298844576,-0.16350892606518702,0.9724509799108474,-0.016408977495812483,-1.8183200264265154,-0.369036976353962,-0.15938707627847973,0.6301727119902618,0.06709749718719846,0.6449465056470148,1.2130679612870803,0.6252215472247806,0.3839248885179578,-1.9302375878660658,-1.2411304090357107,1.6985840442073472,-1.2413207083933573,-1.1951699367740467,0.4818551737528888,-0.053313030524735155,0.2153209193564183,1.5150435736354668,-0.4493349074084841,-0.8546601990204638,0.19526048517253194,-1.6915192687981635,0.9431583612248831,0.9694826405199846,0.5499673804892407,-0.7808507176149871,-0.6062353756844397,-1.0055603376241218,-0.13290448954477144,-0.3574807109174946,-0.03962135387834005,-0.46777315766922956,0.15183251271570783,-0.07379155970496173,-0.49397746822179284,0.011218618256837919,-2.1503031417232434,0.29320860186394904,-0.8798283250571834,-0.1876324570106476,-0.7255264347836402,0.33370511972082495,-0.4089580926133671,-0.030888113848511468,0.8711424861422562,-0.31870273576694463,-0.395387356673737,0.7970273700411499,0.1433139497823808,0.34657166660904754,0.431858612414294,2.2273327794798017,-0.21719542225273605,0.22705842550185054,-0.10461868057724444,0.8712817054626494,-1.2552874696372214,-0.5759253723217562,-1.4175814424434776,0.024558374505637817,-1.0499009546102556,1.093315564189231,0.29686781110326027,0.3226053790188078,-0.05436613852724808,-0.20827509606136663,1.3431676510658657,-0.6000544535499257,1.8773483838763383,1.0753630121574926,-0.3125602320846283,-1.1466738057812282,-0.17010461574227342,-0.35694426673560437,1.0625618003702173,1.2609644794737027,2.581625854389734,-0.4261986393930873,0.09980791078429602,-0.44864945577968784,-1.2251157731425015,0.8834633349673606,-0.46264752130823983,0.08383397768050191,0.7633908972890012,0.5158421568820925,0.2836817319033283,-0.6522774564221663,0.7058903661628818,-2.1398770407307923,0.5183540119420744,0.0805905296589981,1.4658294882905678,0.6786072870623223,0.07597206259952828,0.6996111965025236,0.96360880797661,-0.8237943060682575,0.7385958165292157,0.5388837103460516,1.1134594941535318,-0.16132502695751993,-0.030504609316699818,0.2649186990241318,0.6098572412361049,-1.3785101980350734,-0.2825103461258493,0.3799379783805832,1.3369842155149374,1.6653254010325604,-1.3200484272543176,-0.14046388260534945,-0.31926573158027016,-1.1235832115242146,-0.179455020596038,-0.11822580076806381,0.3662440726245609,-2.002055528956718,1.0478053787326773,0.7331127123067643,-0.9284750760409111,1.143976386159781,-0.9101115292042927,0.676098209784462,0.2511370471540756,-0.7865718979302386,0.6060583826319278,-0.6710285107938795,1.2905125532482606,0.4640392919740996,-0.9851188398185751,0.6122386571144953,-0.6090252960546402,-0.4648244042818126,-1.2321074516284392,-0.25030187847667745,-0.31838637806095177,-0.11273624027240423,-0.00991402072690273,-0.598324735640159,0.7954488605052594,0.5528052448479066,0.9074915098642738,0.9039172759941309,-1.0510345765219624,-0.40897893124138596,-1.6520927429051562,-0.744390264126844,-0.9481703556172694,0.2290335420485326,0.25457291020038036,0.5621705415300209,-0.042522494433698266,-0.7974657606539512,0.24374605461210141,1.9940862839927236,1.474315252600751,-1.3033507984524706,0.6145795882407683,-0.011953131410099122,2.7826281747257644,0.17378421524214727,-1.042892861179956,-0.11217933664325272,-1.996627599419287,-0.15604785783591063,-1.5301722336256776,1.2890908561146912,-0.13693128417748174,-0.2884428471762759,1.1920544550698597,-0.047398953488082304,-0.3278399570413811,-0.4565772025981153,0.22616961373165487,-1.428989087714363,-0.697302326419973,0.2830135492940536,-0.8620001812199592,1.940497623456016,-1.1633431523591755,0.9905964387275764,0.2737163568885651,-0.9218691040294124,0.24103987075178607,0.5783705856795226,-0.014028695781509068,1.6800576573124095,-0.4745917026520176,-0.4735200653310728,1.0707031570098826,-0.3704649015816952,0.31960258097900274,0.9780817080404561,0.5084801130156162,-1.2958322516616132,-0.3890242481302607,-0.22616301269322947,-0.41231566922948926,0.5292247822428432,0.22451755951930316,1.7699410591542826,-0.1727963681393063,0.6269703300441917,2.731021160799706,-1.0066819654386099,-0.15435922983922476,0.003089255811603477,1.2700240065308692,0.1807481981488733,-0.6919954539882526,0.09659558147036804,0.7217851451628875,0.6352516805557944,0.7632878582825597,0.6655489780724351,-0.4568510782636704,-0.8590736684298669,1.5867013107941865,0.32316804289010725,0.3948315456182611,-1.7800960967574517,-0.469691829815862,0.4988093057281844,-0.23269959755273706,1.8347985918866943,0.06344128217737097,-0.44621146707451065,-0.42526146550886557,-0.6338224147315251,-2.5667872603463557,0.2217291425591548,-0.10915292377025587,-0.8147361402831458,-0.309672235116251,-1.0185404751215217,0.7936271137757617,0.7711239922656082,0.27151147346640775,2.6662918584697173,-2.372704939109308,-0.9619498975809483,-1.889633586669685,-0.052183362222142975,0.17797399828600635,-0.8270364026248767,-1.4242691009734785,-0.28899005651802673,0.04415459243632214,-0.05450467109091102,1.1873678447399403,0.2717486813660255,-1.1227278516316268,0.3578888345794134,-0.8106243610568632,0.8726954807488452,-0.11670419435842691,0.25610822926177934,-1.3690856088963526,1.090722294979519,0.621356363994507,1.4639492693418243,1.1660049966883959,0.3137419037702888,-0.26633147041418737,0.8713497444234723,0.5197333299645076,-0.4407489539252007,1.2214731923944928,0.468620429896281,0.9246154462152951,-0.6990384090892772,1.4462420500675852,0.8602822598736365,0.14832495238825863,1.8123271123859677,1.6967759440465227,-0.1916928637577752,-0.20760670024855193,0.015004560965540361,-1.340437157188113,-0.31323787048666,0.8271094076941712,0.49487719238285444,0.6151191507946815,-0.6436348858005768,0.5986456929434953,-0.9469848781615949,1.048351030151438,-1.8890507825264122,0.7076773956517358,0.922111127815784,0.7657164632500413,0.6679720117913273,-0.43269281779166957,-0.1531507805879407,0.6909164139881012,-0.08632502088942924,-0.11981487797765258,-0.28152677322460923,-0.26877279317248615,-1.0645661213171704,-0.8371887068948849,0.703959687775353,-0.34070068157232813,-1.7139642680308615,1.322984749703736,-0.028128361471271464,2.081520403635834,0.44094231087669744,-1.282368051216742,-0.5102074929623108,-1.8922674329179643,-1.0525895047417044,1.2766103688840775,-0.21352940780245072,0.16434918434227813,-2.2657810521078106,-0.4046544130800316,2.4529549938654327,1.1042025650247562,0.7748925436541928,-0.03526990841992629,-0.20254175951464576,-0.0040726763249066805,1.1543349603336752,-0.6517771747951756,0.8920341892760218,-1.1615546518775137,0.9299940862897326,1.1966500152267305,0.3693021239790405,1.0615124136305183,-1.3001415848718645,-0.6781034832392934,0.8019978068592843,0.35081168713312144,1.0183450406122885,-0.6740338710988154,1.9385071322185758,-1.5480526325266075,-1.4465437771478868,-1.264180499564305,1.5614746445284964,0.26611302111328355,1.7584037420054166,-0.8144793211851415,0.42083314849483056,-2.6357269280701643,-0.014003752277310625,-0.14464824078977262,-2.3147392739319046,0.6189339338740449,0.964326633077658,0.8797129538490729,-0.06451298320626454,-0.832215467982822,0.6810221017221325,-0.581976728744022,0.0754271990048086,-1.351280836715828,-0.38498799754852203,-0.1274714870288882,0.5214686754595101,-1.0271920171588302,-0.43296438640604534,-0.19494015098702466,-0.2638737127442004,0.8913821586519866,1.107212565544467,1.3328187732519545,-0.27475652843757137,0.07556184672737144,0.6517011912486376,-0.8465925503940013,-0.6289180388201442,0.21190160450945345,0.8627826512068463,-0.2908938285664309,-0.34995513737767203,-0.2531040679529403,1.15165841571192,0.9819586968054328,0.7747897779434447,0.3207534075218822,-0.33571332807503607,0.4313258267068512,1.6224257478578334,1.451679004564239,0.5315680912484995,-1.4034759390434486,-0.06630664669839564,-1.0658340531900405,-0.5023561565325617,1.7552734665460303,-1.1846557513373397,0.24471121072921292,-0.7960188549580818,-1.074643738700652,0.9932027111567465,-0.5617982941237607,0.9948617752455587,-1.4569869980059391,-0.45115462711621496,-0.287114448301367,-1.9044156309998221,-0.06499383244884074,1.7066058284510595,-0.648479658536517,-0.12825869071285126,0.2687996393250722,0.9696109795929688,1.6141889873625754,1.5546266540096323,-0.02089803529460392,-0.9089812404583787,-0.2618311868704567,-2.5778667453324515,0.8241792395718306,-1.3839065267186859,0.18077896907750574,-1.028531317324963,-0.12744472293431425,-1.3021518767258968,-0.29005849716204757,-0.7999664583397783,1.100325766110785,1.4086682441757954,0.5276629027879357,0.17355862844303216,-0.7449159720684313,1.4959804405345971,2.1110396224390704,0.4421471997899502,-2.2684062440603636,0.5200085495768809,-0.9770340581769246,-0.24417758049838062,1.96067183845492,-1.0934699578148686,0.46612760407266735,-2.2373385081202803,-1.8557884918389134,-1.162931838741326,1.4611138643241284,1.2699822243599694,0.013379929218636396,0.4010415442724375,-1.7038937047876346,1.7482722482113338,0.008584327648421715,2.158793222129578,-0.5510938668710297,0.9670939805582686,-0.9602268197212658,-1.1582897537281875,-1.032878461367191,-1.2057168519073396,-0.6783149674108139,0.6864362468345062,0.5694634209675871,0.09398260574537205,0.8564410924284618,-1.881141282612127,-0.14911252027016558,0.12182257824082479,0.3418220886321482,1.5312984447647253,0.3708200393753435,-0.3306503465634158,0.7003441164663703,-0.3623371302696196,1.0622193227493872,-0.3044630411157675,-1.371222565009544,0.8025769331120204,2.244803141858942,0.13851229347756153,0.953287129741345,-0.9044310289026126,0.6919884774867946,0.12190549305571333,-0.23510568217741698,-0.43416846175052326,-0.5887258700741352,-0.7488902372104588,-0.5191179208828242,0.20642316059437335,-1.6399161539795297,-0.7964463474447607,2.25515835354944,0.6566622899234559,1.4054423981490722,-0.11483751847900059,0.7536545908900285,-0.8458234681128942,1.5895483105219226,0.6014144271245276,0.34273461316273185,1.105922285088223,-1.5053112950864156,-0.4452596739493289,1.958126744197514,-1.653261101162028,0.7829322734058529,-2.8720706103272056,0.9369355099042257,1.4099056691108653,-0.10843988374175483,-1.2558349150944346,-0.3930463992904857,0.4492333472875822,0.19603392886505472,-1.3979804212518776,-0.17368646067472507,0.491276176789887,-1.5497228580206401,1.4511024421495728,0.7577666914823245,0.4921642925166928,1.207684114918997,-1.0105911263764904,0.29042830280352866,0.30429581878582396,-0.46573257564629356,0.37454628852093264,0.30985734040982765,0.1911403935821579,0.19961041584829775,-0.2143332299829599,0.848875006335561,-0.2955246356770364,0.5189558275590455,-2.2077822887442657,-0.19524884921334204,-0.1771900738089721,-1.6191826211166298,-0.5854495998738017,0.18624442487592094,0.8828492295151973,1.5519872443875524,-0.007767604327212816,1.9473571645100707,1.3995885803025627,0.7726421963411472,0.9588162490214168,0.9529433388814877,0.9977081249759717,-0.679871295098673,0.06322113699678099,1.4409023956566658,-0.7410856859128819,-0.08268883665800345,0.5072265881313489,-0.6885113697003705,-1.2475949589420987,-0.29926194088572755,-0.4260778348699591,2.2501436684833074,2.0754017742334834,-2.78081613259568,0.24721156652296306,0.163948780658604,-0.30313116837123766,2.9044851084004555,-1.4945679642075242,-0.030283843870226423,-0.8965244158603629,0.21602558002666433,0.3089524206987741,-0.8410698100313089,-0.48206051666025707,-0.5014851383594546,-1.1297281112626445,1.195911400405228,1.7596222821528833,1.1404549022737402,0.04154300263151379,1.0056086174613519,0.7510724407124199,-1.621381199535382,-0.20346491265694547,-1.247341658776703,2.031045486309306,0.24556230329062467,0.4934701047033154,-0.09475917826449058,0.7594768862780757,0.228524105474492,-1.6296046876583044,1.646144492297258,0.3958529321031415,1.943114790935282,-0.3740654770599365,-0.5397951241474417,0.2547583719967438,2.2758095879313536,-0.5814513552325228,1.2641207496508367,0.03532926552870366,-1.4570180839652718,0.14991406379878564,-1.2326202820722933,1.0018900581148242,-1.457479227569358,-0.7812731413333505,-1.508073823129677,-0.2960950936421375,-1.031312110066017,-1.7865148078430626,0.8558888616930251,-1.1726649858164409,-0.6478355212973442,1.0337457028202426,-0.265560708480213,0.6999755938551312,0.03623576373371661,0.15991528775804703,0.42423166771434384,1.2174651593748764,1.0588001284057573,0.30256439384650835,0.08833235336915851,-1.9486613935797152,-1.8188731789310983,-0.038364151308378946,0.0836960318948993,0.9377758189673489,0.7690511009993811,1.1077826024296344,0.19022045633142856,0.1500938486180986,1.4115394698293078,-1.1357690055537557,1.2480450022438188,0.8847601523003198,-0.13666983559896728,-0.7664654444108011,0.10249058551746715,0.727498401291306,-1.4013187700365453,0.17360028715129364,0.17187628869387123,0.5413241056868993,1.9165814280618039,0.5887813782752295,-1.405205892509288,-0.3770203658175585,0.26793930467830573,0.6907925026040127,0.5602419800835782,1.0996099937976627,0.6930661336185978,-1.258731604983926,0.17168954370725467,-0.8603108748057156,-0.6296209545610743,-2.119701057702091,0.21504581201940887,0.9943108947018727,-0.8172473972344557,0.5238273965731575,0.9970383022129777,-0.2957523935629835,0.18927901635119088,0.6139658284342011,-0.40520792340077627,0.3823080120672261,-0.5880079482297815,-1.3649516187249606,0.9632983522139354,-0.12285554586056431,-0.07225424073119202,-0.13490598839258566,-1.6504905094395947,0.08551135601956214,0.25521334914333177,-0.22203385679378962,-0.6736790307181592,0.3268536658408424,1.4103573669990894,-1.8010278842575116,-0.5437025204283498,-0.8343617370706808,-1.3640541821640222,-0.10618884879238559,-0.22691031407854514,2.384091980680661,-0.033158484656616416,-1.8162707211896598,-1.001664768823847,-0.9669195665101235,0.5398643354822475,-0.6675065625147548,-0.08918773979092301,0.8827014183466365,-0.018596231965280215,-0.5131776058669846,-0.24659646594090442,1.242102118815086,1.2780910881441474,-1.69257530039601,0.42455806902493104,-0.697370001916606,0.4406510059933971,0.09470177425021192,0.45046115806770876,3.0090969133838157,-0.23127375561608543,0.044008063837264896,1.2322884656508755,-1.6252503470813708,1.8133334703407509,0.022506690458285853,2.793349350011509,0.38109695237233954,1.528242252405209,2.204796721550905,0.45840095078862597,-0.16092041547221114,-0.8192637879457216,0.15502585386025383,-0.1283719633112613,-2.3570770584225214,0.44143602591455744,0.6507037621799187,2.2261457861360134,-1.205487888230512,-0.7447496265016543,0.23093017533419277,-0.6699047604343072,2.7523323406186697,-0.05716855107127096,-1.3002589074895985,0.9404165560001579,-1.0006415967443492,-1.1926888346650293,1.3998422991752604,-1.2164699694019325,-0.5233005614677126,-1.0227599483107286,-0.5640217083140808,-1.0582597911777023,-1.451288958465343,0.6230129075006077,1.3429468153502433,1.1247798363928545,1.0544375711805591,-0.0526949357998719,2.3328663949283808,0.5746939893792827,-1.4813229830641153,-0.5719292174026273,-1.37764100006116,0.8344550954034907,-0.7178697417917097,-0.24591619529427652,-1.3093709251209258,-0.47657456377618457,2.5039785946506297,-1.4168770160315203,-0.6085295185173533,-1.1116148516690028,-0.5571767401419601,-0.5469006307906041,-1.3288601181628954,-0.24519068096124416,0.07084555876554834,-0.27825839881803577,0.45996135477056727,0.5174708887223921,-0.9982988605556612,1.2340201536453492,2.0423388861742056,-0.04717995616809221,0.9030278339972898,-1.8756642321276187,-0.28729969977423414,-0.31655339986942393,-0.06314140287066579,-1.2113383470005699,1.8535765555066812,1.0616827316302075,0.9471853007650908,-0.7668673033216021,0.6195548000639146,-2.7935915429302414,2.232758394048202,0.7283344511141847,-0.2504938487716787,2.054517955136199,-0.19487127688205771,-1.5058076015649886,-0.056787242738587596,0.45142181481309474,-1.3143997411392694,0.9025383970470495,1.0133980755091907,-0.7727589977326486,0.11819977174179733,-1.1979913294075626,0.20582313131326524,1.0830707178771541,-0.8033762844597573,1.0906294268938095,0.35801677537712656,0.5384812776605885,-0.7131691044288496,-0.0980186969534048,-0.2402144335610504,0.5524865914741002,-1.4467376083197334,0.1524802606428001,1.2891744874432665,1.1117512105559568,1.3131631520627105,0.9667327814214013,-0.11338114991418625,1.2533499735643958,0.26596843711200724,0.4915151710093971,1.0225461082473046,-0.9517849378545843,-0.5062510332136838,0.59973236667147,0.08880377830822857,-0.7226059364133437,1.770041865718758,1.4204076493386408,0.32127242145255225,1.767188454992494,2.299781698521976,-0.07005157724110014,-2.5878459761717694,0.3780286670851949,2.013335240893376,-0.4017568973417546,0.21426051374573007,-0.38368584456801585,-0.17931740543270563,-0.8793045952301848,-0.4003542962799313,1.3489794976277367,-0.38286128247340534,2.4097955863570544,0.15886333395878463,-0.6648879260452885,0.5040417604360624,1.0833756308397737,-0.6968531159744238,-0.16258519279984893,-0.5365547587691949,0.18595954389984387,0.07548550606980285,-0.8002019612019652,0.3884155857500565,0.1724017459400115,-0.023361874964511264,-0.08819351896641402,-0.6272963705459514,-0.16820917774298622,-1.832844339670351,0.6516117732167335,-0.2133306472954836,0.921996909891803,-1.4453042184206362,1.795164052945898,-1.095447637162148,-0.7391980622291693,-0.9882910305193761,1.1719404320938829,-0.4303770275336575,0.5385872563977983,0.08602846207587868,0.8498349840997728,0.4607359979123602,-1.0994217843760425,0.5780396567347007,-0.17637946461494455,-0.7216874201040078,0.1404888468228136,2.8863235748346323,0.16937998118502348,0.9188738038228889,-0.46898586457109015,0.356774356363801,0.5414920105305457,0.4336102901356209,0.6710840814044587,-0.6959124874800872,-0.08066112733154647,-0.3923305678984911,0.4085097851982813,0.3260069793888571,1.4473398077629622,-1.646109893601538,-0.2401545282260419,-0.4640305151596585,1.1149011496746994,-0.8378922872492383,0.3180239741759555,2.4225005127250796,0.5262116756289366,-0.4379254391555849,0.7704094925509197,1.3041489477086963,-0.7498063495052325,-0.603606988597175,0.13524641129421128,0.2970257368672609,-1.3936570379525954,-0.8760512678445683,-0.10562276414135724,1.3122458752062043,1.1808341333982153,0.7110517354063425,0.32219027231715947,0.8336583195807588,1.9502889994728672,0.14553976191240484,-0.031666265987577644,-0.7212330674789477,-0.6477727515447129,1.8159038566294994,1.0301446676111183,1.4180370528197679,0.8191092864353047,0.3247374674730822,-0.44808913315844895,0.9550515663311843,2.6247717850215966,-1.8748949746530978,-1.151216534162216,-0.1381037348766111,-0.2301971184028344,-1.5654517983269483,0.007227769595426076,-1.3814275525604085,-0.4047643366490997,-0.7962591633437397,1.5276668839238532,-0.8253909653197607,-0.03157022760680829,-0.9608704833264341,-0.08443351086303301,0.14925731144687598,-0.24876350247982654,2.119127035329754,-0.14358001885282243,0.5167695536429535,0.24000730901985207,0.6582582745450851,-0.9231535528861186,0.4573398224078201,0.06088136488796148,-1.5433294898695793,-1.0090787353119757,1.0527233169775323,-0.32325334466766636,-0.4098317563952521,-0.22338382897309078,0.40332464589912825,0.07846515978186164,-0.9566065835332762,1.651302948577133,0.50860981284014,-1.1393815141111467,0.16315248307312807,-0.17259487704728538,0.3654113762142837,-0.9122176319724756,0.4046530475718264,0.6762222876040714,2.753650147793313,-0.49262450021949783,-0.6329356740018413,-0.42826883553390077,-0.3859545340818707,0.14598881133665173,-0.5763002713075278,2.766903612182889,0.22069807357946536,-1.1808445867711932,-0.2759036251211259,0.8935993322028135,1.0431245219177903,-0.1452514347211223,0.351127332372897,-0.8707978522458305,-0.48947030671859826,-0.869632054325719,1.0409693230129011,1.6950995820832357,-1.0622413034965466,0.8236467228876557,-2.1943178190735457,-0.8864463577042465,1.2627368110526846,1.80329560974831,-0.08380947159678241,0.9390504756617554,0.21064940000555543,0.23753721901812408,0.46434566489203477,0.32991631215229794,0.6886423196863365,-1.801428951007326,0.21196846318559723,-0.8892972990791796,0.24518010475032984,0.05357147635630889,0.5577887117169532,-2.483660210379549,0.5469183950240285,-1.6704059462313514,-0.6476665482614523,-0.3141125131616642,0.5560358408540661,-0.7287672075258598,1.0197942738202328,1.8922783466327135,1.1119841644912016,1.9386410393775992,-1.254542945631718,0.6159430876159403,0.43748225285267534,-0.1667691125003028,-0.3575291372387923,0.6807918902469959,-0.18521229281303545,0.5906226260959578,-0.707236402109894,0.9848936035807845,-1.079759628034874,0.22421319814143034,0.9553359067591524,0.013745944213061148,-1.005059821262713,0.9345163332044831,1.378659611504456,-1.2692431288471522,-0.44794712103798584,0.38146161755933244,-0.26461631769631067,1.0066204542648995,-2.472763046387876,-0.34300619707857233,-0.6124388883762609,-0.28280327611749667,0.94292854731259,0.3665510210130199,-1.4682308618260798,0.9270059375023516,0.9094007428263223,0.16972628219171493,0.34748877715828114,-0.38496150265625134,0.18157190015231073,-1.6027518489010606,0.7467076613384466,-1.45434724241485,0.220715560887144,-1.2418800988788599,0.1213000024264922,-0.5233507904892838,-0.537624187359369,1.6408160310449313,0.436465069540397,-0.9591976346212215,-1.2784306657702824,-1.6292616326709113,-0.6872967154071087,-0.37303971686765713,-0.24803831048204042,-0.7408282882280253,0.4196306728599277,0.1463220220605936,-0.8743402702331703,0.25832934995821194,0.6382042290896164,-1.253363593323861,-0.4043034311302805,-0.12700011375394687,0.4555881270373887,1.5581184014705456,2.1059780618513786,-1.1512172181123017,-2.1213639675785503,-1.5097112915448783,0.7761414473516112,-0.7923747113422235,1.0260896546230462,-0.5539869659504788,0.33611984008954643,1.036612857766026,0.6298309463943693,0.9058435932843191,-0.8843023482506082,-0.5362647518123302,-0.2750442975190095,1.120536312647557,1.0423111129345146,1.125104502222085,-0.9494708603449242,-0.5827391762824328,-0.4320491083666799,-0.4461798875027634,-2.2832913046872854,0.6726843649842306,0.947344147655158,-0.18264816579228768,0.10934492501248028,-0.9425517475951806,-0.4418751525221518,0.09553464681801747,0.25807550198587753,-0.7853994569392486,-0.729439900983974,0.8741888990050709,-0.2996575929275438,-0.724913571516981,-0.29375190668827855,0.17722148802682183,-0.8773576443737537,1.1881127473375612,-1.2117753556269981,-1.3646571997735608,0.7326992474833317,-0.7601625889351055,-1.2576300666656943,1.2062563495494454,-0.3895848780617554,-0.6807436894521908,-1.3398986557639916,0.3991444694438456,-0.17411454263140053,-2.899007038602521,0.7225524603861713,0.9738895046491955,1.93215881793338,-0.63471239739718,0.7043308799972339,-0.8434169155484065,1.176188671757544,0.5730022542659783,-0.6612828715952871,1.2326501288823848,0.14199410927850586,-0.020524243737301478,-0.6426929637112038,0.47629124656543964,-0.4913909639093857,0.3414836572102344,0.2728327006212075,0.6089785902927769,-0.00009355647856171998,-0.700784567023656,1.909161464809662,0.2315249727012965,-0.6082370641211445,-1.0440131113160553,1.757723236078835,1.4208734698337908,0.6159081019257396,-0.7508129021493272,-0.3732563369480231,0.6997667547198655,0.3546712027855647,-1.3036179871174016,1.6743822129953387,-0.935427894363433,1.674329576798054,1.297633317095962,1.3678192524410697,-1.0724451344586252,0.5458446549470207,-0.1854880154543369,-0.6679771342260998,1.102558202111769,0.13318331312543844,-0.5031342436834224,-0.9844577508097672,0.28352213663512027,0.7648740915865906,0.8537099583387721,0.4273999718392666,-0.7282181892863604,0.37581503339068156,-2.356287522271332,-1.718385626468077,0.6215979636183812,-0.8446121980699107,2.1495818973311063,2.0355325956996686,0.7508959840111873,-0.4942962856149798,1.7606801122005165,-0.06916678679203221,-0.8214629971116877,0.16888387818216424,0.5928994624456716,-1.08186809143877,1.8457694719792457,-0.9196830682526814,0.3998399841301801,0.41597060511249195,1.4284369826041812,-0.8514913930409863,-1.0828753072439066,0.3870792734874788,0.24558334482028557,-1.1609625229198146,-0.22584777403159786,0.32672960086801867,0.46671003940576905,-0.0319415888622633,-0.6478502706111952,0.4529707195079358,0.23318461546816796,-0.23744913139423804,-0.17866281314836202,-0.3435732584352246,-1.6903456246475745,0.5625151220658829,-1.7083327181678847,-0.4290828884872378,-0.5161983235615455,0.0245376054882576,-0.563432077943119,1.9394508059767752,0.3496187824013015,1.190008999075921,2.900777612184785,1.1641310541653431,1.721731262733811,1.3039239706080838,2.0609003063947227,0.727103986187493,0.016173527801645465,-1.6370962205480266,0.30117995952335713,1.2126343412533376,1.0574570608299019,-0.36034241877110407,-0.3919405168154122,0.234316149583819,-0.39425461089593855,-0.7948038312109234,3.8860608401669166,-0.2004853844632032,-1.3766684726513303,0.7238236595131303,-0.3986104422167477,-0.6981860045299809,-2.4075322489460365,0.2892176765071192,2.3881792535643913,0.19332311454904808,0.42875730566132053,0.3569223811817548,-0.3592326846769886,0.6583299175319547,-0.14551691543168938,0.7909189222282744,-0.9521244681214961,0.20247602122230274,-0.015900599464582787,-0.5518847320778281,0.32641550929201246,-1.198476729601134,0.2943578522277931,0.8126871833785142,-1.2676211295313007,-0.31116538100282254,-0.7268072488815559,-0.5882965101611829,-0.5815344140174894,-0.4543890415702978,-1.2473274481101666,-0.42110530452378103,-0.14827050030621786,0.3274732194035524,-0.14181392653208524,-0.9793438050376649,-0.5384855050738041,0.3461778034524323,-0.9056138154180885,-0.6449084375939539,1.4516168055656422,2.3681067686225017,-0.6234919567224094,-0.23830303172636577,-0.5223272710255514,-0.6227474705991283,-0.5788969581847456,-0.0008602478136297744,-1.0514547382020383,1.6595100948764645,0.9220048301662439,0.33610612125582484,0.2536469112759352,-1.244381097851906,2.0406247267840936,-0.5328587150461583,0.11548309219061056,0.24110377096526747,1.508373279606457,-0.13983663844053099,-0.09920595542088462,-0.8006624074884411,0.43436241019740823,-0.6032713200348382,0.9820243924485956,-1.2983227049486255,-1.283731173158447,-0.5485000027869394,0.8369169038320612,-1.2459685795355997,-1.0720464790397164,-0.28433696723629237,1.7963772027254816,0.44360561931407666,1.252500715611362,-1.41068473733035,0.47468255893335987,-0.7429246346208717,1.3314256358658243,-0.108410709164857,-0.6769638994848755,1.5415539302789154,0.11990317048275978,-0.383346205863862,-0.5988620282130765,0.28971937115078067,2.8331614980149262,-0.145586798020867,-0.693345204013341,-0.4291713252762374,-0.41914627014288647,0.7367586668732052,-0.32200529656585375,-0.6749142510609909,0.5984446298959786,-1.9900431010103181,-1.5351762472073462,-0.6865372032299935,2.4072811173221456,0.8339672049210489,1.0679568751666062,-1.5542391080957005,1.0881897693366065,-0.24734399940679064,-0.4302223843699175,-0.08539446201895483,0.044621644484178186,0.31971620344050666,0.17468987327909768,-0.2572739927414132,0.7980913028869527,0.8213761981477247,-0.8866268223548729,0.679861436789774,-0.5755381014273828,0.2288949790992221,-0.7688770058398787,0.5602488287126985,0.7993066810758679,0.8893514873914222,0.7520125139191214,1.3680299466025188,0.48238346485126893,0.39370216048434326,-0.23089813920452681,0.8096203027939236,0.24543554977510534,-0.8853915579328795,-1.9408394620402822,0.36800409211865714,0.6349303499716293,1.1956875982534887,-0.6386933165273687,-0.9977227256996688,1.0231570587528942,-0.1924753023527133,0.973703108127327,0.19126962268905565,0.8178161892519563,0.14144661127440425,-2.5540535037930985,-0.41290165780814775,-0.840668919716322,0.6130206344945441,-1.3838626082098593,-0.9689232913470404,0.8960622773104532,0.5287573335373317,0.5089651573826874,0.07046180043683159,-0.6116446939941986,-1.4061316953859908,-0.20316936261936683,2.1426238860749276,-1.5792580775495546,0.29662168111546866,-0.1674831459456387,-1.382738744485381,-0.8943279766707312,0.6782906437859137,-0.6401045721988464,1.7973482838150472,-0.8480484798164578,0.7007700436307824,0.025318056763773553,1.007606908592403,-0.4026174337920769,0.5809435224346006,0.2317616912409296,0.016603999960856212,-0.010389665697621387,-0.8212063692360557,-0.3661622819760148,1.6723362013955902,-0.32584623039126387,1.0541668280647931,2.711739830983518,0.4319004400158081,1.2669051093968098,-0.26057093434891176,0.1656475616416101,-0.3163511523773616,1.4204214228466798,0.2683040790415462,-0.06104812776304746,0.9757740889464254,-1.4029833903333908,0.26376373004199566,0.973922417019664,0.3795959292553861,1.3971128490581224,1.183542925332849,-0.6026013150363746,-0.23315881561381585,0.38429219727639025,0.14216478231337756,-0.8806759874951916,-0.7439211613931537,-1.278621237276448,-0.6149518648248138,-0.1641587779956495,1.3992300910985755,1.5533322518896078,1.1136529090352816,-0.3310353634762947,-1.70222890954771,-0.09359311624108158,-0.5572917284411651,2.2182192524525046,1.2454903654870724,1.4206379262387807,0.8494453605287272,-0.2835779646770542,-0.5060685820829346,-2.4856312233409805,0.40323553846713894,-1.4070903186321482,-1.2114775156956274,-0.28307127011673344,0.5334005463429405,-0.8956607830308804,-0.9587580830297968,-1.0913541628720236,-0.14558290471154633,-1.5439023631665796,-0.16190264254746867,0.5879636131803359,-1.0141572651676005,-0.0899116098152501,2.5542082606423366,-0.3377927032616812,0.78346141072038,-0.80135600427384,-0.04976196270974419,-0.1517566718828007,-0.3948841130300634,-1.7145249162287592,0.15620346320365752,0.6280030908882626,-0.7273704999950473,-1.5198069532756961,-0.20412265140136046,-0.4825120694965211,2.11694453458286,-1.0862946562300209,-0.5165827618117025,0.5205147150863972,-0.5463355321493342,-1.958874005414688,-1.9255506030544611,-0.8090152220467752,-0.5676049217875118,1.5098738462761077,0.3326332947650107,1.5058640056550703,-1.6217715667195867,-1.119190828880155,-1.2701971366380131,-1.1840580611850415,2.665531768384062,-0.2455958283907298,-2.566451010917343,-0.3601159629116797,0.1777671877879993,-0.7612522119583474,0.3970608637910184,-1.7910937931045554,-0.4616958803553008,2.0849362836846645,0.026858500679058074,0.22612710905476283,-0.739531302807609,0.23579741017573366,-1.096794816296335,0.8250125452414431,0.7617234120444875,1.3425008867922117,-0.602488413118834,-0.04697670095988645,1.0862459245084646,-0.5721188925662356,-0.5770531574111706,-2.000298386757718,-1.4560989014655734,-0.171638952218644,-0.2528098918452093,0.2260942110495742,-0.36417670146525666,0.8659881957611417,1.1898518590303955,-0.9897306308089676,-1.165117823112118,-0.9082899487664775,0.705085549744934,-0.2825433964243111,-0.515249003981574,0.194610272199226,-0.6850687080730176,-0.5206520932622272,-0.3727905398271079,-1.2843601989580453,0.11483670223892303,-0.8662285906166491,0.6958252012696914,-0.132468022948922,-0.5771881212189357,1.9227309460235507,-1.3232554806145205,0.4279890141817294,0.22996243857269097,-0.6138848055892687,-0.04476698776634139,1.5955331003436428,-0.6524309384958151,1.2806176619823926,-0.46074603226700894,0.43135117921343247,-0.6716134909573589,0.7438421078902592,-1.205468498853118,-0.6168122023707022,1.4649023714840563,0.6843678430192643,-1.4254702780850756,0.6100963375335237,1.1407230805154216,1.519617315232798,0.033608611028932235,0.6289128713408427,-1.7272790959749018,-0.8597242400701736,0.5799576855211701,0.6747495423039873,-0.6639765636258544,-0.8642767825100955,-0.19780037940592116,-2.0698348494031076,-0.15282155672662187,1.1562620491676996,1.1524177576988965,-0.9359853929137559,0.049596229356112125,1.8162026584769473,-0.23095393594969982,-0.006272555754206726,0.9190178560747071,0.8238054325625878,0.7570565237195115,1.5930695304250069,1.8116210166486857,0.790645498944295,1.505709812050071,-1.6222501016993447,-0.10003974714309725,-1.4359108952540203,-0.7249052912719318,-0.6850425063668331,-1.8831580489792061,-0.5797445215609022,-0.029615475617377342,-0.5645055695100374,1.4375747718778125,0.1608735411364194,-0.22339263878370555,-0.8926108701097982,-0.3269806417898525,-2.7623984929358287,1.3837551148686396,-0.08767752176468444,0.38865662224628983,-1.0899749963862968,0.060417374159197505,-0.06761857988564024,0.384203866740167,-0.44910223860881626,0.4706920559909615,0.4537000154098815,0.20779581965566632,0.3322870621671146,1.0511649589052487,-0.26955920829401403,-2.160966362958452,0.1432560378960292,-0.9139377827185096,-1.3188563560412319,-0.5765566216564755,-1.4878074567922328,2.5303249235574135,1.535963235767351,1.646188585915161,1.8922244368591534,-0.8314860564424299,-1.0502071909015267,-0.7026665563607438,-0.48419066739015865,0.34418290951879493,0.0728279781202859,1.6983339423353232,-0.11183098674823475,0.06031440591009739,0.543340877721289,0.37766030725176164,-0.23299559388397334,-0.38940620415094823,0.27430655536358967,1.2115354948209205,1.5049471853343042,-1.0585961818466223,0.12716217979349098,-0.04799881530857962,-0.2367894441616974,-0.7022508868884075,-0.7708449632702661,0.6452673232749959,0.9305679851188265,-0.7781145879939271,0.4226188400532649,-0.5972201565794387,0.7441727634303377,-0.2549970248071898,-1.1068832086287095,-0.4384795972460538,-1.7284178360065963,-1.2125376751732715,0.4292179867422683,1.647508215690372,0.4100943069041104,-0.6865621447287448,-0.8346490937188011,0.1638717328888287,0.8598291277271718,-0.22396464744207234,0.8031668967848936,-0.9243993011248083,1.5106832524708873,-0.4603169501646158,0.5644601489242511,-1.5951639830538706,-0.6246024860529455,-0.0194592224607522,-0.10018569282217685,-1.3653851814553828,-0.7243668188366784,0.48456562631942507,0.6552651792300316,-0.01755634288687618,-0.756964869824803,0.20161614088676824,-1.6296299478822986,0.10350032325825904,1.4657826485182943,1.1290080092131909,-0.6115768763384428,0.18657052137941288,0.8709424542811866,1.1997265060117384,0.03465807440154573,-0.8694340108108803,0.30181598423072653,0.3408069582895896,1.3392793997640546,-0.8793234669785779,-0.9230952084778989,-0.4860447107003688,0.1304683621123208,0.5078349106833465,-0.7840256379742241,-1.1379721259018194,-1.2738933258199785,-0.1365036348496185,-1.208747644855282,-0.35471969465960296,0.19496233238266047,-0.4633308935069026,0.12722587511151703,-0.03444502926743602,1.3977544906682398,0.5798563257969617,-0.1044747374108112,0.9070840748257126,-0.19899040907991009,2.1190030567964953,1.322957560858231,-0.779759169829634,-1.0040312052381024,-1.069652136087019,0.15103008506222307,0.3677874425603498,0.39718035462915463,-1.0201120045033523,-1.386591678753375,1.1598966649005757,0.4729379664682304,-0.12553019934816467,0.30702708301325266,0.8222465193201244,1.1567317384670464,-1.5540023047316365,-0.5997627279479537,1.2929625788374919,-0.20969755034043308,-1.1702457627789502,0.5183520917224254,1.1540045089477324,-0.14050961114230517,-1.8773958414299043,0.8617612957346441,-0.27547827350250126,-0.019390855209669693,0.6336936965650927,-0.09790753321777929,-1.3225706237185235,-0.6562800300278653,2.1088981171479357,-1.003324908384843,-0.456250160968953,1.2315402765347625,0.09032987488083473,1.000116153239221,1.3750293256368795,0.045863383289182956,0.8508019344873121,1.890191877402886,-0.3113263777822484,-0.4476711495178672,-1.383470039482663,0.4250841420611378,1.4317663804132192,-0.3582354434489438,-0.47775516320314243,-0.6032339730118119,2.2510373905009877,-0.11204368601734076,-1.906632362026302,-1.172893171657769,1.4522720379035199,0.7716956437990024,0.8055177837887745,0.3276895353940359,0.006430638564894974,-0.39055981627525915,-0.4829127852218073,1.012904621408036,-0.2689521659119138,-0.3642655348589978,2.178270449083426,-0.6952889498008373,0.12329744112833253,-0.8790960851400472,-0.13522207990111698,2.069715945932242,