{"layer_sizes":[405,20,2],"weights":[{"v":1,"dim":[20,405],"data":[1.0455253840782588,1.083077122069116,1.2737554605107866,0.587677143883262,-1.1469062703404345,1.1056301480606228,-0.3724206956556413,-1.1344875814209896,0.4302774554105084,0.8532349470155832,0.64910144854988,-0.29651423051614506,-1.910132164622408,0.8888859565604024,-0.5269310824324929,-2.256216043747264,-0.23971078576838847,0.9352794315979408,-0.0720169884818663,-0.017268213671658372,-2.644231319283303,-1.7155206288346305,0.16664469339060917,-0.184922558900006,-0.9076078239084179,0.8443326803421505,0.641076240087469,1.181425125777361,-0.6520245118334574,-0.2679427759242257,0.10277333555565438,-0.44982571300327495,0.14906979930089315,-0.9219874796177817,0.05991936519223372,0.09228450597654046,-0.4717614679277587,-0.14902683719742493,-2.199461310737127,-1.129415120787831,-0.7591023781441081,-0.8717771214362527,0.03668916221926167,0.2437573748163556,1.1382978542378577,1.1308510923052668,-0.690896291790868,-1.8205350179579556,-0.5310611715455739,0.6014280409681718,-0.8915414913536371,-0.4965852302941505,2.9182547234996217,-0.3928436898506449,-0.6696653857161065,0.6034564063720836,0.10059456576320484,-0.7909221540678866,0.48779753598040193,-1.4994687287797022,-0.6012190551922504,0.029092326661631654,-1.0431816347829568,-1.128436348478942,0.6130832588606236,0.16293739800031842,0.627403800684453,-0.9006287420343424,0.7118795760405792,-0.09691079639683825,0.2666278493863244,-0.5192121349504178,-1.616539303850893,-0.9397281712493255,-0.40924963475971077,-0.7131234043080906,2.1490939187223046,1.9016530266589926,0.4214290033437737,-1.3249337737298517,-0.368163216543666,1.23054259863289,-0.20446141370092277,-2.091457921298701,0.6521920475695094,0.4738121329589225,1.4440584334056596,-0.6252315370001574,0.2779364796272964,-1.53139767598866,-0.200660579742775,1.3332179424451078,0.9481345475030136,-2.9503902162982065,0.5078125595172217,0.5785195054210427,-0.06683563544650423,-1.008221658165179,-0.3717023464042693,0.6577073311459916,2.231707997710942,0.0034953093222411173,-0.9522608598667377,-0.3039820728684508,-0.781012108064743,-0.9837356841734289,-1.450492542660044,0.5641161337303613,0.5186398442197411,-0.08587844684992861,0.695217796211342,-0.822907851169717,-0.9911379076756895,1.186068103048391,-0.3312752588658972,-1.067087819816346,0.5926176759317595,-2.1871797342217363,0.3013284055457653,-0.3355155306470478,0.4413606550098263,0.05222125039812133,-0.399657373196648,0.4364132238623543,-1.253632094944337,-0.6793127864908235,-1.796521343100544,-1.0416238459192009,0.40982161453741656,-0.9661064818808494,-2.3020852519196513,1.0143352011781614,-0.045165538875428214,0.49446684928394663,2.068857710948554,-1.3946511402943964,-0.8215503479143034,-0.3928133415104206,0.43510206726888256,-0.06823473325307262,-1.2166411001136386,0.7822104985618762,-0.19690603678018867,0.6698671835753185,-1.2253577048570838,-0.4696852883258744,-0.9061661055291502,0.7104956796997252,-0.27749926118633567,1.4207863316428155,0.6282239986052108,0.01537121658079505,-0.0932924295877659,0.09759722047721119,1.76232964524691,0.017997189393914606,0.29837519518137523,-0.4639330705018585,1.1937032797713705,-2.2471005539275293,3.277944487188933,1.3495968992743628,0.7706460248398077,0.3878427360787642,-0.6568790029804986,-1.1484248220989945,-0.25117338449802923,0.6367739133226431,0.8498479374043089,-0.8923885179469433,1.1605202491463396,-0.7629317331781466,1.0767193994830269,-0.5634699636083514,1.0609660525772049,-0.9385026214246931,-0.6897099232055997,0.9257370674305254,-0.18849550088604677,-1.0853928018068055,-0.6449089873375455,0.7002279076988989,-1.8550241263657121,0.18895534331347144,0.7021119109569393,-0.5203142167251436,-0.1892229934325331,0.10465100303940308,-0.10099820193726732,-0.2808912348910094,-2.4220616316351546,0.03126120036629557,0.6151450752240061,-0.5491613440284542,0.469307658166304,-0.644269927742912,0.7662047668870198,-0.6391234265377763,-0.7797978938203607,-0.3810658697442709,-0.4073875006053215,-0.5439092480338142,1.034781651003905,0.5196985110111039,-1.9570440912264895,1.9919711766352546,0.43166774891561854,-0.7555781883746349,-1.2865841704825212,-0.1155435664053269,0.7364024392325732,0.8846445367453234,-1.1222942673655603,1.0931044063541335,-0.1524346593656391,-0.4512424721796929,-0.43076685318158525,-2.294410269501636,0.3573452744089421,-0.022018362275627066,0.604404608523367,0.10086621025038905,0.037874044182129384,-1.551206164287815,0.4604434676821275,0.5167872460101488,0.9008646647390779,0.024088760978322608,0.26119152638973375,-1.6738252174312538,-1.2070834127555274,-1.5554002307640074,1.2145834640435964,-1.8780221425647043,0.8031930944823257,-0.9697676416031416,-0.8088048190135794,2.839209607612317,0.3971843451339708,-1.5637928790988218,0.32217738442855653,-0.500518098215707,-0.009925452350404849,-1.0173838208365817,-0.09615663590162825,-1.5279982085085857,0.8577204964919377,-0.6384807615107345,-1.3023125764101016,0.18728549759047075,1.8623640872505836,-0.5123596348341355,-0.39373593996748246,1.5188207178616921,1.0973809717861904,-1.6342131783733844,0.3175373935614179,2.4505739506360165,-0.6550197692121881,1.596844739202524,-0.36230687241760373,-0.5501094088225036,0.44639203766744145,-0.04338007989513259,0.03662507425976297,-0.5278490990120761,-0.07411463692085168,0.9120177742363579,2.5323619145793863,1.0995019853163297,0.2270849398642826,0.8298590751311011,0.3173948064582313,-1.8619229549566823,-1.2028928440422055,0.6673819472828544,1.3050487265479407,-0.2249058532350144,-0.9421277564762552,1.050703410478738,-0.79415322562123,2.0332387440210375,1.3349410867655396,0.5369209208860585,-0.48447810195541235,-0.581370279263036,-0.8087805618303371,1.1324934387727421,0.21474496653924693,0.06726268443476703,-0.18639166776010524,0.07251650265644147,-0.4382562823956645,-0.6564714904368778,-0.7634413169672221,-0.17118251236850737,-1.382100872090311,-0.30693543119865807,0.21795042170236165,0.4741121190046262,-1.5878673348586356,-1.4088938265390787,-0.8745518667260977,-0.10808448681337526,0.7715380107761249,0.24452867429395522,0.7769266785754058,-0.3594530951819602,-0.5566574423706099,2.1776824839768936,0.3704032514538494,0.6370656618468957,-0.24942321697114953,0.4058562424938113,-0.6577294853642198,-1.0135147864523444,-1.42072550255364,-0.11607008496667133,-1.2234947694226315,-0.5201872745679069,1.077447821851201,0.43124162877211186,-0.15152106260998285,0.1290686071331697,-1.1503811350588535,-0.03758671231202822,-0.16138923389582283,-0.01996529942127312,-1.3507666623340697,0.17973193940494653,0.2531486695828957,-1.544444061761119,-1.3300530090994587,0.9891782919866104,-0.8171544913812951,-0.6910715622066252,0.10351704364755582,-0.6491768847108418,0.4406003397770475,1.113508204218304,-0.11079320352339221,-0.02023582597167947,0.04638217299802794,0.13201047156647433,-1.6662584733175612,0.5003825223745287,0.24342899088170367,0.8125646095950745,-0.9636599731000851,-0.6129707273739029,-0.4655263857740978,-1.511494121963569,0.7242412323549993,-0.4201443548122001,-1.9810864057333304,-1.9965555563921202,0.2959970012869576,0.5321043679313116,1.1157587804272553,-1.4767265668209215,-1.142267769215772,-0.8950737077339374,-1.4532503754257071,0.7616927386049723,1.9872817946773773,-0.43084772828214285,1.332640844752707,0.5419292438770388,0.5742917087302246,-1.6423495727110033,0.05686632690038497,-0.010124044449540171,0.7118735560557343,-0.189834898524141,0.36934361277938704,-0.10080662104202033,-1.3053566514207737,-0.4176882022530954,0.03348559283913449,-1.4055745599839335,-0.8484140627243405,0.5248889780182568,0.413832864703754,-0.5188577885684436,-1.1505870910539366,0.5341285386865156,0.31161686470622724,1.3935943817969414,-2.249995353521834,-0.7119773999901321,0.45140015646523446,1.7869450458443854,0.1529129042865913,1.185128687655825,2.472174686182041,-0.6522719264796027,0.176979569458296,-0.4392867462034442,0.030049595504273555,-1.0090788391223193,1.4347895153110028,-0.5413061205774444,-0.18671712323239364,-0.6892397046129219,-1.1102112875213823,-0.33387268576433937,-1.5086282220195593,-0.14622160010447474,0.2928996211527117,0.17740890289817518,-0.15831964231419585,1.8544367188729272,0.5803622457658917,0.2331176855531571,0.21460091835817602,0.22265387091312216,-0.5715091780036792,-1.6797382760140258,-2.1119913064507103,0.4038537789244775,0.08063206762212415,-1.3317576495586207,0.9102052144722652,1.363706348893726,-0.4800895932378973,-1.48077326989397,0.22063025027703248,-0.6113248040967374,-1.6139654223231268,0.5485681224422851,-1.0930519500619789,-0.5726009529188604,-0.09345721860022028,-1.141491598390994,-1.1827719852124845,0.8944007422158091,-0.640302079737123,-0.16332173516045112,-0.4361343949193803,-0.20874450472745856,-0.09147848495902511,0.27623481060476934,0.20368249955103226,0.0607091007982248,-0.18174381740059506,0.3653488200985446,-1.6938828593332074,-0.5745475899943315,-1.655267629453448,1.052685599685967,-1.1397289277487903,-1.96584694140117,-0.13389584580820318,-1.3599817929866322,0.8225981366810076,0.32990245452634115,2.265592525367223,-0.5207511189439883,0.03616507462140868,-1.0505889782501276,0.7732015408688477,1.2495645792579535,-0.4023837895456178,-0.06815829655454035,2.0030490135664945,0.08319787829738783,-2.264914317286759,0.6972113415229938,0.6702087168607165,0.0611604951120314,-0.41408322480927956,-1.607133531450092,-0.2173380534929139,-0.9114647066193323,-0.6645703168121542,0.19512355516039764,0.4003965900695,-0.04389542141151264,0.7703826747642388,-0.06082291377243253,-0.00881901582867218,-1.070997198087498,1.7410747037317842,2.901643000030001,-0.5676814631425228,0.12133950479852924,0.7286286297525512,-0.7492399186251071,-1.4470735389037956,1.1762913040869398,0.8293642600519731,-0.21434680734023548,-0.4082021744039038,1.3185574323955325,-0.48363722023757755,-0.0023341326657420683,-0.04749318344077598,-1.9425001374928577,-0.7913291487501244,-0.4546178871906424,1.8004400926451973,-0.6865696163808217,-0.1101686559266285,0.6550845255959256,0.5866309149922884,-0.4980133016230002,-0.9165225311074069,-1.6092320105584221,-0.16366085385424056,-1.9137819025205929,-0.5613405761559392,0.05430141703401045,-0.6038740402771982,0.968020312404493,-2.447371962230254,-0.32596165078995365,-0.23273806937264396,-0.4865319077810834,-1.6044106649954726,-0.460426163507423,0.8688953505905108,0.4185526849798083,1.2798254601207062,0.9373881559730594,0.25201727189595746,1.007765700184588,-0.5064192230945496,-0.36544743611431946,-0.9339312222744338,-0.38397067080478775,0.0022121532933569105,-0.592247665686629,-1.5376256090760652,-0.6417034716629921,1.391231839911951,-1.7371245728558986,-0.25533857968580265,-0.6048320587752336,-2.2012950880071624,-0.2053348975958455,-1.0860245634654144,-2.2556951316353833,-0.8091492012426923,2.016610621848866,1.3946739179311312,-0.840798891618712,-1.7530206138842392,1.5144955294213303,1.2501219270656891,-0.975868094155776,0.15120113733814064,-0.4674176081210484,-1.1315697652772367,2.297988423243934,-0.44676963473358405,-0.7413305083696341,1.1113331559552837,-0.014184781462976338,0.5038748478578587,-2.0647336276464303,-0.2504305295004894,0.3427548728616173,0.41414200719719,0.672260937182935,0.15848418400146705,-0.14050576955577174,-1.3001636376619314,-1.9561429427815873,-1.3607811676886055,1.0192817461971913,-0.028787009317993998,-0.8839830241524345,0.09962201966992257,-0.8672077078818207,0.18345064750048778,-0.13843325642016158,-0.57826069195069,1.409992583114471,1.486785039254927,-0.133487493978834,0.21835494336594446,0.8568979688028474,-0.009321822961581863,0.473457149748355,0.05804487373895373,0.18181161634626952,0.9423085991232891,-0.32276212076892324,-1.7110099051262702,0.20807492096679442,0.7959300000990797,0.8107681458281346,1.2972362437905642,-2.036719713100424,-0.23250167516863535,0.03698806884361116,0.40004288971410784,-0.1545571513731227,-1.0615075936579763,0.31622865429900604,1.9150889812266627,0.09175875178539793,-0.854638071628109,0.6856569844803022,-0.3028236195620649,-0.680164160194581,1.0331295097010846,-0.7859949753559061,-0.11021407997489643,-0.27534319661648277,-0.665104565903173,0.9795685382425382,1.0021184661970655,-0.14374928111781524,0.6113174106865004,-0.03313841906396661,-0.9903631758930355,0.24164673388464003,1.055862287776304,-1.099626626778142,0.867756510076909,-0.8891380337639051,-0.22795644079328806,-0.6032439107519328,1.0668401506667502,-0.03175221451842669,1.1711013994563664,1.0295876837239673,0.9151824071400515,-0.3857529983712599,-0.9396606993341632,0.4201996103503898,1.8273488787295564,-2.0380467232292303,1.4131455925677638,2.722158946605414,0.3894065466263047,-0.3522008773775964,1.4569611189848657,-0.5707623577822473,1.079068579181537,0.6535574208521039,-1.458985080416567,-0.11946406787832024,-1.3919762566561653,0.25599974101400613,-0.3698677227888324,-0.6919521451523318,-0.8429317974417253,0.7404626407123208,-0.79580366825438,1.4630981579921392,1.2751671184030897,1.1148001024061407,0.014072100574674735,0.4669881587215137,-0.5345248742896949,0.5563447089956748,0.41599176995650905,0.9011698745670762,1.7419118549473327,-0.9603950006935522,-0.10411740297048605,1.7168572719275919,-0.6289533930960678,-0.29193122285324014,-0.39530017383043553,-1.312771780996893,-0.1842778944789434,0.3874889992199163,0.7296318341800123,-0.46376484694025205,-0.9946240866744421,-0.6876119374450909,0.16039825371179528,-1.1991875491913688,0.1550501329089564,-0.30736416867255617,-1.350339400441974,-1.444644788404701,1.074285479672557,0.9427032729765735,0.40161825786637434,0.8135592108725219,-1.6129891453153877,0.9618194919182553,-0.2181714445731765,-0.7924859122532624,-0.3313730014238175,0.9132576171541699,0.8528641992450642,-1.21539495904429,-0.05868006815282906,-0.16242614177302314,-0.17865101856203378,0.5390941554560038,0.29140988462130285,-1.3635635454738493,-2.1779845913098,0.15394582439822702,-1.1116944635099009,-0.4552887300182893,-0.2570234561155087,-0.2439225761666434,-0.9386159484987635,-0.5539612979998381,-0.7125883299991939,0.8430760374125104,-1.6825331586983694,0.004319537760109274,-0.8680574341162921,-0.1621878253159018,0.40480484035639924,-0.09927213680518426,0.6846720050496493,1.38771112318657,2.0854926448024553,-0.7273032602769508,0.10326821258180637,-0.8385352278691862,-0.8944714177413142,-0.050971240158467636,1.2658211818816538,1.0977714084664845,-0.6112233384396708,0.29778875770112606,1.67725207130805,0.07579035652059068,0.27692048111621387,-0.8119901549436359,1.9182076106952457,-1.2631107324713595,-0.48499201654343055,-0.7807317990655335,-1.2164492449261575,-2.0812714115639204,-0.12976032883428185,-0.44629670016938144,-0.6237626781815552,-0.20601761428104104,1.7748292130113825,0.06281665127252475,-1.1424387305073997,0.901102253724707,-1.3943513277867428,-1.4944890320054771,1.2875858089367764,1.3774254753033106,-0.7337376806135191,-0.31860187839324694,-1.1890060433494853,0.44754822580937986,-0.37171097051009516,0.34064390218264756,0.555587914176891,-0.31570637357274495,0.042948204594546506,-2.650573085714194,-1.4236098400087935,0.5831268430291765,0.5745386324498285,-0.548312539664534,-1.3233963629953456,-0.2024107097755652,-0.8554893984999826,-1.064787035066063,-1.0412369110094393,0.29128895196265403,0.6001377473768993,0.8402224243267712,-1.9174066704294503,1.7165212420166405,-0.8794015774272345,-0.6719340571236531,-0.45952955412322327,-0.35801344111656175,-0.895114063683192,0.7105583583263912,-1.9185618973326248,-0.6263105146638215,-0.09065393324233555,-0.5714245230675931,-0.7786601129262765,-0.46601103245974246,-1.4176634292412582,1.6933148727176308,0.747544348684548,-0.1378654845147714,0.8465435410427921,-1.4687101541784893,0.5577601613766985,1.415011694985514,1.0357288438689485,0.604175766867053,0.20023469030981028,-0.18079707018678057,1.025059298028312,-2.0387146135099283,-1.4054657984721206,2.1127670794495947,0.413158355803422,-0.1396536230345231,-0.7750891926645771,1.361153090323115,0.7402586585073531,1.1495051903132256,0.9945394372312227,1.8617050291286674,-0.8278738530669749,0.49972857935021187,-0.5000086317435738,-1.0705287832787267,0.5744452641284623,0.4583137074656241,-0.7500917699869322,-0.6668171458365282,0.8319917073789584,0.6728919319318821,-0.918991480683758,0.7096249639655238,0.01773858675278415,0.4885464013626497,-0.681531977107265,0.845939106162587,-0.20877415304489969,2.314280456290014,-0.9388607807720531,-0.5223967536019837,-0.12519000449532167,0.6921654142038045,-0.24896350712185597,-0.5680837151139363,-1.5469792918859602,0.40975458948627136,0.5841850578364697,-1.1311118790500396,0.932779206353716,-0.8126187214563771,-0.5279513896747395,-2.657376972426919,-0.21560843063015184,-2.1975976673049855,-0.14710978769083988,-0.21764275559911828,0.47181796482969257,0.21604705390516718,0.13219564784498022,-0.5198510965210636,0.3244092596674109,-0.9117430512210344,0.3907439312913891,0.44005439154280707,0.857191811041106,-0.9442222357371067,-3.75685280985153,-2.4372086091654697,-0.9628712659348814,0.2329820953732949,2.3279511698679514,-1.241738811611383,-1.310499452937157,-1.0291255843907923,1.4837187783590573,0.8907422723045055,-0.19525050665956392,1.3027109036058837,0.7856319123666227,0.11734825508542486,-0.7869722773804768,-0.8871774644994708,0.4023170040429872,0.16536732612494864,-1.0696391282731743,0.050472187391577925,-0.3860480020848229,-0.3519730785373714,1.3974134557926323,0.050858644144402575,-0.5020417216601214,0.7632629871297674,-0.08354581642697186,-0.2902989428340038,-0.13134031721815698,0.07216229777482451,1.0096061661826166,1.8753508747457055,-0.37438830169204274,0.36179275264300054,-0.053791551649544356,-1.203706457899005,-0.10216483113239257,1.3590852704241148,-0.7254127308569819,-1.584549976360254,0.7548930376797569,0.43023598047717526,-0.06079066315219609,1.129833882119047,0.18655479920725138,-0.8614693318566826,0.6977071833556384,-0.3339434781512204,0.23611893817936497,-1.6292257548397644,1.0427680008860551,-1.3260766060413256,-1.2608354528917578,-1.3854543108902524,-0.15288435300927394,-0.74801090767389,-1.4292615207708426,0.4833412140449665,-0.2497569781853841,-0.7566544659556251,0.3275170358455115,0.06544866705412532,0.5074197784882605,0.6386898578893949,-0.544015766386099,-0.027491720347402094,-1.0299233741249023,-0.37435834327143774,0.15065900699353235,-0.13980202372548456,-1.835486504314729,0.26332376400914137,-1.2880219617800281,-1.0848683376046988,-1.0045325684226603,0.02280459124171525,1.0897600716545288,-0.5202452538534194,0.719961216005194,-0.6585026925489196,-0.534580126722783,-0.5170713807115717,0.23064822830920337,-0.18220054962283705,0.082017362526847,0.21991005752512255,0.5051975252225231,1.373615352412898,-0.5928941422139776,-0.8783040274979219,-0.28053693203134894,-1.3706921201756694,-0.4770335685444239,-0.322896735985886,1.4379061588414088,0.1968016105689022,-0.1552468076430723,-0.29364301271474497,-0.531523595874143,-2.286013953431171,-0.6454750008303812,1.763192243463655,0.7764690732968836,-0.36804876201460657,-1.2377450160477352,0.4841853184423449,-0.3079530432447971,0.07693987658665927,1.5800706546593122,-0.0986019435636652,1.680199373814422,-0.5950469576819901,2.220357137059037,-1.7324337308556677,0.5171128566782588,0.4573895484069626,-0.13692792535245799,-1.1159566317441847,0.281721829763625,-1.3859237229847985,0.5513397115008707,-0.7781886977417866,3.845887050661479,-0.5610576682931626,0.2177459327082502,0.44487699218195337,1.0591988240703312,-0.1994312119611824,-0.24502377638207604,-1.9692811902193443,1.0111487427531043,0.7945881362423315,0.3869287662194193,0.7983726335962953,-1.0817045532661826,0.4764430199856658,-0.4920600056495078,1.0802415747862797,-1.273677208377705,1.402401643571026,0.5773955069285978,-0.3180701458877613,1.9520889208171868,-0.4150722410648533,1.3059982797749217,0.4309054342599441,-0.3209192443002635,-0.7886285263779678,0.29685746357794973,1.9602820320201124,-0.22905662014637057,-1.504336612256702,0.22271682100511134,0.41141314049854305,0.829392380449882,1.3021751072708005,0.392016256022443,2.2107425183583973,1.954371946700861,1.3766678403216903,-1.6993043793718556,-0.48623596408731373,1.163942109079587,-0.2786906500782476,0.28270215697161144,1.2860806423186837,0.8248385052337093,-0.34799210077974957,-0.036857337630599084,-0.821325023089454,-0.1442591976186184,0.7156214900953608,0.16936146459063622,0.5689828436942278,-1.9219164766534937,1.6862557390510842,0.02294258608084918,-0.07775986214107661,1.5292365037250468,0.5155880032453998,1.329456634391898,1.1666931532590648,0.9765327281525327,1.4946843740094584,1.7168165928128978,-0.20790910779239274,0.9130611326076958,1.8274436949669042,-1.631103946676502,1.6440156806616302,0.8169759886161722,0.5987099531229877,-0.6498874322183056,-0.927932872423795,-0.05943161396825474,0.2925024740055913,-1.4179380424492327,-1.3345920833516534,-1.5543924751390277,1.9770616648688977,-0.6876923601536675,-0.5688109218877643,0.21282829494189298,-0.8093831121134157,0.13756638629753162,1.6858227285965128,0.21896033947924415,-0.09282839607200821,-1.0324536391428658,0.27662279203537554,-2.2026837330886404,1.5443460160184517,-0.6428376386026661,1.1657241294200555,-1.6651443780836552,0.8236557752960151,-0.08853794301217427,0.7582480895594831,-0.3818890814562718,0.3339727375602639,-1.1977581935229331,-0.6330690956769705,0.17547689746073974,-0.26870082247291194,-0.22202767143746419,1.2143651041054375,-1.008422401997512,0.8513128308085218,-0.18614492301973748,-0.8193429970288248,-1.4534905688430952,0.44126213727737773,2.337323216410064,0.44676840838830184,0.1557737653404582,-1.083964148106406,1.369891153777608,-0.08069699598741703,-0.5623333853143425,-0.6671687725944029,1.359149925994062,-0.20182510291461692,-0.6981484008986627,0.7915350100646604,-0.7060439387056381,0.10190807794886624,2.7090130214409958,0.25876210603177074,0.6366702149246485,0.3458257441593494,-1.5877661710643105,0.12858472992036335,0.401332235997844,-0.8143465903209941,-1.5604996595068001,-0.5245974114608299,1.4343822129678747,0.23470794270992393,-1.3989557360556477,-0.7908994909442698,-0.3154652734096029,0.6006450304174223,-0.6505694306251237,0.9734638910630309,1.9441762250576808,-1.6130180087890589,0.9654228239083871,0.6647830673552374,-0.7557946175123601,1.885841612937708,-0.2812514998500049,-1.1429336202032918,-0.15720227425212094,0.13743858864175776,-0.27041111333756646,2.3297953257051964,-0.03395403775244773,-0.6352659750892247,0.43455540572380924,-0.6427589191553615,0.7950511804489896,-1.5352900786906516,0.038207494605822075,-1.9442850404181333,0.8556562651784306,1.5210742914531166,1.7712630985162123,-1.115082916717964,-0.6344736193464785,-1.2116343728725927,0.27129054081868986,0.49132652121653486,-1.6204542031287215,1.7193607353229827,-1.100996259362679,-1.0304983583751517,-0.5819947978401822,1.5894628302696203,-0.9177144994523678,0.39394639035632306,0.8894461083497449,-0.5093668299839805,1.9219944368616932,-0.8406441983920244,-1.0878886532899648,1.0858571565841375,0.673782769188081,-1.8607260758349629,-0.42243440837254825,0.49418767996098834,-1.2044860706333518,0.0642238285856767,1.1204652670869666,-0.6675438584043851,-1.1978395240789848,0.15493681833680534,-0.527051272562515,-0.6069545149291184,0.36701550831306134,-0.5621329263618051,-1.6621664382068855,0.24800457415020952,0.9739493543705616,-0.34196809981604703,1.3788597637892683,0.7177841602404016,-0.9800424010756196,0.7194860999764962,-1.4835567727787726,0.5757232722248896,-0.37376176071265066,-1.563386658267061,-1.273319880482985,0.5160585777786787,-0.5013074722732788,-0.1592080607843147,1.674272535649081,0.7514745170401216,1.4310871540485368,0.4974042039803524,1.2929917368143928,-0.674386723355082,-0.07899971430730082,0.4874954617753312,-0.49784174131180114,-1.3273536658072225,-0.6488706291163391,-0.37717785594750763,-0.8438893316836512,0.4405898256305243,-0.3749989553264925,-1.8256666092533638,-0.010371672779359246,-0.20555908879036366,-0.09647537291559587,-1.7557478261119317,-0.5312851655282976,-0.0024201194475496797,-0.7359648104319737,1.3229547727421163,-0.4901858722678205,-0.33967505030856915,0.8875139663488512,-1.7705300397729185,-1.007679652293408,-0.1605844454028071,0.3065812822094649,1.9220805159016094,-0.14811454554798273,0.49617937543621865,-0.5023069509118174,-0.8650670147628647,1.0066797332930753,-0.6257549206137498,1.0407153645707907,-0.09600921538214768,-0.36553780214307235,1.6340514143530007,1.5581955318729896,0.02910049215223236,-1.2323011257715653,0.34766008999001086,0.40726377202321484,0.20650294899349433,-0.11088186790994112,-1.1175342030671584,-0.23219622748273838,-0.9408240556074398,-0.31318347069822144,-1.7675874988626288,-0.16467581279607818,0.3929407859059847,0.7851069818353382,1.2587272111689685,1.0753514284539982,1.1370237547785504,-0.6000144233665229,-1.494290293582174,1.0676526505054362,-0.19473035949016934,-0.15179149851104967,2.6058022567657937,1.770505003394228,-1.1413316847565482,-0.5356839724211591,0.6725993693964408,1.1761148963891948,-0.38878583149965174,0.4365541405464014,-1.0636515582776658,-1.6881046084888487,-0.8775206618517877,0.37316007723564204,-0.9087587764809368,1.805239218993393,-0.23538219216267545,1.0285709261206206,0.5932282586907421,-0.9064956087629883,1.217633144263755,0.42734008399352763,0.9957693785480325,-0.1800272591278104,0.33172112884737054,0.864007381418619,-0.42218210563832964,-0.33414153175552586,-0.5648182397160704,0.4454168844532326,1.4794345905795014,0.45855518669452255,0.6664393896748321,0.6808878880538023,0.9435682353258855,0.2514095722609765,0.9539707841005906,-0.23681467062546602,-0.7604421338558325,0.05287682693202174,1.2349344468630783,-0.9605731728310181,1.221373324246737,0.44892828195326745,-1.025179064868165,1.089001977773478,0.5079726902720585,0.9123052221788687,1.7861121734305114,-0.16445226573174604,-1.459604288532578,-0.22951459011038336,0.38850036008803995,-0.0997005763414243,-1.129272350994706,0.7363867388347302,-0.4037070784559929,-0.2918872956400022,-0.9653825896244648,-2.1829682093953364,0.0210914607237027,1.4382454991061275,-0.04301455475448826,0.5075208507914624,1.4266346647666075,-0.3659869765898315,-0.880681905169839,-0.5292393643042688,0.8423361940008037,0.10535568013111882,-0.9766746624493748,-1.295193175297645,-0.23966664693722084,0.7551602727987367,1.0838813505595521,1.3024458283584104,0.46623222933875075,-1.3372696998375724,-1.2312381711260907,0.2772307390374494,-1.0223518492500097,0.0618222427124077,-0.8787011382666282,0.007023070396532709,-0.16441613462187685,-0.4407617636830359,-0.8743795903637958,0.9692541900582502,0.8459407331042127,-0.9134527925039206,-0.3513799909931096,0.02850671814094936,-0.535766643674543,1.2108899385093614,1.0686226178815097,-2.028520295405783,0.6781716259818851,-1.0343927724797128,1.1735103412033303,-0.8704882160924312,1.9049059633534988,-0.1849651143628825,0.3236282705365794,-0.5365568189534361,1.5378808382083033,-0.639208180545177,1.1949093078327215,-0.799891576418907,-0.23142627364692364,0.4003520908463532,-0.24427891359372506,0.6601236827443077,0.0926417151135547,-1.4090027801010527,-0.45430834051332764,-0.3584849830598588,-0.4468131430171018,-0.14318506959812405,0.34078759435863626,-1.5769231216270727,-0.28997159158782826,0.29939212784696423,0.12462352529658825,-0.36363067621978346,0.09938586060959423,-0.4723135513941411,-0.08411731244313009,0.6394285612643524,0.18160685270642024,0.005992649718402014,0.0029165093872807043,-0.07909537310821327,0.562169224121955,2.159084752865413,-0.31803821832518747,0.3542493769036869,-0.5052177738559891,0.6902448024889893,-0.4842303030253383,-1.1913223744242136,-0.33725640178311517,1.1216812396689972,-0.7130086975717594,-0.27866866105585136,0.8991810352402425,-0.4255633663832833,-0.002876063974656298,0.760397765509013,-0.35062871536238,0.7899529957032954,-0.8663002839277311,-1.4753865915934425,1.4905876689081685,-0.2774620864073142,-1.4338768814764207,-0.44530006893368923,1.0221411924182466,-0.058997158188769584,-0.7822034320349723,0.6612733475285557,-0.15502102851279012,-0.7039728673190453,-0.567088202051101,-0.4823840474303936,-0.37030372310320003,0.9731692324068414,0.2606359629261382,-0.9667051040995545,-0.7284511836985262,0.5382036683707577,-1.513283412753224,0.3971297908172211,0.6717841547528024,-0.872805004012572,-2.2670602813417724,-0.09661008959442031,-0.5737130314359006,-0.4484641033094312,-0.29585985318968294,-1.0056592254645698,0.8014691686573454,1.04673014561294,-0.0780966370281893,-0.08833633732934155,0.0006014246102233611,0.49110788852913406,0.501114313573182,0.4563927742718064,0.04469758980357131,-0.7094026600819237,-0.3581215706717336,0.14583947201367797,-0.3974743571765001,-1.0608904600905193,0.7601403989993115,0.40775341248634317,1.5051798825770317,0.6625611591538981,-1.0501417876096704,-0.3968067950181753,0.8124314120794174,0.2874194092906279,0.9913793884560712,-0.4025974766067522,0.06950234024959487,-1.272348936624465,-0.5405459825629256,0.00008742542870632468,-0.3447857773133741,1.8428495143395214,0.28835556481765856,0.6167662741642601,-0.5189353642525378,0.22422375935910502,0.8150084027932826,0.38682799825815817,0.8765030282329485,-1.38649454098493,0.9036140245921845,-0.29826191838323235,0.2076416457562645,-1.3688922783155641,0.05832192766172003,0.4625379993254855,0.6014170607707457,1.8999263375644666,-0.36857704066404917,0.3036673101500359,-1.7307680074473581,0.49001109045975333,-0.3097988589851128,0.020901901824747902,2.1001468088984527,-0.29911137623714923,-0.3868372835100043,-0.04068005692472375,-0.7479149345864847,0.7558749160593616,-0.2960446247266025,1.3002680140451863,0.9456680235868723,1.5685832807287705,0.8262510890578594,-0.10595138620260697,2.777182414724522,1.4052010907915122,0.4641098243720484,0.6759500659613477,-0.6177910845898685,0.38422548842783216,0.7012155500260021,0.6810502633741455,1.709601285090098,1.771500775482582,-0.7335471566505206,-0.48655830110056825,-1.357104085704437,-0.581954068931729,0.44797967218528273,1.8358634958615794,0.6184218346215647,0.6411102705380033,-0.0955522367921749,-0.08629176336167993,2.4159593992088815,-0.07727572595041957,-0.13013180182018586,0.3964551568026624,0.3084284481602672,1.836134626765695,-0.7122837928049313,-0.28927839407461753,2.2916596230788238,0.7421883742686606,1.526627455197012,-0.040548761529937125,0.12202607621712383,0.05421840552852157,0.7412370397918936,-2.0268144908769545,1.4125171614896317,0.012584028799182646,0.21902995951013338,1.1083447829397746,0.7116077895438988,0.8638275162035396,0.15940298721224935,0.09722460891026397,1.6328367566656712,-0.5281671421279667,1.362691472469932,-2.0043791956504715,1.3749905279863615,0.36731536897657485,0.0675502758341709,0.6666915388121898,0.789241288099893,0.0814679641473089,0.6660565641632245,0.1198934879224668,0.7026159283099173,-0.6561413765095984,-0.12482037102146176,-0.3331041857799108,0.9332909661902749,0.7107609230880904,0.4437591512751152,0.7556302236185669,0.06411978122398734,-1.2870297183861854,-0.29234697462324344,-0.830036600800102,-0.8859694619432099,-0.9186109886320684,-0.551857337975205,0.3627246331788176,-0.510585769579359,-0.3143619789153831,0.8951734494531267,1.0243129152750627,0.555675877041261,-2.031506078085413,0.49179466171383696,0.3124094711788684,0.7141559833809973,0.3242465256442218,-0.1928090576615102,-0.5627682077997725,0.4811577986390657,0.09443757422903998,-1.2077432714079717,-2.1648706016125345,1.0727247695928883,0.6509854790323037,1.3704026638334459,-0.43430259263151433,-0.605861353893982,1.745415486025601,-0.9814026964857245,-0.2904974508985474,1.0040595919060031,-1.2483278299563505,1.5025021618930117,-0.2594399484043344,0.0369672086128511,0.5978997600910533,-1.8787374544247177,0.8290655669661015,-1.9304993968630941,-0.14062038009269487,-0.4438289358531291,-1.5699449378944244,0.5600466196040659,-1.2475211288345613,0.13695754292146942,-0.49655528164365387,-0.04686114066405123,-0.6901497855989069,0.48657496728443733,2.518123509249584,0.6219750131037035,-0.3845809188757582,0.554450767039601,-1.3406650665585353,0.906466236483106,1.1322854036131682,-1.1208538149285074,-0.07212175800441788,0.023698597971031125,-0.18748204997519446,0.3031937003146632,1.3293057486895488,0.9897109327997295,-0.23705985145104533,-0.41945759988906833,1.6649232389554325,-1.847284320949292,0.438954422248585,0.4147404965306191,0.011947945878585742,-0.3715746731549582,-2.5350779880986662,0.6899654112401543,-0.812628105922944,0.3504462756581857,0.5744884431454451,0.0003929976105005904,0.20506954224193646,-1.2957300863733812,-0.9196931747339986,-1.2059557717704805,-0.3766442504231284,0.029839688370853993,0.481656526436751,0.031618964842665784,0.15428310248423086,-0.8883263363092957,-0.1714675123316534,-1.571607258324756,-1.0524888639904386,0.5793019702222465,-0.02474656277700122,-0.8845545588314739,0.0036002316843679154,0.14015054919755265,0.06610662674636024,0.08078721506088049,0.7562743266979393,-0.9231931720866776,0.6035220705121147,0.9153753107041726,-0.5445559154683348,1.1851650916835805,1.7888870820748792,1.4010602241417884,1.5894146228006116,1.695698910345289,0.25548558536362814,-0.20490056677987611,-0.681888581224888,0.8882808556338513,-0.29402537926297395,-0.6570440472741221,0.5895584501922791,0.3627082756676505,2.3363144400849354,0.04428909642243652,2.4935811778693773,1.248136038873308,0.3722057331832734,0.3767780406046965,-0.05134602455039722,0.2782969834882072,1.1101579922138103,0.2096571909867801,0.23500082416634743,0.6965165639500668,1.363490578783914,0.8697566835207494,-0.1229935670300155,0.7318813565927588,1.321191959954705,1.516985670478817,-0.5003167750077153,0.3552848246567271,-0.8463372080815514,-0.390005014109469,0.6358479143514422,-1.2646428721546947,-0.5402805857731177,-0.6504105419763154,-2.305008649040752,0.7229146825220606,0.021191202361082004,0.02546382639858171,-0.7734791232045604,-1.695782491933788,-0.10830050290684969,-1.2041107697243851,-0.2790178440783528,0.0954856262433572,0.44823878496836955,1.1267640937015428,0.9412135949917612,-0.4089024510319013,0.3511203757991124,0.4346420412349411,-0.43090190505899184,-0.569638585441929,0.6674559031369396,0.09075163495840291,-1.1812798306255625,-0.4162533458780791,-2.1595070403891548,-1.6436720017945632,-2.7603327178640447,-0.6348685835285127,0.11259241149269655,1.9644427078888187,-1.385443960204762,-1.1502647070561924,-0.51598962388789,0.7007555817284208,0.7829443098900148,0.5387729501631293,1.2406960538191998,-0.31548375351750924,-1.4959262793517674,-0.1642649237527521,-1.1530527470336518,-0.8384655321338444,-0.45317937554547655,-1.247566247101492,-1.0956245122735289,2.3136695824258036,-0.9552665606834805,1.452056625883827,0.28393401362652887,1.4373289035543984,0.49864261657898395,0.5659127797811979,0.42856448922271206,0.3141483693673714,0.9546465646638788,1.6527321934428567,-1.4003382894620342,-1.1420099625989337,0.362677099013989,-0.8142927932913719,1.5033907796353367,0.6661936107819245,-1.9691656433030298,0.48709743052468274,-0.908436767876662,0.8118870020840412,0.055820836422652356,0.2698011860553647,1.4845192109499454,1.2169909707624202,0.07546993394278266,-0.5720600868257913,-0.781116317595667,0.14220474209323705,-0.5348556107869984,-2.3677848764851515,0.3099173808177209,0.43759076924029483,-0.7431639400319046,-1.420148370080602,-0.8678851857250666,-0.29041449397554836,-0.035270242074598786,-0.7679097401927782,0.45732072183928846,2.0214941605906263,-0.3507422695919289,-2.1223095896686295,0.11094354961692031,-1.3501657652467995,-0.7550738793170494,1.3131213011737126,0.6531002710772492,0.6288183414062153,1.8637374021827724,-0.42589372647070656,1.1792041142908576,-0.31733181622929885,1.3878279542109666,-1.1421884674216247,0.8643913265824829,-0.044638133196549246,-2.2400801397117265,1.0808100664420661,0.5967090253496828,0.601913857953638,0.182761475990901,1.0006909517721947,-1.0623566102189517,0.2440866887837605,-1.0453666463368307,0.8187242976968381,0.5284875954629651,-0.2562228449455362,-1.1866186890612982,1.0696840309500921,0.5441829365216739,-0.27265814552052065,0.6537334686425833,0.445954188625597,-0.152075001550673,-0.6960642985913053,0.91724452698972,-0.6052912605308518,-1.02050818407855,0.9093192047301158,0.5463225254064833,-0.5817006524452906,-0.8645244148759997,0.39921899742641315,-1.5697245468242778,0.4567211388894898,0.822373691987255,-1.3402809345799562,0.10513617838670129,-0.12310679787529154,1.3865525979646236,-0.06180779633921537,-0.22243046472138467,1.2545394953397524,-0.37868196964750933,-0.2643483486265831,-0.4508243850343513,-0.8587832432162176,0.4423581378963787,0.6501742402252728,0.048275246136008455,-0.2062752343859789,-1.5264380464070333,0.09550679050848376,-0.8379184172228161,0.6604632315554311,-0.5976502610386952,-2.4008005225631917,-0.8240157693942582,0.24573718781102602,-0.5336060324828797,-0.0819163471674851,-0.8732886992777612,2.6302889202538853,-0.749283665195318,0.500546591759312,-0.7686433620962088,0.40424189540465993,1.5396137061788109,1.747503263828772,0.026316509972910587,2.3901576395846673,-1.0497306075567425,-1.2772198855157502,1.0106976759882693,1.491744442831547,-0.0855105801169859,0.7209574388527115,-0.00021388617448445905,1.2389283925227144,-1.0986013296649966,0.6825917036590237,-0.8753173196148534,0.3720740675026091,1.0666683607077656,0.4363322619277514,1.8423421878483246,0.6172661906801274,-1.6147024711706002,-0.8544244732059121,0.3143019064677931,-0.170737506218206,0.027119677579666886,-0.08001077153329283,-1.3633435091091737,-1.1477689315113164,0.5367406593727545,-1.0360371928446415,-1.6316295024247163,-1.2294982052687036,0.20748159959206167,-0.14713392911257125,-0.7603890806663126,2.751789117948208,0.23431305806495442,-2.58111745577743,-0.3153932826918508,1.3072178427949763,-0.07100782235164635,-0.7022847154081969,0.7245545795367327,1.770442689167125,-0.543576551205747,-1.5440098998102483,-1.1319513275204105,0.31889113335748087,-1.124021450162844,0.5730856062089958,-1.170853664280601,-1.0813575477760382,-1.2122529839032017,0.16557804503788745,0.06306179108109833,-0.7071063444673531,-2.2490228353852593,-1.3058084011002713,0.5920087284404957,0.15302171593418934,0.6138376927322966,0.662010770665734,0.37923796369752655,1.6231621954906552,-1.3160302914472202,1.20295161210454,0.13672324162603458,0.0494883424660852,0.056216464979720576,0.8245173807181108,-0.32638362039664676,-1.2591106069158509,1.045484547067693,0.8135565310586854,0.7562801854497702,-0.1727615821352528,-0.6821937121802087,-1.1073719265894912,1.5675358156623254,1.5705675801113492,0.7886635558426157,-0.8838817434705138,0.172220488369315,0.31195776631759203,0.5363978065436614,-0.37583010483787505,0.7447817137663448,-0.23554785505943443,-0.5950733736206726,-0.5309373317111858,0.79510456532999,-0.7610559243534494,0.05800460906461823,1.6491171623034862,2.4135747049992364,-1.2993986953559094,-0.8837724484524134,-0.7298418841342447,-0.5123102788158163,-0.11817880449790229,2.288449983896493,-0.8991053156152105,0.8095578309910842,0.6026395648181706,0.6555211316293709,-0.14067623974451016,1.0402588775789672,-0.8041908774208527,0.7446690880191985,1.3915986844377626,0.4423761834821882,-0.009797203605433564,0.5824701087538926,0.17066808034483838,-1.912530443970809,-0.49052821788810025,0.11867002358933075,0.40042145126280804,-1.9094893335422665,1.4660560311074282,0.9113277225731002,1.1226540253971007,-1.1678373415815766,0.13155753613679746,1.0175614564008884,-1.0862019042796958,2.469117146563909,1.9420651772338198,0.7490736653350224,2.577081458979389,0.33243331241684443,-0.6033356622610434,-0.05010090121019504,-0.52355457351262,-0.20289945174364116,-0.22001202626418803,-0.14575354238343607,0.8701784330075608,-0.4536362292706972,0.9516566075851918,1.292784714135181,-0.24160573829496823,-1.335626302158801,-1.1360707792612772,-1.5829996690013683,0.4268596223526564,0.6068010558608287,-0.9310036991645888,-0.19554853104542572,0.18734526579936622,-0.8763255293894079,0.03107746738838782,-0.5899510022104079,-1.1804800601430998,0.17985532585193134,0.9426548171031178,-0.7871188272075422,0.19927776571775926,-0.1521848851209692,0.8120221933345788,0.9824606007707409,0.1398225457639884,0.8743748034557741,1.0718023951729547,0.842774875058978,-0.494742161113453,0.4111017166184387,-0.6229315885442167,-0.09838710206889514,0.790303654412933,0.7670064531112825,-0.4733496941569796,-2.317291304120567,0.6871590255015119,-1.1240111228841638,-0.08969565624208006,0.21426921982808952,-0.32069246211798025,-0.10293079230235515,0.5714282704466963,0.5770832788002082,-0.36210501524514693,0.8755812685789355,-0.31615312148649444,-0.37087419020564194,-1.1155605232375638,0.6948874016105027,0.8948957373331585,1.736967581615151,-1.7322136954240772,-0.21272000593106,1.1983559435598228,-0.03257405047219971,-1.4705140918809831,0.4644417336833219,1.1338155926615694,0.9638123027689228,-0.008185491669020807,-0.5896024722035299,0.3145846167275693,0.43034233970892827,0.03423862467338077,1.7624390328497128,0.11185851219526516,0.12828885424411812,-0.9393602540079767,0.3744815765849106,-0.3137088564449773,1.8566426319568845,0.9320843274668841,1.6998294528312323,1.1244258926598414,-0.3558690845655779,-1.4075403244103823,0.15407225047259507,-0.453148371499915,0.9871550287823155,-0.21677007713326496,-1.1809488623842432,0.7971701178951078,0.9880708656393036,-2.037165458449213,0.016592294924558906,-0.3382243196964908,-2.248163230984035,-1.0292529761431009,-0.9081310443479397,1.4648313517036453,-1.64935357381806,-0.1388926687019567,-0.2757153027496186,0.7196294858874422,0.8327504751971924,-1.2623291288418963,1.651153247698621,-2.535875302431963,-0.06175344750736464,-1.2420255404467795,1.288283280722174,1.271115987759082,-0.8184887286495511,0.9669571250450423,0.7597856824255822,-0.635325425298635,0.3132313267839454,-0.6889467149773219,-0.24215131873622178,-0.41533961882380294,-1.691361330597732,-2.244591314683165,1.4480307677724538,0.3761529276048962,-2.2907595530734817,-1.1147146288616032,1.0301706493763318,1.3068860059783924,1.257048032864708,0.2051626905863653,-0.4649012992871915,0.520448801324585,-1.5243996818131562,-0.847371396886964,1.1191218331593002,-0.3136709516086752,0.28091217306332555,0.6255771358381893,0.13344749389001684,-1.3119095172888418,-0.4035498509575043,0.7584459174970721,0.27469601710522823,1.2356336214195118,-2.8243181652299523,-0.6127976299895442,-0.039399216892695973,-0.25456495659078726,0.7353852149522669,-0.28957780074951484,0.3963135757664049,-0.551409617551939,-0.5642130455967157,1.2700994941749737,0.25184520501286206,-0.7134183338033918,1.6342246582799598,0.6560626546431912,-0.9379229957129246,-0.6702852234789601,-0.3244672162730506,0.36732923078909036,-0.799982288653256,0.2270172526455694,-0.282218111953115,-1.8860222546737644,0.5213866829849151,-0.9464858874522541,-1.156840517922856,0.568022502602007,0.9504557484350027,-0.14206776057212286,-0.6106092796432766,0.6013343882636327,0.5347334768936534,1.008065870756962,0.8540608269183823,0.2323310608596456,-0.03572081638353402,-0.8147158184524794,-0.2843286015397018,-0.2500152700991257,-1.419072783062407,-1.9335266697141849,0.7171945932421901,0.2489818060840417,-0.08543380342925382,-0.5282220767799786,-0.2984525246727456,-0.1317340675142608,0.4636511876042346,-1.1929469624577091,-0.1173107262314832,0.06174952197755601,-1.666922050876812,0.7724639236533151,-1.7153883314610918,-0.904007528581298,-0.6734499222324084,1.7418846781325448,1.6315090174740972,0.32499366916791683,-0.6177997181175006,0.18754025496050356,-0.07957334468458084,0.12526723474657867,-0.4015457572767952,0.18234774545147742,0.38116279140002673,-0.22764739036325768,-0.5284169730209934,-0.9908416960862478,0.7039575957090237,-0.6688977139252352,0.006967497412817613,-1.5890369735126395,-0.05560728275582254,-0.10873180171307004,-0.38646609712589797,0.8290331413633236,-0.1297188458982894,0.37562460098744715,1.2674557856494566,-0.43820248051118255,1.5672871369855335,1.228517150194449,1.3205447819388414,1.8726286051502532,0.571053139483602,0.007047810256781673,-1.3487782622845137,1.7730497324225187,0.08386029820251728,-2.0916882428960526,1.2321022934725718,-1.40646253682443,-1.3491102411356888,0.38028370473194617,0.398163123480029,0.2552720749726274,-1.6270136529263746,0.13899487706653532,0.3955505156054887,-1.5765340776841055,-3.0520994862758912,0.47839318273873993,-0.08998613344141872,-0.9540778989187697,0.7307310618347331,-0.35333160482582815,0.6647245353138574,0.5707209836617906,-0.9465683934587915,-1.2961234249610065,-0.3177476738906369,-1.1992131133716577,1.908114337332847,0.2974413765157839,-0.48282395595985045,-1.0080450144881876,0.279392337319013,0.3760713558085198,0.7492741200666813,0.35559232499794685,0.209721538343356,1.1777539969073383,2.4137704364112422,-0.9609971903514188,-1.2496304985260882,0.44859638732188295,0.8646281338443221,1.1572292834096816,0.4375571452616202,-1.0170375112686525,0.37498596261521944,1.5719263335023097,-0.8092793182246425,0.4137623826010832,-1.0183727980807924,1.7753635938903756,-0.5665845666827296,2.0900277912419485,-0.3354744465513834,-0.02488035560806612,0.11311103145488155,1.035483268690525,0.9090796445038275,1.3839647619103326,0.04912480483356623,-0.5168305822261812,-0.019038974503993594,1.396526899000165,0.10889429243633461,0.5269547127702789,-1.100528182708685,0.054345533018085555,0.9668235092130404,-1.961922463604754,0.18511314080567273,-0.22828828603350887,1.3476647057914757,1.0950489735471896,0.5635999399933642,1.3123025130926218,-2.233952228200361,-0.44201668024008245,0.26017368997176465,0.18150565848845096,0.07086879083611898,-0.9043043534635947,1.9183504153331952,-0.260155106082677,1.0865925331170483,0.6053343542935963,-0.31273810103341054,0.854440141760219,0.3600358371984362,-1.3439370163834625,-1.120660344979113,-0.7939378963301057,0.22262169646625687,0.9600981677722109,0.33248065917594394,1.1420059719193592,-1.3609071283396512,0.06502989537601023,-0.778542059100349,1.8885586969454928,2.3900418039059406,-0.5570987472050267,-1.9243855413598563,0.12075523140045913,-0.8164213937924456,-1.1847035608708074,-0.5131806548576442,0.07169311486874921,-0.49322084928901094,0.7428076481988997,1.3060406606311825,-0.7872906165405861,-0.2757050065081069,-0.04887327928571924,-0.1326413533514118,0.5488674431975218,-0.2685602741838608,0.47689888242878337,1.4077970292416666,0.6349813744640811,0.01072488425070371,-2.687690040691011,-0.18894361510521387,0.6693956106463272,0.6402648367780834,-0.9897375451643656,1.1733247236786473,1.9926343690971882,1.2188448191326513,-0.5423518368813793,-0.5482143368642378,-0.4413575629775994,0.21729878263774205,-0.07171596665867182,0.41707609502145504,0.4310054010294417,-1.4105841852978862,0.7808933905223513,1.0043154512279877,1.5546954142826215,-2.2817276751088245,-2.1028997072702587,0.7139950982248172,0.17150044095290667,-0.6735371320764285,0.3811555556205108,-1.1759154461717731,-0.5723649553572175,-0.7827422074550319,1.3473146815170625,-0.6045716011420565,1.848669822562492,-0.6232260627570384,-0.11375213486519913,-1.396922472962797,-0.9570676384878212,-1.8192596766740599,-1.0021980599069151,-1.3362531137078735,1.048778776926881,0.4616372733462702,-0.4624238333711268,1.5671660581540496,-1.2913035390226255,0.29113406299940214,-1.8955828566421598,-0.9097571665443587,1.1930899044494023,-0.9678731126807165,0.825878793958929,1.2169555145271111,-0.5071018380654759,1.0798413511585596,0.1834995946785574,0.5785138329775302,0.5724953290639828,-1.3724136834823113,0.371282133008412,0.8053872817011404,1.327039305172335,0.7861357270026934,-0.523648190727232,0.07177805892119099,-0.2594579384448586,1.217758937254503,0.5283631176430846,-0.08623297112709322,-0.23799296221947203,0.40499888503616155,-0.05697762125335311,0.00522130189124819,0.14008902920013003,-0.5832548694302597,-1.2118960353775152,-0.36573836058706055,0.009445704787302917,-1.017224072101109,1.4863285548319818,1.3555264284943895,-0.4119998016993099,0.41016498013441527,-0.2145370910257914,-0.6392821316132583,-1.2865847351792163,0.6968816634169193,-1.633221880980718,2.668760370319941,-0.2749354800161317,0.42791081982704837,1.56856723341408,0.19372421032264928,1.2870063748987433,1.357570906853666,-0.4888445494267862,0.24823414971919708,-0.2150124538112456,0.5610191485597232,0.6335540282065883,0.2544714458212657,-0.9707211473708022,-0.10254055054858852,1.1473518112486039,-0.4915185426782221,-0.8017084675752665,-1.6023268945073432,2.102719651143584,-0.6032202541674758,-0.17520545589233893,-0.591715230609443,0.7931314672234384,-0.1039955041379906,0.2569825826866766,-0.7396228624225936,0.4860697745800454,1.6103677992843155,-0.26492775018883485,0.1582176603516462,-0.6257768683178452,-0.9727955524236037,1.2666845189470037,0.3268001769705215,0.03714650992225412,0.3106252375842512,0.9436740871315213,1.0702182510563079,0.48134601471548916,0.7056735211293002,0.5797154423000668,0.2744671421035191,1.114622433774756,0.6087642914538204,-0.4531682383554204,0.4141505401118545,-0.3562708040260971,-1.2168834329257094,0.4216705216976922,-0.5784084501515355,0.05709911683943236,0.02619102237362402,-1.010647375104521,-2.112156544564648,-0.0064143882810881086,-1.2434841751824572,-0.43196090170946855,-1.3050574237620252,1.876158919231118,0.25903889835042937,0.10878940832375142,2.1412880472027216,0.4595184042878891,0.28475783318311415,2.1092479383136493,-0.20430425979808237,1.031572039289263,-1.2226749376583685,-0.2995619753679259,0.48866528113951685,-0.8412590187082011,-1.9841548047177777,1.1717467240958097,-1.059738463383238,0.14033661595973967,-0.10825393480986624,-1.0565514187758698,-1.3291136513939055,-0.337200684999362,0.06414911333263498,-2.1572335303868937,0.011109609429523428,-0.12082921312184865,-0.22425110360041367,-0.16044394466991035,-1.1433812109453547,0.7883896589952993,-0.21837144500927408,0.5513549600000835,-0.22465104128878186,0.7248570230496767,-0.1657472647947273,0.8547729906630538,0.21847404825842565,-1.6696837746775588,-0.03095152439485032,1.0629855590310635,-1.7484276271078045,-0.9268972599617599,-1.4046308567063024,-0.7197940320089999,1.7616466260011217,0.1220682244807971,0.9656150256525101,-0.29127761705592226,-0.16757515475008947,1.1134536033332822,-1.7128249922467553,-0.342194674294524,-1.736387661243266,0.13014789039383967,-0.16435157012829754,1.3983285177170082,1.1940545619040486,0.6738834121152163,0.9485918204269048,-0.3238307585902763,1.2474060356406302,0.6284170162202904,-1.0012381204954455,0.029081848089982137,-0.5286355284882804,0.4838849506646706,1.866398384200581,-0.9649821778947714,-0.16381350493962957,-0.6117928489299782,0.2698934607041979,-0.532515504521423,-0.12154218406444496,1.1388073991171535,-0.7744837610486569,-0.04396311919394779,-0.6201469998464451,-0.8464510094831751,-0.30338241264181753,1.1735250255485976,-0.6761742215714479,-0.34950406226183384,-0.19743482351970823,-0.40506827587902783,0.5478694893942158,-0.07971785628640127,-0.37701796907070917,-0.21815514948076326,0.1434091152094533,1.50867704058778,-0.002923564911311935,-1.1770302592930362,-0.11459208492453435,-1.2429064012516957,-0.44023796899418693,-0.6956002938378812,-0.8638279800072014,0.590647993808228,-1.064012016340466,0.6480200155353895,-0.16544423279414977,-0.4458010181063513,-3.567895345383937,0.1607777509382003,-2.8668103236834415,0.19843351014202473,-0.17554031261494019,0.22671404141428916,-0.37752112209469013,0.03796325825097621,-0.4936523767296193,1.6410687750843378,-0.25214254610704606,0.5413617688593901,-0.2314248805157654,0.1476391295065702,2.0215396141188995,0.1107390255942055,0.0713724496550715,1.2081703111198645,0.4402467103738787,-0.5760053609909492,-0.7677423202012347,-1.4048826761816975,0.17377862983744535,-1.5198443545594753,-1.0433308260691025,1.2615926535768658,0.6196540421012984,-0.5964546644143316,-0.021645319908871266,0.27841315906547826,-0.6046044920593633,0.13422096505997688,1.145667070989559,1.2809841857392634,0.5604766347707533,0.5586101616675043,0.467910681720875,0.13060652490364566,1.573605018067749,1.0194370669131267,1.0696640806545885,-0.22554443262107557,-1.2197029249441749,0.20262905087862793,-0.08310446149326009,1.6247821819211257,0.5996903026460952,-0.257513214463994,-0.8886435198120668,-0.05934623681160149,0.478402306182352,-0.30045040348309887,1.6875290421915023,-0.6718045502495686,-0.12507461064136127,-0.5689098704559427,-0.6580937360962433,0.12112405122084945,-0.08855174943701866,-0.3479692039174336,0.05175055061288831,-0.5620492263779212,2.123813031178155,-0.5899426591172348,0.518637323555353,-0.4318464248921173,-0.275888291578788,-0.3453765303931502,-0.12036208979090239,0.05774369796690277,-0.7213171614926466,0.6701544528765164,0.2635654046380106,-0.8169053067849787,-2.3963513044123643,1.048091213989198,-1.2710341704778925,-0.3892179379820043,1.2073487161964567,2.823302059039581,-1.3810684628071117,0.4889641668025494,-1.0870133515838252,-1.5440150677042859,1.2781557598925364,-1.9751276412683423,0.4350285543456472,-0.42943782698358773,0.7669278741559359,1.0849913498263402,0.06658933221083216,-0.7954568535582345,-0.07929148716186131,2.3723042254223667,1.1525969406531353,0.8106598107297724,1.4793981233791795,0.22392039158367083,-0.11632357129457761,1.1397041357783027,-0.8720082268841468,-1.218175530414656,1.0978771696166914,0.15610135530585423,-0.9839394872969304,-0.0458266931781346,-0.639742548960686,-2.5634613017771355,-0.10051452379868807,0.09448320986078683,-0.6887785409058107,0.6571782986603549,-0.0847785916008596,0.13259457734927918,-0.09451436952540279,-0.6130812528210436,-0.9896663333743402,0.5539153404619094,-0.07366754873210339,-0.9766075776718613,1.4849015006283686,0.9688665066095646,-0.4529557357581245,-1.025158091599682,-0.4414381750670633,0.2941004391532519,0.9924844609862623,1.1024813759662462,-1.0002187224870434,1.8160032186763821,-0.04283229907600667,-2.2575248432044432,-1.0022177443954852,-0.835431709901143,1.6855010384206808,-0.6289640830324514,-0.11969694896278261,-1.4036679101357836,0.43068709760438256,-0.37000853659267874,-0.7702213064751681,-0.25445035577691066,-0.7518338416323819,0.3917510170546551,-0.8289096257331389,-1.2579564147130051,-0.3882336961406255,-0.8048819614798871,1.3948740113333555,0.7524372727602494,-1.6448138587369983,-0.014934524626472328,0.4886555402181419,0.526946028502167,-0.3474188059453537,-1.721886662100316,0.4549520711319812,1.917659812952103,-0.52179444238038,0.7703566654760668,-0.22500256335405316,-0.9804051837218485,0.051565764917668074,-0.6321823614694879,-1.8092876229097288,-0.7945817341377771,0.19713886713909837,0.24010827066925075,-0.8851611807448949,0.2669625246022768,0.17978280790309403,-1.078088377070635,0.8196080847497009,-1.082150855661905,0.6523576868578672,0.7785881058547662,0.9115566575587521,-1.797871171741249,0.14731011263445704,0.3079856833466916,0.670877069639175,-2.3129771071378036,-1.9344456833504273,-0.8202653357880945,0.788086968864167,-0.3934362046470683,0.6470375389905656,-0.3088333010272718,1.5789795131841562,0.41106076864793817,0.48758678091687496,-0.26302708327863755,2.312756746346137,-0.5425684235538477,-0.5096055935072574,-1.3453018139535462,-0.10790709607643381,-0.3168088973602373,-0.19020800283332992,-0.19382545806705384,-0.033241935970581345,0.43731886919412455,-0.10210602390300161,0.330471326476531,-1.0123630901311298,0.42668560894459895,0.4030677053662334,-0.6537899365459571,0.6987776590637078,-0.3458880531165268,-0.1867777779428031,2.0493138063571505,0.3199604358252275,-1.1218146635267,-0.22220367679886055,1.5711261348936454,0.4141291183564588,-1.4328172558023302,-0.7157956348088916,-0.14185815197068424,-0.11957479983825552,-1.021152331887831,0.5053190224023881,0.3948788685345725,0.37138290615208513,0.04916025483262969,0.7382552497315018,0.5542875261662246,0.1595915999166154,-0.3502169240402927,-0.9070839770013125,0.2309219814909158,-0.7636248467287348,1.587090220335815,0.5723768279804734,2.5027686952744035,-0.17436358639736704,-0.548529519367169,0.5619328316831171,-2.3613387468190954,0.20297460908317416,0.5376386006543336,0.5682944450864317,-0.25804849987227013,-1.0299376706451782,-0.5776458528543065,-0.9987523986512752,0.7707650410886104,-1.0943880453999013,0.13920580889030287,0.08527742802235158,-0.027682758755987788,-1.3592624301108227,0.9364900829287768,-1.273497354329921,0.5320312743452,0.1139584727717418,-1.3638031460656097,-1.465259150848271,1.6120973559308855,1.1973412517673192,-0.5054505050829545,0.41749377840420543,-0.25756758517657563,-0.3607143756981672,-0.9704689779516624,-0.7394928966184335,-1.2031348653278093,-1.234622535393389,1.9426737115115038,-1.0969490385397607,-0.86721788230334,1.7736213008125157,-1.2841647488670278,1.664007350915162,1.5523863718148787,-0.2377522202764531,-0.013756164922013085,1.1212337488178439,1.2683863319180775,-1.5447122264658195,-0.13770855731980416,0.12434405466124145,0.8622507986672306,0.2084650077434429,2.1751228154537117,1.5498961671461084,-0.11538080201176264,-0.654824000057959,-0.04129297260751191,0.800547983006409,-1.544423796624443,-1.149698589071238,0.35215888067761214,0.5806189429652686,-0.17180581122033534,2.2227606048376747,0.1046708898366467,0.6789586644598261,-1.9851352022023543,-0.4809665388670063,-1.351943302450451,-0.4931229330708745,-0.02274534343730958,-0.20804796450627902,0.5689852694383524,-0.8607385036743809,0.5220809785261273,1.3803536617090393,0.2672878130175554,-0.24824606385612832,2.7540736997590267,-0.30595570642670483,-0.23630983648543435,0.10213923910667363,0.026978060843405764,-0.9902215538946847,1.83071170567023,-0.4823886605388575,-0.37606347407035906,-0.019803092949625383,0.7417942377309769,-0.04065406354016503,0.25083063035180875,-1.0901189928324215,1.5147624614120354,0.43819832916749973,2.390852521339105,-0.09829193386514982,0.9985277419292923,1.4310480026172023,0.08695066789107271,0.029812594716237182,-0.3175827939602272,0.14307208088267825,0.47843045076160123,0.18331043476188985,0.7540313113180476,0.17967397856883707,-0.7520921909340107,1.3652492838260268,0.43195492693811305,0.9132695218455125,-2.955611925769806,-0.22756053974068907,-0.07421478523707432,0.726731837063952,0.29479135746380164,1.9905505092892117,0.5539832376629846,0.6434984280412415,-0.2753534268807044,0.18412652852422423,0.2160331324586863,-0.4483966032245229,-0.36471893319950804,-1.7461191675836214,0.3595642685567773,-2.177628927837513,1.0552113527369797,-0.7323041282542374,0.4492810782259386,-1.3222592642975017,1.0121004887284226,0.16880246784133204,-1.4881674303860468,-0.39601031363414646,0.5939766120495593,0.5102306438458175,0.9788942836080657,1.3148027938467832,1.6766115857855572,-0.34676574553875755,-0.6649391507032564,0.14402350562761224,0.6381265162186097,0.05978897065737601,0.7754549236610205,0.25888813302830765,0.6835135742828491,1.6655815799010776,1.2518759082116029,-0.056784054425058975,-0.7362572806140331,1.157224205783409,1.106225557973022,0.5986963214344952,0.16593153527218288,-0.8278630113478762,1.1046340831812382,-0.5281170646451198,-0.9120932933705127,-0.13162198302727615,1.153051833571751,1.4247733470094075,0.9445106501734477,-0.4705486485496701,-1.5433685190703328,0.8915979910914315,-1.1011541735835861,-0.7158304304377954,1.7603087183304795,0.5891395150315822,-0.17123205831347307,-0.4561783096811704,0.4723484605240125,0.312027063803431,1.0965283869734364,0.8945490529202916,0.998251876396292,-0.9667821976756665,-0.7020631360246531,-1.56454817165245,-1.0386130919291776,-0.13938205075074034,0.5168700144632236,-1.5224517949069414,-0.5579221443641602,-0.10759679511975384,-1.3214114839105238,0.8729867483233765,1.553399127212363,1.0155679485417195,-1.4422833052862203,-1.384496078472452,1.0149629413437484,0.950184669314198,0.7469237114295879,-0.2550712359334979,-0.1318978413395378,1.8484276299280213,0.45605714538405473,-0.49472154179445293,0.8719399040098917,0.6528327006169796,-0.4458817022519169,0.6481183862316082,-0.46623787658678595,0.41767217245265403,-0.31416656058190123,-0.13137016856819636,-0.616967519978184,0.42554199749823546,-0.12569017595019027,-1.0193074319579156,0.030463767389690064,-1.4938561612727304,0.4899385953188182,1.4794442234441745,0.25469067803805423,2.60320844619858,1.0354850408977483,0.6390183229640052,0.6081279135857469,-0.5292286957444103,-0.5065919872560602,1.4227359224519858,-0.1276669028614896,-1.250012409720174,0.10299454436078065,0.8745699365114837,0.6082564265408356,-0.12431970131987516,0.2569289051295776,-1.48993156384553,-1.0101958003905234,0.6866113716032324,-0.2389402113626507,2.022383052266307,-0.2845012198958953,0.3275810974492577,1.3644232368435596,0.851948891336578,-0.11117244244421835,-0.537682845004269,-0.14605454993995334,-0.08015765230789025,-0.06531668659012307,0.6946336166493677,0.030736527901302105,1.9056968481728616,0.07047157652269304,-0.26788900231865564,-0.930904620688939,0.27874485902432145,-0.21622138740488364,-0.5347664841269271,0.3791089319867231,-0.6228946855353231,0.3243554298602862,0.9187083239854772,1.0154157957719663,0.5834863997497634,0.5511841197469891,-1.3959570225508742,-0.3100850086815093,-0.6980335626481738,-0.5715466198903832,1.534502938555468,-0.1403435167446871,-1.1317838767216255,1.7586685796582004,-0.450982734777978,-0.12174766375688262,0.1433116864615464,-0.1552468130531149,0.4908473748948357,0.41202598799649276,-1.757161981754721,-0.4943406752515266,-0.8614972878954567,-0.19380603705343288,-1.4944426204778753,-0.5630946507035874,-0.45072972094944197,0.5058572532391976,0.2808903235303161,-0.043435841939385954,0.22417518528887675,0.2852924654539398,0.6815955899289503,-0.3105225705326011,0.6430794043607172,0.14624338292664196,-0.8432808008976848,-0.27857653980740066,0.4789285485641901,0.3462742429548615,1.4366851223348693,-0.3134397605954664,0.1709650787396185,-0.0026915476150772832,-0.7289964640411624,0.7704171151786805,-1.8568059091306701,0.0009105408642568416,-0.8697884082137766,-0.3438380422418121,0.030352408108053282,-1.5810545172302426,0.33536935861332917,0.9128443966453843,-0.8427120783885458,0.12963214859857902,-0.4271446619260021,-1.3961023710013276,0.4588115905909035,-1.7619444568338853,-1.347798014607942,-0.13846416528149458,-0.9759075239167914,-0.4957332117849699,0.7736585835382755,1.1839719046384214,2.7717219064015968,0.7805344561373763,0.32503521442737215,1.1009390674714485,-0.3590827873361528,1.3237354965241068,-0.694018018756013,0.2501399652160973,1.6199358706620042,0.45279328579085504,-1.1996516360997105,-0.7203876442352869,1.7605621880901594,-0.63199623177665,-0.035334686873920745,1.020717905155036,-1.281021809156878,-0.5974259035604662,0.37871498672994885,-0.3422949978917327,-0.10014531693104341,0.34771888511161336,-0.5963387687962753,-0.14422948157737336,-0.7810208301099734,-0.2775248083883167,-0.3566196010102914,-0.6748687102365588,0.13043963728825328,0.7915932000636171,-0.2994824811699071,-0.8163623394574469,0.8546509041357228,-0.8037779237642865,-0.4873657838019082,-1.3874788311089488,0.11409572036627183,0.9477545213214728,-0.18740411120394773,0.5094598052166965,-0.7290386920552674,-0.11200963347171602,-0.053908415593252504,-1.013974067842115,1.0259620900270656,1.7096467906290982,0.5914483694800248,-0.7794740359899545,0.7825363699456936,-0.42195520719605445,-0.9380035147235785,-1.2371062304251155,-1.6222239632404631,-1.2955671082051996,0.44897983480626963,0.1878202235856931,-0.09833141564836413,-0.8479498408913839,-0.447176134965462,1.0116737133662939,0.5071802642753225,-2.2897237459506643,0.28427676066769053,-0.8971615164563377,-1.6950573401894269,-0.8054048692841467,0.5550190008344337,0.5720285859610633,0.7584997842253618,0.5228780598732331,0.7936754398392765,0.018582419157068028,-0.09612635838243251,-1.0996611733970496,2.3895820994545556,-1.1812567808677203,0.3275863078650818,-0.8360024653388012,-0.2980095475773072,-0.03300174814123927,0.8405564046971564,-0.37645838740758075,1.1678752103649641,-1.6159655230796155,-1.2202182568166444,0.31305939729481463,-1.2684860985811268,0.7120384798305608,-0.8719058019070861,0.9201069878207827,-0.19803781905768134,-1.3075776397282644,0.5921453332322131,0.6084228508878635,0.5777673918059444,1.3004970683343333,-0.2582173759351264,-0.662061289953904,0.8807068699509918,1.7550078197209658,0.4884852459087396,0.469039783416447,-0.6348049205702808,-1.0704139471383003,0.5348292190502303,0.8155822627872211,2.064364115028056,0.25284018434036226,0.7613403254524247,0.9029581370511178,1.4807745780046047,-0.9535972030227449,-0.04349107410541429,0.5156137412917696,-0.6694875540611137,0.08575179400471897,0.8103166457755505,-0.2462817834116898,-2.6269210110582466,-1.7842202744607745,-1.0180805012093725,-1.2147156560380323,-0.138687278976025,1.02894555794439,-0.17389602512845412,0.4391642818714224,1.1008225019452014,0.538225817674451,0.6017958068068677,0.3852548513069047,1.6901410045348582,-0.21205907225631432,0.1998316681143897,-0.7814657220482635,1.5038365122941288,-2.1235192805877645,-1.1487215168898257,-0.41289573425076337,-1.1854565807389785,1.8323660265327355,-1.2359139734670568,-0.5141447905738591,-1.3039830438131537,0.144047028861512,1.1796867449458919,0.9110501445316573,0.18840008193851254,-0.8697859719722574,1.7666322037201823,-0.2126780289785388,-0.2799262709769823,1.423040800379464,-0.6469294601486929,0.00010868769749884389,-1.0055398961482263,-1.1812087133370845,0.2815075122318364,1.4454814164780225,0.21150414791117259,-1.2643956358758808,0.4811129265478727,-0.5728632606690931,-0.011541525153785625,1.1009516152535055,-0.9121411691846212,-1.0147705570216194,-1.4048564901808265,0.5443132137036358,0.6397781882401306,0.8905429676656165,-0.7589829474661436,0.28909154899605805,0.5615326255580637,1.3341826381748225,-1.5495304990096914,-2.0889138100231035,-0.727092954021894,-0.003235479651739084,-1.034816286449521,1.9039341223270885,-0.07819062620664244,-0.4256500649196828,-1.0320110901251511,-1.7173414593638372,0.24859204331047025,0.17422153629660025,-0.7308537543305043,0.2524064705914056,0.908819661883558,-0.16332187626630013,0.5624616028651283,1.0210016447471466,1.9161682255786996,-0.8696884968304404,0.47189190918381224,1.7826908721952242,-0.2839550463860686,0.37732917933690147,1.2817337151060526,0.3696656688336385,-0.13499487738184862,-0.6535873713213897,0.028866673395814963,-0.32735528544308656,-1.9430891119389302,1.5664610057934747,1.8418589509355334,-1.1192522917134125,-0.8270387870495142,-0.9802009642197794,-0.05406234782149135,-0.7542855657762182,-0.10983696202088106,1.2828697524361472,-0.0666818100491047,1.4400602060664118,-0.4509679631427616,-0.44325651765612545,-0.11268503515762696,-0.6781337873542267,0.7156451153595933,-0.26338096966373764,0.7660108620158654,0.5600042672413524,2.1116207173636443,0.4083048111344099,-1.0401719677917467,0.16166983955621914,0.88101670615371,-1.7722458518636504,-1.1710598998583865,-0.8589978100136672,0.5115855430447946,-1.2050940489863884,-0.001922625314202052,-0.33623504381232133,1.1765325979742605,0.048752527131449355,0.971061544761796,0.8169407177601409,0.38342787516263666,-0.14031888235395473,0.6616437321439809,-0.7930131871064893,-0.015802780389989845,-1.2603348162721724,-0.1318309986722904,0.379857038536588,0.849625913489273,-1.3045381486153267,0.14937976823135948,-0.7244391835813574,0.4032686220081418,-0.6240392604719178,-1.2044542926598851,-0.1706138009962935,0.43586892577637826,1.0726356997166293,0.7533765323969828,-0.7773330639444711,-0.2396589176155878,-0.9104160242486206,0.5010511441792727,-0.6094207411497146,-1.3618330197964101,-0.41207585863836316,-0.7481849224369489,-1.0427164056140334,1.3830487675051637,-0.5172073449055198,1.0132847405505254,-1.3167694750881667,1.1607151732706988,0.15369982847172842,-1.578936300873413,-0.3881818248208713,-1.7205490443403322,1.1753104844233815,0.1649063109808779,-0.03653489483478758,-1.5344443831651693,0.9811989455272427,0.6823717780380111,-1.1638875511277484,1.7665069090142762,0.06207925534848002,0.520384155226791,0.5136150858414134,-1.3705397741550145,-0.47479878695406474,0.38962916075583315,-1.6718490052252615,-1.3571036160913137,-0.17234752931491149,0.4281453326885334,0.24249118803007708,-0.2298912745788101,1.1643396340550962,-2.886726668661904,-1.7945569641907617,0.038879189153591946,0.2857940288068975,0.17443938624576033,0.843668234658382,0.2701068887556421,0.1269996969684421,-0.7076225149887714,0.5109830717100042,0.19629506212865802,1.4883157189008038,-0.6236256659445524,-0.03394622556326586,-1.7346995281123279,0.8421636599960416,-0.38109549153650424,1.0343902664774907,-0.9125182827481527,1.0933836159240684,1.1112037491510263,1.0055458293593527,2.0384835519350966,-0.2329211070032188,-0.6781457070482497,-2.428678491348771,1.1379716347660709,3.2696660633648933,-0.7066256563679324,-0.20690540401501897,-1.856427484100614,-1.0167318789020539,0.4880479063534832,0.6757920348710278,1.1213896780488195,-0.655664402476622,-0.5953506491120334,-0.0443083884080125,-1.463630312132502,1.007309433202637,-0.5759362336148246,0.6402091111731292,-0.7694403925773577,-0.8586056846260869,-1.5419358418089495,-1.4274124972430955,-0.1878015971363977,-0.11162902303081058,-0.28002472118101196,0.3569299044388252,-0.5232440565920451,0.6223207321394535,-0.46215507010308626,0.11858691381708651,-0.6867093568874267,-1.2351288893487156,0.46038649209856713,-2.069069531058894,-0.02738113186811742,-0.02711022312281678,0.5581790332658855,0.7449321106244908,-0.01243857315653205,-0.012527761086297837,-0.6406941032372905,0.45456399331098646,-1.5522870607966774,2.3298159761228647,0.8193601059779199,-1.4001667311892034,-2.1498372875387988,0.9454766270438149,-1.1287745117518853,0.16605678217787095,-1.4210293504676021,-0.5110998487015441,0.33472527288024406,0.517625506639566,-1.6413697465359267,-0.8453002420191934,0.4453233019013829,-0.09054653454488733,-0.14532388546518918,-0.06383839986438986,-0.4329903521719299,-1.2562206380572907,0.5308896195771458,-2.359228812142114,0.7951541423207034,-0.9725807638728754,0.04351679927429866,0.23193453381173598,-0.6119874832279228,0.4835680647603464,0.7372674236866885,0.5541682559129358,0.18789952995541676,-0.823176304464353,-1.0894428913325123,0.5043596596242651,1.201725013116839,1.142424495597894,0.056409099169750274,0.36090824395931487,0.6335423849160484,-0.5109281330860656,0.12123649965674445,0.22896498750394578,1.00027093627584,-0.30884164305329265,0.38535298892928493,1.0982528949349726,-1.111924367912705,0.1178086399979648,-1.0205404460579506,0.4827734308357163,-0.8421030620017462,0.4443205942357886,0.2553635361316843,0.8052842670282531,0.7478290379153055,0.35876176905033064,0.20142712013884018,0.48409443067937774,-0.1761279826974334,0.5798213896779979,1.501056473289367,0.060493237508889984,-0.13014768462131346,0.4136059156616844,-0.6795335177539962,-0.5335324354604914,-0.016301409367356457,0.8864492268047233,-0.00981889998173992,0.3702357380732131,2.490084103669271,1.3682312920325834,0.03902051967542772,0.7118606622871834,0.6623288823269377,-1.5872703355194775,1.2480120731561737,-1.2381129980211516,0.25938792672187516,1.526149665587964,-0.26010818334058367,0.4015123044562447,-0.5311518300140454,0.06981861065350702,-0.3204541215411277,-0.10458896398496885,0.11694268797069107,-2.2883922827596956,-1.1129131323705672,0.48081245089207586,0.9620100230537799,-0.38366976878257186,-0.9517275172950233,-0.45377462573805943,-1.3347024819749311,0.9040235698555688,-1.4801649231528828,-0.27445110717479726,-1.3018989263095149,0.360049352219821,-1.1975967158629082,-2.5642853543725015,-1.3074176619364688,-0.06527901567526244,-2.7494480608550065,1.595584111475078,-0.4397889783880071,0.13395776322835146,0.988067575739663,-0.6269165882433083,1.525231290535289,-0.7582085031496671,-2.0466297183957463,0.3305514352126694,-0.4764671718240485,0.09859705873816013,-0.22237583896175814,0.9659485535565367,-0.4502204918768693,-0.028117764867379384,-0.7666281199924918,2.062580143438726,-0.20576606924858734,1.6568390296280704,-1.4412200809670828,-0.9439950077553629,-0.34181965660355734,-1.481702665051713,1.3403498489601224,0.5645686929260161,-1.0680456730080001,-1.0183292548487899,-1.4640478650045574,2.6194963520396852,-0.9386172997563808,0.8620885485333152,0.6346902653512285,-0.3629227272428123,-0.3829044757377135,-0.2446351156084738,-0.7471510542962324,0.8527133972546029,0.2169406340034165,0.16247062102492724,0.9489798458065024,2.0179765932987013,0.9374894501553729,0.463075894441841,0.22292434794492683,-0.6867473176072726,1.0157801157110387,-0.7794570022968448,-0.40979570001934,-0.6093167783009905,-0.13167151926799878,-1.3311894806327038,-1.04727418333833,0.13183049961283563,1.1063920283913036,2.934872486751958,0.4667686428002394,-0.9733669615199508,0.4919811727982258,-1.0331657135330365,-0.773918845725628,0.9382196725609786,-0.09584708412718372,2.313507655104034,0.6102465435778421,0.963023659047489,0.3977731695361345,-0.013497722400369444,1.4620045195159432,-0.863130766676932,-0.01343751408149502,-1.0023053761938496,0.34632588915137974,1.610992800990618,1.1308892186180044,-0.8508201440393746,-0.2121411829746369,-2.465884769867602,-1.0423415294668408,0.9117275465421159,0.5123473814545167,0.7718351190553535,-0.305078978469665,0.28269132177211886,-0.2966673585418952,-0.01894109862449366,-0.8022961378417669,0.3176517983197445,0.30958949412333253,-1.6184234615473636,-1.5220963957114664,-1.0580541815703788,0.07914653315485135,2.3964771478573557,-0.8271310263125666,-0.22073180413528964,0.6371821349156601,2.2080208785310114,0.697473671517598,1.982616536490063,-1.236537438748326,1.2992733502436844,0.34782825482659424,-1.504705317802628,-0.708277338298722,-1.0747493834052886,0.8514357101815331,0.5489041788305027,0.5346466890679565,0.2802522326379704,-2.33385018984526,0.22099517029185137,-0.2728363367866245,-3.9685919297290955,-0.7823339590973124,-0.4217184314633467,0.397872473765016,0.2273940766541722,0.6057890033835074,1.4878556844294069,0.7824246018453512,0.5372204003066587,-0.4891599903478015,0.3088275260361485,0.6161022543985554,0.43828893566438426,0.4732179280691689,-1.7841506675775094,0.2727368858656223,-0.02917591121184017,-0.48619227717327035,0.42316521747125113,0.22107396457675912,-0.4366617519513749,-0.32949058177829227,-0.732569729775338,0.5350813314983107,0.7910233609891815,-0.34458221950600076,-1.8401013022892279,-2.8601770216790263,-1.344885009530524,-0.6269807582725405,0.18333536139968168,1.1011964490770276,0.11113204100993083,0.2987670675689068,0.20622333783454308,-0.32339057464800813,0.4562769701307273,-1.1452489959727614,-0.09690922448537345,-0.10845130940918919,0.34359822607451174,0.1640576040693523,-0.9554798089453814,0.15917226913289015,-0.46050721806754386,-2.0906371365540384,-1.3185722431345663,0.6869225169665699,-0.42281246057678096,-0.8917329938023035,1.3582187989968586,0.5851533967192101,-0.6546287481007246,-0.387888682259022,-0.23370044106240662,-0.9568518546112761,0.45621057539780735,-0.3939570554733647,1.388670713751408,-0.04137791862435646,-0.059262000874667306,-0.17455655972712625,-0.2807552839256428,-1.3684421404767346,0.23140125678551365,0.8964305975737228,-0.038092933089563345,-0.16057828352651943,0.19103515566688234,-0.8576390703741528,1.2791562769640399,1.2377592308843444,1.7102492914070997,-0.7089258040141696,0.381658929847337,0.8768679216715617,-1.7620891101605043,-0.32037478203756886,-2.1094667461815924,-0.5659539082396552,-0.4394690765082006,-1.0012403626345492,-1.1674336898755713,0.8721756197758871,1.144917855231891,-1.0390659830376867,-1.4941273610626662,-0.19352260955538284,-0.47331997620406424,1.3853087139693185,1.1226103625800372,1.4781423539848473,0.9551614641854218,0.6542538675684619,-0.6683682099224215,0.9893189098707206,2.3009955498575194,1.0396505068474524,1.720485776926536,0.995383494320306,-1.6561300636000855,1.3231482504925542,-0.02562146282350727,-0.19812754331951477,0.46388837032618857,1.8494291332998707,0.4947920025145274,-0.3744839960428379,-1.1538692857430537,-1.1776216736300311,-0.1725595770619561,1.6540850385523234,-0.6502086828271121,-1.4542055670632277,0.6432112742272958,1.1731933344802787,-0.738366412570102,0.3492196674761155,0.7031654985318057,1.1822734655580465,1.6483256592466613,-1.210853692376881,0.13017789178622297,-0.4641624470368631,-0.5325623517344693,-1.1092558352836777,-1.6504081901809131,-1.6610691756803893,0.734365362208159,0.00980494824761104,-0.16564122962426645,1.9498215710577218,-1.5947363890474426,-2.0503348527370293,1.8467972957393568,1.9608309130695254,-1.3948673186244038,0.06362185432712879,1.196319526312641,0.34296790668610533,-0.4125284955809146,0.8331812539736775,0.3967198979101315,0.4393024477459179,0.8347400057558546,-0.10404489445232082,-0.041382857801338394,1.6993287562816557,-0.4317650581645645,0.7635787631016596,-0.5874611406167836,1.985098046259321,1.2837416194532065,-1.381945954325249,0.12379476899357691,-0.9286451684339478,0.049841504904729605,-0.8799551341967148,-0.32405935752681725,-0.6474031813305104,-0.11748631467942325,-1.6449419947335815,-1.0385978499349875,-0.7690647196326343,-1.6631024888325072,0.15984021412183,-0.46654984588470017,-0.7948018959663629,0.6632528933458194,-1.234705662712507,1.2548906661256873,-0.3578452636262319,-0.05676176996565511,-0.683960620367694,0.7933973259059155,-1.1841512150085476,-0.4692607881307757,-1.5395772538618464,-1.0481155287545443,0.7001290158018716,0.8171806091535241,-0.6922337282599565,-1.736968424636769,-0.28664634526728844,0.5676666510638296,-0.4598103953995539,0.39463078970977244,-1.237163882496998,-1.0431309344622912,-1.380414250924879,-1.5654634521182105,-0.4260517004515024,1.7241136951498448,-0.025984189031994724,-0.20844625984064363,0.12636780177104034,1.2555160426226573,0.4966470086634559,0.9472056444840505,0.19930719510549547,1.6286696799487592,-0.42170050154130617,-0.03346250578824841,0.5798376648557693,1.5002105584449186,-0.5055766788173656,-0.582296292097768,0.1268815303701236,-1.2496742803824568,-0.6204416416689924,1.015932020045476,1.8602442157339898,1.0936524086506192,0.38950980837721083,0.5316390009862989,0.32761994308488734,-0.43179624343630674,-2.344665029214632,-1.1321883201242584,-0.45966689785984316,0.6772705200255233,-1.2883395670879183,0.09743071422621791,0.487102471347507,-0.4351658361346614,1.2485143137602055,-0.35496214336339044,1.3309433349033624,0.22886982822611374,-0.6450818079261453,-0.3589984683472494,-1.139434489193972,-2.1872221319464473,0.14878925290024195,-1.1128688701890843,-1.807865900798394,0.7209831442966975,-0.1506922512234119,0.07904456657383423,0.49157773408148336,-1.5394026352274837,0.03820919447334641,0.2971885794462093,-0.6588637673285546,-0.6045277211857201,-0.8781464778240354,0.29977635296223654,0.7137669517970219,0.8210648623193851,-0.06003036323454236,1.1215959242812723,-0.0731191639640159,0.4404359737471552,1.818386836998434,0.5983778255595456,-0.20894145219989393,0.3699995656910859,-1.4341582803870032,-0.5865084608725463,1.1822878159774683,-1.2486816960305995,1.327512168774929,-0.7657026948006165,0.8091687317608114,-0.9461751694903382,-1.6105482063700038,0.5330766651401571,-0.5091741666670571,-1.8477789479389406,-0.6852303212579404,-0.7575378901222929,-0.4527991736006679,-1.1879595191220678,0.5846137121821577,-0.41408514130956303,1.873214713897183,-0.5885515104101615,0.14852273889522896,0.9139125191512365,1.9955486318306084,0.7015950885803239,0.035790372915442584,0.4470514809648358,-0.5198936096717406,-0.45206186938943393,0.680902104005474,0.051172884456542445,0.5494599833775798,-0.7559622733337394,2.319276572526153,0.5921816226245612,0.009037466806846021,0.3235754274825008,-0.5408195481733836,0.28094202488543757,-0.38618132995013615,0.13119103386664155,-1.5055262041831263,-1.3503425473288124,1.2363321204945057,-0.14457919365414054,0.790401539048227,-0.2687783134654276,-0.3379957060388349,-0.2683645597472403,-0.843441811178059,0.6327553911066945,-0.8620299941136907,-0.8230016824930888,0.3990872134462512,-0.811204218564683,-0.4952457871713222,-0.07342609597694091,2.5370578160021258,0.1685876989948376,1.3174943768800356,0.4803567142566335,0.13793201330752142,-0.910127927263146,0.1729636887458842,-0.38450066031505276,0.6546088218393661,-0.30799985211930514,-0.08421535689240947,-0.9619042456038526,-0.2667093131067805,-1.3008635573103144,1.2940800610084655,1.1640943852447951,0.4846854083774729,-0.6053582630535065,0.26230930565070526,0.10559471086295857,0.3341111238682937,0.8577481963000281,0.2987380758097002,0.5932446567020332,0.7627066558191732,0.20055802293959385,-0.9765411478746397,0.5302373932466012,-1.311694081104782,0.03460237506221158,-0.43802013278948637,2.0304523716212266,0.8793999163606765,0.07817344474425789,0.22426860633458504,-1.4396232460118834,-1.188202774529093,0.7279353202260415,-0.08294353966859207,-0.20941633940359589,0.5917449543535318,0.5838327664758608,0.4837828095297648,1.2363885570892552,0.12331320464465256,-0.08447014143344193,-0.7620291409071582,-0.19279792159036455,0.029527456906315683,1.3302039793909757,-1.103947083605646,1.6755669578012444,0.5633152425384662,-0.7311974559723808,-0.04519502865678489,0.3537036685955042,-1.0793467614180052,-2.119312459429463,0.4043880986195624,-0.7440712450567589,-1.4329121467781407,-0.9343299121530287,-1.3955904639696426,-0.9903139195222431,0.2653931703116713,1.0653836874440874,-1.7424534197606363,-1.5342125631445345,1.1290111093789996,0.48271895208160237,0.885551268402027,0.8139163973474641,-0.1263731264249017,-0.48982196452122667,-0.7047165135980451,1.6970241820269123,-0.7701651298832279,-0.9101743375705862,1.588788223468581,-0.7435949500038102,0.24282188275123057,0.5877208105805753,-0.4233071742347651,-1.5935993933751567,-0.8393460622722129,-0.002808006306481468,-0.8902390851620372,-0.6464550946931614,0.39123531342698176,-0.42331184606650324,-0.94484974776638,0.1734505930196745,-1.635417633421217,1.0213164037181588,0.8080541108311331,-0.05396529944927677,0.40159910959082407,0.011064132470214172,0.4735693631396999,-0.48739243277204736,-1.7878702428648767,-1.0130513436012918,1.0046381271869373,-0.054356540191441295,0.8330058163367817,-0.7137671712634934,0.37687512463297823,0.019320709560577704,1.3923070862389684,-0.1643080426126339,-1.2067180961239103,-0.39214182289622873,1.0551159162031087,1.1278481960638789,1.1745343345399122,-0.440187187274514,0.03414960728681998,0.5476559241601529,-1.426084399796941,-1.1872080524527815,-1.939392245238487,2.0406036825456733,0.36957352322309767,0.9225728592719691,-0.5071256165615016,-2.7469337605477486,2.731421658474139,0.3940970364292492,-0.8685205400480883,0.8861810808916583,-1.8978505890690096,1.417162803056718,1.1329359150169074,0.21848862641696631,-1.9093042454097064,0.8662478893873439,1.5078711815502668,-0.18824860169438218,0.5571285702150741,0.376594890314622,-0.5834642154778743,-0.47084806094941983,-0.08147146983983382,0.3458962802080902,0.4254650085616627,-1.0989889354874882,-0.11698013641877154,-0.2420074900858059,-1.855609653392088,-0.9026477254822394,-1.275255886895457,0.44649003739239024,0.09464544186490947,0.5306650011440823,0.6001068105475666,0.1803238774566088,0.10479566573542229,2.452444205938128,0.1861233561053617,-1.6387476710557842,-1.2575421587628222,-1.3610360578078728,0.8099523853324495,-0.29728689528043867,-0.35803534362031125,-0.3935577714820608,-1.1559153932309378,1.8545134513011525,-0.8016889879983817,-0.8977859239889543,0.6589429224553781,0.16582301089407797,0.4720459612810897,-1.3316697176096268,-0.8208522836240436,-2.162329332959069,-0.2829606752648039,0.24849843770874283,-0.8337745953462908,0.5307328625065737,0.6848449934974131,0.18004529144708387,-0.3508405703444842,0.3083273020190826,0.10175412844983016,1.27729308102446,-1.347751158707784,0.28813219961370146,-1.1003693992791423,-0.17955409099993438,-0.4730787639925177,-1.368685191257799,-0.034418151066706586,0.5735602547007878,1.7099729954787408,-0.46999394999546573,-0.2239396366472121,0.05362317022123158,-0.5418163415845328,0.20801985813229013,0.38421157458424643,1.4771006707981904,-1.0709089523333533,-2.0320008282535307,-0.7264435576648409,0.5413798633069554,-1.1728884487737812,0.29425618293517175,-1.652502503801411,0.6833892446184978,0.4918337329244944,1.287258619858438,1.2404340728662422,0.2904711576009833,-0.5066731056704111,2.5864325030528144,0.8886794224960317,-0.9293595810445456,-0.4841708530779783,0.24682484342995847,-1.7979612996636096,0.024380155092279362,-0.326813825717087,1.0434626127864928,-0.7066379038606889,-1.0005758309525092,0.8530563118069469,0.6883884256745804,0.28897724721848667,0.3671935206587637,0.19020987763839398,-0.19173855320254723,-0.7207149808157146,1.6768189133584281,0.32596655498164273,1.129120638140661,-0.9894023225806843,-0.480245584462168,1.2154360638946355,0.5322359658145565,0.5175469332048909,1.305430775431317,0.5182193225007138,0.9207943995358421,1.145490890789229,-0.007578732233030017,0.6352039276582329,0.8631700283776862,-0.6363548449855368,-1.0613440858806702,-2.7626072269149673,-0.37198257977204974,-1.1651891145829432,-0.8797044012801827,-0.23415959885327267,-1.544091089114107,-1.0961256758477134,1.0049707965465127,-0.27719046582494566,-0.19612522483293326,0.8621780550925796,0.9289677250647226,0.8453116675570606,0.7874505998213333,0.11015196502782643,0.47219323135895724,-0.5609843225639219,-0.8884966865917568,0.406198655292445,0.9857170558348067,1.823325117656551,-0.22538399701494574,-0.62256770390138,0.5710924179756512,1.299140904400374,-0.010169437701804063,-1.1891111952939002,-0.457849480560106,-0.7462698632094017,-0.3246907530078538,-0.7248582358775608,-0.8242326765867451,-0.03334590849729265,0.09738108548131984,-0.026326021419391284,1.3130656483303085,1.2777107262532514,-0.6405395145455015,-0.46731744199279457,-0.5383437885458419,-0.6417957075962547,0.3048709341543648,0.6350864528081177,0.13894377336540795,1.1045679471786518,-0.6411963240005044,-0.9379500613876505,-0.7906147460992438,0.17594842419221782,-0.16587274376149963,-0.47092265183695786,-0.47824886198475597,1.9414621694419565,-0.9804829250755088,0.5250257965577156,1.8117866818283355,1.6026361011393206,-0.4069131884288875,-0.4797378157213113,-0.13157996134280495,-0.7157045310161961,1.8327887725937033,0.1530169059042386,1.0311954776901242,-0.3753541335615546,-1.6110342388868448,-1.3008310947287811,-1.6032303664471519,0.3021614260056629,1.4014846141643358,0.34888932161065983,0.27815077896900253,0.6417851269246592,-0.6658449839388402,-1.6924981309749398,0.44773373132917316,-0.274460391777299,-1.4485952057777187,0.6546165057021508,-0.24146444134050338,0.20627821177078828,0.005596536689741766,-1.0674199424614852,0.04817994686037156,-0.27459673972786197,0.9408674614808287,1.3969957471686902,-0.7452469854700459,1.1743205757221384,-0.4626855604410162,0.5153490943173966,1.2252461051708134,-0.7121819956709856,1.908664690485622,-0.5675677882529114,-0.6591014598595476,-0.49093392306541367,-0.914712852713164,-0.45728091853088204,0.8719464820102346,0.528508036731973,0.3415729112428046,0.966983784270496,0.23600668101913463,-1.3264492992043035,-0.6635721171622179,0.8809551510506516,0.1907200150406312,0.5887217475925658,2.0010170008090267,0.6119783719120856,0.2798186814658812,-0.07989795640595139,0.8081143976609297,2.1470832775301214,-0.34563945063955,0.8027101617928817,0.2409078046056088,-0.33517728129700075,-0.943484335274982,0.7179331599935466,-0.6117420109732129,-0.5505288562338109,1.2911542814380914,-0.10718711553746478,2.028847463723056,-0.45012768070785686,-0.0157912967139355,0.8166913292024459,-0.6206031837734672,0.6539483745953206,0.15991998673619742,0.9934295039366989,0.7500590878762763,0.34259055138652084,3.070171384004542,0.3948159526081004,0.024374023981668283,0.6896392202920767,-0.3163528534052447,0.631238220529886,1.1018058498105467,0.38201622849610634,-1.4069405019888952,-0.5898407173045443,1.2065189216872487,2.6143290863624955,1.615352679243997,-0.7006491183378348,0.6447313153923422,0.7046662101975275,0.13163999671954785,0.17524158457483355,0.13823416764949073,-0.5537373737437604,-0.020613949926333898,-0.5837092876508612,0.7730877103213494,0.4519821258486829,-1.7900791461611198,-1.2926010096216907,0.7767533050043289,-0.3925165570054979,-0.08642776745892418,0.5896088727157547,0.09099834017581851,-0.06365449197323039,-2.1452159714966874,0.46518996259670686,0.03896801897605164,-0.7296390273670236,-1.3974990090671924,-1.0006592910486047,0.02224867672599152,-1.5699594040516698,1.9487744110869853,-0.9184410984423451,0.048081111839207796,-0.5462886736572583,-0.9014868870565389,0.9390346674283813,-0.7831690471593642,-0.2046147180440599,-1.5337944579829743,2.0566189708400624,1.3898869322966108,-0.171620101228827,-1.9641761633700567,0.3725687229256353,0.44023822635914694,0.6013588389212873,-1.123288444230398,0.9721617585261908,0.20496792709554473,-0.5768877491736698,0.2591199886108334,0.7017359544659129,2.3533592682886724,0.2401367647496756,-0.0029914400581616527,1.2709059137425955,-0.1311574328647905,-0.4419863240205245,-0.809283650506888,0.0574526562803564,-2.5535629916027975,-0.6996548684518671,0.3096471694093999,1.8917808597898311,0.46732666923533617,-0.4376047419134665,-0.14490510993874092,0.1882506037243944,0.7580297204943302,-0.26375346456528825,1.049778922455014,-0.893156922631386,0.7527898923529237,1.514326571356875,-0.7588347581327497,-0.9824829132704636,1.0978247589457937,0.3445939472949254,0.37307541231951447,0.3409782693102481,-0.6713504627977341,-1.6007680976319174,0.4229096078782232,-1.7266806333475775,-1.1956909531359672,-0.2723819924124357,-1.7564286504905355,-0.2853822603775465,0.06078150630317271,-0.3302147522668589,1.8291853164298957,0.35910938768639056,-0.28985727857551796,-0.8509746132588838,0.44633508188503657,1.71863248271045,-1.7052617588385297,1.4351339527170777,-0.22847494884417754,-0.6748570802521082,1.1023433641310303,-0.5852112576363454,0.36588512823191144,1.1731063523104694,0.8197994850370294,-1.8753992615792592,-0.6154464467904055,1.1173058725522602,-1.1071944058910999,0.19633038118433907,0.5237578881626062,-0.42684326859964555,-1.5523284582722625,-0.10990855891054288,-0.9917035583753309,-0.7200361728311603,-0.057365048018157,0.22195507245828883,-0.7546373300567758,-1.4856123368979968,0.7909815389486229,0.3810137031527857,0.033663842348109374,-1.066275658231658,-0.022904840780139348,-0.03339966011679005,1.2804640366970679,-0.8600036587100988,1.3644043304352087,-0.9082691572319397,1.68842785283685,1.6947272022995834,0.3187526920384296,-0.6082944985088462,0.5743793178072047,-0.7547459897540554,0.7588874401024681,0.4573172504116523,-0.9068884241631606,-1.0942041958663615,-1.3876732411947652,1.0099025860989812,-0.31273110502985846,-1.2552453469309177,1.8001245849455403,0.07227195719402138,1.855292082411373,1.149307124846015,-0.8624900143181663,-0.8364219288196068,0.840655603406115,-0.17925895539504239,0.31563981591038365,-0.30868955827616806,-0.7245367120866558,-0.3095724436434769,-0.05125237206375101,1.935088506675315,0.45320810928381894,0.3088104750964153,-2.058377817827425,-0.35567396162198445,-1.3874436007970485,-0.5874117125447977,0.26290876677128694,-0.669607944259016,0.42625409100963985,-0.9359527377440636,0.6158072665601197,1.267451114847092,0.17385359207917345,-0.7576440955615116,0.6882902765689521,-0.5034881592320309,-0.220263197951216,0.18127096706468818,-1.2181334340858798,1.1762118966165471,0.738831347250824,-0.4760484403285198,-0.3365001970892066,-1.506265503125782,-0.8454299030973362,0.13108974287077577,1.3520192852540163,-1.7167007638643106,0.6463484129747094,-0.1830613382671309,-0.9679434727116055,-1.4693139335080898,-0.10043167912851655,-1.9339564297106904,0.3383203350179075,-0.33391347888596706,-1.2298784867724524,0.6758706577705923,0.42885561465988276,1.6471139482920691,0.010716407499147798,1.1057440841850592,-0.5205227099632964,2.1768955743204184,1.5626252740259219,-0.6554771608436605,0.4682711711287456,-0.848146647697713,0.9570424533429027,-0.14745557942128196,1.3070390623113612,1.5912561556670755,1.9680613672651905,1.5244271745794995,0.37719792253038587,-1.1671116834496744,-0.8755229724845721,-0.6398663307056226,0.12964523083352758,-0.3368595189675003,-0.3300284891307313,-0.04645765417266205,0.2808648223067098,-0.25300259826211074,-0.18804343543884744,1.077405848254873,1.0455695539462342,1.2574968551301964,-0.40995840939980677,-0.7567009965477814,0.15132515127745516,0.6189966755100715,0.24029529157445503,-1.3258311616709357,-0.3021153083031458,0.2946152892257627,0.05902303129571051,0.2364938986787318,-0.2639353273686986,-1.0203404084465388,-0.6861454938803284,-0.16079444663634618,-0.40889367852343883,-1.1105416542178828,2.439068836636336,0.22813864872835832,-0.1977422158743803,-0.6647229457494718,0.6075250716199051,0.38497596779843846,-0.3563978359284489,-0.7197739984084005,-0.8213218465341229,1.3022809245211007,-0.6696024103486752,-0.01768135452515634,1.735392031929019,0.8003995127606593,0.43568335454799956,1.5668026808540312,-0.4638228824063501,0.8245541499703539,0.9316799423661527,-1.1719538312561593,0.3482397420877633,0.7302503238376167,0.5521312030462281,2.099428924462277,-1.544344405020933,-1.1497851442905755,0.6309039110136799,0.6807653473509265,0.8434990433136265,-0.9172334859333309,0.9810880116209418,0.3740569979688497,-0.7361516594892163,0.06899622434336557,1.0298494641149556,-0.08581923598400884,0.8120325219135297,0.9214604219149811,-1.9798398450680534,0.765623974378989,0.8781962159825466,0.4943287474227667,-0.17584685371933118,-0.44732946654393674,-0.15716556414538377,0.7663580373601644,0.30112400450056676,0.377151221350645,0.03977156894073514,2.984310492531464,1.1324379078896099,-0.8620082194739755,0.9884234526047385,0.7869531805338108,-0.13086595323843506,0.11186446908913504,-0.31137374201000323,0.5172589306746691,-0.563338250125471,-0.9177662296874712,0.549110390933955,0.37373343280173377,-1.671500167256053,-0.5297354552822513,0.6851044918698512,0.7131240575899679,1.5400068367836925,0.8439801201365847,1.4545209646801793,0.5634325524266464,0.2105594024568929,0.5021349337950174,-0.0593650288405503,1.4485962622360293,0.015417727979080855,-0.9514446604575049,0.8531734939081222,0.6689900190738111,-1.8012761102293295,0.03792149857190777,-0.032916563630423376,-0.6832107288147475,-1.231735495562297,0.8883865650417401,-0.26231740518218577,-1.1362476191008113,-0.3881124145611355,-1.1741844844975908,-1.848657944588563,2.0695336613927164,-1.6152473947916708,-1.6748527629455507,-1.1898977030666307,0.9442134779468264,0.4388075043543346,1.318524945626017,-0.16526638330124943,-0.7503561153204176,-0.03435678109489064,0.07033379616920322,0.9581005037342627,-0.10353515912520976,0.8014072094158363,0.3792891279630909,1.8862204692538054,1.3360492005595188,-0.43386278488510865,0.8104205500651124,0.5664418663298922,-1.3288109856475134,0.9125374011674152,-0.9805309636461748,1.0124146044703364,0.09514347768577697,-0.709013757704965,-1.7525591573817894,0.11737583991147536,-0.20784109577349755,0.9468501109111873,1.0511534702296297,-0.8284829149437298,0.7717523145273679,1.1628146362485314,-1.1797210348750842,0.09042188859701521,1.389958708143744,0.4947793084300192,-0.930571063936352,-0.7341256546039686,0.30135560643037074,1.6592622821254086,0.49410460847552523,1.0417373379585593,-1.330302852492642,-2.520530459334909,1.5738596554037474,0.6716433076324031,-0.09424170675443937,0.2529008130372535,-0.5373531267507281,0.20477467573308428,0.9256324170354365,1.4119022126201157,1.2492196093870223,0.5796190038433002,-0.5987878769394629,0.23352591050011456,0.00022353940146307858,0.4563759923920889,0.6029324272082374,0.3322593209712304,-0.19266757766950302,-0.31122447517998963,-0.8323623415288816,0.43454746686459134,-0.8689003691386026,1.2379954818633758,0.03890116062926306,0.7633704939123466,1.240856593900239,-0.4695638076694981,-1.0788686807859884,-0.5219932982194188,-0.8910360352779704,0.29933732847841604,-0.0036249101316745014,0.5365558971959449,1.036342343066195,-1.0034624080872614,-0.864586725582797,-0.3183231636464268,-0.9437836025503498,0.37302898098694964,0.22657263929903446,0.0006964321459332984,-1.4646958627775033,1.1479760296430386,-1.4800600511539392,-1.3670664324817405,0.38088839151138326,-0.5684758064445655,0.030165279846820527,-0.22891998822175294,1.0826831865337982,0.684573573000057,-0.8493890151568072,-0.3133971604306036,-0.4022424757036228,0.7630026099275863,-0.03437518451725644,-1.3275927310455873,-0.4016392737672706,-0.07295738342112047,-2.0371761792086565,1.2638999247198246,-0.6001994941482184,-0.7615832899212648,0.45536686334683474,-1.0957379482504899,-0.6683973244295439,-0.45745657740099743,2.2687513751898143,-0.4527905007987633,0.24231123862864207,0.5404096469592478,-1.3957331718838601,-2.24436138684478,-0.6739163901601359,-1.3931812479266474,-1.831212582472546,1.476672931614552,-1.2632109679423642,-0.0013608573633455017,-1.5226075701100323,-0.9720822935994237,0.5594248634365897,-0.3378943048438019,-0.057186075708746134,-1.1199160839361963,0.17783503869437708,0.7543720818914222,-0.7755964862085649,2.30500993628965,-2.0819852807497305,0.430965737811039,-1.5646307068345775,-0.743621623263157,0.49556035138145454,-0.9337226819835348,-1.0349779152171303,2.4041901513545265,-1.0295066763377239,-0.8240639756155039,0.4139742047883564,-0.0021611845614158526,0.6078904177340316,-0.34369251289948544,0.699516424895506,-1.4016744987160716,1.182495304154177,-0.059463758544023394,0.2849502296760872,-0.9220355065210855,-0.6789259763370304,0.17833286880975874,0.6050514111677898,-1.407712447406092,0.9902502379677983,-0.1862760078383034,2.016671504953069,-0.5860632233966822,-0.6203744138961294,-0.46997421691110064,0.13847123262463604,-1.109643264888127,0.8826525503497463,1.038583670123019,-1.760512225970577,1.4083056706145274,0.21395548981761536,1.3475445828901438,1.3377968147691233,-0.7436702419828692,-1.0422506707647459,1.480410081541389,-0.07277527276871378,1.4749438774014993,0.4226385309112466,-1.2042481940423768,0.03501152081295282,-0.5893087356763288,-1.3752683383255224,-0.5120930237581984,-0.25331152963414133,1.6929015896180777,-0.487106989277519,0.8997782113857085,-0.8936717006240704,0.03234182208917559,0.8742775386896351,0.13208119761773604,1.4180898678365064,-1.4631752674153526,-0.2853901121727749,-1.2332382685110501,0.24703201080368709,-1.1032055383252706,-0.342740995096219,-1.0084775516241165,-0.7320005132896339,1.2661944002869232,-1.2073036547245188,-0.3990424419911752,1.3003401995212618,1.4772093700914193,-1.1777516581045564,-1.3689645642282087,0.3610102086645271,-0.38335690854223003,0.1082447198340279,-0.1319072188628809,-1.0911938099895422,-1.4523545894748022,-0.06464130527662508,0.7154953184815118,-1.6405981723449452,0.9569786656358085,0.8404319037298599,-0.31513875989431706,-0.3615434947564925,-0.7099806085745453,0.7280309121153209,-0.47200317553535837,-1.057682434169277,0.6412156459939009,0.07572806023024062,1.6162766459825597,-0.7272605299263473,0.8250410756303967,-0.047989522116166174,-0.7265608369693312,2.0095642845074817,-0.2646185538533265,2.3072923806786942,0.5642906818879024,-0.9605749933507315,-2.3370356855562653,-2.0894982790065204,-0.8350772667323155,-1.0380639957339863,1.7012209689764726,0.6966990781751403,2.237351427386176,-0.7582663344931954,0.7919496095691677,-1.1706590280542577,-1.5257691444272998,1.7413723364723686,0.9152328408192979,1.3847197946470806,-0.802002414887404,0.9684826189526586,-1.1522691252992785,-0.8350355116532295,1.5171324902128351,1.8936350540901368,0.1695423734058391,0.05569459839470049,-0.057721545971531854,0.8634957477479058,-1.5042723588987919,0.6621072512110621,-0.16136535914062272,-0.2887979462445995,-0.3586809659141479,-0.7609081185153536,-0.9588624681300482,0.538375062140423,0.17579570646626302,0.6523614639484973,0.9646484633229132,0.6253507294728801,-0.13210027522190562,0.7608274807295705,1.2809436341206846,-0.22487172515628465,-1.0899120671130609,-0.8756860429124391,0.17645312513275083,-0.650866400307986,0.6193811866065246,0.2633104871835188,2.618297676901084,0.6827156752489077,1.6483053761769857,1.799724837320874,-0.3179072919126053,-0.10592198198655471,1.9814789096267826,-0.6706450695524171,0.2700151365867932,1.0269569263197589,-0.6955397377047995,-2.0487106372810358,-0.30712616300637186,2.176828677115758,-0.4442805775472791,-0.09836036585175133,0.23660125501614168,-1.1998130323529081,-1.2130506859786225,-1.5395130480802932,1.486633014749154,-0.24230322406786892,-2.0708622994289136,-0.19906954633219026,1.0749166471796407,0.9565869586758939,1.750269718706323,-0.8235161338605975,-1.1190019681697145,-0.6260584439892112,-0.7175493156186206,0.9395882636529829,-0.41802087077536226,-0.4901805607267899,-1.1115008497955319,-1.0486322515090638,0.7069076230909516,-0.22793902706330318,-0.25353500972917054,-0.4451547573525792,0.05263348310900398,