{"layer_sizes":[1620,30,30,2],"weights":[{"v":1,"dim":[30,1620],"data":[1.671206830977476,0.6475600346965962,-0.7696035779955318,1.1541808010147945,-1.1535721789791917,0.4894560420874942,0.42070535163891704,0.2332594674313179,-0.7566399391355634,-0.1481457706389894,1.8993136640728734,0.2643002443230787,0.023926841423236207,0.3040452119119726,-0.8955933278966622,-0.23644877948224216,0.568799673167591,-1.327519277220277,0.8699373366542849,0.20937122003205322,-0.24814017134845373,1.7416866935119557,1.150290262681456,0.05910473050545541,-1.4259177710371644,-0.17029887199847066,1.1010568779035297,0.06700438780050183,1.5203419849971964,0.9836958765036091,-1.1332129388858856,-1.0277417674943718,-0.5143113959925542,-0.12627072524661215,0.06354311280033162,-0.1699661966787526,0.16290446530064634,0.6373646539214469,0.5424680186224241,-0.6053250962334891,-0.17038957235440463,0.539545954047611,-0.16641778286704786,-0.8018964541591126,-0.9083227317128704,2.064942893071684,-0.28229709625950794,-0.42119571697424696,0.3056231813750143,-0.22583375827667523,-1.6121008418109515,-0.784140067894973,1.4427105696117206,2.2319554831471713,-0.20929261121593032,-0.38014128362828464,0.01376987153855047,0.21539026479848827,0.42894561400868175,0.7509497735166656,0.5189260502112799,0.13612753684794107,1.004031462330191,1.3992533066095991,-1.1797631974445382,-0.2871493570070146,0.7675129785612181,-0.2895436704563068,1.4862922764555575,0.6039345302823294,0.08442801325898708,-0.2567712285352929,0.3291123951853512,0.38991596331747846,1.4648780219641928,0.8677575734435415,0.6712992810003483,-0.5293861328477516,1.507043822593921,1.343459397540293,-0.3266935409915838,1.0564861325730512,-0.45850474426310045,-1.2266324256445522,0.5879381585748887,0.034188118188164814,-1.1761214591088565,-0.282509037745578,0.4425895972875131,2.007703964676803,1.186124616805482,1.014704433973723,-1.044390916964594,-0.9436885095500149,0.36265120932724254,-0.6332937995588448,-1.8412734973022018,0.5412837703973767,1.1035559459718938,-1.7783169118407822,-0.2965701233922702,0.18088082693763538,-0.4125715009926921,-0.23608162932661017,-0.9293096484366408,-0.6448743177522436,0.3709540786572346,-1.4497013017118237,0.5973889162926916,-0.1167513876297125,0.7096030349940663,-0.3240135259944938,-0.4705612024237254,0.7014581635398675,-1.5335236665289493,0.2115331376520559,1.7382754312018667,-0.7338716049446029,0.7694818090603266,-0.9529427811373881,-0.1528453851689576,-1.448286231391177,-0.5552038493228227,-0.07201588178531432,-0.04067817163698298,0.24371544556323874,0.6333032432918566,-0.8769119191353822,-1.219490856837995,0.06328781940229791,-0.5561678177063943,-1.8114669685107467,-0.24053226238273298,0.15189474028070335,-0.7447276583433151,0.19537681687252953,-0.3913308241763374,1.3225024131467489,1.055525218142256,-1.7565525699013271,-1.8903866943131358,0.9574923788369504,0.8911682932895636,-1.3742012592467645,-0.6973040091610747,1.1192899388032833,-1.3510169541856392,0.03662603453108113,1.1316650673908122,-0.4926450990970381,-2.6097158354184393,0.18034406433218825,-0.7521299216741127,-1.8159798466408361,0.1550756758905557,0.12824839065182542,0.4810618285598919,0.8772680151452993,-0.3971782872873768,2.212433296525883,0.5419652420528411,0.3770855337005922,1.3840496203008017,0.1409180260751909,0.7839363600140864,0.8314549463011744,0.8554590937271737,-1.0749609691034112,0.45631811039827685,-1.7374097534152664,1.0305944436041519,0.7715101282888116,-1.9499313034763672,1.2328054248957903,-0.35260348741637,1.7009242691591513,0.5398813005444943,-1.0896426119889469,0.15343458374105828,-1.5494691141901544,-0.5609947164508476,-0.1450644335972337,-0.4390972158310871,-0.0533748064843342,-0.6437716624705632,1.2600649458705169,1.344743994465283,-0.6648929108814874,0.19548245147361756,0.7684463938411252,2.175791362033907,-0.9970318779179808,-0.46093728580424875,-0.7424932550845869,-0.4061683239806473,3.037265945448021,-0.5867733285434636,-0.5479825163542847,0.8210044631291691,1.9735118671585783,-0.4902017439934256,-0.09640347011011945,0.11529234172831042,-0.11732089422779639,-0.1011080415279931,-0.03581590225283969,0.10555478252853943,1.4186736567295921,0.636493688734423,-1.067873164078568,1.3246755775607704,-1.5988624112573546,1.905945160062839,-0.8238899721646733,-0.50454965972823,1.8146676634195602,1.3143738544749342,0.7171380337217765,0.5702361861009475,-0.9950601792561153,0.1574493889895964,-0.41618142130127644,-0.3452233041412239,0.17463719952185264,-1.015336086294876,0.715684680876147,0.40303718710777525,-0.26055575430647454,1.6069803678953694,-0.9805967478220154,2.0485710474419907,1.271126674622198,0.686339569403153,-0.6416342251253248,0.05315159456686044,-0.08099978786477274,-0.15159984068658827,-0.41061875108719936,0.5743511276232984,1.1606323021631137,-0.061200585707158826,-0.6518933294510191,-1.4523829400338553,1.319090940405212,0.39269198985114695,0.01740614823966311,0.27336264933693155,-1.4070863536609584,0.830415968828621,-0.033016032581544695,-1.9408540888454529,0.42497115818355646,0.5277843364135028,0.7864342993332288,0.49709424958742693,-0.2263179587546992,1.6623162698916838,0.2563071487521442,-0.4299542927281517,1.8066529674176486,-0.8787677649065587,-1.0620779108703624,1.8803772542723989,0.9056911892660461,-0.8752280501544539,-1.4126008296009285,-0.4547063327108931,-1.2178282178874396,0.2767220437503716,0.08460558461624419,0.52273192408596,-0.4466141362873593,0.09399459198501446,-0.34974402911574476,0.8997411657288932,0.603238448994357,1.0059649575532408,1.0806258937634043,0.9107113688562615,0.4802626607497828,0.3593450111558301,1.6060403130574201,0.5477494361295627,-0.7557958537311608,0.7091769368223715,1.3487126948417014,-0.9570843909848533,0.4440418755248057,1.9914065089599653,1.15317108634049,-1.7346425323550112,-1.726432901719199,0.23279042194253288,-0.3848463101102738,0.904829663842014,0.3532983909311499,1.0639183128927427,-2.17377070783482,-0.13965049090902562,-1.1186826019726577,0.5962374841372758,-0.6664870249915174,0.00582422900776424,-2.400149459806722,-0.5533532590025783,0.9782762099549193,0.4664131670967689,-0.623758472624768,0.17983143519801806,0.9477465596463752,-0.3983332075930439,-0.27290637801478373,1.1893669144418244,-0.6615709370268342,-0.20239229105005424,-0.35803849863114656,0.35220328822098734,-0.8186521909585648,0.1705396744468643,-1.1485579882259038,0.3579221884952724,-0.847654729177213,-0.8050935172745582,0.41815536258757785,0.2620145804444031,1.3555142134361555,-1.4102352233768365,-1.3616089028729845,-1.3945480517269597,0.1920475269652525,0.70068614188856,0.06434455578886127,0.49174150430050706,-1.2916307201661008,-0.07363803092940521,0.37045255395605303,-1.4858923985982269,0.20306864936545832,0.36491836569117697,0.7215506462327359,0.3546275896114512,1.4140170558562541,-0.8154776338006866,0.24274531672392344,-0.21425096340444477,-0.5803048484686338,-0.45617890850319004,0.04773015811812131,1.3967856121882154,1.1956267835442809,-1.2812392012701597,-1.0859659869884761,0.4187855065744604,-0.04628765674007773,0.3027709387070963,-0.3712071666239789,-0.2499174857638531,-1.1029132701980178,0.4051720403704698,-0.859075360486073,-0.2739080734070396,-0.7144537266318457,-0.11865784449666059,0.46744492819391964,1.061308595301137,1.6694786344761068,-0.11230636926006056,0.7080885146363227,1.2400577136604094,-1.7692617391279641,1.3134220837503867,0.9959283972565938,-0.08262499287811553,0.45260274183477023,-2.9972599139290503,-1.1595897195098168,0.6274430880427665,-0.16997773379674697,-1.200136302908795,-0.4854000499237064,-0.14838463192167875,0.06183173737642772,-1.4921308981240642,-0.6750256260635334,-0.5542417257973781,1.5912627692487133,-0.07214175952345428,0.4284442712315895,1.3805534542644105,-1.513906561062257,0.9402263375272512,-1.4870069608487124,-1.4469072661188807,-0.6213349779369256,-0.7404728938878578,-0.22477998258603354,0.6282540878806697,1.2291545083076327,-1.391205359011952,0.25069727889445925,0.939434082773621,-1.0859983848490506,1.0136558761324004,-0.5032779034076553,-0.645088554903687,0.5621162497031034,-0.966838769248256,-0.4679372908768455,-0.3052946840706264,-0.32882863639317234,-1.1936361910927447,-0.5588679615648574,0.8559770576003625,-0.9668695568641757,-0.5524618113371467,0.11349904261546491,0.36299048628837577,-0.544177315909767,-1.087306840768011,-0.930522296373515,-0.2373639442140034,-0.049673737882224345,1.3089437212007538,0.9073424074239369,0.5405924761158324,0.2400695590518873,0.023852844418373563,-1.6821645542605919,0.13336024260892226,0.045771436315982045,-2.44738977067145,-0.6665442283668793,1.5269457702198228,-0.4394828956718363,-1.0717685546125706,0.8845347415006778,0.1857201960057175,1.4452728762197513,-0.42048185013048944,-0.3196600883895456,0.3647130113995382,0.5175044942694351,-0.04986152389986887,-0.7458437808767684,1.4619391371845183,1.176488389518185,0.6939947740985288,0.8813384774613107,0.31170115260528547,-0.2663653989998809,-0.6965534733453177,-1.0610545824420603,-0.44185900235146763,0.4730799715794045,0.6886590211222882,1.921910356380827,-1.7902581460437392,-0.4438994645876733,0.521378864596683,-1.8066742889729936,-0.5142012810304205,-0.5168257809497729,-2.3322301964207974,-1.0980223824011894,-0.23346218232764251,0.6412132766168338,0.06000343779279901,-0.7052967542647636,-0.8818585129542651,0.05727970962612229,-0.4340817151729195,1.1956119604542932,2.66017801074546,1.011535197638468,1.606820307321431,-0.6815021925732876,1.8868429499371386,-1.9007808300025024,0.29441557145036323,1.6042778040424899,-1.0297100750703543,-0.7753729679233439,-0.8381252714841977,1.2827027198243146,-0.10315931491991852,-0.06792173659103416,0.9938109890262745,0.8608650509334284,0.9091919482340554,-0.6779510261490366,-1.9648628692776358,0.9954319231137668,0.8396906361339387,0.8201730464352157,-3.0622477134019563,-0.6738219346070684,-0.003490235275407697,0.4605840754542019,-1.3754095837824554,0.6387790040786105,-1.0151010726897085,1.7049616823919427,1.4244755606058002,0.8437183644960772,0.5112839943915745,0.8262779308586223,0.37485541295079333,1.4169810923079533,-1.0196597776375707,1.579794973100667,1.0906385110667118,-1.6455031313796866,-0.8198423067196694,-2.500172056315055,-0.5752306138931633,0.7087015943139553,0.8077214522467171,-1.0893585390587452,-0.5111040682655841,0.3027628784949897,-0.38444176255565865,1.130888855373896,1.227486044080166,-1.304202021335426,0.1594999042646777,0.5688026780248884,-1.9403248180238637,0.41886239108660916,-0.0751631976741092,-0.6010662992736755,0.022457233237603628,-1.1555558185148826,-0.9483470847915636,1.3195010527248823,1.100115704136758,1.7834813757930337,0.8123505366372087,0.4010833967927167,1.5373959377786597,-0.6907706880104255,-0.37653138927454693,0.1451989184348498,0.004892552764871342,-0.2601623227627625,-0.5303414177202307,0.38411934092596867,-0.9451311037999282,0.23514587258395242,1.0670149332225909,-1.6170581622967672,1.1240467573220199,1.4385138874472112,-0.4812982691676572,0.5662576950341333,0.11292952167821392,0.3681403635823781,-3.1624721790202845,0.14998811824202327,0.1426545985917731,0.46464480300582867,-0.15890571449932192,-0.41489136729946247,0.7521849441291333,1.787782450247115,1.1714095539334317,0.5113888674295034,-2.1118640152544406,-1.0649749650235556,1.7551298168478724,1.0678519028796136,0.7767191771140485,-1.3375584021070328,1.386832658988245,-1.6691421597171405,0.44615489555688376,0.012726808574098233,-1.5365180786495902,0.8988254150623459,-2.2343961682921436,-0.5254535612566886,-1.0993381838976628,0.552110355285487,-0.31008380455380696,-0.6430306815286351,-1.0700163152373654,1.1490041996562077,-1.1014858019727578,-0.5342599783224196,3.025704703309763,-1.9645711923754428,-0.5947475189841852,-0.175788221105315,0.6674551390980279,0.18724051377695458,-0.5460553816454665,-0.7474135224534406,0.8064160462390221,-1.3741364497977995,0.05916808397134233,0.3544538566672508,0.3839470013569634,-1.672051523271599,0.05848127675626945,-0.6997227222631877,0.1726056041680821,-0.17909532923808025,-0.19158293670194698,1.0305138095662676,-2.3154264391766897,-1.0174057094676134,-0.8758142430525391,-0.7469129532786984,-1.2838994892871276,-0.751426411871021,-0.6035062374132061,3.16602629906516,-1.3036836724049161,-0.2596305491338415,0.16884116282395586,-0.17825326274195638,-1.84847406763777,-0.863295356191721,0.9625124942200394,-0.2804872851427405,-1.0143550805223085,0.6277850510879841,-0.596161500385236,1.989893733385248,-1.1697200345559282,-1.5539137054857162,-0.8678167468947949,0.44946683697782,-0.46586317350929646,-0.5063881693805758,-0.8421704364247227,0.3814200848032458,0.922832766318953,0.5159972881997346,0.11037073108028742,-1.13950612324355,0.9096433614437174,0.7868382542661057,-0.1414688455805522,-0.44801099313105364,0.23553262835504038,-0.49014543457224247,-0.9742615355692394,-0.6684189788304742,-0.18292435528028742,-1.0665257854366756,0.46352330188660806,0.19008139280553743,-0.6168340250546235,-1.5896020989554303,0.44465756176528226,1.080122965064265,-0.21003421477289735,-0.26775260817777674,0.7152235923396161,0.7178859343799197,1.6048373492147703,-1.3338787350952444,-0.5738572671681794,0.5722270694798081,-0.1386622271948154,0.8937149215227066,0.30619545092702055,0.4030402876506321,-1.7584920905311043,-1.2747293316610295,-0.9179916918151985,-0.7880827328886515,0.2434271773278184,1.8139026053928466,0.22585948768419084,-0.3526481231099574,1.1017391328951507,-1.140446291579944,1.9523036388333073,0.09379718055569272,0.9033375038510384,1.8663810550109639,-1.1693622004022988,0.18180056498649133,0.4928488073421433,0.6616579169703746,-1.5560863994302063,0.12032270973885269,0.39766097711141646,-1.007087390997149,0.22039347577602406,0.023935693041302778,0.2964232895965112,1.8562643969548691,-0.32979771552739273,-0.25624016146537637,0.08213444344772235,0.8217382822324094,-0.34083958489453037,0.8161501007579895,0.38082859295865656,1.6663225181893309,0.08392361199623063,0.839684909371593,-0.002480400736691295,0.9105913173241126,0.9705381999283444,-0.14658999700516165,-0.9686457617686745,-0.21591551637432324,0.5377930039850786,0.10228332680819738,0.7238022524134198,-0.6940262160564186,-1.4802505446900593,-1.6117059654699617,1.0095058044380905,-0.8996007337324616,-0.12887552477102346,1.1216792928747188,0.033187124409812634,0.00021885305454001766,0.2954193980790852,-1.2267779024216319,0.8677159350925387,-0.21240636602787014,0.561587049800119,0.9756089712141109,-0.1393316190945564,-0.6277322076205495,0.1966996938795158,-0.8935792407327872,2.0887657127476134,1.3397697238934454,0.9967617556052728,-0.8621849130352205,1.078429211625447,-0.35698211308225686,-0.8784939365502735,-0.9287137919590325,1.327855765451502,-0.4149708726216457,-0.3733284352919605,0.5782201507788872,0.05234747582887769,-0.315403111768715,-0.13861988166399264,0.5909917736909844,2.7796786961291295,0.37692369284755356,-1.0255679181575326,-1.0331803124430943,0.8920737493969596,0.958929864544648,-0.7246401539556496,0.9758844421359257,0.1390396557684692,1.4532339042521047,0.4261903429112755,0.03029214614337834,-0.17342117106014698,0.482181382846677,-2.0239711081603953,-0.0574328230147273,1.8869621042697022,0.4754846180741235,0.8482739743601162,1.1333853313168818,0.7757534791479304,0.869308996365988,-0.06302104961168346,-0.8577349821373228,1.1742835306407018,0.33657682942669565,-1.4786434178930556,-1.1230037148122411,0.43804342461823476,-0.9590239046157506,-1.0413489977196346,-0.5284136042016696,0.4363856188077295,-1.5192900535427545,1.671550821456249,0.21365081259705992,-0.052646346511333965,-0.4993552932248122,-1.4976460611066336,0.22127758923153099,-1.6458741694770946,-0.9174389963276498,-0.04219320833614083,-0.8422504290278325,-0.3271143628514522,0.6559716838782675,0.15618545972249698,0.4682029858378901,-0.9492327300168573,0.4963028022317716,0.8515118091805706,0.3630622270092293,0.6913297025055636,0.31371556223056873,0.9636559019537484,0.6099402014842406,-0.26747205963552934,0.7037507359484105,-1.4816931417212127,1.5054865312722026,0.2964270179361705,0.24342639239024536,-1.1297255603119543,0.07640434240451908,0.2641770017403002,-0.38083660335727926,-2.179363965512585,-0.7089017543038,-0.07826037945430364,-0.26193207154981735,0.8167233981849863,-2.186295560731919,0.5949152790630019,0.2883094325882514,0.4450995404030145,-0.8760638238492011,1.1377804333925905,-1.1207296753721976,0.4488094839036573,0.04490033495677547,-0.08445439120721157,-0.7955857815079657,1.0851636813899792,-0.7765077534965439,1.4977207243352266,1.5986050871143576,1.7579392150726882,0.661356942039292,-0.3131505635360245,0.598635955762768,-0.20617665223881657,1.1773892209814814,1.293214266957994,-1.3931927790487157,0.10653552043050525,-0.2128949410061451,0.6355457984323581,2.4359158846795266,-0.18413041878959435,-0.5344793381336448,0.5073844144872761,-0.3466028204470287,0.05066967214624136,1.0816036366864568,1.4419269773103263,-1.416378142055276,-0.0517202967799119,-1.6805280665343723,0.6288821083913356,1.64100499837058,-0.7345730898693745,-0.7516455284976763,-0.17124867727955653,1.3452913836076883,-0.5451567994724391,-1.9196298634748545,1.4326558754041174,-0.3025615407510091,0.6322534989321741,-1.9930085003183189,-0.008302506007514816,-2.029812248380399,-0.05896403745539403,1.6298565597695978,-0.5511477820868127,-1.0019301120414295,-0.5778255129354062,0.5872747439640618,2.213795907332391,-1.2311905799772986,0.02132303668895142,-0.7565079712325212,-1.3994582216566138,-0.5304541696668258,-0.7909996788706045,-0.794106324121314,0.6172974602350265,-0.9323437649201741,-1.2131414162838001,0.22654614406585136,0.22992373037387742,-0.5370740348385207,0.9967099435705322,-0.7578202065647347,0.2687038417781433,-0.4833753190711772,0.8807017091697903,-0.4051491657343244,1.1029573718660555,-0.9755948397204773,0.7905388160563496,-0.14853068792017607,0.9937770093514166,-0.9826670626763887,1.933376564085507,1.6872983474488672,-0.35120444984680865,1.3279048661412998,2.2359067481994153,0.25891439394942584,-0.8356262601540372,-0.1468564902992304,1.0150686566627287,-1.6745160377146884,0.9264931745661262,-0.7222379464302848,-2.191907903660479,0.47206709680546705,0.10424487206015329,-0.8506092527076724,-1.2221045584387005,0.0699501433835741,0.11846193776129303,2.2083408119550096,0.1972817803175582,1.4965163321784105,0.48964362438700687,0.011347660975399174,-0.22991656258251136,-0.18403520545346932,-0.8780484000334368,-0.2597702848226351,1.3149149345256708,-0.6691891765373132,0.4534214509900092,0.9390901026215898,0.7860956310609581,2.7185111147170216,-0.6371352956703127,0.43937155740004735,1.638798076853374,1.0334902561141126,0.40197473722511773,0.7073447681996967,-1.1430221039506256,-1.6080558766416495,0.10807978921013911,-1.0764719805924527,0.40729273305913627,-0.557322508657956,1.2432181212200024,-0.2931249712783675,-1.0168040342369329,0.23519665427110092,-0.17155565274677517,0.6912182715971568,-0.1944324002181396,0.3616182027400393,0.342919895252804,-0.09494270217868808,1.4792566207871387,1.9773028023153458,-0.9414730227067241,-0.5782059606988464,0.18214468321051774,0.08990564949654124,2.5493895886708784,0.19663123895267273,-0.6340209276024537,1.236079130264729,1.286324438920929,-0.7513653271308798,-1.6338016061199723,0.8790659725719748,-2.0937964602221593,-0.39027421872949725,0.7773342276766154,-1.6449520720189896,0.2874450143026901,0.5065530935833584,0.33515345173027733,-0.29552145488036957,-1.0366724555651785,-0.9249163298515075,0.36598983270018864,0.34013217062213014,1.4447094344541205,-1.1475620103024695,2.2155798880796387,-0.054602276775247434,1.141082134052588,1.6239939842572768,-0.09795000851363247,0.5368132056619149,0.3775490764164386,-0.8479714817549927,-0.0032061113860667326,-0.6490284579132298,0.33981957776365146,1.8794342496473357,0.047064962799584345,0.6688548661987445,-0.8518826757462734,0.17377151447309291,-0.49075515966392524,-0.6949716731966934,0.13417886502732385,-1.59504883171351,-0.5596070089120536,1.5976230865700152,0.17021957678433594,-0.4666160820580636,1.8543296065340658,-1.4954478214700835,-0.43615985308340294,0.0427457733942353,-2.0344332687342694,-0.4892850003293186,0.3641757554772882,0.28015646202526784,-1.700802821612933,0.8243790221828118,0.4091225492090819,2.1739842524431747,1.495028675503152,1.5296733245164842,-0.2260158846558096,-1.7397514081071936,-1.4332534678988014,-1.4297626730759974,0.4589621794208542,-0.796032991102446,1.077801007981445,-0.7111470113264073,0.10455937510434406,0.40914990043030136,-0.41489128091021665,-0.09399464555221963,1.1314066256626258,0.3794249663827069,-1.7935689472952168,0.5992873668820964,0.4371650200790816,0.03409639914607352,-0.7700807131492274,-0.8681087972170768,0.3882259641659978,-1.5858332603037848,-0.17303444853930686,1.099729117981999,-0.3761921393616354,1.0733229712402168,-1.9428154982726198,-0.7908958547475696,-0.4391558736821761,0.7002175018756298,0.3508251305457841,-0.19037334017808133,1.092719718277948,-1.7441289998090852,0.3188361984214047,0.781878922236119,1.032239312773045,1.2185196989290608,1.054880969899607,0.5226828049679112,2.2932320622287548,0.3738032806714749,0.0666570357868866,0.14274937586047054,-1.4754819135035335,0.005204828553001086,-0.5981248217823152,0.0908416547297989,-0.35075355014123466,1.409422809143355,0.528164755914168,-1.3268996156080328,-0.39991291183795946,-0.34165128768107034,-0.03113401764091017,1.9828575524771297,0.8079744414708045,-0.6751513876541183,-0.09053183090981708,0.8466218237716749,-0.8279987870351054,-0.48648882056267045,-0.5219413029384262,1.078248787501166,0.45487294892282265,0.7870550944980237,-0.8477165946804859,0.43719465779774247,-0.6944861465391013,0.5657139768329459,-0.7048948412523626,-0.059965032495325275,-0.3054805271462936,1.2422046814678391,0.9229937419296946,-0.6494340849876009,-0.5342855082875348,0.5081304952188453,-0.31419434805907936,0.5517464643498238,-2.1150977704159466,0.9676159843264805,2.6537803764476524,0.10235524127388046,1.749144683874396,-0.32267865412978974,0.1627976444641114,2.4854538139563545,1.781097762287129,-0.6250666538998275,-0.40979312144564134,-0.0465594182399359,-0.49517603988567277,-0.08550738001692414,2.08164419923746,-0.17290083626712377,-0.795095002093582,0.6613168008546261,-0.7417448960395762,1.5509724435268635,-0.19272388985431438,2.16453560727919,-0.3637749597839639,-0.008274903277560414,0.18508050220222633,0.6613116764037336,2.27688120735888,0.16722671337463857,0.58971593009651,-0.693093902490376,0.6513841045891311,-0.15389374529065888,1.0562478631349035,1.425122499119126,0.12086104872701667,-0.7502872209908228,0.6689487039120896,-1.135259106511365,0.754369015241873,-0.1197716319064773,-0.9900120516394972,0.47023978342516065,1.736894543628357,-0.06568843166122443,0.049486409265260906,1.157361026643949,1.2398996508599192,0.5784461673387506,-0.38763912532757727,1.5895365017590222,0.6875621458259159,0.07223930664931454,0.047890325839822,0.7041324121395263,0.15229473716371267,-0.4358269714642047,1.4904658883554338,1.852975757529059,0.8074077261809147,0.42118397706238847,2.4860521876379114,-1.4363917561648274,-1.2804183980440969,0.4820945515781873,-0.11968675506287912,3.074395927208539,-0.2929760264024162,0.41412763154027027,-0.17004672167370086,-0.5270215916442033,-1.5110417837657726,0.686610801721008,0.5913810453253298,-0.2220561455765822,0.7217245586534441,-0.14526039916946204,1.1369308715457602,-0.13807383959274325,-0.24645949072256998,-1.37867291539517,-1.5483177429832469,-0.7362987508446259,-0.6299271245239213,-0.011115374757010977,-0.5866092341408342,-0.228198590374062,0.9503164959749383,2.303072586585387,0.18249493324931573,-0.951000192616458,0.7918115647828984,0.95188291550027,0.9055571071569171,-0.7489659137015439,1.2262384275585407,-0.922536694777301,0.439116492631366,1.070176518338835,-0.9768054725161588,-2.0165210715163306,0.4681740760700658,1.7153223172037244,-0.5636985967867459,-0.07698696861950105,-1.3047367089819748,-0.1267900096704134,0.9076152070694955,0.7707900146875573,-1.2183554168034074,0.03214382938798237,-0.03272415506679181,-2.300444841124777,-0.6627107994946593,-0.415845967894158,0.44286580060664604,1.1565181481208577,-0.3723946988460217,-1.1390751413536264,1.9713053580904596,-0.9102198861462989,0.8570531547595938,0.7987736153784358,0.06037978474767883,-1.2234555360700363,-0.6739413674683398,0.24676557622752682,0.09670057280419371,-0.23563169620867733,-0.5964228284805517,-1.3383500823005896,-0.9478798197331177,1.913005296873436,-1.229141609281709,-0.7256484516191943,0.8267037912479862,-0.023387725484508036,0.4697264633397769,-0.46209504341749363,0.06002478121644841,-1.3796460420466505,0.5634718561913244,0.4830048737128688,0.6820517808337461,1.0767429111339597,-1.1415880972026906,0.6252829528285663,-1.3519469272598885,-0.3888060132713851,0.6676111031331392,-0.6047644618421013,-0.5611340328904484,-0.9571406654865899,0.6495108792018971,0.7283916288675129,-0.27780030088344304,-1.2309037527167634,-0.411848423608641,0.8259937590334904,0.5873677586107994,0.48820294451363755,-0.03417519119153946,0.5048900078893359,0.5258205918111387,0.38123460403685455,0.9364025072343598,-1.0671063916988808,-1.0923668879703845,1.8867905567750738,-0.39512474210628173,2.2715289812773873,-2.279481796170302,0.8390377468338057,1.1989542462649425,-1.1742491764338958,-1.2817684423496962,-1.1188785999231037,-0.07024799151432719,0.5539308296099335,2.589071706545452,-0.557518105370256,0.46580709908714757,-1.5612061946391445,0.21601289125487314,-0.2683720283100267,-0.4057899182380923,-1.156826516003589,1.7632803442276497,-0.4866588057841331,0.5535926434632491,-1.3805763355214873,-0.7714045859182991,0.1352351839777476,0.3138486149447761,1.0444874657191785,-1.978275172103902,0.5081442688204252,0.5516788358333314,2.26884347754842,-1.1085639321929095,0.6058429526094689,0.9758245290947909,0.6691406462143948,-1.9966276357693002,-0.5058870027771624,1.4199812403917043,0.344525988273426,0.5506557569412864,-0.42588104936257876,-1.1542260260909138,0.3044003582876958,-0.878142943129921,-1.5818594576964626,-1.0656317752135613,-1.5437636709664657,-0.18619660883552624,-0.7933486469859885,-1.5694663186602278,1.161810654029882,-0.9571602988251162,0.21863068424498758,0.6492026451866864,1.4387624915449402,-0.9035165721196838,-0.5132048986833314,-1.257927558349951,-0.6495830522131685,-1.195125402659104,0.9546675760980157,0.40179375720458405,1.5169569053788767,0.9104074391589848,-1.3266628154890836,1.068164971931199,1.2570313139433864,1.712504543075811,1.0875197789165068,2.050164258652807,-0.1809189967563217,-1.4872200595128116,1.0055159138572403,0.25695981560382236,-0.11767136081700096,1.1246587911203099,-1.8373684930074503,-0.7123804619138361,1.202355749369745,0.02303624753209577,-0.3236932576084578,0.8317547548750228,0.7138422156369659,-0.39134816620937896,-0.535325355320399,1.0320407583715985,0.7363662022165305,1.1512911057488826,-1.007698855503495,0.5118914229087466,0.2970223692303959,0.7836478893146911,-0.3196779981860812,0.8425698266950093,0.7848346949096466,1.094359044185883,0.3054591647714383,-1.1192922559928942,0.44119302865286286,-0.2127413083118404,0.555009793899399,-1.638418502416026,1.0935564917171314,-0.7500538611796869,-2.493661004857987,-0.320936866062601,-2.566590050106123,0.7561120422313993,0.5057893170722624,0.5370002876226949,0.1843308282735359,0.7341905892969621,0.009387256362117223,1.536042877564275,-1.2520814426175282,0.7155761617019777,-0.5545609175820249,0.8492683066889953,0.8883081903740754,0.12004881357991926,0.4571885529610215,-1.8517944318155979,0.5730421923510451,-0.8268110650709463,-0.5639338419913963,0.07197112744869333,0.0917580901810213,-0.7869485844351933,0.17704596303618406,-0.4821170172611142,-0.591395599523823,-0.01967387000027792,-2.7574886722510934,-1.0808955944129885,-0.603150826987498,-0.8353496472794022,0.019024298381923068,1.8491067419846645,0.6630761549269024,-1.170794618303851,0.046486598101441366,0.457328689723326,-0.39758590631484797,-1.5131155476104574,-0.5226549581881151,-0.7384994079495194,1.0697881139431937,1.2269081478083619,1.5382871536101586,1.4263723356594358,-0.7349213220182133,-1.4888459471078308,-1.2542645444901535,0.9424260707598848,-0.4205588272760035,-0.36425391704872473,1.550689673093829,-0.20355549290589459,-0.5158890444124188,0.9648433661614656,1.059480643448644,-0.8634726945612164,0.9587548797085879,-0.21414688448389238,0.6460338758545632,-0.37713221896331695,0.3406756417605219,-0.4431339333587681,-1.49654451496229,-1.3129632120148786,1.6848478415609174,1.3692176193996155,-0.048067208596399694,-0.3983526047092568,-0.4526885185569965,1.2358637397749874,0.12595566166018654,1.2873134404312485,0.7274035001010435,-0.5784097611511453,-0.13386065242820055,-1.4485804377411962,1.0262061885693967,-0.011113827606042955,0.6968145253796074,1.2923041407277016,0.3719489784753838,0.9864691710707716,-0.12675526681751031,0.19662935603752754,-1.29100482605658,-0.045455165257118325,0.3431959845791202,0.47373654141641297,1.0126932397852768,-0.3825503128563427,0.889674941377692,0.06634147335294938,0.33905507843708715,-0.28453406858807717,2.2474529191740995,1.948472527027414,0.9330387527338356,-0.7043056917275927,0.9045331417489422,0.1071856569544583,0.14186179795873802,0.6809423533371257,-0.27311941541238044,-1.2104748076207565,0.45115396774598887,0.37556482969797245,-1.0746902564504504,-1.654215105455059,0.02258926277055998,-0.5473201192963646,0.2812802483168278,1.6932494447070923,0.4617665645298931,0.6705380575983706,0.29187024819545326,0.22659640877468218,2.758695592775093,0.2842723610649835,1.7873077489590574,-0.4872055317440603,0.8088883538062542,0.19743562136368617,1.1906009044915231,-0.3069914791802187,-0.5508989750500323,-1.1760248607422263,0.12231145115083035,-0.8353276188863559,0.5197971386661056,-0.014829221535369683,-1.514849442045986,-0.9053423493301577,-0.19873956113543137,-0.99904232380519,0.4537858162392176,0.06539443203104511,-0.017694806459139234,-0.046821955962162924,-0.15222628855747533,1.2599550761354825,1.0112003306412678,-1.2810042163270579,-1.3364636588148306,-1.2460791250219698,0.6524596865874095,1.0803245861482886,-0.13906321321083387,0.6729536079511733,-0.9025721675749454,0.3222285482430173,-0.4739041831810864,-0.3873383430209135,0.29474662501124727,-1.026678602507833,-1.5677241133089173,-0.6481331133122413,2.9170230594335487,0.3578652150912975,0.08054049677108194,0.9176428919892895,-0.9334227535720272,-0.8658257170636511,1.053440944961446,0.8165248959908319,1.1772349066019399,-0.45002182650772954,0.047268389573094594,0.990018433846882,-0.030337375500457925,0.13893911144059223,-0.056847502271346925,-0.5336701791992563,-0.3146717900964028,0.564059020517061,-0.017642216131043026,0.979763821171816,-1.2277642264442645,1.245810259409,-0.1024880967277859,0.7180588183058161,1.0449237046688475,-0.4387425629809665,-1.4155352046758332,0.6531462832098204,-0.3864592105872922,-0.7776556816470019,0.5623037931980724,0.6363579996285964,0.06597221591075313,1.0395338294145546,0.061947141838078236,-0.37343593495516647,-0.9554584505579448,-0.9712416122645963,1.358725461719459,1.7367906411953573,-0.40092093398711354,1.6212689162250886,0.33493291584386564,-1.7502601258454553,-0.9360629884349388,0.13870078908000197,1.3450615231934278,0.6797589782932977,0.30332772511298556,0.6925410445533355,0.548929013158661,-0.2247358853219426,1.1046100108819865,-0.09990217162479145,-0.6188477193955415,-0.1508698838815589,-1.2256344321611936,-0.29402106999459116,0.10329982946973265,-1.7560802452181403,-0.44591728699580435,0.40429637918243544,1.0808251592356568,0.6822184293489008,-0.2734870519856152,0.5605701988152959,-1.1856748491001232,0.10080908730616314,0.1634105632661077,0.9598536419946371,-0.29707925903077714,-1.4162741088952866,2.81586451701679,0.21102612359435255,0.9676826752849615,1.604074132199635,0.3009521645504965,-0.902246220557925,-0.5861009949980047,-1.5119172038066813,-1.3650312376937939,0.5313082974463569,1.534841834921551,0.44411944834578815,-0.09260426408953615,-1.6611946307046734,0.4718288246914825,0.157647832073675,-0.16687894619518592,-0.8229177397565374,-1.2996891483366229,-0.27878684003150495,0.3035330965278001,-0.1708209470178808,0.1659206286748405,-0.32778330110928444,-0.2576898661927984,1.6674787719347188,0.34793729589080624,-0.014869490149944228,-0.9248268816229955,1.557013249985883,0.5466211452137789,-0.6748507858300193,-1.6792961829493864,1.0514448586831693,0.47181166688568166,0.7365131214806268,0.45667200357495175,-0.41859656374499016,2.3434446227644976,0.545867946829983,-0.6272682837891371,1.311941260270896,0.6411777932685568,1.8522944747514314,-1.2615343834492152,1.0811117119224907,-2.338168215066927,-0.03984242890692541,0.10711915723388926,1.3495183808100488,-0.09496347335004768,-0.5078776513779487,-0.4998410397100295,-0.6948335482990732,0.1578528025267157,-0.693250046597246,1.6718618252561912,1.1826054169617441,1.762426009423376,0.43191666862785777,-0.979526858491329,-0.6915119979223834,0.2052698165433798,-0.4877117861923647,-2.1871795125755766,1.9370185693734976,-0.5816278130374292,0.03208024102138227,0.005565294552144821,0.8968625731475869,-0.08311811093847767,-0.7417430456671101,-0.87135989451919,0.5014121019857474,1.4256077576751789,-0.5670841102977238,0.3135167053899941,-0.938270274164124,-1.723871811414122,0.6432074602507696,-0.7198904801274025,0.44475225774545685,-0.027632085593321136,0.09842843826256156,-0.6270765630216458,2.2040973579800736,0.23255748808342014,0.06829125169301668,1.294883851335692,0.3322206831285295,-0.6155248300720648,1.2817333602280179,0.013718614137654572,0.42547426960236207,0.858645268293535,-0.4663257708429037,-1.197018837796947,0.3348094922783701,-0.08271360447966039,-0.9930613745015924,1.908426297451556,0.5344033968996191,-1.1166247977252883,1.4530255559994831,-0.9018588771163196,1.2075271542829205,-0.5922133899196108,-0.039034486817665984,-1.4199588497281892,-0.4917411393554036,0.15506344626868648,1.4368481290253192,1.711991849475441,-0.4021554176133738,-0.8082007381532661,-0.9447544767004253,-1.6295567313030006,0.3257625489045267,0.40367852258831616,-1.205599342481307,0.48726413016267783,0.3341680256631771,0.6988818853644666,1.607531715954111,-0.8702800561942795,0.4507213121595078,-3.035578877776579,-0.22407483888380555,0.5232662936687369,0.8216400305077296,0.519483803656165,-0.4124793397608779,-0.9545877177324751,-0.780243221232807,0.1369871914264439,-1.129725216172238,1.3248221569207015,-0.6533331404682288,0.3078183020148975,-0.6892417442363408,-0.9059098346643222,0.4543886109981017,-0.6582586421114968,0.5162634150463643,-2.102687172620762,-0.6160373885570404,-0.09308867702623916,-1.4443290974312288,0.3218305322712017,-2.054863875616367,-1.0024415238797042,0.899347868647529,-0.12725099008601334,1.4428806471400295,-0.11638057993284974,0.26078720939701955,2.2956512810495213,0.7299929412791074,-1.822782703149249,-0.5577827673069815,0.5688600446531044,0.3746921399262587,1.4017703125597751,2.079001578205813,2.56121597555281,-0.6985754545066231,0.9421901784955121,0.5678115880403675,-0.309723402633288,1.0002986888018723,1.5494620274043664,-0.6857423023081771,-1.9490366226783045,-0.5462113592534182,0.46560458361403356,0.6324339628369998,0.6292783888450524,-0.6290032666030787,-0.1450329023686039,0.021543128658242608,0.755484004208484,0.8507540006884626,0.35368149615173394,0.35651403207387994,1.860005083153784,0.8692629931261033,0.24404256157288418,0.15002436702173486,-0.7006643165736565,0.03162368034757573,-1.0795915693872131,-0.7330895570227814,1.0453581362188553,-0.07736465926222277,0.08566861222095153,-2.530265121151573,-1.3163554871224579,0.5490909626207416,-0.39407312049590004,0.09318059476230513,-1.909991839453118,-1.0573168652951206,-1.8291889879694583,-0.7835061655420802,-2.150390865287643,-0.06782155454459891,-0.3468928987025971,-0.9875937012989285,0.08656130352902924,0.5448066676816218,-1.631045423606794,-0.9806198326065053,-0.29749123228328417,-1.2343225541504574,0.579621251315836,-1.240361045781908,1.4033730260300339,0.6041609071321744,-0.5437066793361026,1.3726497068336438,0.1810854527361619,-1.3675659374736269,0.8168297138008088,0.5223797889604009,-0.181535453698937,1.7880556038784754,0.16166708155753243,-0.17748324333715315,0.19731268393761056,0.670099767986286,0.7471552258039168,-0.36515647763857184,-0.9831370260101787,0.2817447146356057,-0.09255979912515026,-2.235331776215364,0.13782334795300155,-0.8016575239036637,0.6950614673178142,1.029283127490624,-0.3904744867650873,-0.44319893026679896,-0.6999280905590132,-0.615832075887035,0.6777509001625474,0.7102707014227083,-0.06771780936489466,0.7611208368728395,0.3590902357018244,-0.9850604020673529,0.027060298275162493,1.3126888162861587,-0.8476250293309484,0.29783546442472386,-0.9328492454064473,1.2255121012245336,0.4932771965902554,1.2133125685581059,-0.8867628190291654,-0.5015711767978561,0.585498543863169,-0.029067719179405115,1.0117155710478025,-0.3816286532364371,0.1330048443465717,-1.0362459007129186,0.062100583132133194,0.699663099827841,-0.7707044210786622,1.8845125272215284,0.730127304090485,0.29711325142372974,-1.4085558054343117,-0.004657017720240343,-0.08963854337740607,0.07625245625968148,-0.7258928250914424,-0.26689591441425686,0.598696991011172,1.2540233731534263,2.545131255901073,-0.1379614183462812,2.2030940506120444,0.11177335662008513,0.41302125279887464,-2.692231786479367,-1.6790518060994541,1.1177073705961096,-1.170504338330088,0.5370189388535589,-1.503760303447112,0.7172867775583613,0.3858477832061427,2.0931451087911364,0.940826181853024,-1.4997648468998248,1.7951528762501754,1.6216656739825748,0.29833108727240004,0.29018734170959165,0.9966934548294543,-0.6908060111495226,0.40359618817206394,-0.13409948964906782,-0.8224123090107873,-0.4386057620408321,1.3477323990823817,-0.19270894494028148,-1.6540767122014137,-0.551474601465642,1.0044739132102243,-0.1995801337754497,0.1525867385942964,0.5602830453335665,-1.1203321941006514,0.4809728761251491,1.2079421763637666,1.9818523567668558,0.9112759551017956,0.7181118378024268,-0.531676061881302,1.3763579241919774,1.12493062695979,1.1711624718298037,-0.07815071896093774,-0.38256173985916414,-1.802803514344332,-1.0468215563288645,1.5509611767212537,-0.7347871989061702,-0.18562292541244405,-1.3313744901687536,1.4595648403312742,0.6682300941260081,-0.08604373491177332,-0.8758970522602431,0.9768148434618746,-0.39680479492118864,-0.24073310160158612,-0.0916107704998534,-1.2934517982312372,1.109227776555131,0.27634023480541703,-0.20469386810550538,0.6490963295229536,-0.9152158923158078,-1.3168980989362264,0.24453839037463498,0.8885634423208731,1.575856977899193,-0.8905213822756165,-0.15559286187093008,-1.632746886588535,-0.30667142791478813,0.14507131189432965,0.31702443075738895,-0.28712748629797374,0.868374210444179,0.5982476765290379,-0.5773594923118602,-0.5057752176540505,1.6393207992954992,-0.5431485520533182,0.9255634367722937,-0.3216544039213001,0.49539557584722227,-0.9286056208492821,-0.5586588841428853,-0.9712357535232711,0.3299174828987399,-0.6742875299780778,1.5671589616926036,1.0605826799773963,-0.4358642666432582,0.54011233027709,0.1141641378219209,-0.8535403817679275,-1.1281787108211192,0.19782349011236589,1.0413379280593051,0.932089747098761,0.58990858691575,-0.17158830957369953,-0.16662553763481197,-1.0089320071279593,-2.0177676519957006,-1.624348213424215,-2.3533218951952595,1.8350318923771805,0.14988022031021225,0.7682309609217144,0.7850282541757391,-0.6177263579050314,0.25235401027079557,-1.1732699099646353,1.2199926365264966,0.640308431092445,1.9046169486740452,-0.13531313896273256,0.04792791441296689,-0.6102784899216271,1.0462122108630885,-0.42671905422750445,-0.6531659523379332,0.1489733601784506,-1.2262233844732957,-0.06666563953046505,0.7748214658025382,0.10941087274529067,0.28985789751684776,-1.1934565492224425,1.240404534041227,-0.5021752959258273,-1.5477334915721712,0.34376642821566306,1.5739144843876427,0.011883666679531392,-1.21712604320545,-0.36610036904296983,-0.9175996527901493,0.5245652458308702,0.8617182039402432,-0.9039407912870102,0.1526773604210713,-1.2721668641021233,1.8310716152617807,-2.2946012806442617,1.5191418331227624,-0.08384614011046462,-0.5260001745218426,-1.152267905167722,0.2603460871972126,0.7199012723615701,0.1618407095190665,-0.3946330821571073,0.0842637293666037,-0.25699695337866585,-1.212841896282067,0.8922809124837601,0.505848348549292,-0.4447460963360223,-0.23231376755211516,1.0986396264436695,-0.24542257394450184,-0.9279562738183306,-0.5130202352031561,-0.32721266285200196,-0.5488884137670286,0.04213244363634498,-0.3472813703097361,0.40936097236738267,-1.757555070292845,0.37104660101818066,0.9846181631712522,-0.8306230673025023,-1.7092269507209403,1.0402691651969576,1.7376399226950152,0.037113797287033366,0.5323640182194475,-0.28926673925062324,1.0419788451202427,-0.38020141922067124,-0.5709884050379894,0.03358062271409069,0.4211693134779162,0.23258027354875532,0.7984094062724352,-1.7041458831684377,0.9392198697998526,0.02644403241675681,0.18339053582596607,0.506082412559421,2.0809228564247233,-2.6070020296882577,1.0311269222931623,1.155159095978618,0.6508867853344329,1.6626092650908237,0.8090137508354828,-2.362615744387618,1.0624852973135532,-0.24162665038467188,-0.8228252287357167,0.4722333151991456,1.9230904530410853,0.6365050248183909,-1.1814408322738925,-0.7849538837423133,-0.18124972489977012,0.8141738520209643,-0.07222444968660094,0.08350202640929484,1.0456840255445699,0.5426413700787074,-0.21524119107135178,0.02243900958915154,0.0160469131806934,-0.6809413562401652,0.11597114143996315,0.5404672645745922,0.12358377863618815,1.0595945792195836,1.1485592316545,0.09713911735172555,1.2516062280128968,-1.0516141229340006,0.33355092096970823,-1.3002164375309582,-0.03270547428350098,-0.5486771777064714,-0.38634043578403005,1.8359283797495964,0.3044048948895168,-0.908290958747445,0.3141536323839863,0.6286143012832365,-1.6694034404951943,-0.5393075781501522,1.9063823822697816,0.667575695566452,-0.25291254543623487,0.010538693942746421,0.3314057708565027,-0.03174135427096137,1.052354252957581,0.43388125970214697,-1.5042298832313283,0.2933249176965816,0.5057505297075476,-1.3641797508505429,-0.333407393412754,-2.2813185664246998,0.460568458140497,-0.2409142490417022,-0.6781881336456221,0.1909503716386124,0.19762227354035813,0.46194374705893493,0.08316653716643038,1.0185501113089732,-1.1226048934186872,-1.852838181750055,0.2336248297740138,-0.9510573113768239,-0.40494022273829494,0.33668674148498395,-0.9202574676539758,-0.5843428872134506,2.1553166288840844,-0.6595277671376342,-2.156712376520305,-0.49064399988415514,-0.20363546928308823,-1.4343831850598951,0.1612041915560396,-2.7997570286152635,0.16185495935598962,1.1413043096928706,0.1347814907945132,1.339492119720062,1.637669126351869,-0.7110514950678577,-2.0258476707745,0.0028057999560277074,-0.6161208706720493,-0.26472077211468426,0.5228454118803383,0.10347698088932812,-0.8832877101187961,-0.5639998007576805,-0.05013235131995409,-0.45594094880444874,-2.4477386441603617,0.9904097051212253,-1.0836736462783954,-0.8925756606445131,-0.08173029403472809,0.7858096292134278,-0.1148563767184071,-0.4736254661423979,-1.1631116513977138,-0.5254579514217506,0.6432886398957407,-0.6237724279507431,-0.17238291755042973,-1.84305809126382,1.540446879121136,0.6635261073556832,1.5943110065990005,0.48843210887504024,-1.29535932309491,0.311505350683285,1.1805885987978395,0.2352961276058143,0.6621855612868093,0.46708974087412214,0.8406183573477503,-0.8939854901867774,-1.7042498902877845,0.19950615399833763,-1.2445572186318643,1.821981161225276,1.0715720763226164,-0.04093404622983476,0.3942208316034011,0.6199301736645486,-0.45078026393745013,1.8121739260684113,-1.184106058685087,0.9234710661205133,1.0542322591695092,1.2001044125746623,0.0852483764400293,-1.3126851067005223,0.012650026580547672,-1.2787832157580108,1.2897625552243541,0.4975554837689336,1.5326681345904611,-0.7158946781584823,0.3107778141665937,-0.8836317426714493,0.012027349540186392,-1.307574903807019,0.17816303258617464,0.1426857816992261,0.7704850515609877,1.2704382627333533,-1.1097992384818642,0.7987982718034795,-1.3911413559125816,1.2465070175296407,-1.0020240797150128,-0.5549072566753169,0.5975863407474393,0.8805923813477796,-0.12186828486611231,0.19923562359127345,-0.0325930025375984,0.7229163435625446,-0.614737922093364,0.20878050427288378,-0.16741417165628794,0.0969846284154408,-1.553835446294368,-0.775257867519248,-1.732345083524084,0.4951434372734297,0.1368404555196284,-0.2908537667283975,0.1580159725133096,0.23131117134110538,-0.8938407341096875,0.6547666357031864,-0.004042282069417699,-0.5498595998807558,-0.2741338398270605,0.4538222528674201,-0.12816886566995297,1.3438138154707895,0.11836930084696044,-0.7996541779961513,-1.444260287013989,0.3908198190315781,1.4182954104376841,0.6995222641822424,-1.1754993568721022,0.6583364180123128,-0.7202171734389051,1.2992501741028675,0.27195306117609774,0.05215101428410338,-0.11354020806022433,-1.6698998327079329,-0.3360519547406344,0.9653148262199749,0.6464235044359882,-0.18513215864789018,-0.2149387521386832,0.9295490947464289,0.7515305992662672,-1.7793169212237832,0.5225402963986598,-2.3661297656225107,-1.1867583075811847,1.074062369146309,0.5894751407109596,-0.51069144145777,-0.012963273575317801,1.2258871070483686,-2.331389205333914,1.0716573132767706,0.050467062994593775,0.5483290447785073,-0.6481720945356235,-0.8790883911543411,0.26066275844557396,-0.3512122645224659,-0.3041413322590502,1.9608545884938482,-1.1111294813337567,1.131268665326972,0.35482894100892104,-0.8955386844036527,-0.8883231839386497,-0.11064078423262064,0.4158255339341096,-0.9635296960063844,-0.12253648881150642,0.9051435954364266,0.15835448203910993,0.08098885608225788,0.4406957586776971,-1.8561153650452347,-0.0660866047173343,-0.30825429094613,1.0236361187301313,0.6359312086744596,0.4444928301665841,0.26547257632044746,-0.016901418383435316,-0.3644158284180344,-0.4228985666391612,-1.3002372347958202,-1.9513043567212232,-0.7539087685565452,-1.6391988728774558,0.06802991714644005,0.8219710561581302,1.2745131763860007,-1.27550208635319,0.937258293517482,-1.468909016688015,-0.16437420826840787,1.5246228063926917,-0.6082775032361593,-0.9212742279155574,-0.8298085238163135,0.3882274975920845,0.7396009306133079,0.6312513521275167,0.7434173416043871,-1.1877983718181238,-0.8556621362813255,-1.065728142268796,-0.9660640092087366,0.31596708149518726,-0.29689129202832953,-0.9841303792628222,-0.8312719406552592,0.09472489565577705,0.24978612211843337,0.761453145970708,-0.5908821946352432,-0.6163648922308848,-0.8881928203303293,0.8052071127837639,-1.0993243179750278,1.248701746593454,0.4235911210671383,-1.0784937340264615,-0.12646878821547994,1.113221912947114,-0.7430949308753403,1.833839324260131,1.285075174637598,0.29291965501026984,1.3873723314074422,0.3980651082198506,-0.3901943487269042,-0.012362096286166697,-2.2880017587772903,0.25680254163691146,-0.5256321151848656,0.8621505665713848,1.5515468146778721,0.15682395741893612,-0.015902609643023723,-1.4729414089674993,2.3831743727502337,-0.5196073510846119,1.5278466258265124,1.0258873873823129,-0.47656047809851637,1.1704464525995446,-0.37431944831480723,1.4354432923171336,-1.125285379989461,-0.16966878815643985,-0.09346990597591194,-1.709754713662516,-0.13991952119274856,-0.7148690092713053,1.696375992626099,-0.21432662065661026,0.2976736197338821,-1.317582514901221,1.0427146593632233,-1.9079103955431194,1.4364992257018998,0.25764995906432897,0.18863405540269382,0.25509783015977544,-1.0478051395196601,-0.27431325229681147,0.885174018814802,-0.05643606387271655,1.202357013745887,1.6590577241914757,-1.1257048764683006,0.7331190157126513,-0.5000645483344864,-1.5911949219574142,1.7986372854772645,0.61721121486359,-0.5255302495840274,1.4099753209991743,2.0665474144048073,-1.147889699489322,1.431825213915084,-0.11782247656858519,0.21730421053880827,-0.4882683103487197,0.841529115009489,1.6797561140784427,0.39304924712317246,0.49298822068001863,-1.51580676496516,-1.4877331204094824,1.093137490754859,-0.5894724982742574,1.7089818900534808,2.2119764600215097,0.8425281544067876,0.9548258948689149,0.3146011539635321,0.37211533521678924,-0.7692416039359512,0.1870332850573499,-1.2796356832423932,0.34609971875975365,0.6949934191668243,-1.474060268202753,0.8466136129958624,1.1226077989979257,0.6363263801407381,-0.33327401517853644,-1.3661863399156362,-3.0691302682803205,-0.46688980730339674,-0.22022157139790072,1.219421182695151,-0.6578025108049547,1.3527954837977942,-0.3505248730005072,0.2854068790431008,1.0636054250061477,0.9594408142026599,1.7447533831764421,0.14042471036545,-0.2794155915071428,1.0239835761697933,0.4432480325448556,0.04452432899864323,1.3666019060286754,1.8322459412699983,-0.9392269379807581,-0.6161412553436147,0.24748637582761013,-1.6350305384574908,-0.4804261154589381,-0.21270057582021995,0.45669682902750297,1.1928001655414888,0.15959915808020586,0.578804594775412,0.26676435328898224,-2.192025915705827,-0.5120665753693305,0.5975335448665328,-0.9088605183907018,1.0515175112293118,0.7135697512588851,0.25208884087151767,-0.5753356050513417,0.9596895709828899,-0.600644869432621,-0.15825522481618368,-1.4066855903268825,-0.15150878534991347,-1.0740349464624153,-0.32784361547393404,-1.211272538152316,-0.3951100104318634,-0.354896532240329,1.3455358638131445,-0.882425542311089,-2.6219228748708643,0.2906112201169933,-0.9961773774884749,-2.004386994198529,-0.4637879321174262,0.03018879910446666,1.0049819832668114,0.3574961162880305,0.288768801682287,0.8852497488467779,-1.8020565333173526,1.0162683255420608,0.7595330670746065,0.8618144600637413,0.3352867444517906,-0.36353864582837336,-0.10140320394918906,-0.5199130803736836,0.4112973837801391,0.05658758339890281,-0.5030974219018222,-0.9893263482859818,-0.05252100292580392,0.046590302874120276,0.3875343118202403,0.7966563962612588,-0.677773868297341,-1.6231726349201747,1.1110364635129468,-0.05638451553414819,0.9293131028866826,0.5695211720114893,-1.0116462374857624,-1.6194155426440906,-0.5445724145679712,1.4463637288543878,1.1343541005072826,1.6570053753901908,0.6964475075241764,-1.0779841027314967,1.3388491392244561,-1.017490018146062,-0.7238865255198756,0.05804657867129964,-1.2571084449080798,-1.1859322175258888,1.044985289206022,0.4943507620938132,0.45889038259903775,-0.7717447850205601,1.2270444640794504,1.6155034588753217,1.5520509994765952,-0.44089272127192225,0.8455967228965985,-0.3959788130879858,-0.427880474567661,1.5324687500118217,0.047694296931234864,-1.255214303155405,-0.7574431055893897,0.9687270483302791,-0.12565523311829155,0.36826792574984574,-0.5790260139633978,0.058067857215128346,0.650970320962677,0.6683936602913579,0.12946286205934238,0.7484318977141324,0.13900969131293703,0.334630082955367,1.7522890802364506,-0.11211272360441925,-0.9433170250546391,0.34434044500660804,0.21253087211814317,-1.1504553857926827,-0.5139963651427001,0.047821781040251886,2.0724535625627643,0.818435185788938,0.535904028368596,-1.7849477247104522,-0.054283799888670166,-0.5973219876132461,-2.2081069655475445,0.6936858987015839,0.6906367199759277,0.3984613700723907,-0.5859390386378882,-0.07263318555399587,-0.12383242553216095,-0.9929322908980361,-1.6193393900114657,-1.4049580643016344,-0.5855676362721065,-1.7764757665604476,1.572446997110854,-1.5179573453180903,0.11377708206524745,0.15614046913181903,-1.0785750318321217,-0.5570391628197334,-1.6855966274470457,-0.49571482409819045,0.4665521935901229,0.01023230789844682,1.2821857309026532,-0.497236484981301,-0.10919777708224872,-0.1120685906382997,1.8540492986612331,1.0045816970604016,0.7386590924117116,1.580251032265311,-1.4722203329006027,1.029031845787249,1.0127859609844978,-0.058320228006448024,2.395015655608368,-0.7569996563555859,-0.74985417111564,2.311460092812115,0.2707546835824413,-0.1976110258684245,-0.2897057183621708,-0.9928397874162113,-0.05845490728078148,-1.7485753421019272,-0.004024024520500969,-2.048501988794594,-0.17012202144106464,1.2096193586825956,-0.1221107132884915,-0.4469760995510779,-1.3884104125438441,-0.5217250299220841,0.3059009727140761,-1.0042098905621093,0.18179055379389053,-0.28771135761780114,-0.7509214600446752,1.7331439522278915,-0.8855317187763553,0.700576904069386,0.6209512975881403,0.5832183568236183,-0.7945839453465816,-0.30106044143714145,0.0567831696843198,-0.7591670357853488,-0.5044161697031477,-1.298332696774053,-0.26430783305904304,-0.4214393122809014,0.49138140758440013,-1.5137156582722524,0.34736203144619315,2.242425112237483,0.1959718437555591,0.3100736141875946,-0.6281591421457383,0.11763615448659553,0.6376031511527248,0.4658523737857348,-0.26512210702569655,0.8628372686052459,-0.9885766778152287,-0.035823965955443675,-0.7676120603490096,-0.579041813385273,-0.4950777805304074,0.7645733962121407,0.3293493237346665,0.5671593789478608,-0.4704072871960884,-1.5890227569605642,-0.6968926609442773,0.5333632879765364,0.6674359804958736,-0.7052953553419802,0.261824529689211,1.6834389998065653,-0.5291128181936455,-0.6724490725244449,0.3109549407984393,1.3735878510588153,-1.5048563646645892,0.431104342516437,-0.24399290426430775,0.656020070135836,-0.950480854285911,-0.9264113186713423,-0.6097666140142144,-0.449175927918384,0.7122062463191238,-1.2452613706731175,-0.7354975949611544,-0.2029656933814131,0.6230560077718629,0.31783053392564414,0.25106013896796764,0.040231553266775674,-0.4189793402604572,0.44570750706157425,-1.6201806885647232,-1.5897680508643937,0.4871857807654087,0.5933166108187486,0.9104665996029498,-0.5973635818243973,-1.010981413049635,-0.5464144262463811,-0.5566376467999874,-1.4854170024451674,-0.057195088848055936,1.924336838700009,1.2982729560920887,0.7501568324247477,1.0480754237937846,0.6317054059523547,1.080698589440893,-1.3454356978941602,-1.2984728271437613,-0.8831294354618489,0.6552385462319122,-0.9763178047392973,0.2830149803179019,1.966881008773587,-0.6652550914263935,-1.3113807252711533,-0.16052654762888535,-0.8350034318625427,-0.026132770072123678,-1.7217419791623891,0.20693586837688574,-0.44067021355875463,0.012807742455804842,0.37930943880891027,0.19615242838074912,0.024881546893109344,-0.4320362454209849,-1.7683364593128836,-0.3587567127325725,-0.3074208541998224,1.0490731927494337,0.12255293297964584,2.8503165458557156,1.6922444939031616,1.721675267558159,1.7263295427929244,0.31664643147116506,1.3251209530143981,1.9394755218678064,0.6224031591838426,1.2171655777857728,-1.1093852742040524,1.1536351190357361,-0.6686643149991716,1.9438667194766561,-0.44261892044935314,-0.17729347156940925,-1.0312757500786478,-1.321111927427819,-0.09219045066127303,-0.38467120208609906,0.39201654777682643,-1.019014323168385,0.374599830956352,0.39362724232331,-1.127971435800518,1.280623644210862,0.21621657375188136,1.4083580279211658,0.22320886299952225,-0.04218792754383663,-0.02719789747244583,-0.13429721446433987,-0.4983181713905157,-0.5209239094959207,-0.364279415561065,0.2430710842691719,0.3655859081130706,-0.21765260765050953,-0.9274253786843315,-0.06436103225026028,-0.1945533262428547,0.0993178689088676,0.9815506039377091,-0.77675228580186,-0.31839783977136166,0.7686451716685196,1.3397370000843785,1.3123740277521287,0.9588933067111289,-0.19134432982276256,0.5900476118102451,-0.7295559032107831,-0.058330609991727074,-0.9363310577465024,-0.42786072423949656,2.0737962558489755,-0.6415089632778295,0.7500203987731973,0.18772701271742265,0.4433020361369588,-1.0996886893853686,0.136426463943665,0.34788449920953785,0.562286424575219,-0.35210689435929576,2.4474981982768975,-0.24774927109792827,-0.6663574658564504,-0.1841626100100906,1.3815620483252584,-0.5145284325142749,0.2726780034462648,-0.15532479559148368,-0.925185418100203,0.26192834755010835,-0.21188800853577097,0.5527343194274402,-0.19462461228475755,-0.20253409884825274,0.7158160847197705,0.6575221645370072,-1.315116225902518,-0.5045968971426968,0.6930736109681045,-1.8731947406696596,-0.624720874373272,-1.899637706685235,-1.1404694594789413,-0.18476471944251763,-0.10789045506495508,0.1991620297733087,-0.44365277789669744,-0.8807406008463611,-1.7182411196729337,0.08088825144018259,-0.20778471076449534,0.2427850008684566,0.46641224190168,0.8439344593541034,1.293063308445148,-2.3568707114905156,2.1816209157224056,0.3390329416301123,1.3455677112325204,1.0151914976507919,0.8250451208777047,0.17361510156146773,1.237671449041464,0.13988213688720946,0.30457786755954375,-2.6023441648888497,-2.2152831217087265,-0.8422945913321318,-1.2698831618296729,-0.6319595472358474,1.087684250459018,1.141912368249805,-1.991000433903101,-0.2157291023141773,-0.4389534756984324,-1.7536983678140763,-1.2700509219317546,1.2808677719836694,0.2190652055291335,1.4389499001931279,-0.18144690766108393,0.6683457204897287,-0.44737210370341773,2.393437245537751,-0.37724717521503937,-0.8104104018693932,0.8086589487803454,0.38255693864721274,-0.3620213551927186,-1.0597723166486765,-1.5113871236390717,-0.3231367015183549,-1.3948180480454964,-0.20026381469704618,0.05509139237869939,0.10919735122573607,-0.17139087498467534,0.711279977422388,-0.6167803566058325,-0.1603854261783657,0.04391005305931305,-0.3773706949334459,0.26985487759873805,-0.5873876906696268,0.31718343844765795,1.0355501911381975,-0.789529237486928,0.3319643526902138,-0.7774909094103167,0.758623009861895,-1.1459950266399568,0.051759942477669844,-0.4543783189805988,-0.6347451101361048,-0.7266822719998687,-0.39404979703119736,-0.9773298847340007,-1.4578664236330672,0.6561038012992912,-0.043854509808235215,-0.6427530522265197,0.9269397841838718,-1.877016686333992,-1.8150133045205274,1.0121804778961443,0.27086993948094845,0.8250776684986041,-1.6311751274977813,-0.04224210216728054,0.663768539077749,-2.316653028493628,0.2765417430432501,-0.4278341872607547,0.2216986071764339,1.0403195241811052,1.1326681567151118,-0.17043384770191755,2.031979639278998,-0.17539799402754636,-0.5058442543079261,0.34825307741948885,0.13622774192604792,1.2377861360127456,0.2506886103807867,-1.2123320443591143,0.16623519378462545,0.5529428258840852,-0.1416045909697948,0.9814454395439333,0.08191122369856442,0.10603991694465771,0.6376113340981326,-1.0781692604438604,0.15606904286229872,1.0023563357931644,0.7539203411268536,-0.4561319793152767,0.5571944010531148,0.4582291438440925,0.7463696328907553,-0.018736396190083885,0.1415127060433312,1.9301087321573385,0.5872183050341977,-0.9067960209864521,-0.5568133887316495,-0.531566965812126,-0.1928636030020128,-0.5109642404413741,1.197795860994719,-1.9135517808488667,-0.23330619783807258,-0.5282480999276989,1.8983853471561847,0.7350765678704414,-0.0577077854472958,0.7016122988115711,-0.1749303880346486,0.021789398871780205,1.3666925443625322,-0.12498871791481775,-0.31151479422018724,1.0156217504820766,-0.3688091056922,1.3873801541043524,0.6195326591565449,-0.28432397360297856,2.4034893508160406,0.06573780799020504,0.8027525528479301,1.5873775191787827,-0.4631925077414648,1.2005656217762342,0.5858864456366506,-0.44992887662778935,-0.07939342291734666,-1.2202129286002894,1.6214061009854017,2.245908524000271,-1.784753980414984,-0.4010542031256055,0.4759112153197211,0.30384893339302266,0.2135856319347823,-0.45874524497220515,1.038559898284092,-0.8338978316330828,-0.21452117994669628,0.027878813737119305,0.5336837306760837,-0.4929045537983643,-1.3684305088311481,-0.6361086542933492,0.6857725307754158,0.7086089070247716,0.6625970874855086,1.140702062013156,0.2769609365831975,-1.143264193821628,-2.0330525143976397,-0.33914480638913275,-0.12861647300835352,1.6312293073745048,0.777063738258288,0.4179004263649603,-1.9403747835300242,-1.2238882623633434,-0.11180317588339556,-0.8581684327838904,-1.9999175252426606,1.455074720606252,-0.9238561344452855,0.5374700546681244,-0.029509846712522044,1.0583502459250327,-0.9541768920399644,0.6959438513980529,0.1999496553180672,0.5224580735639908,1.9173841663630122,-0.8711457984140833,1.3366324689520055,-0.2751148130930064,1.1633682071729312,0.1458992057173688,0.10023503782089462,2.81467335777682,0.15059013617846947,0.38750792748827473,-0.02234224253574896,0.502421921203774,0.1993726627813659,0.7954645743571774,0.0759016630953182,-1.3648392705913444,0.6505120689945695,1.4271602159587966,-0.23277879360179118,-0.09836040407391439,-0.4168402019545886,-0.798993958375798,-0.6688909291682635,0.7781958465501772,-1.085152399884639,-1.4385876198197225,0.8669250619371226,0.387864071251148,1.3122807478687744,0.9053687542936051,-0.7390836639099262,1.4008489757269726,0.3906708916951875,0.7313846467060933,-0.1340037009201168,0.7546727678959064,-0.980321968936297,1.0158261517146734,-1.0353899872613355,2.2063550434253867,0.06884772782549732,-1.1951793751683957,0.547393524889608,-1.678684228386867,-0.3646884648151315,0.5007049353864965,-0.8711062015349059,-1.1131758183282956,-0.5538735808484297,1.0314171949177635,-1.6710379259235342,1.236642434295345,-1.201848466720287,-0.17097333904384832,-0.9560687772992598,1.0278281333416839,0.40293251857896667,-1.926561078091156,-1.1976512031748294,-0.9912742960099983,-0.7910176016211549,1.2803749195141665,-1.5656751571742218,0.26525429344597723,-0.3353457356819135,1.3923951867527573,-0.20211138679106896,-1.205546211288955,0.44388014425536987,-0.5263423419264169,0.4825175746620003,0.21766479641976985,-0.33659303648568534,0.16707506406626185,-1.0925915077432333,-0.0498170473605672,0.2767946250398055,1.9889843555985371,-0.1659107522857607,-1.7013068773151327,1.2978190913190866,-0.6035529398264667,2.363420198410697,-0.2656505466729881,0.31469247308024784,0.8296577787880438,0.21634685779880594,-1.8171127059887402,-0.7015677857872071,1.2943565043414103,-1.3546449102195943,-0.12676249703124962,0.18011186802008658,-2.7580843460389906,-1.363594768255558,1.1497193648758959,-0.0971426771220717,-0.5580978285608181,0.11549864235552083,1.0507580638257534,0.5622409024532997,1.0459590605809133,1.1361215287140554,0.6664285620030255,1.2975820549522292,-0.38490217645887864,1.8324935042280146,-0.368164226668289,-0.18744410463609068,-0.6068966238939494,0.31140651121731333,0.4863115081099556,0.2997410196945698,-0.8959223916039397,1.5452746119015952,-0.44122591934858346,-1.3109605734421654,1.805323333070915,-1.1176838729625818,1.4128627882294975,0.3746786267636258,0.9492989644822152,-0.5017585905287489,-0.29167854545314303,0.07987030899547737,-0.40487253216071883,0.4877995514926948,-2.427447859855895,-1.1789043951500002,-1.1012566626186673,0.4589814148514767,-0.8670186340351119,1.1842509300686737,-1.9637404618397394,-1.0117731030586523,-1.7570624942412698,0.12654138088845013,-0.03694262582584573,1.407482592528141,-1.215737381699694,-0.9603716451810022,0.21463624502206244,-0.04314616596185799,1.225048858540238,2.1901431828182796,-0.7934890685345021,0.09335085170360027,-0.7623707430939464,-0.3095315438017151,1.8458713202753572,-0.253863127054809,0.04234140344092982,-0.3721126923731504,-1.1930260015999916,-1.8624468659250182,-1.1945198357132993,0.3333309077188297,0.18487081200600253,1.3793356830246557,-1.7039186702669844,0.80282669832654,0.5110678088607127,1.1892867072397286,1.029097166424031,0.9658226221196831,1.1664351689419008,-1.4745875398291222,-0.5773562750431008,0.22443545749380248,-0.32867579143028913,-1.061898324564687,0.3884844248494659,-0.3957200941275574,0.16247107050753973,-1.2997947052567977,0.4908622198572149,-0.9859882078018238,0.5180360402114456,-0.013349839517994316,0.18934098479393294,-1.551223399969767,-0.39197308542461234,-0.3519698793895427,1.727118081642005,-0.38184263912207916,0.3316395831131059,-0.3985910380202699,1.6083628935405805,-2.392133713301621,-0.5042265751095115,1.1970046580196727,-0.15284074131572653,0.23422448967294374,-0.34925458182668756,0.48047022656789184,-0.42371703679030137,0.5543994267016547,0.8183978460258267,0.8029799138287361,0.872532674414792,-0.36463545218622767,-1.159044215413426,-1.3835331371804895,0.22779372141143509,-0.1725518478785778,0.8500706891617341,1.5623640484500185,0.02212386934917129,0.16795512467940418,0.7630643326485985,0.7095255002543674,-0.3450523731523921,0.08933224709347704,-0.09328557316868387,2.371377390451222,-1.4709339554007004,-0.32955190304642623,-0.2506795893102865,-0.12488563964192234,-0.7024678736117396,-0.7531170991542533,0.9366281917219448,-0.41557615835149087,-2.591806456990075,-0.2680044340561822,-1.2789246987453737,0.3035523005545807,0.5751619925508608,0.037075267018713096,-1.258053802676645,-0.2511879194715149,1.9528606485022373,1.0469693076022903,1.2475403792167945,-0.7482457907809777,0.7416640096312964,0.7232913345347994,-0.45468484028166534,0.8481327776193255,0.8288194259148438,0.7201549861581212,0.25097010369590533,-2.134446242980499,-0.5709504071608004,0.06495047875352525,1.156316468369463,0.6735669001447294,-2.044812088999288,0.3958471460967926,0.7639276900704569,0.3164693555878146,0.7629323471047134,1.2190794244585637,-1.6112138428097174,-0.7048220660565956,0.6646779484853131,-0.24733112069149013,0.4648208449822635,-0.4070870976563016,0.7105009073099128,2.003971208011461,-1.0414364592225223,0.5771745774441819,-0.06612252489463727,0.052295032883073835,-1.4377738414319308,0.17394904672635836,0.5288367599181696,0.8346854653247658,-1.2090498899990367,-0.33856132166963687,0.5819244849034906,0.6577894374596274,0.7681377540986688,0.313209320129346,0.04052183996564794,-0.7808229215584603,-0.970148405977174,0.7229312162628828,-0.3097440309919795,-1.7941743554723986,-1.411470656595315,0.8401636418244146,1.4292489239091115,0.5898518354228861,-1.4432914756116408,0.845035182359752,0.058551087992451914,-0.986709797949357,0.2984822595212619,-0.43127536084720575,-1.2034791329051486,0.3242564256623829,-0.6073470543804915,-0.6522670985519037,0.25211737219993063,-0.18883405452112428,-1.2531717791734012,1.3913307082807,0.0391328447534373,-0.259399056614515,1.3566031072820839,-1.2423158252933972,0.11681057525720394,-0.22677536176661012,-0.23234622061366783,-0.581696964276972,0.3010679076978911,1.1280562928318205,-1.1938613050393716,-0.841927195090296,0.709400990735844,-1.1549977231721924,-0.7017884539849569,-2.447472161152499,0.5319311682868783,0.22432265870489934,-0.36802647909131253,0.32984015793988325,1.3948640887694406,0.5807003334794386,-1.1853422986915882,-0.950582391211424,0.7339584293119072,0.6070608583135613,-1.640691643298728,-0.10793390454781876,-0.14589752668860353,-0.8324330308287045,1.212684242133697,0.2524360317665657,-0.3472105940018485,-1.21169533965052,1.0763789466021727,1.6717186787802545,-0.31426945627729524,1.1564361659976377,-0.28821785716597315,-0.8818990758376457,-0.00236803799600967,-0.30660877716799373,1.1360052795843454,-1.7687888347400522,0.9243382424507801,-0.9799698231170588,-0.7723851872439622,-0.8096492596621208,-0.5871040260852525,-0.20132940726089563,0.02176849925757241,-1.2847822040570365,-0.5555320048706682,-0.8894816094752511,-1.9160286084539393,-1.2668557788940467,0.3077116247499225,1.636171890443869,-0.06646545134365225,-0.19930020917357574,0.16641618332812474,-0.2507290937734543,1.0618101431333082,0.09545548691752032,-0.8206428235500371,-0.4839637457363725,1.7493216640772784,-0.6921461876457025,0.24713477841943546,-0.02225442369893279,-1.129849909817332,-1.9902128919176758,-0.46850361449744865,0.22333280974159764,0.1880218185197036,1.4803894532777826,0.9921162522901299,-1.3869036316143062,-0.4575709544006283,1.1485283871902285,-0.49249503230454866,-0.9103749086566975,1.156343904744408,-0.4421844414664639,0.22434606414669986,0.4408688232804011,-1.136706892803992,0.699836269683954,1.4080560452441533,-0.15710460941396703,0.3471382672427082,1.347345610313948,-0.9781421132755856,1.0697873756619647,1.6730298938892698,-0.5838115966008539,-0.15621095620884884,-0.7708989373936586,-0.6766301650796428,2.2485279954473185,-1.6520508190108414,-1.7549503550538923,0.5552406934242666,0.5355511454184524,0.762340952308847,1.1566742714869558,0.13796935374977876,1.8327437302678793,0.2707380618137361,1.4889166994124785,1.5819041076239524,-1.5332788301644116,-0.2041736234220975,1.3536830667288144,1.5742124710894396,-0.8880643448001375,0.2466250996490462,-1.2830696782315203,0.8224973687229081,-1.471988552139498,-0.4231618679222993,1.385726200829118,-0.28807829124838363,-0.91034517777277,1.013831877510592,-1.4572763517249563,1.2443863986110293,-0.8177968755375148,1.0253698526084316,1.0012572948564427,0.09082059195850495,0.4347055442977627,2.1660386100574462,-0.29214938576752647,-0.43295082329531226,0.49049301515082616,-0.6622651722929594,-0.6771528419306977,-0.8504110304697499,0.05600378844459675,1.6014518094276786,0.30099079780297533,-1.3226718471197727,-0.20088507885093113,1.3667064388554584,-0.13191114633554094,-0.7007604664452786,-1.8776972828403915,0.7686719997267458,0.3153145400171138,-1.0196568569156963,-0.417096784678732,-0.05844827065137958,-0.526823381152971,-0.9405820303693389,0.5234466282874478,0.41013248028110705,0.5139720447799506,-1.4312951579363768,-1.3962236043353602,0.4776105441107039,0.27061323041901225,1.4792509682219652,-1.3075345287008853,-0.40478758089039113,-1.426357326801784,0.7189272430466371,0.1687275826781177,2.2419408888312695,-1.6974992392374073,-1.536135718595306,0.9977776263455498,0.9329304635999581,0.3975232192836452,0.7088586599578515,-0.1552427544026437,-1.3626975197746936,-1.4314794313918409,-0.29767987455344663,-0.6020666174604264,1.050383144097109,0.07123624358141724,1.351301298541027,-1.3569544308048604,0.834963073385909,-0.2374504239743689,0.018310873273483276,-0.7193267248608978,2.396896422686617,1.3285801606518381,1.3662992490960912,1.2075109683691743,-0.5057375393383886,-0.005191694851468309,1.4235655146882302,-1.958684723354584,0.7244322881984206,-1.4626647233445143,-0.6869862530487278,-0.5569205846437018,0.568813134467338,0.004424258551395396,-0.3520514352223541,0.8669296922308056,0.2400454763831146,-0.8035222940302766,-0.18483233972805505,-0.2662372589069748,-0.08976459537536033,-0.07658619248075095,0.6268981687228729,-0.7029791544131723,-0.28474051056662214,0.24159413374324581,1.6753358616813385,1.2205116501420195,-0.30278288778105517,0.3355398063445685,-0.002886625314773042,-0.9787853030464039,-1.5337113538228015,0.9951238281892876,-1.1943165039832162,-0.14880325535635106,1.754063309007848,1.4839703436945888,1.1535892725017114,1.7272517036165036,0.39833721001962413,-0.03596255024286954,-0.9451762972336207,0.4349409262150652,-0.14739355987565284,0.1978602149929646,0.6779321961818519,-0.3063559755868377,0.3687461257621656,0.9313774710428867,-0.9954036889108607,0.7201054500173687,1.624998276290852,0.23913411384909342,0.011480531419256841,-0.32800274214332903,0.34451605489109655,0.14016478042950653,0.8144746476802678,-0.19303489150367864,-1.994163786355575,-0.079319028433109,0.9904143629705545,-0.9496411853442579,-1.7149848792932996,-0.3320040363718233,-0.7514663453031875,1.002832916267199,2.710959573402626,-0.09701940718366146,-0.2142380663658508,-0.0687207470091436,0.9056444171037366,-0.17455390648878533,-0.522564332111795,0.03909693136403669,1.8820463513399315,0.6553936047288141,0.37067740737640575,0.20313929825046045,-0.7938484108216977,-2.022843281829466,0.4257747894517189,-0.8298739261209065,-0.2724029379937567,1.0354030122992386,0.480502299487434,0.47425669916371993,-0.498986016805497,1.108930556498457,-0.30308976978689367,0.5407963315062819,1.6921067663087404,-0.85251298647944,-0.5081827075090355,-0.7953105124166879,0.25888200028081126,0.9973864761999078,0.19586986533572875,0.5714669647184005,1.105237704125873,-1.0521331971213252,-1.0773267024518078,-0.5991747026244895,1.0047684011605063,0.5805164704220007,-0.8113202505315222,-1.1401079078740903,0.09504781451338824,0.8953889215367336,0.022682180413452355,0.03694857102362794,-0.3802488162308798,0.584991996430329,0.13801513641820315,0.4202086738159807,-1.5558925857245627,1.955790551858798,-1.388246583119301,-2.005319869078236,-0.8844418977341865,0.4688967914888385,0.23622892075132595,-0.5168887893836029,-0.24415076707088357,-0.6947344677834029,-0.5959930099229244,0.5526865657735893,1.590479345644397,-0.03348609023279068,2.4284961134428533,0.8198159987887083,-0.48730725253204177,0.5974219207834184,-2.6987593149787097,-0.10050134304233357,0.6843191337039024,0.16397622968705267,0.23731636893257832,0.08764990600041013,1.2246553362035713,-0.19164407776024203,-0.49504428285084645,0.39384203840881227,-0.9206077023413791,0.3161808439496419,-0.2779526348492191,0.13990769367960332,-0.11091173361078398,-0.5697720916270499,-1.906106972132444,0.30887417667350336,-0.2818097409085497,-0.6072283586366628,-0.5425665915904513,-0.14032101525239074,1.027923783843346,-1.6899339955719244,-0.829330864867434,1.660517336121859,-0.26266987392646907,-0.9204337127668987,0.1536312228335178,1.7744653038686575,0.9800144807448076,0.7060054198061019,-1.8053632211471193,0.16393445194265072,-1.2443648423484786,-1.383259175968322,-0.5496046977791929,-1.8177923717886466,1.0688719157711315,0.23534742388925484,0.9412384732666472,-0.11833656503904523,0.7928297964648393,-0.2950985165443462,-0.7494965190108234,-1.98374511571538,0.6880875070018242,-0.2697479973105283,0.7221840583802686,0.24806007850602918,0.6656821789134916,-0.21051942696931233,-0.9297169783000004,-0.3767288872017575,0.673159128075228,0.39626494444037463,0.9588640641890307,0.4488613899050922,0.983535943829424,-1.4356245846530444,0.1554644868475038,0.3180750408010373,-1.0749395944536209,-0.8096682200786985,-0.13399949928628527,-1.073126099176117,1.553834982187598,-1.0586439114531072,0.35411488350429715,0.7585489250703762,0.21606757322044276,-1.206098580813764,-0.35965920768370374,1.0687698699596828,-0.46050271745853827,-0.5375531612979458,-1.0249836419262834,-0.0023704480442789757,-0.39218640266104965,-1.1700204018670952,2.5812583914608105,1.016475512315664,-1.1605331672857615,0.19699895378389948,0.19342493265163815,-1.5710861504336782,-0.4099250206057257,-1.2982428569225357,-1.1804852488293638,-0.0792682960399579,0.19601803137362284,0.6207900050502319,-2.066248562041114,1.299946689652193,-0.9101646150454485,-0.06504642564105015,0.5205228201461427,-1.360721971910436,-0.3471907740358429,0.20309856018763836,0.017236612157240094,-0.12118829560195822,0.7807530364113143,0.7567391119441212,0.30834783891936113,-0.1541145550649545,-0.6721876902282815,-0.6348361060241765,-0.3902228140111506,-0.6168328470551376,-0.8826438977840061,-0.17183834087304567,1.3050965345236183,-1.2703630707395714,-1.233124465663807,0.6761770182986977,-0.5457081530650516,-0.44138587551240493,-0.03432053779737615,0.0694278339715874,0.47843831764078953,-0.8219667725505444,-0.9631798316361957,0.9808931975117509,0.6132243871702003,1.1164899665416723,0.16789270582677696,0.5664095841904746,0.6803424787556491,-0.32579082958570776,0.8127873807535464,0.07668072008981021,0.24536979035418505,2.763208549463032,0.6399788201939635,-2.0669923758669158,-0.9499131522551233,-2.139367355500015,-0.6330533643928575,-0.05978538629593887,0.1610920489643713,2.00391499375348,1.794314878680008,0.2394488468888288,-0.46871682415452465,-0.6491151846737179,0.15469095585704482,-2.048768616710719,0.35565696067074365,-1.276648375051776,0.04554131598510248,-0.21712872096416969,-0.219200806703543,0.04492385729427002,0.6469296398100828,-1.1243225235054883,0.9530017096098126,0.45529050348373007,-0.28531207006307485,0.612379186176423,1.3900475354916983,-0.4644006239814198,-1.1460352501729334,0.7273682278987801,-1.2722752405861324,-0.17375514913225715,-0.5789625435892275,-0.24986133027479462,-0.7231713333846198,0.8060785588884266,-1.3843475468249045,0.24902544237961083,2.982135126961005,-1.2818113206057937,-0.33842525366916054,-0.7622788528844183,0.0675889516666018,0.82468030659495,-0.39573660833105495,0.7209016385410217,-0.12643445919205987,-0.3924176249446116,1.3585594894200064,0.6249559004628066,-0.6324824571050067,-0.46588820401792214,1.515640324226501,-0.0736030055476245,-0.24217537961814134,1.3181784889956925,0.010667639898439097,-0.11071782655198752,-0.9158595307432521,-0.8402978028581339,0.05723551289504931,0.8007191361346393,1.8181374797234784,0.08376505127561214,1.3978906463763139,0.13051057129109875,-1.859567882949595,-0.8485262361127244,-0.010618041766470203,0.7225404126196983,0.697806021803665,-0.4799620454049859,0.012521920665283931,0.3624047528704321,-0.1694367463122723,-0.1670397276885668,-1.1134000365837748,-0.24611672586614025,0.5629678958479108,-0.37287527570716383,1.0308839052430858,0.6451479702530377,-0.3556462233119161,-0.12819524097414156,1.7422063979643485,0.005023676418113069,-1.257055162651649,-0.36072250262259054,1.2066185622737282,0.6137554329634216,1.3735347218845249,0.7234927112683781,-1.0892219347604484,0.5502756441445914,-1.3886660651723632,-1.426166766246685,1.976125160245149,0.4862622120537386,0.3180832297009927,0.6114653820062762,-0.9231973651481321,-0.8249643437521696,0.8369891022945555,1.3575847965204164,-2.03903222774698,0.12356150238555942,-0.25143505732162874,0.24922236126621325,-1.165756818904404,1.06090805648355,-1.2714524931066515,0.04785979440768111,-1.8269555540695845,0.15706740108301523,-0.46914831708039767,-1.4442863431310784,0.26569547873341237,-0.5436683860079637,0.5154843675516394,0.26190327409240094,0.19100765279514537,-0.2130067757501804,-1.1361087160851797,-0.3210602773911198,0.6590338497093402,-0.8639130569342338,-0.24577369089120885,1.353394122501225,0.5613539969713282,0.5661014053750026,-0.39269830022873153,-0.6108905586283239,-0.08682139538417659,3.0330148446294967,1.5293307075229021,-0.6992900106246572,-0.64790457423443,-0.8845078545598315,-0.9558240357265351,-1.2126133085259843,-0.12947442653069424,-0.08469818158821366,0.30863298371119413,-0.7648613324036003,0.04668519632585694,-0.3008996347679667,1.1528206865382518,-0.2839358698452064,-0.7563053977209977,0.8553639773511834,0.21255344133340617,-0.6409491658755556,1.6615202458554956,-1.8098222904785826,1.007347861608229,0.8536904647088213,-0.6308740063893467,-0.6841730787045556,-0.14422907140388194,-0.46627285923513845,-0.5368646147873207,0.022597304290969372,0.77140620492062,1.2367172170822434,1.1266742643858418,-0.019030271710958734,0.14104184873521824,0.24539346977340618,3.0407281830786905,-0.43094516141873906,0.26742209657386673,0.258910650493934,1.143781671096047,0.1588324795985506,-0.5798130629934853,0.09573260494539287,-0.156757940467647,0.9050066597131434,-1.1174409915112615,-0.279097048574285,0.5506040940857091,0.29663524135486735,0.5278125064704665,-1.0496321848967505,-1.6479046010716334,0.44439072075991926,0.3723978705795892,1.9276404592858472,-0.18214031279021034,0.6375757426528241,-0.7548522796362143,-1.4186306299823908,2.630612963588869,-1.2141874909060038,1.7463041713843515,-0.018524122378886544,1.565116693504727,-1.5658002555361783,-0.2729553295100989,0.4440751040614817,-0.1885554523421999,0.5244877475334332,0.5407829626320866,-0.7782313467603291,0.3288102702683921,-0.26511914298506295,0.6905666497060565,-1.161385183201978,1.4213862212170638,0.0018742807425917408,0.6024630545758509,0.6913841372279665,2.709213521571877,-0.023548102649600357,-0.45854096335329253,-0.5081761085377986,2.0649418477249224,-0.4042950317570488,-1.1642818142067934,-0.8220200451112084,0.6337562362261371,0.16633339996435692,-0.9426762473677077,-0.298060199644457,0.1353098916725612,0.5556528512218224,0.8689419933050201,-0.428063615941868,0.5615518324083634,-1.4994519023225914,-2.6369186240805775,-1.354279571581196,1.5241432694212653,1.0442899431750297,-1.663105498132112,1.3394768024608261,-1.1897745204035957,1.175535331970043,0.2099844644787345,0.6183197573379009,1.0213561310773054,-0.2812688645733574,2.298025012764508,0.5784747521656622,0.43215422546973087,-2.1275077828453695,1.1864939972288626,-2.0578538440241227,-1.52917298323215,1.7469784782075222,0.4312673885972033,-0.35246210350296175,0.19896822302124115,-2.5191969287159846,0.5972526555827452,-0.3991265224162536,0.636614460267285,0.01250156439025492,0.4833373749129626,1.0344982625544297,0.17740744627372246,0.07389022652670077,-0.29241870059080793,-1.3187771598052216,0.4986748116953012,-1.290359815851622,0.8797174248997404,-0.6850992902279059,0.5019056169350968,0.018544757545736066,0.7224587211228608,-1.2196860690092854,-0.8760323517854062,-1.5949958892496172,0.2668109931843832,0.8965445486882456,0.18733706727447655,-1.3715083357153914,-0.5425447902128492,0.3776393000088328,1.2475366114706696,0.4254310294778294,-0.19471486410542252,-1.0552092133389401,-0.9301710172385166,0.5495857488641757,0.2823065059932771,-1.2701760129040296,0.9723795532718259,0.3894316446115557,-1.5655382775100573,-0.6851123955413271,0.30170345741565147,0.8146859061123529,-0.38830476843663336,-0.8516165509330695,-1.9051445218707892,0.14824559229598314,-0.620548527275797,2.858901023543052,-0.298652427814983,-0.06352918571646318,1.5133398632412345,-0.2356206855101501,-1.69980416810689,-0.009060152233546425,0.04515973599462421,-0.362698266516305,-0.25318868656036614,1.973050998456141,0.7220603241095228,-0.11464231395803547,0.06357292733274247,-1.110186850142968,-1.3333704593714721,-0.24066579810130048,0.01832785721810197,-1.265272352767651,1.144069453162269,0.4659885440210296,0.5680833792290709,1.7394892874314931,-1.957256533925718,-0.0735792993531143,1.4639480303407628,0.44815174826520326,1.1797624361767924,-1.9307443932273256,1.8910018416108962,0.3031214824160092,1.5829235380331985,0.2338569267026704,0.5910980339162241,-0.6744149579107156,0.004070905122800449,-0.4912670670617602,-2.060370898583884,-0.08689274337112263,-0.18777033556710404,0.4999409944889413,-0.10436861760736015,-0.781819054361995,1.5002604993410238,-0.05637580946127371,0.6605145609678,-0.42609522211992806,-1.1797678481137814,-1.7247151121010633,-1.096684592678763,-1.420628127261953,-1.1363064447038511,-0.4108578546044399,-0.8932808074801872,-1.0127964997224976,-1.186337650621821,1.205829720603956,-0.29791454808501006,-0.7426492487091372,0.40655401514439055,-0.9706735408272384,1.5408614804800391,0.1928799028469734,0.21189089306899606,-0.5096150396891668,-0.4246444608110666,1.9219487984023085,0.8943656553051543,0.3721034012755293,1.1494953564667059,0.8094512312837392,0.6933829689509577,-1.2719079574240997,1.7442720403566883,0.20951612255829333,-0.7274203080553643,0.9415333450173751,1.2442936837419598,1.1419336595247462,0.4816779234188586,0.6484258441192654,0.6633411990566551,-0.34197139835364265,0.6723349857050179,0.3109503370162033,-0.8955387204441136,0.9885434794377472,0.13358861901215938,0.6312116890561421,0.6696947441100515,-0.1670135042439633,-0.49090685346725677,1.1883436513922363,0.19103165139619058,0.6876828607120004,-1.8176627838354515,-0.01936254484311263,-1.29497563167179,-1.6080504488311662,-0.7401240617761758,-0.4473102581096623,-0.10293354252601415,-0.9417750875448662,-0.8331432555888367,1.600516586209272,-1.2005454794344843,-0.587185904717494,0.10400685435512809,-0.7490751816103536,-0.0964723329529614,0.1304952932364241,0.17896030748722733,0.494645190581771,-0.19065570842042326,-0.543660432063975,-0.802050291111602,-0.38279600882788417,-0.2717509087886206,0.2490115217510248,1.7104072998451305,-1.3081721485245896,1.0279065912686531,0.35854635905025134,0.28699898703629406,0.1821080665598102,-0.7981582527515794,0.40832522065760674,0.08323405783080676,1.4390329118067469,0.567970429910543,0.06471191165618298,0.1330358550018301,0.5469319227480737,-0.44798538276424626,1.530440117327772,-0.632621111636974,-1.2208365761092106,1.277769352206963,0.07664528050051855,-0.9914087572736346,-0.8292663480597963,-0.16950859293192752,-1.4208895583064147,-0.9987999191181961,0.35241211711316484,-0.6944184580397083,-0.5103243943223993,-0.4439190643297039,-0.72493064634915,1.0220966252974946,0.8095334691338604,-0.16016219507413623,0.35873683809136453,0.8450261691177626,1.092181920749355,1.842651094631551,-2.0735996628943756,0.2579556316359158,0.3316941292053697,-0.17829121031123896,-0.45366214927086684,-0.8726382188704881,-1.0789729867990188,-0.41956645949464905,-2.0333546934166495,-0.5270424748401233,-0.8005407493515684,0.6792018783842684,0.2765235148201295,1.068908149356394,0.5203651890573465,-0.7755415533025438,0.2350498519965438,-0.9013444180193159,0.4401731652297678,-0.32930458802983525,0.44541701561549896,-1.3530298882661838,1.3470148791667518,-0.33955493471715836,-0.7233876385306924,-0.758849238561025,-1.3099117928825963,1.0565964483733055,0.3722756209042381,0.04593415435098921,-0.28557817003979796,0.29803413078518737,-1.418221894197968,-1.0142819566077146,-0.5771234058386306,-0.3624692469341649,0.5016434818152824,0.0411122226009761,0.1660771202498282,0.8087604779627532,-0.5350645573966628,-2.2862162058438873,1.4092133981141022,1.6866089266166164,-0.182439624164378,-0.2974258306333447,-0.5402281861616043,0.7780015934064424,-0.7220879355814682,-0.2727457499319444,-0.17580683114794984,0.5305747057815667,-0.09482176096487768,0.389655743913766,0.3750003052369475,-0.03901960783958866,-1.6916946610420431,-1.7664521528241086,0.3799045764028609,-0.982135028836581,0.7656228924175185,0.5205995761126884,-0.17447989459437194,-0.21121116997393022,-2.192218088686607,-0.39026812542843314,-1.017227453304849,0.33323529704536536,-0.9190115640450258,0.8188834968745975,-0.8064225238378879,-0.8406838258731322,-0.9784828764769932,-0.13475114596321833,-0.18965359731468173,-1.4712774627850982,-0.21415660854108706,1.6270475607888,-0.09684941282585728,0.6270042422634466,-0.26725079023503945,-1.2058383686742502,0.012767437319371739,-0.12468773210902304,0.5125463731035595,0.7013953937544546,0.34712905885565276,1.1528826743873857,-1.0897901929645397,0.4283836982869997,0.35786874144092023,0.38387642351159,0.15779498374122294,-0.3324218643707172,-0.39820903516155975,-1.3749986303812882,-1.4588649117548835,0.6242350217529177,1.0976724074004762,-1.322923773369675,-0.9953163951168578,1.4762115767780337,0.05331164909898302,0.1545755711954084,0.5342298198160489,-2.4659781343773504,-1.650076392987553,1.5409048053158847,-0.2181516023738812,1.4034217689442325,0.8018853799732709,0.042239500993826125,1.335351004350596,-1.8288195704240644,0.4032232709862129,-1.5871902719472106,-0.9702095558826712,0.14989233538181782,-0.41432923313723213,-0.6349021470241883,-0.9458551239435141,-1.3205141082744882,-1.0619782666467168,1.4446594712450676,-1.0607241347750584,-0.011877336423352548,-1.7093788840489887,0.07442008571477954,0.7988108025696612,-0.5132406349074755,-2.6624848905494085,-0.12205044114801757,-1.4454769329198482,0.20668305859032363,-0.4010616744726512,1.4170977602850958,-0.6209195641745642,0.520709960129302,-0.7319584996273518,1.312369690055219,0.10170826890797596,-0.6111170222319747,1.6416504688875908,-0.8207444707285332,0.753439123704164,-0.32610826959917316,-0.8006657433317936,0.825295998179895,-0.5778728516075314,-1.0757053540132384,-0.21484381733573563,0.12757346328808733,-0.45815632233216497,0.4119760720723093,0.35780376926735896,-0.7910648485786659,-1.4428467742965794,0.06138319888788564,-0.33496422792771435,-0.6567775940935838,0.8026109018676186,-1.028608151676498,0.8242622774903918,-0.004617587081360642,0.5035555634747382,0.8305479914393293,-0.6450530927237741,0.03281226132193039,-0.061989071126408696,-0.3415246915131,-1.718176801705548,0.051249263074760354,0.3754152801194245,-0.14789127337579397,0.5262202943732452,0.38869238710064247,0.12366094587542294,-0.514057989814056,1.8240622411165224,1.3606619884386717,0.7813456155022765,-0.2818383000094121,0.8959839308500102,0.7236177861671393,0.07746538079411548,1.4132518112063777,-0.34247473142966656,0.5208201417090551,-0.5491947871433578,0.4145707288258412,2.138949842200533,-1.7703071417318148,0.40615526345625563,-0.3640606041516544,-0.20727777240589548,-1.846398715393879,-0.8694562559284418,-0.5523829051301151,1.4609058363969756,0.1009962208507166,1.1622562457453849,0.029835302838227475,-1.6661597636526206,0.38309146858546894,-0.33101753896291414,-0.9295745968498076,-0.36672201777998836,-0.0748874793202462,0.5903170038374763,1.092797722626778,-0.5390368870270035,-0.7381807872539141,1.1326241789459464,-0.6348480782529274,0.8828679774850755,0.17944383317274726,-0.5899999893387813,-0.19935419715611472,2.098227593238942,0.22971777698868517,-2.3487863774773245,0.557079511174233,-1.216004722226628,-0.7215008225216702,0.635390817772321,0.23973446635847978,0.8134177965161367,0.301100154067474,-0.4776099505481073,-0.9330756598095271,-0.10076404217068889,2.1275695493547895,-0.4872898347709404,1.4300432493237047,0.6660456761893403,1.0200408455388459,0.036513102141885585,1.6501062740801955,-0.6137400133332537,-1.5901352517256175,0.11504965234032688,-0.9657939361967706,0.06405141918040974,0.8904752275108104,0.38786907759157885,-0.11877287966642154,-0.39849522342423394,-2.304488661710536,-0.13032646387206556,2.025411377083129,0.5028208039596135,-0.9626461772983276,-0.11012491985353964,1.7038766963755911,-1.4531485556021937,-0.6768473911864042,0.3642891435398929,1.7989876424603153,1.3011069318093806,2.2906362659789234,-1.8271892354928638,0.544813553103026,1.0559290988475498,-1.3897995879773895,-0.1022300491785987,-1.222320208773326,-1.3908397787957674,-0.7510072687238724,0.9111242230305018,-0.5461576806779253,0.045926432739008885,-1.0265280574481666,0.19622668794421805,1.8139110141457149,-0.09270493486507529,0.6084583397603022,-1.075723029967027,-0.9536603930277087,-0.5454249614970398,0.6006352415712024,0.5471902336626583,0.10706351364655738,1.8664969482430909,0.08561015987950461,1.092415395195546,-0.5751112083231918,0.5390720407810484,0.06217989279570745,-1.0429358753546614,-1.5973642411426787,0.07276977422434684,1.238147725302224,-0.14916742972302216,-1.632551119984099,1.0875851405000447,-0.24936559896709892,-0.8736747000528947,-0.0796603566720471,1.0882694647053763,-0.539882856611081,-0.09168183150468641,-1.3680104437128804,1.532449419244839,1.0949943550021346,-0.24031497165456692,-0.8185885058595024,0.3051583120005684,0.1928155990330504,-0.42553981472480434,-0.11833313115850685,-1.1478326436082813,0.05112054114562034,-1.20806353461953,-0.7955554090358327,0.7280024365361606,-0.24117834434361365,-1.3717461569669718,1.2965485517972715,-0.521106395340355,-0.5600429978000597,-0.2794152849265797,-0.9348912639192688,-0.6864022506114003,0.19200691819219792,-0.6302704397011296,-0.04144136342844908,1.1531521190139382,-0.6248957150089861,-0.08147981080549027,-0.4364846149515389,-0.8002333425866893,1.152339246409984,-0.6070551844662315,-0.40230518350611283,0.33032352011862975,0.41924130844003266,0.16209034235500736,-0.8208311493893009,-0.5083910237964777,-1.1328983823674066,-1.038254363242061,0.9453687828869807,-0.33171145343358427,-0.07778405755137101,0.2942903790521795,0.5587494978987267,-0.6506239291724909,-1.431477748849908,-1.164729053492537,0.7814479961178354,0.48617859762590937,-0.4588250211438608,-0.0765616917601845,0.2826068321634865,-1.3776321266538982,-1.0072363559853017,-2.1460777353945777,-0.6107443945129376,0.2616357293831604,-0.3731078433164828,-1.0710114292023767,-1.068838640354961,-0.6220814013460779,-1.188430950675939,-0.2999867725480399,-0.367613915913453,-0.33608759814589306,0.3186041133821513,1.434476354464644,-0.8351875413571328,0.38614090198982953,0.6028387774141493,-0.22767337910438157,-1.264894839344862,-1.7606277239592005,-0.36570504928861713,0.04091118266662887,0.5753737422472758,-0.4599126188746872,-1.4568515215708604,1.8507768595625291,1.3006978239334832,0.468756453054581,0.804417803319401,-0.9393484194902264,-1.0889822456500275,-2.5276338572027117,0.40943552640235104,-0.4642163035788365,2.3497538982470303,-1.2933029799136997,1.1489812577389484,0.10189924529654332,-1.0725038591026912,-1.4788407977192861,-0.44965891303029515,0.8408306997205321,-0.5664195700271704,-1.6804386963045421,-0.2615750448662867,-0.04110604745774116,0.998234748412767,-0.4209129766247314,0.8666552693140396,-0.4572179452931028,-0.22343840056099495,-0.46929662890901425,2.0691013936722107,0.06771490352266675,-0.2768810756831068,-1.6684905577358444,0.6994051729217212,-0.23418445219222528,-1.0358817329941914,0.46366027960534134,-0.11546800505832139,-1.0320763130294055,-0.10019550375702393,-1.2385260251751173,0.7090478577974568,2.097588953891387,-0.06840442182829685,-0.35225032856205657,-0.512807403689009,-0.5920034959350865,-1.5468399289142623,0.7647271607168321,0.9421063296382579,0.8544821194580128,-0.04814020070284305,-0.4251289837304898,-1.1795791701633436,1.033734516063292,0.0575748280913815,2.2798784670990133,0.6642009417629017,-0.44185920932940226,0.7004823388146328,-1.2411037442000017,0.04230903179071419,-1.3962080828344554,-0.27005853525371853,1.944835086912513,-0.4078692800656933,1.7285598920729792,1.018602990616129,0.12423657166611542,0.10517943440332221,2.3181443483804003,1.9222671253736456,-0.6260550451787932,1.1561073533518729,0.5879178492861613,-0.2919488896185024,0.6957749840445968,-0.7535365598031547,0.37851994614673745,0.05919154209678381,2.6464159528621254,-1.077687402288353,1.0146146123865352,-0.7137789245377856,-0.8797845521997419,-0.5714497139022781,0.3959679018616803,-0.3902064666271817,-0.56720298970737,-0.3740026556187346,-0.4887651629550595,1.305469577553203,-0.22184192607945544,-1.0485663414877342,-0.5908188169035336,-1.031298117223587,-0.3581821407352419,-1.165096113963635,0.03646542549671597,-0.14464566649125754,0.2281251588686179,-1.202426257659752,-0.4812760330731541,-1.8816594129275857,2.5927499252218675,-1.4785141333843008,0.5245068970299724,-0.5454413423950034,0.1341203441091346,-0.33743532449791036,-0.38558481137441825,-0.7282894632134179,-0.405476558150356,0.9231454345586979,-0.4491895609629621,-0.6652176815279687,-1.9040372514838557,-1.0893412971839722,-1.0239574158482911,1.2074857084301667,0.797815867220877,1.4729257834766927,0.35311906213458677,-1.1047062724815346,-0.4111728767467598,0.8086773961558488,-0.24238346185559756,1.9449463342784534,1.8121058567048005,-1.4485802836625723,0.8183028315434382,0.02922536199998212,-1.8737185070442384,1.470883772695103,-1.0936036938306157,-0.24142820705906312,1.2499218904672975,-1.189399743114073,0.9422284738731027,0.9786199269382226,0.922198868103483,0.1327867896619469,0.7026691622037994,-1.652146140478082,0.2967692097886976,-0.6595883447853632,-0.4232005923738868,-0.9298876312642341,-1.2954140148605475,1.243174818082821,-1.386247453325817,0.028400394814112124,0.8271532962882661,0.8597415388238348,0.09976667536324936,0.6941657847216319,0.02294581075872017,0.861253255863523,-0.12642964719105773,0.5958707057586832,0.9194903654770336,1.4568182780458439,0.1182370474118967,-0.5612309962623632,0.054245002578376084,-0.7776522944123407,-1.5470199684639752,-1.993352630806232,-0.23179875736968347,-0.2797452740169003,-0.3607702625077402,-1.2763706910533794,-0.7551220085447703,0.6055440109536623,0.2000041069967043,-0.7056401992809057,0.6740590753508726,-0.41501288591348173,-2.124129353265186,0.7448821687426123,-1.7151031522614206,0.7944681624916787,2.076335680078263,-0.594967519718873,-0.511318884982241,-0.7202776829480957,-1.2929205474752696,-0.09248602490331827,-0.16449087060533626,1.296708725455019,0.0993229891517874,0.7091087403751146,0.24680241778562162,0.26006680603232424,-0.1983055431131664,0.12149370463635364,0.8033212044970932,2.8554253532437754,0.5348248815729537,-1.1357414625971118,0.7624585303019226,0.32171635063640086,-1.2197290677642743,-1.4822014675057258,0.15397278123432345,-1.0177416583111234,0.8082840051907448,-0.8948121073447162,-0.4247841340968407,0.8091232552674313,0.29294039735377303,-0.3399981588519964,0.22776805034520375,0.06331166655349768,-0.7255939251753858,0.583052195534987,1.131028589214415,1.3059911866937428,0.5812606348303967,-1.2908348502439926,-0.868034616166564,-0.8065651330301059,-0.21509306100454623,-0.6153800363899183,-1.2291541284683447,0.3972244747152047,-0.05556605207090746,2.197225681261311,0.22602450358400944,1.048409555246906,0.6621578223945334,-2.05512410744133,0.25136500570889714,-1.5298532775618678,1.5981088175962117,0.43843423332496884,1.051914730160764,-0.16633234691975843,-0.31107472101254446,-1.6325298492498614,0.40834815900188637,1.3712435014049387,-0.3082317882472357,-0.07588350416778636,0.9834213400920262,-1.0527727547962522,-1.745689007391631,-0.27248328296125734,-2.4212283097522587,0.2866311186410283,-0.2919813751002427,-0.5315506645559785,0.7492782416973988,0.035355176039014106,-1.2845487279052574,0.27047249842387583,-1.6507248681459072,0.8285364301517476,-0.24617622450323687,0.7976288917604742,-0.6586762832807977,-1.3145270466110095,-0.8730246747283058,1.1580143897909345,-0.032433000967868955,-1.7947438296230824,-1.0237924591833514,-0.29428348173956675,0.6988461171165411,0.5931155420336951,-0.5246470435788404,-1.4711860102509695,-0.6272673882603784,-0.4279329994583549,0.6288568388866335,-0.443713408238015,-0.03981300786186351,0.28362280396939127,-1.3620298375945992,-0.6527689461989643,-0.09748278717901454,-0.6008534435600857,-0.20507974501448692,-0.3264083471390857,1.153172061080494,0.10252631246225846,-0.34467204177801997,-0.31250280486013293,0.050533239124674896,-0.4802704824145754,1.3359471788684913,-1.0006580783772014,-1.425137042696968,-2.0630519783847467,0.43520358265353287,-1.1705258383525978,-0.06164389907492989,-1.5694702167557821,-0.8866808572047883,0.35989185714101685,-1.607658193314927,-0.38674449573639247,1.244872173890366,-0.9133931173778282,-0.6277793618171089,0.36922325303110953,1.8541712207698855,0.8681558287525021,-0.6126084319548928,-0.19983063974854248,-0.6884737664290925,1.087123519372715,-0.8042379957873605,-0.992344066263924,1.0463670268814886,0.3438741605314619,-0.9160703137974516,-0.26457737113719454,0.9719760904836967,-0.29941097203150097,0.1676056901799773,0.6505006653074504,0.35608422164679693,-0.40854385106043545,-1.1392618916811164,1.4762972626003572,2.072366973230857,0.5923886785974548,-0.5266316770853554,-0.36140922183178614,-1.128479155442067,1.8560274806700776,0.11965144838689035,1.6438112397232976,-3.043442362474722,-0.18984835465353253,0.24288640771396147,-0.30789401323501353,0.23036366044261883,-0.8836073414130471,1.5737726304662756,2.046007066929789,-1.6545065514045265,0.44525031405244037,-1.547704865090855,-1.7721308911900928,0.2672575180818005,1.171326308067894,1.6934932211091265,2.2952975757627336,1.8869268281650933,0.1281195339173013,-0.10455699658262076,-0.9830347000855071,1.137257813331161,-0.37130507620581343,0.30512840254928486,-1.3855327025080755,0.5731037630420139,-0.6476764925261125,0.47412564097168935,0.9741190434824303,0.2842433932406816,0.5098279094170426,-1.3054112691363153,0.24565630557870896,-2.3674551991553354,-0.9247845557678277,-0.7224879315437972,0.06740552410214828,-0.09400501787360066,1.2039820388072386,-1.5030441235259013,0.997630848188458,-0.32934054406765506,-1.775558208421163,-1.7118952483484402,-0.32253980458218295,-0.7163621178690109,-0.3436823443357306,-0.36020503141619253,0.8066613799947354,-0.29491228409498854,1.4196868928331703,1.3368639273386431,-1.513614182989654,0.5496516824007198,-0.3103338277533448,0.10173547381968709,0.05562543605944172,-0.6706056154854206,0.15860145770982145,-0.4214478299649682,0.3658558457016029,-0.46871392560067365,-1.1127552528287719,0.1255114897296152,-0.5095173291539778,0.4815135247507751,-1.3197504291274504,0.8259083782315133,1.7183508476573028,-1.4498397168041526,-0.09632290004033209,-0.2999683435405519,0.11237810006674202,-2.0125072508322837,1.339029335425718,1.0970426760290184,1.0109944391560186,-1.3087524663268544,-2.063338859312083,-2.0182200362550287,-0.01218315127698202,-0.6371384884305341,-0.2871863718834455,-0.8358542416224611,0.34119784060836933,1.9978928925114015,-0.8247955074442405,0.3728675399934633,1.2466117787776942,0.5682183688773366,-1.2836214533885715,1.120823384272801,-0.18594498821795918,-0.2113519053425026,0.09843642332382613,-0.7097630280616285,-1.9425939836610864,0.12145706865091051,0.0204816080795642,-0.9745737003839914,0.7081133716602881,-0.47070266690730317,0.10179958404985248,-1.9274384056093423,0.01456869197858088,-0.02950287754245689,-0.7698653181998001,0.301471973897298,0.8710704458763358,1.2667612172365013,-0.0826108727362409,-0.6137441488370213,-0.5189583153774221,-0.4586663098024909,0.5341391750857448,0.31384284507678734,-0.10614508927164572,0.24854831417343007,0.0772944145970825,-0.2558909064922522,0.21106279934196895,0.154660071389275,-0.71422336347021,0.9480283848361925,0.13362687493932007,-0.07067505062959119,0.23496823754767363,-0.8803900264441934,0.06611836896463975,1.4719689476550046,-1.1453823112772836,-0.7068979479869119,0.24161050778191204,-0.5577752261262576,0.31156451726078177,-1.1026105503410462,1.356289045361044,1.6325277559924967,1.1308786365533494,1.252636102163407,